<?xml version="1.0"?>
<opencv_storage>
<my_svm type_id="opencv-ml-svm">
  <svm_type>C_SVC</svm_type>
  <kernel><type>RBF</type>
    <gamma>5.0625000000000009e-001</gamma></kernel>
  <C>6.2500000000000000e+001</C>
  <term_criteria><epsilon>9.9999997473787516e-006</epsilon>
    <iterations>1000000</iterations></term_criteria>
  <var_all>528</var_all>
  <var_count>528</var_count>
  <class_count>2</class_count>
  <class_labels type_id="opencv-matrix">
    <rows>1</rows>
    <cols>2</cols>
    <dt>i</dt>
    <data>
      -1 1</data></class_labels>
  <sv_total>1108</sv_total>
  <support_vectors>
    <_>
      9.76562500e-003 0. 1.66503906e-001 0. 0. 0. 0. 0. 0. 0. 0.
      2.34375000e-002 2.56347656e-002 0. 0. 0. 0. 0. 0. 0. 0. 0.
      9.76562500e-003 2.07519531e-002 0. 0. 0. 0. 0. 0. 0. 0. 0.
      9.76562500e-003 2.05078125e-002 0. 0. 0. 0. 0. 0. 0. 0. 0.
      8.78906250e-003 1.14746094e-002 0. 0. 0. 0. 0. 0. 0. 0. 0.
      2.09960938e-002 0. 0. 0. 0. 0. 0. 0. 0. 0. 0. 9.76562500e-003 0.
      0. 0. 0. 0. 0. 0. 0. 0. 0. 1.31835938e-002 0. 0. 0. 0. 0. 0. 0. 0.
      0. 0. 9.76562500e-003 0. 0. 0. 0. 0. 0. 0. 0. 0. 0.
      7.08007813e-003 0. 0. 0. 0. 0. 0. 0. 0. 0. 0. 1.78222656e-002 0.
      0. 0. 0. 0. 0. 0. 0. 0. 0. 9.52148438e-003 0. 0. 0. 0. 0. 0. 0. 0.
      0. 0. 9.03320313e-003 0. 0. 0. 0. 0. 0. 0. 0. 0. 0.
      6.59179688e-003 0. 0. 0. 0. 0. 0. 0. 0. 0. 0. 1.41601563e-002 0.
      0. 0. 0. 0. 0. 0. 0. 0. 0. 0. 0. 0. 0. 0. 0. 5.75683594e-001 0. 0.
      0. 0. 9.76562500e-003 0. 1.71386719e-001 0. 0. 0. 0. 0. 0. 0. 0.
      1.95312500e-002 2.56347656e-002 0. 0. 0. 0. 0. 0. 0. 0. 0.
      1.04980469e-002 2.07519531e-002 0. 0. 0. 0. 0. 0. 0. 0. 0.
      9.27734375e-003 2.05078125e-002 0. 0. 0. 0. 0. 0. 0. 0. 0.
      9.27734375e-003 1.19628906e-002 0. 0. 0. 0. 0. 0. 0. 0. 0.
      2.05078125e-002 0. 0. 0. 0. 0. 0. 0. 0. 0. 0. 1.09863281e-002 0.
      0. 0. 0. 0. 0. 0. 0. 0. 0. 1.48925781e-002 0. 0. 0. 0. 0. 0. 0. 0.
      0. 0. 7.81250000e-003 0. 0. 0. 0. 0. 0. 0. 0. 0. 0.
      6.59179688e-003 0. 0. 0. 0. 0. 0. 0. 0. 0. 0. 1.68457031e-002 0.
      0. 0. 0. 0. 0. 0. 0. 0. 0. 1.00097656e-002 0. 0. 0. 0. 0. 0. 0. 0.
      0. 0. 8.78906250e-003 0. 0. 0. 0. 0. 0. 0. 0. 0. 0.
      6.34765625e-003 0. 0. 0. 0. 0. 0. 0. 0. 0. 0. 1.34277344e-002 0.
      0. 0. 0. 0. 0. 0. 0. 0. 0. 0. 0. 0. 0. 0. 0. 5.75195313e-001 0. 0.
      0. 0. 1.09863281e-002 0. 1.58447266e-001 0. 0. 0. 0. 0. 0. 0. 0.
      2.58789063e-002 2.56347656e-002 0. 0. 0. 0. 0. 0. 0. 0. 0.
      1.68457031e-002 2.07519531e-002 0. 0. 0. 0. 0. 0. 0. 0. 0.
      1.17187500e-002 2.05078125e-002 0. 0. 0. 0. 0. 0. 0. 0. 0.
      8.78906250e-003 1.19628906e-002 0. 0. 0. 0. 0. 0. 0. 0. 0.
      2.02636719e-002 0. 0. 0. 0. 0. 0. 0. 0. 0. 0. 1.07421875e-002 0.
      0. 0. 0. 0. 0. 0. 0. 0. 0. 1.34277344e-002 0. 0. 0. 0. 0. 0. 0. 0.
      0. 0. 7.56835938e-003 0. 0. 0. 0. 0. 0. 0. 0. 0. 0.
      6.10351563e-003 0. 0. 0. 0. 0. 0. 0. 0. 0. 0. 1.66015625e-002 0.
      0. 0. 0. 0. 0. 0. 0. 0. 0. 1.00097656e-002 0. 0. 0. 0. 0. 0. 0. 0.
      0. 0. 8.78906250e-003 0. 0. 0. 0. 0. 0. 0. 0. 0. 0.
      6.59179688e-003 0. 0. 0. 0. 0. 0. 0. 0. 0. 0. 1.31835938e-002 0.
      0. 0. 0. 0. 0. 0. 0. 0. 0. 0. 0. 0. 0. 0. 0. 5.75195313e-001 0. 0.
      0. 0.</_>
    <_>
      1.23031496e-004 0. 0. 0. 0. 0. 0. 0. 0. 0. 0. 7.38188974e-004 0.
      0. 0. 0. 0. 0. 0. 0. 0. 0. 2.21456704e-003 0. 0. 0. 0. 0. 0. 0. 0.
      0. 0. 3.07578733e-003 0. 0. 0. 0. 0. 0. 0. 0. 0. 0.
      8.12007859e-003 0. 0. 0. 0. 0. 0. 0. 0. 0. 0. 1.69783458e-002 0.
      0. 0. 0. 0. 0. 0. 0. 0. 0. 1.83316935e-002 0. 0. 0. 0. 0. 0. 0. 0.
      0. 0. 2.71899607e-002 0. 0. 0. 0. 0. 0. 0. 0. 0. 0.
      3.76476385e-002 0. 0. 0. 0. 0. 0. 0. 0. 0. 0. 4.55216542e-002 0.
      0. 0. 0. 0. 0. 0. 0. 0. 0. 5.11811040e-002 0. 0. 0. 0. 0. 0. 0. 0.
      0. 0. 6.20078743e-002 0. 0. 0. 0. 0. 0. 0. 0. 0. 0.
      4.58907485e-002 0. 0. 0. 0. 0. 0. 0. 0. 0. 0. 2.58366135e-003 0.
      0. 0. 0. 0. 0. 6.78395689e-001 0. 0. 0. 0. 0. 0. 0. 0. 0. 0. 0. 0.
      0. 0. 0. 0. 0. 0. 0. 0. 0. 0. 0. 0. 0. 7.38188974e-004 0. 0. 0. 0.
      0. 0. 0. 0. 0. 0. 1.59940950e-003 0. 0. 0. 0. 0. 0. 0. 0. 0. 0.
      1.59940950e-003 0. 0. 0. 0. 0. 0. 0. 0. 0. 0. 3.19881900e-003 0.
      0. 0. 0. 0. 0. 0. 0. 0. 0. 8.24311003e-003 0. 0. 0. 0. 0. 0. 0. 0.
      0. 0. 1.35334646e-002 0. 0. 0. 0. 0. 0. 0. 0. 0. 0.
      1.69783458e-002 0. 0. 0. 0. 0. 0. 0. 0. 0. 0. 2.27608271e-002 0.
      0. 0. 0. 0. 0. 0. 0. 0. 0. 3.16190943e-002 0. 0. 0. 0. 0. 0. 0. 0.
      0. 0. 4.40452769e-002 0. 0. 0. 0. 0. 0. 0. 0. 0. 0.
      4.24458645e-002 0. 0. 0. 0. 0. 0. 0. 0. 0. 0. 4.53986228e-002 0.
      0. 0. 0. 0. 0. 0. 0. 0. 0. 6.70521632e-002 0. 0. 0. 0. 0. 0. 0. 0.
      0. 0. 2.70669302e-003 0. 0. 0. 0. 0. 0. 6.97834671e-001 0. 0. 0.
      2.46062991e-004 0. 0. 0. 0. 0. 0. 0. 0. 0. 0. 0. 0. 0. 0. 0. 0. 0.
      0. 0. 0. 0. 0. 0. 0. 0. 0. 0. 0. 0. 0. 0. 0. 0. 0. 0. 0. 0. 0. 0.
      0. 0. 0. 0. 0. 0. 0. 0. 0. 0. 0. 0. 0. 0. 0. 6.15157478e-004 0. 0.
      0. 0. 0. 0. 0. 0. 0. 0. 3.44488188e-003 0. 0. 0. 0. 0. 0. 0. 0. 0.
      0. 8.85826815e-003 0. 0. 0. 0. 0. 0. 0. 0. 0. 0. 1.45177161e-002
      0. 0. 0. 0. 0. 0. 0. 0. 0. 0. 1.82086620e-002 0. 0. 0. 0. 0. 0. 0.
      0. 0. 0. 2.74360236e-002 0. 0. 0. 0. 0. 0. 0. 0. 0. 0.
      3.65403555e-002 0. 0. 0. 0. 0. 0. 0. 0. 0. 0. 3.96161415e-002 0.
      0. 0. 0. 0. 0. 0. 0. 0. 0. 3.92470472e-002 0. 0. 0. 0. 0. 0. 0. 0.
      0. 0. 5.96702769e-002 0. 0. 0. 0. 0. 0. 0. 0. 0. 0.
      4.92125982e-004 0. 0. 0. 0. 0. 0. 0. 7.50000000e-001 0. 0.
      1.35334651e-003 0. 0. 0. 0. 0. 0. 0. 0. 0. 0. 0. 0. 0. 0. 0. 0. 0.
      0. 0. 0. 0.</_>
    <_>
      0. 0. 0. 0. 0. 0. 0. 0. 0. 0. 0. 0. 0. 0. 0. 0. 0. 0. 0. 0. 0. 0.
      0. 0. 0. 0. 0. 0. 0. 0. 0. 0. 0. 0. 0. 0. 0. 0. 0. 0. 0. 0. 0. 0.
      1.56250002e-003 0. 0. 0. 0. 0. 0. 0. 0. 0. 0. 1.90972222e-003 0.
      0. 0. 0. 0. 0. 0. 0. 0. 0. 1.21527782e-003 0. 0. 0. 0. 0. 0. 0. 0.
      0. 0. 3.64583335e-003 0. 0. 0. 0. 0. 0. 0. 0. 0. 0.
      4.86111129e-003 0. 0. 0. 0. 0. 0. 0. 0. 0. 0. 6.25000009e-003 0.
      0. 0. 0. 0. 0. 0. 0. 0. 0. 2.30902769e-002 0. 0. 0. 0. 0. 0. 0. 0.
      0. 0. 1.56250000e-002 0. 7.34374970e-002 0. 0. 0. 0. 0. 0. 0. 0.
      5.48611097e-002 2.11805552e-002 0. 0. 0. 0. 0. 0. 0. 0. 0.
      4.16666679e-002 0. 0. 0. 0. 0. 0. 0. 0. 0. 0. 6.33680522e-002
      1.09374998e-002 0. 0. 0. 0. 0. 0. 0. 0. 0. 0. 0. 0. 0. 0. 0. 0.
      6.76388860e-001 0. 0. 0. 0. 0. 0. 0. 0. 0. 0. 0. 0. 0. 0. 0. 0. 0.
      0. 0. 0. 0. 0. 0. 0. 0. 0. 0. 0. 0. 0. 0. 0. 0. 0. 0. 0. 0. 0. 0.
      0. 0. 0. 0. 0. 0. 0. 0. 0. 0. 0. 0. 0. 0. 0. 0. 0. 0. 0.
      1.73611115e-004 0. 0. 0. 0. 0. 0. 0. 0. 0. 0. 1.73611115e-004 0.
      0. 0. 0. 0. 0. 0. 0. 0. 0. 1.04166672e-003 0. 0. 0. 0. 0. 0. 0. 0.
      0. 0. 2.60416674e-003 0. 0. 0. 0. 0. 0. 0. 0. 0. 0.
      7.81250000e-003 0. 0. 0. 0. 0. 0. 0. 0. 0. 0. 9.37500037e-003 0.
      0. 0. 0. 0. 0. 0. 0. 0. 0. 2.48263888e-002 0. 7.23958313e-002 0.
      0. 0. 0. 0. 0. 0. 0. 5.12152761e-002 3.09027769e-002 0. 0. 0. 0.
      0. 0. 0. 0. 0. 3.83680537e-002 0. 0. 0. 0. 0. 0. 0. 0. 0. 0.
      5.34722209e-002 2.18749996e-002 0. 0. 0. 0. 0. 0. 0. 0. 0. 0. 0.
      0. 0. 0. 0. 0. 6.85763896e-001 0. 0. 0. 0. 0. 0. 0. 0. 0. 0. 0. 0.
      0. 0. 2.18749996e-002 1.68402772e-002 0. 0. 0. 0. 0. 0. 0. 0. 0.
      2.30902769e-002 0. 0. 0. 0. 0. 0. 0. 0. 0. 0. 1.66666675e-002 0.
      0. 0. 0. 0. 0. 0. 0. 0. 0. 1.30208330e-002 0. 0. 0. 0. 0. 0. 0. 0.
      0. 0. 1.28472224e-002 0. 0. 0. 0. 0. 0. 0. 0. 0. 0.
      2.67361104e-002 0. 0. 0. 0. 0. 0. 0. 0. 0. 0. 4.86111129e-003 0.
      0. 0. 0. 0. 0. 0. 0. 0. 0. 3.12500005e-003 0. 0. 0. 0. 0. 0. 0. 0.
      0. 0. 4.16666688e-003 0. 0. 0. 0. 0. 0. 0. 0. 0. 0.
      1.16319442e-002 2.11805552e-002 0. 0. 0. 0. 0. 0. 0. 0. 0.
      1.54513884e-002 0. 0. 0. 0. 0. 0. 0. 0. 0. 0. 3.48958336e-002 0.
      0. 0. 0. 0. 0. 0. 0. 0. 0. 3.45486104e-002 0. 0. 0. 0. 0. 0. 0. 0.
      0. 0. 6.59722239e-002 0. 0. 0. 0. 0. 0. 0. 0. 0. 0. 0. 0. 0. 0. 0.
      0. 0. 6.73090279e-001 0. 0. 0.</_>
    <_>
      0. 0. 0. 0. 0. 0. 0. 0. 0. 0. 0. 0. 0. 0. 0. 0. 0. 0. 0. 0. 0. 0.
      0. 0. 0. 0. 0. 0. 0. 0. 0. 0. 0. 0. 0. 0. 0. 0. 0. 0. 0. 0. 0. 0.
      1.33928573e-002 3.59534435e-002 0. 0. 0. 0. 0. 0. 0. 0. 0.
      1.31536992e-002 0. 0. 0. 0. 0. 0. 0. 0. 0. 0. 1.03635201e-002 0.
      0. 0. 0. 0. 0. 0. 0. 0. 0. 1.70599483e-002 0. 0. 0. 0. 0. 0. 0. 0.
      0. 0. 3.67506370e-002 0. 0. 0. 0. 0. 0. 0. 0. 0. 0.
      6.01084195e-002 0. 0. 0. 0. 0. 0. 0. 0. 0. 0. 6.49712980e-002 0.
      0. 0. 0. 0. 0. 0. 0. 0. 0. 5.89126274e-002 0. 0. 0. 0. 0. 0. 0. 0.
      0. 0. 5.91517873e-002 0. 0. 0. 0. 0. 0. 0. 0. 0. 0.
      4.83896695e-002 0. 0. 0. 0. 0. 0. 0. 0. 0. 0. 5.03029339e-002 0.
      0. 0. 0. 0. 0. 0. 0. 0. 0. 4.48022969e-002 1.19021043e-001 0. 0.
      3.67665827e-001 0. 0. 0. 0. 0. 0. 0. 0. 0. 0. 0. 0. 0. 0. 0. 0. 0.
      0. 0. 0. 0. 0. 0. 0. 0. 0. 0. 0. 0. 0. 0. 0. 0. 0. 0. 0. 0. 0. 0.
      0. 0. 0. 0. 0. 0. 0. 0. 0. 0. 0. 0. 0. 0. 0. 0. 0. 0. 0. 0. 0. 0.
      0. 0. 0. 0. 0. 0. 0. 0. 0. 0. 0. 0. 0. 0. 0. 0. 0. 0. 0. 0. 0. 0.
      0. 0. 0. 0. 0. 0. 0. 0. 0. 0. 0. 0. 0. 0. 0. 0. 0. 0. 0. 0. 0. 0.
      1.33928573e-002 3.60331647e-002 0. 0. 0. 0. 0. 0. 0. 0. 0.
      2.16836743e-002 0. 0. 0. 0. 0. 0. 0. 0. 0. 0. 4.26498726e-002 0.
      0. 0. 0. 0. 0. 0. 0. 0. 0. 1.09614156e-001 0. 0. 0. 0. 0. 0. 0. 0.
      0. 0. 1.18144132e-001 0. 0. 0. 0. 0. 0. 0. 0. 0. 0.
      8.49808678e-002 0. 0. 0. 0. 0. 0. 0. 0. 0. 0. 5.38105853e-002
      1.32493615e-001 0. 0. 3.87197077e-001 0. 0. 0. 0. 0. 0.
      1.33131379e-002 3.57940048e-002 0. 0. 0. 0. 0. 0. 0. 0. 0.
      6.77614799e-003 0. 0. 0. 0. 0. 0. 0. 0. 0. 0. 9.48660728e-003 0.
      0. 0. 0. 0. 0. 0. 0. 0. 0. 9.16772988e-003 0. 0. 0. 0. 0. 0. 0. 0.
      0. 0. 1.44292088e-002 0. 0. 0. 0. 0. 0. 0. 0. 0. 0.
      2.35172193e-002 0. 0. 0. 0. 0. 0. 0. 0. 0. 0. 3.76275517e-002 0.
      0. 0. 0. 0. 0. 0. 0. 0. 0. 4.51211743e-002 0. 0. 0. 0. 0. 0. 0. 0.
      0. 0. 4.86288257e-002 0. 0. 0. 0. 0. 0. 0. 0. 0. 0.
      4.52806130e-002 0. 0. 0. 0. 0. 0. 0. 0. 0. 0. 5.09406887e-002 0.
      0. 0. 0. 0. 0. 0. 0. 0. 0. 3.60331647e-002 0. 0. 0. 0. 0. 0. 0. 0.
      0. 0. 3.12500000e-002 0. 0. 0. 0. 0. 0. 0. 0. 0. 0.
      3.66709195e-002 0. 0. 0. 0. 0. 0. 0. 0. 0. 0. 3.89827788e-002 0.
      0. 0. 0. 0. 0. 0. 0. 0. 0. 4.99043353e-002 1.05070151e-001 0. 0.
      3.62005740e-001 0. 0. 0. 0. 0. 0.</_>
    <_>
      4.88281250e-004 0. 0. 0. 0. 0. 0. 0. 0. 0. 0. 0. 4.19921875e-002
      0. 0. 0. 0. 0. 0. 0. 0. 0. 1.83105469e-002 0. 0. 0. 0. 0. 0. 0. 0.
      0. 0. 1.90429688e-002 0. 0. 0. 0. 0. 0. 0. 0. 0. 0.
      1.26953125e-002 0. 0. 0. 0. 0. 0. 0. 0. 0. 0. 7.08007813e-003 0.
      0. 0. 0. 0. 0. 0. 0. 0. 0. 8.05664063e-003 0. 0. 0. 0. 0. 0. 0. 0.
      0. 0. 1.26953125e-002 0. 0. 0. 0. 0. 0. 0. 0. 0. 0.
      7.32421875e-003 0. 0. 0. 0. 0. 0. 0. 0. 0. 0. 7.32421875e-003 0.
      0. 0. 0. 0. 0. 0. 0. 0. 0. 7.56835938e-003 0. 0. 0. 0. 0. 0. 0. 0.
      0. 0. 1.61132813e-002 0. 0. 0. 0. 0. 0. 0. 0. 0. 0.
      1.61132813e-002 0. 0. 0. 0. 0. 0. 0. 0. 0. 0. 2.12402344e-002 0.
      0. 0. 0. 0. 0. 0. 0. 0. 0. 3.05175781e-002 0. 0. 0. 0. 0. 0. 0. 0.
      0. 0. 9.03320313e-003 0. 0. 0. 0. 0. 0. 0. 7.64404297e-001 0. 0.
      4.88281250e-004 0. 0. 0. 0. 0. 0. 0. 0. 0. 0. 0. 4.29687500e-002
      0. 0. 0. 0. 0. 0. 0. 0. 0. 1.58691406e-002 0. 0. 0. 0. 0. 0. 0. 0.
      0. 0. 2.05078125e-002 0. 0. 0. 0. 0. 0. 0. 0. 0. 0.
      1.22070313e-002 0. 0. 0. 0. 0. 0. 0. 0. 0. 0. 7.08007813e-003 0.
      0. 0. 0. 0. 0. 0. 0. 0. 0. 7.81250000e-003 0. 0. 0. 0. 0. 0. 0. 0.
      0. 0. 1.24511719e-002 0. 0. 0. 0. 0. 0. 0. 0. 0. 0.
      8.05664063e-003 0. 0. 0. 0. 0. 0. 0. 0. 0. 0. 7.56835938e-003 0.
      0. 0. 0. 0. 0. 0. 0. 0. 0. 7.56835938e-003 0. 0. 0. 0. 0. 0. 0. 0.
      0. 0. 1.61132813e-002 0. 0. 0. 0. 0. 0. 0. 0. 0. 0.
      1.56250000e-002 0. 0. 0. 0. 0. 0. 0. 0. 0. 0. 2.17285156e-002 0.
      0. 0. 0. 0. 0. 0. 0. 0. 0. 3.02734375e-002 0. 0. 0. 0. 0. 0. 0. 0.
      0. 0. 9.03320313e-003 0. 0. 0. 0. 0. 0. 0. 7.64648438e-001 0. 0.
      4.88281250e-004 0. 0. 0. 0. 0. 0. 0. 0. 0. 0. 0. 4.29687500e-002
      0. 0. 0. 0. 0. 0. 0. 0. 0. 1.70898438e-002 0. 0. 0. 0. 0. 0. 0. 0.
      0. 0. 1.97753906e-002 0. 0. 0. 0. 0. 0. 0. 0. 0. 0.
      1.19628906e-002 0. 0. 0. 0. 0. 0. 0. 0. 0. 0. 7.08007813e-003 0.
      0. 0. 0. 0. 0. 0. 0. 0. 0. 6.83593750e-003 0. 0. 0. 0. 0. 0. 0. 0.
      0. 0. 1.24511719e-002 0. 0. 0. 0. 0. 0. 0. 0. 0. 0.
      8.54492188e-003 0. 0. 0. 0. 0. 0. 0. 0. 0. 0. 7.32421875e-003 0.
      0. 0. 0. 0. 0. 0. 0. 0. 0. 8.54492188e-003 0. 0. 0. 0. 0. 0. 0. 0.
      0. 0. 1.46484375e-002 0. 0. 0. 0. 0. 0. 0. 0. 0. 0.
      1.29394531e-002 0. 0. 0. 0. 0. 0. 0. 0. 0. 0. 2.24609375e-002 0.
      0. 0. 0. 0. 0. 0. 0. 0. 0. 2.95410156e-002 0. 0. 0. 0. 0. 0. 0. 0.
      0. 0. 9.03320313e-003 0. 0. 0. 0. 0. 0. 0. 7.68310547e-001 0. 0.</_>
    <_>
      0. 0. 0. 0. 0. 0. 0. 0. 0. 0. 0. 1.48809529e-004 0. 0. 0. 0. 0. 0.
      0. 0. 0. 0. 1.48809529e-004 0. 0. 0. 0. 0. 0. 0. 0. 0. 0.
      4.91071446e-003 0. 0. 0. 0. 0. 0. 0. 0. 0. 0. 6.54761912e-003 0.
      0. 0. 0. 0. 0. 0. 0. 0. 0. 7.44047621e-003 0. 0. 0. 0. 0. 0. 0. 0.
      0. 0. 7.14285718e-003 0. 0. 0. 0. 0. 0. 0. 0. 0. 0.
      7.44047621e-003 0. 0. 0. 0. 0. 0. 0. 0. 0. 0. 1.16071431e-002 0.
      0. 0. 0. 0. 0. 0. 0. 0. 0. 2.32142862e-002 0. 0. 0. 0. 0. 0. 0. 0.
      0. 0. 2.20238101e-002 0. 0. 0. 0. 0. 0. 0. 0. 0. 0.
      3.27380970e-002 0. 0. 0. 0. 0. 0. 0. 0. 0. 0. 3.13988104e-002 0.
      0. 0. 0. 0. 0. 0. 0. 0. 0. 3.69047634e-002 0. 0. 0. 0. 0. 0. 0. 0.
      0. 0. 4.24107127e-002 0. 0. 0. 0. 0. 0. 0. 0. 0. 0.
      1.19047624e-003 6.45833313e-002 0. 0. 0. 0. 0. 0. 7.00148821e-001
      0. 0. 0. 0. 0. 0. 0. 0. 0. 0. 0. 0. 0. 1.48809529e-004 0. 0. 0. 0.
      0. 0. 0. 0. 0. 0. 2.97619059e-004 0. 0. 0. 0. 0. 0. 0. 0. 0. 0.
      4.91071446e-003 0. 0. 0. 0. 0. 0. 0. 0. 0. 0. 7.44047621e-003 0.
      0. 0. 0. 0. 0. 0. 0. 0. 0. 7.14285718e-003 0. 0. 0. 0. 0. 0. 0. 0.
      0. 0. 7.14285718e-003 0. 0. 0. 0. 0. 0. 0. 0. 0. 0.
      7.44047621e-003 0. 0. 0. 0. 0. 0. 0. 0. 0. 0. 1.29464287e-002 0.
      0. 0. 0. 0. 0. 0. 0. 0. 0. 2.23214291e-002 0. 0. 0. 0. 0. 0. 0. 0.
      0. 0. 2.47023813e-002 0. 0. 0. 0. 0. 0. 0. 0. 0. 0.
      3.31845246e-002 0. 0. 0. 0. 0. 0. 0. 0. 0. 0. 3.03571429e-002 0.
      0. 0. 0. 0. 0. 0. 0. 0. 0. 3.69047634e-002 0. 0. 0. 0. 0. 0. 0. 0.
      0. 0. 4.79166657e-002 0. 0. 0. 0. 0. 0. 0. 0. 0. 0.
      2.97619059e-004 5.81845231e-002 0. 0. 0. 0. 0. 6.98660731e-001 0.
      0. 0. 0. 0. 0. 0. 0. 0. 0. 0. 0. 0. 0. 0. 0. 0. 0. 0. 0. 0. 0. 0.
      0. 0. 0. 0. 0. 0. 0. 0. 0. 0. 0. 0. 0. 3.86904762e-003 0. 0. 0. 0.
      0. 0. 0. 0. 0. 0. 4.46428591e-003 0. 0. 0. 0. 0. 0. 0. 0. 0. 0.
      4.01785737e-003 0. 0. 0. 0. 0. 0. 0. 0. 0. 0. 4.01785737e-003 0.
      0. 0. 0. 0. 0. 0. 0. 0. 0. 2.82738102e-003 0. 0. 0. 0. 0. 0. 0. 0.
      0. 0. 4.16666688e-003 0. 0. 0. 0. 0. 0. 0. 0. 0. 0.
      8.18452425e-003 0. 0. 0. 0. 0. 0. 0. 0. 0. 0. 1.78571437e-002 0.
      0. 0. 0. 0. 0. 0. 0. 0. 0. 2.18749996e-002 0. 0. 0. 0. 0. 0. 0. 0.
      0. 0. 2.39583328e-002 0. 0. 0. 0. 0. 0. 0. 0. 0. 0.
      2.94642858e-002 0. 0. 0. 0. 0. 0. 0. 0. 0. 0. 3.64583321e-002
      4.43452373e-002 0. 0. 0. 0. 0. 0. 0. 0. 0. 1.19047624e-003
      7.05357119e-002 0. 0. 0. 0. 0. 0. 7.22767830e-001 0. 0.</_>
    <_>
      0. 0. 0. 0. 0. 0. 0. 0. 0. 0. 0. 0. 0. 0. 0. 0. 0. 0. 0. 0. 0. 0.
      0. 0. 0. 0. 0. 0. 0. 0. 0. 0. 0. 0. 0. 0. 0. 0. 0. 0. 0. 0. 0. 0.
      0. 0. 0. 0. 0. 0. 0. 0. 0. 0. 0. 0. 0. 0. 0. 0. 0. 0. 0. 0. 0. 0.
      0. 0. 0. 0. 0. 0. 0. 0. 0. 0. 0. 0. 0. 0. 0. 0. 0. 0. 0. 0. 0. 0.
      2.76548672e-004 0. 0. 0. 0. 0. 0. 0. 0. 0. 0. 9.67920350e-004 0.
      0. 0. 0. 0. 0. 0. 0. 0. 0. 8.01991113e-003 0. 2.05060840e-001 0.
      0. 0. 0. 0. 0. 0. 0. 9.40265507e-003 0. 0. 0. 3.28816384e-001 0.
      0. 0. 0. 0. 0. 1.54867256e-002 0. 0. 0. 0. 0. 0. 0. 0. 0. 0.
      1.21681420e-002 0. 0. 0. 0. 0. 0. 0. 0. 0. 0. 2.75165923e-002 0.
      0. 0. 0. 0. 0. 0. 0. 0. 0. 1.38274336e-004 0. 0. 0.
      3.92146021e-001 0. 0. 0. 0. 0. 0. 0. 0. 0. 0. 0. 0. 0. 0. 0. 0. 0.
      0. 0. 0. 0. 0. 0. 0. 0. 0. 0. 0. 0. 0. 0. 0. 0. 0. 0. 0. 0. 0. 0.
      0. 0. 0. 0. 0. 0. 0. 0. 0. 0. 0. 0. 0. 0. 0. 0. 0. 0. 0. 0. 0. 0.
      0. 0. 0. 0. 0. 0. 0. 0. 0. 0. 0. 0. 0. 0. 0. 0. 0. 0. 0. 0. 0. 0.
      0. 0. 0. 0. 0. 0. 0. 0. 0. 0. 0. 0. 0. 5.75221255e-002 0. 0. 0. 0.
      0. 0. 0. 0. 0. 0. 0. 0. 0. 4.81471241e-001 0. 0. 0. 0. 0.
      1.64546464e-002 0. 0. 0. 0. 0. 0. 0. 0. 0. 0. 1.17533188e-002 0.
      0. 0. 0. 0. 0. 0. 0. 0. 0. 3.45685845e-003 0. 0. 0. 0. 0. 0. 0. 0.
      0. 0. 1.83904860e-002 0. 0. 0. 0. 0. 0. 0. 0. 0. 0.
      1.86670348e-002 0. 0. 0. 0. 0. 0. 0. 0. 0. 0. 1.38274336e-004 0.
      0. 0. 3.92146021e-001 0. 0. 0. 0. 0. 0. 0. 0. 0. 0. 0. 0. 0. 0. 0.
      0. 0. 0. 0. 0. 0. 0. 0. 0. 0. 0. 0. 0. 0. 0. 0. 0. 0. 0. 0. 0. 0.
      0. 0. 0. 0. 0. 0. 0. 0. 0. 0. 0. 0. 0. 0. 0. 0. 0. 0. 0. 0. 0. 0.
      0. 0. 0. 0. 0. 0. 0. 0. 0. 0. 0. 0. 0. 0. 0. 0. 0. 0. 0. 0. 0. 0.
      0. 0. 8.29646015e-004 0. 6.16703555e-002 0. 0. 0. 0. 0. 0. 0. 0.
      0. 0. 0. 0. 0. 4.75663722e-001 0. 0. 0. 0. 0. 1.59015488e-002 0.
      0. 0. 0. 0. 0. 0. 0. 0. 0. 8.43473431e-003 0. 0. 0. 0. 0. 0. 0. 0.
      0. 0. 4.97787632e-003 0. 0. 0. 0. 0. 0. 0. 0. 0. 0.
      3.31858406e-003 0. 0. 0. 0. 0. 0. 0. 0. 0. 0. 1.82522126e-002 0.
      0. 0. 0. 0. 0. 0. 0. 0. 0. 1.86670348e-002 0. 0. 0. 0. 0. 0. 0. 0.
      0. 0. 1.38274336e-004 0. 0. 0. 3.92146021e-001 0. 0. 0. 0. 0. 0.</_>
    <_>
      0. 0. 0. 0. 0. 0. 0. 0. 0. 0. 0. 4.63867188e-003 3.17382813e-002
      0. 0. 0. 0. 0. 0. 0. 0. 0. 9.27734375e-003 5.95703125e-002 0. 0.
      0. 0. 0. 0. 0. 0. 0. 2.31933594e-002 3.51562500e-002 0. 0. 0. 0.
      0. 0. 0. 0. 0. 2.36816406e-002 0. 0. 0. 0. 0. 0. 0. 0. 0. 0.
      1.02539063e-002 0. 0. 0. 0. 0. 0. 0. 0. 0. 0. 1.39160156e-002 0.
      0. 0. 0. 0. 0. 0. 0. 0. 0. 1.66015625e-002 0. 0. 0. 0. 0. 0. 0. 0.
      0. 0. 7.56835938e-003 0. 0. 0. 0. 0. 0. 0. 0. 0. 0.
      7.08007813e-003 0. 0. 0. 0. 0. 0. 0. 0. 0. 0. 6.59179688e-003 0.
      0. 0. 0. 0. 0. 0. 0. 0. 0. 2.07519531e-002 0. 0. 0. 0. 0. 0. 0. 0.
      0. 0. 9.52148438e-003 0. 0. 0. 0. 0. 0. 0. 0. 0. 0.
      1.12304688e-002 0. 0. 0. 0. 0. 0. 0. 0. 0. 0. 3.12500000e-002 0.
      0. 0. 0. 0. 0. 0. 0. 0. 0. 2.44140625e-004 4.19921875e-002 0. 0.
      0. 0. 0. 6.35742188e-001 0. 0. 0. 0. 0. 0. 0. 0. 0. 0. 0. 0. 0. 0.
      4.63867188e-003 3.17382813e-002 0. 0. 0. 0. 0. 0. 0. 0. 0.
      9.27734375e-003 5.93261719e-002 0. 0. 0. 0. 0. 0. 0. 0. 0.
      2.31933594e-002 3.54003906e-002 0. 0. 0. 0. 0. 0. 0. 0. 0.
      2.36816406e-002 0. 0. 0. 0. 0. 0. 0. 0. 0. 0. 1.02539063e-002 0.
      0. 0. 0. 0. 0. 0. 0. 0. 0. 1.39160156e-002 0. 0. 0. 0. 0. 0. 0. 0.
      0. 0. 1.66015625e-002 0. 0. 0. 0. 0. 0. 0. 0. 0. 0.
      7.56835938e-003 0. 0. 0. 0. 0. 0. 0. 0. 0. 0. 7.08007813e-003 0.
      0. 0. 0. 0. 0. 0. 0. 0. 0. 6.59179688e-003 0. 0. 0. 0. 0. 0. 0. 0.
      0. 0. 2.07519531e-002 0. 0. 0. 0. 0. 0. 0. 0. 0. 0.
      9.52148438e-003 0. 0. 0. 0. 0. 0. 0. 0. 0. 0. 1.12304688e-002 0.
      0. 0. 0. 0. 0. 0. 0. 0. 0. 3.12500000e-002 0. 0. 0. 0. 0. 0. 0. 0.
      0. 0. 2.44140625e-004 4.19921875e-002 0. 0. 0. 0. 0.
      6.35742188e-001 0. 0. 0. 0. 0. 0. 0. 0. 0. 0. 0. 0. 0. 0.
      4.63867188e-003 3.17382813e-002 0. 0. 0. 0. 0. 0. 0. 0. 0.
      9.27734375e-003 6.03027344e-002 0. 0. 0. 0. 0. 0. 0. 0. 0.
      2.39257813e-002 3.39355469e-002 0. 0. 0. 0. 0. 0. 0. 0. 0.
      2.34375000e-002 0. 0. 0. 0. 0. 0. 0. 0. 0. 0. 1.02539063e-002 0.
      0. 0. 0. 0. 0. 0. 0. 0. 0. 1.39160156e-002 0. 0. 0. 0. 0. 0. 0. 0.
      0. 0. 1.66015625e-002 0. 0. 0. 0. 0. 0. 0. 0. 0. 0.
      7.56835938e-003 0. 0. 0. 0. 0. 0. 0. 0. 0. 0. 7.08007813e-003 0.
      0. 0. 0. 0. 0. 0. 0. 0. 0. 6.59179688e-003 0. 0. 0. 0. 0. 0. 0. 0.
      0. 0. 2.07519531e-002 0. 0. 0. 0. 0. 0. 0. 0. 0. 0.
      9.52148438e-003 0. 0. 0. 0. 0. 0. 0. 0. 0. 0. 1.12304688e-002 0.
      0. 0. 0. 0. 0. 0. 0. 0. 0. 3.12500000e-002 0. 0. 0. 0. 0. 0. 0. 0.
      0. 0. 2.44140625e-004 4.19921875e-002 0. 0. 0. 0. 0.
      6.35742188e-001 0. 0. 0.</_>
    <_>
      0. 0. 0. 0. 0. 0. 0. 0. 0. 0. 0. 0. 0. 0. 0. 0. 0. 0. 0. 0. 0. 0.
      0. 0. 0. 0. 0. 0. 0. 0. 0. 0. 0. 0. 0. 0. 0. 0. 0. 0. 0. 0. 0. 0.
      0. 0. 0. 0. 0. 0. 0. 0. 0. 0. 0. 1.13824499e-003 0. 0. 0. 0. 0. 0.
      0. 0. 0. 0. 2.06953636e-003 0. 0. 0. 0. 0. 0. 0. 0. 0. 0.
      1.44867552e-003 0. 0. 0. 0. 0. 0. 0. 0. 0. 0. 2.79387413e-003 0.
      0. 0. 0. 0. 0. 0. 0. 0. 0. 2.17301329e-003 0. 0. 0. 0. 0. 0. 0. 0.
      0. 0. 3.82864242e-003 0. 0. 0. 0. 0. 0. 0. 0. 0. 0.
      8.38162284e-003 0. 0. 0. 0. 0. 0. 0. 0. 0. 0. 1.51076159e-002 0.
      0. 0. 0. 0. 0. 0. 0. 0. 0. 3.31125818e-002 0. 0. 0. 0. 0. 0. 0. 0.
      0. 0. 9.06456932e-002 6.25000000e-002 0. 0. 0. 0. 0. 0. 0. 0. 0.
      2.79387413e-003 0. 0. 0. 0. 0. 0. 0. 7.74006605e-001 0. 0. 0. 0.
      0. 0. 0. 0. 0. 0. 0. 0. 0. 0. 0. 0. 0. 0. 0. 0. 0. 0. 0. 0. 0. 0.
      0. 0. 0. 0. 0. 0. 0. 0. 0. 0. 0. 0. 0. 0. 0. 0. 0. 0. 0. 0. 0. 0.
      0. 0. 0. 0. 0. 0. 0. 0. 0. 1.13824499e-003 0. 0. 0. 0. 0. 0. 0. 0.
      0. 0. 2.06953636e-003 0. 0. 0. 0. 0. 0. 0. 0. 0. 0.
      1.65562914e-003 0. 0. 0. 0. 0. 0. 0. 0. 0. 0. 2.79387413e-003 0.
      0. 0. 0. 0. 0. 0. 0. 0. 0. 2.37996690e-003 0. 0. 0. 0. 0. 0. 0. 0.
      0. 0. 4.03559580e-003 0. 0. 0. 0. 0. 0. 0. 0. 0. 0.
      1.58319529e-002 3.12500000e-002 0. 0. 0. 0. 0. 0. 0. 0. 0.
      3.39403972e-002 1.56250000e-002 0. 0. 0. 0. 0. 0. 0. 0. 0.
      7.77110904e-002 1.56250000e-002 0. 0. 0. 0. 0. 0. 0. 0. 0.
      1.31622523e-001 4.40811254e-002 0. 0. 0. 0. 0. 0. 0. 0. 0.
      1.86258275e-003 0. 0. 0. 0. 0. 0. 6.18377507e-001 0. 0. 0. 0. 0.
      0. 0. 0. 0. 0. 0. 0. 0. 0. 0. 0. 0. 0. 0. 0. 0. 0. 0. 0. 0. 0. 0.
      0. 0. 0. 0. 0. 0. 0. 0. 0. 0. 0. 0. 0. 0. 0. 0. 0. 0. 0. 0. 0. 0.
      0. 0. 0. 0. 0. 0. 0. 0. 0. 6.00165548e-003 3.12500000e-002 0. 0.
      0. 0. 0. 0. 0. 0. 0. 4.03559580e-003 0. 0. 0. 0. 0. 0. 0. 0. 0. 0.
      3.00082774e-003 0. 0. 0. 0. 0. 0. 0. 0. 0. 0. 2.01779809e-002 0.
      0. 0. 0. 0. 0. 0. 0. 0. 0. 1.70736760e-002 3.12500000e-002 0. 0.
      0. 0. 0. 0. 0. 0. 0. 1.84188746e-002 0. 0. 0. 0. 0. 0. 0. 0. 0. 0.
      3.43543030e-002 0. 0. 0. 0. 0. 0. 0. 0. 0. 0. 6.15687072e-002
      3.12500000e-002 0. 0. 0. 0. 0. 0. 0. 0. 0. 9.38534737e-002 0. 0.
      0. 0. 0. 0. 0. 0. 0. 0. 9.81995016e-002 0. 0. 0. 0. 0. 0. 0. 0. 0.
      0. 4.34602657e-003 0. 0. 0. 0. 0. 5.45219362e-001 0. 0. 0. 0.</_>
    <_>
      9.79815813e-005 0. 0. 0. 0. 0. 0. 0. 0. 0. 9.09171104e-001
      5.40858321e-002 0. 0. 0. 0. 0. 0. 0. 0. 0. 0. 2.40054876e-002 0.
      0. 0. 0. 0. 0. 0. 0. 0. 0. 8.62237904e-003 0. 0. 0. 0. 0. 0. 0. 0.
      0. 0. 3.23339202e-003 0. 0. 0. 0. 0. 0. 0. 0. 0. 0.
      5.87889459e-004 0. 0. 0. 0. 0. 0. 0. 0. 0. 0. 1.95963163e-004 0.
      0. 0. 0. 0. 0. 0. 0. 0. 0. 0. 0. 0. 0. 0. 0. 0. 0. 0. 0. 0. 0. 0.
      0. 0. 0. 0. 0. 0. 0. 0. 0. 0. 0. 0. 0. 0. 0. 0. 0. 0. 0. 0. 0. 0.
      0. 0. 0. 0. 0. 0. 0. 0. 0. 0. 0. 0. 0. 0. 0. 0. 0. 0. 0. 0. 0. 0.
      0. 0. 0. 0. 0. 0. 0. 0. 0. 0. 0. 0. 0. 0. 0. 0. 0. 0. 0. 0. 0. 0.
      0. 0. 0. 0. 0. 0. 0. 0. 0. 0. 0. 0. 0. 0. 0. 0. 0. 0. 0. 0.
      9.79815813e-005 0. 0. 0. 0. 0. 0. 0. 0. 0. 9.09367025e-001
      5.38898669e-002 0. 0. 0. 0. 0. 0. 0. 0. 0. 0. 2.40054876e-002 0.
      0. 0. 0. 0. 0. 0. 0. 0. 0. 8.62237904e-003 0. 0. 0. 0. 0. 0. 0. 0.
      0. 0. 3.23339202e-003 0. 0. 0. 0. 0. 0. 0. 0. 0. 0.
      5.87889459e-004 0. 0. 0. 0. 0. 0. 0. 0. 0. 0. 1.95963163e-004 0.
      0. 0. 0. 0. 0. 0. 0. 0. 0. 0. 0. 0. 0. 0. 0. 0. 0. 0. 0. 0. 0. 0.
      0. 0. 0. 0. 0. 0. 0. 0. 0. 0. 0. 0. 0. 0. 0. 0. 0. 0. 0. 0. 0. 0.
      0. 0. 0. 0. 0. 0. 0. 0. 0. 0. 0. 0. 0. 0. 0. 0. 0. 0. 0. 0. 0. 0.
      0. 0. 0. 0. 0. 0. 0. 0. 0. 0. 0. 0. 0. 0. 0. 0. 0. 0. 0. 0. 0. 0.
      0. 0. 0. 0. 0. 0. 0. 0. 0. 0. 0. 0. 0. 0. 0. 0. 0. 0. 0. 0.
      9.79815843e-004 0. 0. 0. 0. 0. 0. 0. 0. 8.08935940e-001 0.
      1.02880657e-001 0. 0. 0. 0. 0. 0. 0. 0. 0. 0. 4.21320796e-002 0.
      0. 0. 0. 0. 0. 0. 0. 0. 0. 2.42994316e-002 0. 0. 0. 0. 0. 0. 0. 0.
      0. 0. 1.39133846e-002 0. 0. 0. 0. 0. 0. 0. 0. 0. 0.
      4.89907898e-003 0. 0. 0. 0. 0. 0. 0. 0. 0. 0. 1.46972365e-003 0.
      0. 0. 0. 0. 0. 0. 0. 0. 0. 3.91926325e-004 0. 0. 0. 0. 0. 0. 0. 0.
      0. 0. 9.79815813e-005 0. 0. 0. 0. 0. 0. 0. 0. 0. 0. 0. 0. 0. 0. 0.
      0. 0. 0. 0. 0. 0. 0. 0. 0. 0. 0. 0. 0. 0. 0. 0. 0. 0. 0. 0. 0. 0.
      0. 0. 0. 0. 0. 0. 0. 0. 0. 0. 0. 0. 0. 0. 0. 0. 0. 0. 0. 0. 0. 0.
      0. 0. 0. 0. 0. 0. 0. 0. 0. 0. 0. 0. 0. 0. 0. 0. 0. 0. 0. 0. 0. 0.
      0. 0. 0. 0. 0. 0.</_>
    <_>
      2.44140625e-004 0. 0. 0. 0. 0. 0. 0. 0. 0. 0. 2.92968750e-003 0.
      0. 0. 0. 0. 0. 0. 0. 0. 0. 5.37109375e-003 0. 0. 0. 0. 0. 0. 0. 0.
      0. 0. 1.44042969e-002 0. 0. 0. 0. 0. 0. 0. 0. 0. 0.
      4.88281250e-003 0. 0. 0. 0. 0. 0. 0. 0. 0. 0. 1.04980469e-002 0.
      0. 0. 0. 0. 0. 0. 0. 0. 0. 1.09863281e-002 0. 0. 0. 0. 0. 0. 0. 0.
      0. 0. 1.14746094e-002 0. 0. 0. 0. 0. 0. 0. 0. 0. 0.
      1.14746094e-002 0. 0. 0. 0. 0. 0. 0. 0. 0. 0. 1.04980469e-002 0.
      0. 0. 0. 0. 0. 0. 0. 0. 0. 1.63574219e-002 0. 0. 0. 0. 0. 0. 0. 0.
      0. 0. 2.41699219e-002 0. 0. 0. 0. 0. 0. 0. 0. 0. 0.
      1.87988281e-002 0. 0. 0. 0. 0. 0. 0. 0. 0. 0. 1.73339844e-002 0.
      0. 0. 0. 0. 0. 0. 0. 0. 0. 1.92871094e-002 0. 0. 0. 0. 0. 0. 0. 0.
      0. 0. 7.81250000e-003 0. 0. 0. 0. 0. 0. 0. 0. 8.13476563e-001 0.
      9.76562500e-004 0. 0. 0. 0. 0. 0. 0. 0. 0. 0. 2.92968750e-003 0.
      0. 0. 0. 0. 0. 0. 0. 0. 0. 3.90625000e-003 0. 0. 0. 0. 0. 0. 0. 0.
      0. 0. 1.22070313e-002 0. 0. 0. 0. 0. 0. 0. 0. 0. 0.
      3.66210938e-003 0. 0. 0. 0. 0. 0. 0. 0. 0. 0. 8.54492188e-003 0.
      0. 0. 0. 0. 0. 0. 0. 0. 0. 8.30078125e-003 0. 0. 0. 0. 0. 0. 0. 0.
      0. 0. 1.02539063e-002 0. 0. 0. 0. 0. 0. 0. 0. 0. 0.
      8.30078125e-003 0. 0. 0. 0. 0. 0. 0. 0. 0. 0. 8.54492188e-003 0.
      0. 0. 0. 0. 0. 0. 0. 0. 0. 1.09863281e-002 0. 0. 0. 0. 0. 0. 0. 0.
      0. 0. 1.63574219e-002 0. 0. 0. 0. 0. 0. 0. 0. 0. 0.
      1.61132813e-002 0. 0. 0. 0. 0. 0. 0. 0. 0. 0. 1.00097656e-002
      1.85546875e-002 0. 0. 0. 0. 0. 0. 0. 0. 0. 3.22265625e-002 0. 0.
      0. 0. 0. 0. 0. 0. 0. 0. 7.08007813e-003 0. 0. 0. 0. 0. 0. 0. 0.
      8.21044922e-001 0. 0. 0. 0. 0. 0. 0. 0. 0. 0. 0. 0. 0. 0. 0. 0. 0.
      0. 0. 0. 0. 0. 0. 7.32421875e-004 0. 0. 0. 0. 0. 0. 0. 0. 0. 0.
      3.66210938e-003 0. 0. 0. 0. 0. 0. 0. 0. 0. 0. 1.70898438e-003 0.
      0. 0. 0. 0. 0. 0. 0. 0. 0. 3.17382813e-003 0. 0. 0. 0. 0. 0. 0. 0.
      0. 0. 7.32421875e-004 0. 0. 0. 0. 0. 0. 0. 0. 0. 0.
      2.19726563e-003 0. 0. 0. 0. 0. 0. 0. 0. 0. 0. 2.44140625e-003 0.
      0. 0. 0. 0. 0. 0. 0. 0. 0. 6.59179688e-003 0. 0. 0. 0. 0. 0. 0. 0.
      0. 0. 1.31835938e-002 0. 0. 0. 0. 0. 0. 0. 0. 0. 0.
      1.73339844e-002 0. 0. 0. 0. 0. 0. 0. 0. 0. 0. 1.63574219e-002 0.
      0. 0. 0. 0. 0. 0. 0. 0. 0. 2.97851563e-002 0. 0. 0. 0. 0. 0. 0. 0.
      0. 0. 3.10058594e-002 0. 0. 0. 0. 0. 0. 0. 0. 0. 0.
      4.39453125e-003 0. 0. 0. 0. 0. 0. 0. 0. 8.66699219e-001 0.</_>
    <_>
      0. 0. 0. 0. 0. 0. 0. 0. 0. 0. 0. 5.12695313e-003 0. 0. 0. 0. 0. 0.
      0. 0. 0. 0. 6.59179688e-003 0. 0. 0. 0. 0. 0. 0. 0. 0. 0.
      1.90429688e-002 0. 0. 0. 0. 0. 0. 0. 0. 0. 0. 2.51464844e-002 0.
      0. 0. 0. 0. 0. 0. 0. 0. 0. 1.92871094e-002 0. 0. 0. 0. 0. 0. 0. 0.
      0. 0. 1.87988281e-002 0. 0. 0. 0. 0. 0. 0. 0. 0. 0.
      3.10058594e-002 0. 0. 0. 0. 0. 0. 0. 0. 0. 0. 1.36718750e-002 0.
      0. 0. 0. 0. 0. 0. 0. 0. 0. 1.02539063e-002 0. 0. 0. 0. 0. 0. 0. 0.
      0. 0. 1.70898438e-002 0. 0. 0. 0. 0. 0. 0. 0. 0. 0.
      2.36816406e-002 0. 0. 0. 0. 0. 0. 0. 0. 0. 0. 1.92871094e-002 0.
      0. 0. 0. 0. 0. 0. 0. 0. 0. 7.08007813e-003 1.97753906e-002 0. 0.
      0. 0. 0. 0. 0. 0. 0. 9.03320313e-003 2.24609375e-002 0. 0. 0. 0.
      0. 0. 0. 0. 0. 0. 0. 0. 0. 0. 0. 0. 0. 7.32666016e-001 0. 0. 0. 0.
      0. 0. 0. 0. 0. 0. 0. 0. 0. 0. 0. 0. 0. 0. 0. 0. 0. 0. 0. 0. 0. 0.
      0. 0. 0. 0. 0. 0. 0. 0. 0. 3.66210938e-003 0. 0. 0. 0. 0. 0. 0. 0.
      0. 0. 1.22070313e-003 0. 0. 0. 0. 0. 0. 0. 0. 0. 0.
      2.92968750e-003 0. 0. 0. 0. 0. 0. 0. 0. 0. 0. 7.32421875e-003 0.
      0. 0. 0. 0. 0. 0. 0. 0. 0. 7.32421875e-003 0. 0. 0. 0. 0. 0. 0. 0.
      0. 0. 1.04980469e-002 0. 0. 0. 0. 0. 0. 0. 0. 0. 0.
      1.02539063e-002 0. 0. 0. 0. 0. 0. 0. 0. 0. 0. 9.27734375e-003 0.
      0. 0. 0. 0. 0. 0. 0. 0. 0. 1.36718750e-002 0. 0. 0. 0. 0. 0. 0. 0.
      0. 0. 1.63574219e-002 0. 0. 0. 0. 0. 0. 0. 0. 0. 0.
      1.61132813e-002 3.97949219e-002 0. 0. 0. 0. 0. 0. 0. 0. 0.
      1.34277344e-002 0. 9.15527344e-002 0. 0. 0. 0. 0. 0. 0. 0.
      5.85937500e-003 0. 0. 0. 0. 0. 0. 0. 7.50732422e-001 0. 0. 0. 0.
      0. 0. 0. 0. 0. 0. 0. 0. 0. 0. 0. 0. 0. 0. 0. 0. 0. 0. 0. 0. 0. 0.
      0. 0. 0. 0. 0. 0. 0. 0. 0. 0. 0. 0. 0. 0. 0. 0. 0. 0. 0. 0. 0. 0.
      0. 0. 0. 0. 0. 0. 0. 0. 0. 0. 0. 0. 0. 0. 0. 0. 0. 0. 0. 0. 0. 0.
      0. 0. 0. 0. 0. 0. 0. 0. 0. 0. 0. 0. 0. 0. 0. 0. 0. 0. 0. 0. 0. 0.
      0. 0. 0. 0. 0. 0. 0. 0. 0. 0. 0. 0. 0. 0. 0. 0. 0. 0. 0. 0. 0. 0.
      0. 0. 0. 0. 0. 0. 0. 0. 0. 0. 0. 0. 0. 0. 0. 0. 0. 0. 0. 0. 0. 0.
      0. 0. 0. 0. 0. 0. 0. 0. 0. 5.37109375e-003 0. 0. 0. 0. 0. 0. 0. 0.
      0. 0. 1.26953125e-002 6.83593750e-002 0. 0. 0. 0. 0. 0. 0. 0. 0.
      2.44140625e-004 0. 0. 0. 0. 0. 0. 0. 0. 0. 9.13330078e-001</_>
    <_>
      6.05641603e-002 0. 5.72455749e-002 0. 0. 0. 0. 0. 0. 0. 0.
      2.43362840e-002 0. 0. 0. 0. 0. 0. 6.84043169e-001 0. 0. 0.
      1.04397126e-001 0. 0. 0. 0. 0. 0. 0. 0. 0. 0. 4.78429198e-002 0.
      0. 0. 0. 0. 0. 0. 0. 0. 0. 1.75608415e-002 0. 0. 0. 0. 0. 0. 0. 0.
      0. 0. 3.59513285e-003 0. 0. 0. 0. 0. 0. 0. 0. 0. 0.
      4.14823007e-004 0. 0. 0. 0. 0. 0. 0. 0. 0. 0. 0. 0. 0. 0. 0. 0. 0.
      0. 0. 0. 0. 0. 0. 0. 0. 0. 0. 0. 0. 0. 0. 0. 0. 0. 0. 0. 0. 0. 0.
      0. 0. 0. 0. 0. 0. 0. 0. 0. 0. 0. 0. 0. 0. 0. 0. 0. 0. 0. 0. 0. 0.
      0. 0. 0. 0. 0. 0. 0. 0. 0. 0. 0. 0. 0. 0. 0. 0. 0. 0. 0. 0. 0. 0.
      0. 0. 0. 0. 0. 0. 0. 0. 0. 0. 0. 0. 0. 0. 0. 0. 0. 0. 0. 0. 0. 0.
      0. 0. 0. 0. 6.91371679e-004 0. 0. 0. 0. 0. 0. 0. 0. 0. 0.
      1.10619469e-003 0. 0. 0. 0. 0. 0. 0. 7.19579637e-001 0. 0.
      1.06747791e-001 0. 0. 0. 0. 0. 0. 0. 0. 0. 0. 7.42533207e-002 0.
      0. 0. 0. 0. 0. 0. 0. 0. 0. 5.25442474e-002 0. 0. 0. 0. 0. 0. 0. 0.
      0. 0. 2.93141585e-002 0. 0. 0. 0. 0. 0. 0. 0. 0. 0.
      1.16150444e-002 0. 0. 0. 0. 0. 0. 0. 0. 0. 0. 2.48893816e-003 0.
      0. 0. 0. 0. 0. 0. 0. 0. 0. 6.91371679e-004 0. 0. 0. 0. 0. 0. 0. 0.
      0. 0. 8.29646015e-004 0. 0. 0. 0. 0. 0. 0. 0. 0. 0.
      1.38274336e-004 0. 0. 0. 0. 0. 0. 0. 0. 0. 0. 0. 0. 0. 0. 0. 0. 0.
      0. 0. 0. 0. 0. 0. 0. 0. 0. 0. 0. 0. 0. 0. 0. 0. 0. 0. 0. 0. 0. 0.
      0. 0. 0. 0. 0. 0. 0. 0. 0. 0. 0. 0. 0. 0. 0. 0. 0. 0. 0. 0. 0. 0.
      0. 0. 0. 0. 4.14823007e-004 0. 0. 0. 0. 0. 0. 0. 0. 0. 0.
      1.10619469e-003 0. 0. 0. 0. 0. 0. 0. 7.20962405e-001 0. 0.
      1.03014380e-001 0. 0. 0. 0. 0. 0. 0. 0. 0. 0. 7.56360590e-002 0.
      0. 0. 0. 0. 0. 0. 0. 0. 0. 5.37887178e-002 0. 0. 0. 0. 0. 0. 0. 0.
      0. 0. 2.94524338e-002 0. 0. 0. 0. 0. 0. 0. 0. 0. 0.
      1.17533188e-002 0. 0. 0. 0. 0. 0. 0. 0. 0. 0. 2.35066377e-003 0.
      0. 0. 0. 0. 0. 0. 0. 0. 0. 8.29646015e-004 0. 0. 0. 0. 0. 0. 0. 0.
      0. 0. 5.53097343e-004 0. 0. 0. 0. 0. 0. 0. 0. 0. 0.
      1.38274336e-004 0. 0. 0. 0. 0. 0. 0. 0. 0. 0. 0. 0. 0. 0. 0. 0. 0.
      0. 0. 0. 0. 0. 0. 0. 0. 0. 0. 0. 0. 0. 0. 0. 0. 0. 0. 0. 0. 0. 0.
      0. 0. 0. 0. 0. 0. 0. 0. 0. 0. 0. 0. 0. 0. 0. 0. 0. 0. 0. 0. 0. 0.
      0. 0. 0. 0.</_>
    <_>
      0. 0. 0. 0. 0. 0. 0. 0. 0. 0. 0. 1.10981306e-002 0. 0. 0. 0. 0. 0.
      0. 0. 0. 0. 1.69392526e-002 1.05140191e-002 0. 0. 0. 0. 0. 0. 0.
      0. 0. 2.93516349e-002 1.32885510e-002 0. 0. 0. 0. 0. 0. 0. 0. 0.
      2.51168218e-002 1.95677578e-002 0. 0. 0. 0. 0. 0. 0. 0. 0.
      5.11098141e-003 3.35864499e-002 0. 0. 0. 0. 0. 0. 0. 0. 0.
      1.19742993e-002 0. 0. 0. 0. 0. 0. 0. 0. 0. 0. 9.63785034e-003 0.
      0. 0. 0. 0. 0. 0. 0. 0. 0. 1.13901868e-002 0. 0. 0. 0. 0. 0. 0. 0.
      0. 0. 3.06658889e-003 0. 0. 0. 0. 0. 0. 0. 0. 0. 0.
      5.40303718e-003 0. 0. 0. 0. 0. 0. 0. 0. 0. 0. 1.78154204e-002 0.
      0. 0. 0. 0. 0. 0. 0. 0. 0. 1.08060744e-002 0. 0. 0. 0. 0. 0. 0. 0.
      0. 0. 2.48247664e-003 4.38084118e-002 0. 0. 0. 0. 0. 0. 0. 0. 0.
      4.23481315e-003 0. 1.15800232e-001 0. 0. 0. 0. 0. 0. 0. 0. 0.
      2.40946263e-002 1.85455605e-001 0. 3.89456779e-001 0. 0. 0. 0. 0.
      0. 0. 0. 0. 0. 0. 0. 0. 0. 0. 0. 0. 0. 0. 0. 0. 0. 0. 0. 0. 0. 0.
      0. 5.84112131e-004 0. 0. 0. 0. 0. 0. 0. 0. 0. 0. 4.08878503e-003
      1.50408875e-002 0. 0. 0. 0. 0. 0. 0. 0. 0. 3.31483632e-002 0. 0.
      0. 0. 0. 0. 0. 0. 0. 0. 3.76752354e-002 0. 0. 0. 0. 0. 0. 0. 0. 0.
      0. 1.21203270e-002 4.70210277e-002 0. 0. 0. 0. 0. 0. 0. 0. 0.
      1.05140191e-002 1.27044395e-002 0. 0. 0. 0. 0. 0. 0. 0. 0.
      1.29964957e-002 0. 0. 0. 0. 0. 0. 0. 0. 0. 0. 1.19742993e-002 0.
      0. 0. 0. 0. 0. 0. 0. 0. 0. 4.38084127e-003 0. 0. 0. 0. 0. 0. 0. 0.
      0. 0. 1.44567760e-002 0. 0. 0. 0. 0. 0. 0. 0. 0. 0.
      1.70852803e-002 0. 0. 0. 0. 0. 0. 0. 0. 0. 0. 2.33644852e-003 0.
      1.06454439e-001 0. 0. 0. 0. 0. 0. 0. 0. 4.38084127e-003
      6.17698580e-002 0. 0. 0. 0. 0. 0. 0. 0. 0. 0. 7.08235949e-002
      1.30841121e-001 0. 3.89602810e-001 0. 0. 0. 0. 0. 0. 0. 0. 0. 0.
      0. 0. 0. 0. 0. 0. 0. 0. 0. 0. 0. 0. 0. 0. 0. 0. 0. 0. 0. 0. 0. 0.
      0. 0. 0. 0. 0. 0. 0. 0. 0. 0. 0. 0. 0. 0. 0. 0. 0. 0. 0. 0. 0. 0.
      0. 0. 0. 0. 0. 0. 0. 5.84112131e-004 0. 0. 0. 0. 0. 0. 0. 0. 0. 0.
      2.19042064e-003 0. 0. 0. 0. 0. 0. 0. 0. 0. 0. 1.86915882e-002
      1.32885510e-002 0. 0. 0. 0. 0. 0. 0. 0. 0. 3.09579447e-002 0. 0.
      0. 0. 0. 0. 0. 0. 0. 0. 3.24182250e-002 1.32885510e-002 0. 0. 0.
      0. 0. 0. 0. 0. 0. 2.23422889e-002 4.70210277e-002 0. 0. 0. 0. 0.
      0. 0. 0. 0. 1.46028036e-002 0. 0. 0. 0. 0. 0. 0. 0. 0. 0.
      1.82535052e-002 0. 0. 0. 0. 0. 0. 0. 0. 0. 0. 1.92757007e-002 0.
      8.49883184e-002 0. 0. 0. 0. 0. 0. 0. 0. 6.27920544e-003
      8.32359791e-002 0. 0. 0. 0. 0. 0. 0. 0. 0. 0. 7.12616816e-002
      1.30841121e-001 0. 3.90478969e-001 0. 0. 0. 0. 0. 0.</_>
    <_>
      1.40765769e-004 0. 0. 0. 0. 0. 0. 0. 0. 0. 0. 9.85360355e-004 0.
      0. 0. 0. 0. 0. 0. 0. 0. 0. 1.40765763e-003 0. 0. 0. 0. 0. 0. 0. 0.
      0. 0. 2.81531527e-003 0. 0. 0. 0. 0. 0. 0. 0. 0. 0.
      1.40765763e-003 0. 0. 0. 0. 0. 0. 0. 0. 0. 0. 1.97072071e-003 0.
      0. 0. 0. 0. 0. 0. 0. 0. 0. 2.67454959e-003 0. 0. 0. 0. 0. 0. 0. 0.
      0. 0. 8.02364852e-003 0. 0. 0. 0. 0. 0. 0. 0. 0. 0.
      4.22297278e-003 0. 0. 0. 0. 0. 0. 0. 0. 0. 0. 4.92680166e-003 0.
      0. 0. 0. 0. 0. 0. 0. 0. 0. 1.05574327e-002 0. 0. 0. 0. 0. 0. 0. 0.
      0. 0. 1.43581079e-002 3.13907675e-002 0. 0. 0. 0. 0. 0. 0. 0. 0.
      3.46283801e-002 0. 0. 0. 0. 0. 0. 0. 0. 0. 0. 6.37668893e-002 0.
      0. 0. 0. 0. 0. 0. 0. 0. 0. 6.37668893e-002 5.05349115e-002 0. 0.
      0. 0. 0. 0. 0. 0. 0. 1.40765766e-002 0. 0. 0. 0. 0. 0.
      6.88344598e-001 0. 0. 0. 0. 0. 0. 0. 0. 0. 0. 0. 0. 0. 0. 0. 0. 0.
      0. 0. 0. 0. 0. 0. 0. 0. 0. 0. 0. 0. 0. 0. 0. 0. 0. 0. 0. 0. 0. 0.
      0. 0. 0. 0. 0. 0. 0. 0. 0. 0. 0. 0. 0. 0. 0. 0. 0. 0. 0. 0. 0. 0.
      0. 0. 0. 0. 0. 0. 0. 0. 1.40765769e-004 0. 0. 0. 0. 0. 0. 0. 0. 0.
      0. 1.97072071e-003 0. 0. 0. 0. 0. 0. 0. 0. 0. 0. 3.51914414e-003
      0. 0. 0. 0. 0. 0. 0. 0. 0. 0. 3.37837846e-003 0. 0. 0. 0. 0. 0. 0.
      0. 0. 0. 9.43130627e-003 0. 0. 0. 0. 0. 0. 0. 0. 0. 0.
      1.25281531e-002 0. 0. 0. 0. 0. 0. 0. 0. 0. 0. 3.91328819e-002
      1.50619373e-002 0. 0. 0. 0. 0. 0. 0. 0. 0. 8.23479742e-002 0. 0.
      0. 0. 0. 0. 0. 0. 0. 0. 7.78434649e-002 3.84290554e-002 0. 0. 0.
      0. 0. 0. 0. 0. 0. 2.81531538e-004 0. 0. 0. 0. 0. 0. 0.
      7.15934694e-001 0. 0. 0. 0. 0. 0. 0. 0. 0. 0. 0. 0. 0. 0. 0. 0. 0.
      0. 0. 0. 0. 0. 0. 0. 0. 0. 0. 0. 0. 0. 0. 0. 0. 0. 0. 0. 0. 0. 0.
      0. 0. 0. 0. 0. 0. 0. 0. 0. 0. 0. 0. 0. 0. 0. 0. 0. 0. 0. 0. 0. 0.
      0. 0. 0. 0. 0. 0. 0. 0. 0. 0. 0. 0. 0. 0. 0. 0. 0. 0. 0. 0. 0. 0.
      0. 0. 0. 0. 0. 0. 0. 0. 0. 0. 0. 0. 0. 0. 0. 0. 0. 0. 0. 0. 0. 0.
      0. 0. 0. 0. 0. 0. 0. 5.63063077e-004 0. 0. 0. 0. 0. 0. 0. 0. 0. 0.
      2.25225231e-003 0. 0. 0. 0. 0. 0. 0. 0. 0. 0. 1.61880627e-002 0.
      0. 0. 0. 0. 0. 0. 0. 0. 0. 5.26463948e-002 0. 0. 0. 0. 0. 0. 0. 0.
      0. 0. 8.85416642e-002 1.50619373e-002 0. 0. 0. 0. 0. 0. 0. 0. 0.
      1.40765769e-004 0. 0. 0. 0. 0. 0. 0. 0. 8.24605882e-001 0.</_>
    <_>
      0. 0. 0. 0. 0. 0. 0. 0. 0. 0. 0. 3.90625000e-003 0. 0. 0. 0. 0. 0.
      0. 0. 0. 0. 1.05298916e-002 0. 0. 0. 0. 0. 0. 0. 0. 0. 0.
      1.05298916e-002 0. 0. 0. 0. 0. 0. 0. 0. 0. 0. 1.68138593e-002 0.
      0. 0. 0. 0. 0. 0. 0. 0. 0. 2.25883145e-002 0. 0. 0. 0. 0. 0. 0. 0.
      0. 0. 1.95312500e-002 0. 0. 0. 0. 0. 0. 0. 0. 0. 0.
      1.39266308e-002 0. 0. 0. 0. 0. 0. 0. 0. 0. 0. 1.00203808e-002 0.
      0. 0. 0. 0. 0. 0. 0. 0. 0. 1.23980977e-002 0. 0. 0. 0. 0. 0. 0. 0.
      0. 0. 1.63043477e-002 0. 0. 0. 0. 0. 0. 0. 0. 0. 0.
      1.88519023e-002 0. 0. 0. 0. 0. 0. 0. 0. 0. 0. 2.22486407e-002 0.
      0. 0. 0. 0. 0. 0. 0. 0. 0. 2.25883145e-002 0. 0. 0. 0. 0. 0. 0. 0.
      0. 0. 3.90625000e-002 0. 0. 0. 0. 0. 0. 0. 0. 0. 0.
      1.52853259e-003 0. 0. 0. 0. 0. 0. 0. 7.59171188e-001 0. 0. 0. 0.
      0. 0. 0. 0. 0. 0. 0. 0. 0. 5.26494579e-003 0. 0. 0. 0. 0. 0. 0. 0.
      0. 0. 1.23980977e-002 0. 0. 0. 0. 0. 0. 0. 0. 0. 0.
      1.06997285e-002 0. 0. 0. 0. 0. 0. 0. 0. 0. 0. 1.74932070e-002 0.
      0. 0. 0. 0. 0. 0. 0. 0. 0. 2.29279883e-002 0. 0. 0. 0. 0. 0. 0. 0.
      0. 0. 1.78328808e-002 0. 0. 0. 0. 0. 0. 0. 0. 0. 0.
      1.29076084e-002 0. 0. 0. 0. 0. 0. 0. 0. 0. 0. 1.12092393e-002 0.
      0. 0. 0. 0. 0. 0. 0. 0. 0. 1.27377715e-002 0. 0. 0. 0. 0. 0. 0. 0.
      0. 0. 1.68138593e-002 0. 0. 0. 0. 0. 0. 0. 0. 0. 0.
      1.59646738e-002 0. 0. 0. 0. 0. 0. 0. 0. 0. 0. 2.34375000e-002 0.
      0. 0. 0. 0. 0. 0. 0. 0. 0. 2.13994570e-002 0. 0. 0. 0. 0. 0. 0. 0.
      0. 0. 3.90625000e-002 0. 0. 0. 0. 0. 0. 0. 0. 0. 0.
      6.79347839e-004 0. 0. 0. 0. 0. 0. 0. 7.59171188e-001 0. 0. 0. 0.
      0. 0. 0. 0. 0. 0. 0. 0. 0. 6.28396729e-003 0. 0. 0. 0. 0. 0. 0. 0.
      0. 0. 1.23980977e-002 0. 0. 0. 0. 0. 0. 0. 0. 0. 0.
      1.10394023e-002 0. 0. 0. 0. 0. 0. 0. 0. 0. 0. 1.91915762e-002 0.
      0. 0. 0. 0. 0. 0. 0. 0. 0. 2.19089668e-002 0. 0. 0. 0. 0. 0. 0. 0.
      0. 0. 1.64741855e-002 0. 0. 0. 0. 0. 0. 0. 0. 0. 0.
      1.30774453e-002 0. 0. 0. 0. 0. 0. 0. 0. 0. 0. 9.85054392e-003 0.
      0. 0. 0. 0. 0. 0. 0. 0. 0. 1.13790762e-002 0. 0. 0. 0. 0. 0. 0. 0.
      0. 0. 1.54551631e-002 0. 0. 0. 0. 0. 0. 0. 0. 0. 0.
      1.49456523e-002 0. 0. 0. 0. 0. 0. 0. 0. 0. 0. 2.24184785e-002 0.
      0. 0. 0. 0. 0. 0. 0. 0. 0. 2.30978262e-002 0. 0. 0. 0. 0. 0. 0. 0.
      0. 0. 4.11005430e-002 0. 0. 0. 0. 0. 0. 0. 0. 0. 0.
      6.79347839e-004 0. 0. 0. 0. 0. 0. 0. 7.60699749e-001 0. 0.</_>
    <_>
      0. 0. 0. 0. 0. 0. 0. 0. 0. 0. 0. 0. 0. 0. 0. 0. 0. 0. 0. 0. 0. 0.
      1.46484375e-003 2.58789063e-002 6.56738281e-002 0. 0. 0. 0. 0. 0.
      0. 0. 1.44042969e-002 0. 0. 0. 0. 0. 0. 0. 0. 0. 0.
      1.02539063e-002 0. 0. 0. 0. 0. 0. 0. 0. 0. 0. 9.27734375e-003 0.
      0. 0. 0. 0. 0. 0. 0. 0. 0. 4.15039063e-003 0. 0. 0. 0. 0. 0. 0. 0.
      0. 0. 4.88281250e-002 0. 0. 0. 0. 0. 0. 0. 0. 0. 0.
      8.30078125e-003 0. 0. 0. 0. 0. 0. 0. 0. 0. 0. 8.78906250e-003 0.
      0. 0. 0. 0. 0. 0. 0. 0. 0. 1.63574219e-002 0. 0. 0. 0. 0. 0. 0. 0.
      0. 0. 5.17578125e-002 0. 0. 0. 0. 0. 0. 0. 0. 0. 0.
      1.48925781e-002 0. 0. 0. 0. 0. 0. 0. 0. 0. 0. 1.19628906e-002 0.
      0. 0. 0. 0. 0. 0. 0. 0. 0. 1.66015625e-002 0. 0. 0. 0. 0. 0. 0. 0.
      0. 0. 2.68554688e-003 0. 0. 0. 0. 0. 0. 6.88720703e-001 0. 0. 0.
      7.08007813e-003 6.98242188e-002 0. 0. 0. 0. 0. 0. 0. 0. 0.
      3.00292969e-002 0. 0. 0. 0. 0. 0. 0. 0. 0. 0. 8.05664063e-003 0.
      0. 0. 0. 0. 0. 0. 0. 0. 0. 4.39453125e-003 0. 0. 0. 0. 0. 0. 0. 0.
      0. 0. 7.81250000e-003 0. 0. 0. 0. 0. 0. 0. 0. 0. 0.
      3.24707031e-002 0. 0. 0. 0. 0. 0. 0. 0. 0. 0. 1.90429688e-002 0.
      0. 0. 0. 0. 0. 0. 0. 0. 0. 5.12695313e-003 0. 0. 0. 0. 0. 0. 0. 0.
      0. 0. 5.85937500e-003 0. 0. 0. 0. 0. 0. 0. 0. 0. 0.
      1.26953125e-002 0. 0. 0. 0. 0. 0. 0. 0. 0. 0. 3.56445313e-002 0.
      0. 0. 0. 0. 0. 0. 0. 0. 0. 2.70996094e-002 0. 0. 0. 0. 0. 0. 0. 0.
      0. 0. 1.78222656e-002 0. 0. 0. 0. 0. 0. 0. 0. 0. 0.
      9.03320313e-003 0. 0. 0. 0. 0. 0. 0. 0. 0. 0. 1.66015625e-002 0.
      0. 0. 0. 0. 0. 0. 0. 0. 0. 2.68554688e-003 0. 0. 0. 0. 0. 0.
      6.88720703e-001 0. 0. 0. 0. 0. 0. 0. 0. 0. 0. 0. 0. 0. 0. 0. 0. 0.
      0. 0. 0. 0. 0. 0. 0. 0. 0. 0. 0. 0. 0. 0. 0. 0. 0. 0. 0. 0. 0. 0.
      0. 0. 0. 0. 0. 0. 0. 0. 4.88281250e-004 0. 0. 0. 0. 0. 0. 0. 0. 0.
      0. 2.44140625e-004 0. 0. 0. 0. 0. 0. 0. 0. 0. 0. 7.32421875e-004
      0. 0. 0. 0. 0. 0. 0. 0. 0. 0. 1.22070313e-003 0. 0. 0. 0. 0. 0. 0.
      0. 0. 0. 4.15039063e-003 0. 0. 0. 0. 0. 0. 0. 0. 0. 0.
      4.39453125e-003 0. 0. 0. 0. 0. 0. 0. 0. 0. 0. 9.27734375e-003 0.
      0. 0. 0. 0. 0. 0. 0. 0. 0. 9.03320313e-003 0. 0. 0. 0. 0. 0. 0. 0.
      0. 0. 3.46679688e-002 3.02734375e-002 0. 0. 0. 0. 0. 0. 0. 0. 0.
      1.95312500e-002 0. 1.08642578e-001 0. 0. 0. 0. 0. 0. 0. 0.
      7.51953125e-002 0. 0. 0. 0. 0. 0. 0. 0. 0. 0. 1.02539063e-002 0.
      0. 0. 0. 0. 0. 6.91894531e-001 0. 0. 0.</_>
    <_>
      0. 0. 0. 0. 0. 0. 0. 0. 0. 0. 0. 0. 0. 0. 0. 0. 0. 0. 0. 0. 0. 0.
      0. 0. 0. 0. 0. 0. 0. 0. 0. 0. 0. 1.77190721e-003 0. 0. 0. 0. 0. 0.
      0. 0. 0. 0. 3.38273193e-003 3.14110816e-002 0. 0. 0. 0. 0. 0. 0.
      0. 0. 9.82603058e-003 0. 0. 0. 0. 0. 0. 0. 0. 0. 0.
      9.50386561e-003 0. 0. 0. 0. 0. 0. 0. 0. 0. 0. 1.27255153e-002 0.
      0. 0. 0. 0. 0. 0. 0. 0. 0. 1.30476803e-002 0. 0. 0. 0. 0. 0. 0. 0.
      0. 0. 1.43363401e-002 0. 0. 0. 0. 0. 0. 0. 0. 0. 0.
      2.11018045e-002 0. 0. 0. 0. 0. 0. 0. 0. 0. 0. 1.78801548e-002 0.
      0. 0. 0. 0. 0. 0. 0. 0. 0. 2.17461344e-002 0. 0. 0. 0. 0. 0. 0. 0.
      0. 0. 2.98002586e-002 0. 0. 0. 0. 0. 0. 0. 0. 0. 0.
      3.07667535e-002 0. 0. 0. 0. 0. 0. 0. 0. 0. 0. 5.31572150e-003 0.
      0. 0. 0. 0. 0. 0. 7.77384043e-001 0. 0. 0. 0. 0. 0. 0. 0. 0. 0. 0.
      0. 0. 0. 0. 0. 0. 0. 0. 0. 0. 0. 0. 0. 1.61082469e-004 0. 0. 0. 0.
      0. 0. 0. 0. 0. 0. 1.17590204e-002 0. 0. 0. 0. 0. 0. 0. 0. 0. 0.
      2.57731951e-003 2.54510306e-002 0. 0. 0. 0. 0. 0. 0. 0. 0.
      8.37628823e-003 0. 0. 0. 0. 0. 0. 0. 0. 0. 0. 1.32087627e-002 0.
      0. 0. 0. 0. 0. 0. 0. 0. 0. 1.51417525e-002 0. 0. 0. 0. 0. 0. 0. 0.
      0. 0. 1.86855663e-002 0. 0. 0. 0. 0. 0. 0. 0. 0. 0.
      2.11018045e-002 0. 0. 0. 0. 0. 0. 0. 0. 0. 0. 2.78672688e-002 0.
      0. 0. 0. 0. 0. 0. 0. 0. 0. 3.02835051e-002 0. 0. 0. 0. 0. 0. 0. 0.
      0. 0. 3.96262892e-002 0. 0. 0. 0. 0. 0. 0. 0. 0. 0.
      5.63788647e-003 0. 0. 0. 0. 0. 0. 0. 7.27931678e-001 0. 0.
      1.28865978e-002 0. 0. 0. 0. 0. 0. 0. 0. 0. 0. 3.38273193e-003
      3.59213911e-002 0. 0. 0. 0. 0. 0. 0. 0. 0. 6.44329877e-004
      3.73711325e-002 0. 0. 0. 0. 0. 0. 0. 0. 0. 8.69845320e-003 0. 0.
      0. 0. 0. 0. 0. 0. 0. 0. 1.14368554e-002 0. 0. 0. 0. 0. 0. 0. 0. 0.
      0. 1.88466497e-002 0. 0. 0. 0. 0. 0. 0. 0. 0. 0. 2.14239694e-002
      0. 0. 0. 0. 0. 0. 0. 0. 0. 0. 3.02835051e-002 0. 0. 0. 0. 0. 0. 0.
      0. 0. 0. 2.67396905e-002 0. 0. 0. 0. 0. 0. 0. 0. 0. 0.
      3.81765477e-002 0. 0. 0. 0. 0. 0. 0. 0. 0. 0. 5.79896895e-003 0.
      0. 0. 0. 0. 0. 0. 7.30186880e-001 0. 0. 8.05412326e-003 0. 0. 0.
      0. 0. 0. 0. 0. 0. 0. 8.85953568e-003 0. 0. 0. 0. 0. 0. 0. 0. 0. 0.
      7.89304078e-003 0. 0. 0. 0. 0. 0. 0. 0. 0. 0. 4.18814411e-003 0.
      0. 0. 0. 0. 0. 0. 0. 0. 0. 6.76546386e-003 0. 0. 0. 0. 0. 0. 0. 0.
      0. 0. 3.06056696e-003 0. 0. 0. 0. 0. 0. 0. 0. 0. 0.
      2.57731951e-003 2.89948452e-002 0. 0. 0. 0. 0. 0. 0. 0. 0.</_>
    <_>
      0. 0. 0. 0. 0. 0. 0. 0. 0. 0. 0. 0. 0. 0. 0. 0. 0. 0. 0. 0. 0. 0.
      0. 0. 0. 0. 0. 0. 0. 0. 0. 0. 0. 0. 0. 0. 0. 0. 0. 0. 0. 0. 0. 0.
      4.35756985e-004 0. 0. 0. 0. 0. 0. 0. 0. 0. 0. 1.49402395e-003 0.
      0. 0. 0. 0. 0. 0. 0. 0. 0. 1.24501996e-003 0. 0. 0. 0. 0. 0. 0. 0.
      0. 0. 2.24103592e-003 0. 0. 0. 0. 0. 0. 0. 0. 0. 0.
      6.47410378e-003 0. 0. 0. 0. 0. 0. 0. 0. 0. 0. 1.63720120e-002 0.
      0. 0. 0. 0. 0. 0. 0. 0. 0. 3.01294830e-002 0. 0. 0. 0. 0. 0. 0. 0.
      0. 0. 4.21439260e-002 0. 0. 0. 0. 0. 0. 0. 0. 0. 0.
      4.75597605e-002 0. 0. 0. 0. 0. 0. 0. 0. 0. 0. 6.32470101e-002
      6.15039840e-002 0. 0. 0. 0. 0. 0. 0. 0. 0. 5.59636466e-002 0. 0.
      0. 0. 0. 0. 0. 0. 0. 0. 3.85956187e-003 0. 0. 0. 0. 0. 0.
      6.67330682e-001 0. 0. 0. 0. 0. 0. 0. 0. 0. 0. 0. 0. 0. 0. 0. 0. 0.
      0. 0. 0. 0. 0. 0. 0. 0. 0. 0. 0. 0. 0. 0. 0. 0. 0. 0. 0. 0. 0. 0.
      0. 0. 0. 0. 0. 0. 0. 0. 0. 0. 0. 0. 0. 0. 0. 0. 0. 0. 0. 0. 0. 0.
      0. 0. 0. 0. 0. 0. 0. 0. 3.11254989e-004 0. 0. 0. 0. 0. 0. 0. 0. 0.
      0. 1.36952195e-003 0. 0. 0. 0. 0. 0. 0. 0. 0. 0. 5.16683282e-003
      0. 0. 0. 0. 0. 0. 0. 0. 0. 0. 1.53137455e-002 0. 0. 0. 0. 0. 0. 0.
      0. 0. 0. 2.83242036e-002 0. 0. 0. 0. 0. 0. 0. 0. 0. 0.
      3.77863534e-002 0. 0. 0. 0. 0. 0. 0. 0. 0. 0. 4.98630479e-002 0.
      0. 0. 0. 0. 0. 0. 0. 0. 0. 6.82270899e-002 6.15039840e-002 0. 0.
      0. 0. 0. 0. 0. 0. 0. 5.72709180e-002 0. 0. 0. 0. 0. 0. 0. 0. 0. 0.
      4.41982085e-003 0. 0. 0. 0. 0. 0. 6.70443237e-001 0. 0. 0. 0. 0.
      0. 0. 0. 0. 0. 0. 0. 0. 0. 0. 0. 0. 0. 0. 0. 0. 0. 0. 0. 0. 0. 0.
      0. 0. 0. 0. 0. 0. 0. 0. 0. 0. 0. 0. 0. 0. 0. 0. 0. 0. 0. 0. 0. 0.
      0. 0. 0. 0. 0. 0. 0. 0. 0. 0. 0. 0. 0. 0. 0. 0. 0. 0. 0. 0.
      2.49003991e-004 0. 0. 0. 0. 0. 0. 0. 0. 0. 0. 1.43177295e-003 0.
      0. 0. 0. 0. 0. 0. 0. 0. 0. 4.98007983e-003 0. 0. 0. 0. 0. 0. 0. 0.
      0. 0. 1.50647415e-002 0. 0. 0. 0. 0. 0. 0. 0. 0. 0.
      2.75149401e-002 0. 0. 0. 0. 0. 0. 0. 0. 0. 0. 3.71638462e-002 0.
      0. 0. 0. 0. 0. 0. 0. 0. 0. 5.31000979e-002 0. 0. 0. 0. 0. 0. 0. 0.
      0. 0. 6.44297823e-002 6.15039840e-002 0. 0. 0. 0. 0. 0. 0. 0. 0.
      5.78934252e-002 0. 0. 0. 0. 0. 0. 0. 0. 0. 0. 5.16683282e-003 0.
      0. 0. 0. 0. 0. 6.71501517e-001 0. 0. 0.</_>
    <_>
      9.67920350e-004 0. 0. 0. 0. 0. 0. 0. 0. 0. 0. 6.22234493e-003 0.
      0. 0. 0. 0. 0. 0. 0. 0. 0. 7.46681402e-003 1.27212387e-002 0. 0.
      0. 0. 0. 0. 0. 0. 0. 1.00940261e-002 4.74280976e-002 0. 0. 0. 0.
      0. 0. 0. 0. 0. 7.32853962e-003 1.63163710e-002 0. 0. 0. 0. 0. 0.
      0. 0. 0. 7.88163673e-003 0. 0. 0. 0. 0. 0. 0. 0. 0. 0.
      6.36061933e-003 0. 0. 0. 0. 0. 0. 0. 0. 0. 0. 1.24446899e-002 0.
      0. 0. 0. 0. 0. 0. 0. 0. 0. 3.59513285e-003 0. 0. 0. 0. 0. 0. 0. 0.
      0. 0. 3.87168140e-003 0. 0. 0. 0. 0. 0. 0. 0. 0. 0.
      5.53097343e-003 0. 0. 0. 0. 0. 0. 0. 0. 0. 0. 1.52101768e-002 0.
      0. 0. 0. 0. 0. 0. 0. 0. 0. 1.81139372e-002 0. 0. 0. 0. 0. 0. 0. 0.
      0. 0. 3.34623903e-002 0. 0. 0. 0. 0. 0. 0. 0. 0. 0.
      1.08268805e-001 0. 0. 0. 0. 0. 0. 0. 0. 0. 0. 2.62721232e-003 0.
      0. 0. 0. 0. 0. 6.74087405e-001 0. 0. 0. 4.70132753e-003 0. 0. 0.
      0. 0. 0. 0. 0. 0. 0. 9.81747825e-003 1.03705749e-002 0. 0. 0. 0.
      0. 0. 0. 0. 0. 1.10619469e-002 1.16150444e-002 0. 0. 0. 0. 0. 0.
      0. 0. 0. 7.32853962e-003 3.71957980e-002 0. 0. 0. 0. 0. 0. 0. 0.
      0. 8.98783188e-003 1.32743362e-002 0. 0. 0. 0. 0. 0. 0. 0. 0.
      6.22234493e-003 0. 0. 0. 0. 0. 0. 0. 0. 0. 0. 7.60508841e-003 0.
      0. 0. 0. 0. 0. 0. 0. 0. 0. 5.25442464e-003 0. 0. 0. 0. 0. 0. 0. 0.
      0. 0. 9.67920385e-003 0. 0. 0. 0. 0. 0. 0. 0. 0. 0.
      2.07411498e-003 0. 0. 0. 0. 0. 0. 0. 0. 0. 0. 5.66924782e-003 0.
      0. 0. 0. 0. 0. 0. 0. 0. 0. 1.34126106e-002 0. 0. 0. 0. 0. 0. 0. 0.
      0. 0. 1.12002213e-002 0. 0. 0. 0. 0. 0. 0. 0. 0. 0.
      2.01880522e-002 0. 0. 0. 0. 0. 0. 0. 0. 0. 0. 9.25055295e-002 0.
      0. 0. 0. 0. 0. 0. 0. 0. 0. 5.53097343e-004 0. 0. 0. 0. 0. 0. 0.
      7.11283207e-001 0. 0. 4.28650435e-003 1.03705749e-002 0. 0. 0. 0.
      0. 0. 0. 0. 0. 1.50719024e-002 0. 0. 0. 0. 0. 0. 0. 0. 0. 0.
      2.01880522e-002 0. 0. 0. 0. 0. 0. 0. 0. 0. 0. 4.97787632e-003 0.
      5.00553101e-002 0. 0. 0. 0. 0. 0. 0. 0. 8.01991113e-003 0. 0. 0.
      0. 0. 0. 0. 0. 0. 0. 4.00995556e-003 0. 0. 0. 0. 0. 0. 0. 0. 0. 0.
      6.08407101e-003 0. 0. 0. 0. 0. 0. 0. 0. 0. 0. 1.21681420e-002 0.
      0. 0. 0. 0. 0. 0. 0. 0. 0. 1.79756642e-003 0. 0. 0. 0. 0. 0. 0. 0.
      0. 0. 3.73340701e-003 0. 0. 0. 0. 0. 0. 0. 0. 0. 0.
      6.36061933e-003 0. 0. 0. 0. 0. 0. 0. 0. 0. 0. 1.52101768e-002 0.
      0. 0. 0. 0. 0. 0. 0. 0. 0. 1.60398223e-002 0. 0. 0. 0. 0. 0. 0. 0.
      0. 0. 3.13882753e-002 0. 0. 0. 0. 0. 0. 0. 0. 0. 0.
      1.08545355e-001 0. 0. 0. 0. 0. 0. 0. 0. 0. 0. 5.53097343e-004 0.
      0. 0. 0. 0. 0. 6.81139410e-001 0. 0. 0.</_>
    <_>
      0. 0. 0. 0. 0. 0. 0. 0. 0. 0. 0. 0. 0. 0. 0. 0. 0. 0. 0. 0. 0. 0.
      0. 0. 0. 0. 0. 0. 0. 0. 0. 0. 0. 0. 0. 0. 0. 0. 0. 0. 0. 0. 0. 0.
      5.51470614e-004 0. 0. 0. 0. 0. 0. 0. 0. 0. 0. 7.35294132e-004 0.
      0. 0. 0. 0. 0. 0. 0. 0. 0. 1.28676475e-003 0. 0. 0. 0. 0. 0. 0. 0.
      0. 0. 3.12500005e-003 0. 0. 0. 0. 0. 0. 0. 0. 0. 0.
      6.61764713e-003 0. 0. 0. 0. 0. 0. 0. 0. 0. 0. 8.82352982e-003 0.
      0. 0. 0. 0. 0. 0. 0. 0. 0. 9.37500037e-003 0. 0. 0. 0. 0. 0. 0. 0.
      0. 0. 1.41544119e-002 0. 0. 0. 0. 0. 0. 0. 0. 0. 0.
      2.27941182e-002 0. 0. 0. 0. 0. 0. 0. 0. 0. 0. 1.87500007e-002 0.
      0. 0. 0. 0. 0. 0. 0. 0. 0. 1.87500007e-002 0. 0. 0. 0. 0. 0. 0. 0.
      0. 0. 1.52573530e-002 0. 0. 0. 0. 0. 0. 0. 0. 8.79779398e-001 0.
      0. 0. 0. 0. 0. 0. 0. 0. 0. 0. 0. 0. 0. 0. 0. 0. 0. 0. 0. 0. 0. 0.
      0. 0. 0. 0. 0. 0. 0. 0. 0. 0. 0. 0. 0. 0. 0. 0. 0. 0. 0. 0. 0. 0.
      5.51470614e-004 0. 0. 0. 0. 0. 0. 0. 0. 0. 0. 7.35294132e-004 0.
      0. 0. 0. 0. 0. 0. 0. 0. 0. 1.28676475e-003 0. 0. 0. 0. 0. 0. 0. 0.
      0. 0. 3.12500005e-003 0. 0. 0. 0. 0. 0. 0. 0. 0. 0.
      6.61764713e-003 0. 0. 0. 0. 0. 0. 0. 0. 0. 0. 8.82352982e-003 0.
      0. 0. 0. 0. 0. 0. 0. 0. 0. 9.37500037e-003 0. 0. 0. 0. 0. 0. 0. 0.
      0. 0. 1.41544119e-002 0. 0. 0. 0. 0. 0. 0. 0. 0. 0.
      2.27941182e-002 0. 0. 0. 0. 0. 0. 0. 0. 0. 0. 1.87500007e-002 0.
      0. 0. 0. 0. 0. 0. 0. 0. 0. 1.87500007e-002 0. 0. 0. 0. 0. 0. 0. 0.
      0. 0. 1.52573530e-002 0. 0. 0. 0. 0. 0. 0. 0. 8.79779398e-001 0.
      0. 0. 0. 0. 0. 0. 0. 0. 0. 0. 0. 0. 0. 0. 0. 0. 0. 0. 0. 0. 0. 0.
      0. 0. 0. 0. 0. 0. 0. 0. 0. 0. 0. 0. 0. 0. 0. 0. 0. 0. 0. 0. 0. 0.
      5.51470614e-004 0. 0. 0. 0. 0. 0. 0. 0. 0. 0. 7.35294132e-004 0.
      0. 0. 0. 0. 0. 0. 0. 0. 0. 1.28676475e-003 0. 0. 0. 0. 0. 0. 0. 0.
      0. 0. 3.12500005e-003 0. 0. 0. 0. 0. 0. 0. 0. 0. 0.
      6.61764713e-003 0. 0. 0. 0. 0. 0. 0. 0. 0. 0. 8.82352982e-003 0.
      0. 0. 0. 0. 0. 0. 0. 0. 0. 9.37500037e-003 0. 0. 0. 0. 0. 0. 0. 0.
      0. 0. 1.41544119e-002 0. 0. 0. 0. 0. 0. 0. 0. 0. 0.
      2.27941182e-002 0. 0. 0. 0. 0. 0. 0. 0. 0. 0. 1.87500007e-002 0.
      0. 0. 0. 0. 0. 0. 0. 0. 0. 1.87500007e-002 0. 0. 0. 0. 0. 0. 0. 0.
      0. 0. 1.52573530e-002 0. 0. 0. 0. 0. 0. 0. 0. 8.79779398e-001 0.</_>
    <_>
      0. 0. 0. 0. 0. 0. 0. 0. 0. 0. 0. 0. 0. 0. 0. 0. 0. 0. 0. 0. 0. 0.
      0. 0. 0. 0. 0. 0. 0. 0. 0. 0. 0. 0. 0. 0. 0. 0. 0. 0. 0. 0. 0. 0.
      0. 0. 0. 0. 0. 0. 0. 0. 0. 0. 0. 0. 0. 0. 0. 0. 0. 0. 0. 0. 0. 0.
      0. 0. 0. 0. 0. 0. 0. 0. 0. 0. 0. 1.59438772e-004 0. 0. 0. 0. 0. 0.
      0. 0. 0. 0. 2.07270402e-003 0. 0. 0. 0. 0. 0. 0. 0. 0. 0.
      6.37755124e-003 0. 0. 0. 0. 0. 0. 0. 0. 0. 0. 1.70599483e-002 0.
      0. 0. 0. 0. 0. 0. 0. 0. 0. 3.87436226e-002 0. 0. 0. 0. 0. 0. 0. 0.
      0. 0. 5.58035709e-002 0. 0. 0. 0. 0. 0. 0. 0. 0. 0.
      7.31823966e-002 0. 0. 0. 0. 0. 0. 0. 0. 0. 0. 2.23214296e-003 0.
      0. 0. 0. 0. 0. 0. 0. 8.04368615e-001 0. 0. 0. 0. 0. 0. 0. 0. 0. 0.
      0. 0. 0. 0. 0. 0. 0. 0. 0. 0. 0. 0. 0. 0. 0. 0. 0. 0. 0. 0. 0. 0.
      0. 0. 0. 0. 0. 0. 0. 0. 0. 0. 0. 0. 0. 0. 0. 0. 0. 0. 0. 0. 0. 0.
      0. 0. 0. 0. 0. 0. 0. 0. 0. 0. 0. 0. 0. 0. 0. 0. 0. 0. 0. 0. 0. 0.
      0. 0. 0. 0. 0. 0. 0. 0. 0. 0. 0. 0. 0. 0. 0. 0. 0. 0. 0. 0. 0. 0.
      0. 0. 1.59438772e-004 0. 0. 0. 0. 0. 0. 0. 0. 0. 0.
      1.91326533e-003 0. 0. 0. 0. 0. 0. 0. 0. 0. 0. 4.46428591e-003 0.
      0. 0. 0. 0. 0. 0. 0. 0. 0. 1.27551025e-002 0. 0. 0. 0. 0. 0. 0. 0.
      0. 0. 3.18877548e-002 0. 0. 0. 0. 0. 0. 0. 0. 0. 0.
      5.05420901e-002 0. 0. 0. 0. 0. 0. 0. 0. 0. 0. 7.23852068e-002 0.
      0. 0. 0. 0. 0. 0. 0. 0. 0. 2.23214296e-003 0. 0. 0. 0. 0. 0. 0. 0.
      8.23660731e-001 0. 0. 0. 0. 0. 0. 0. 0. 0. 0. 0. 0. 0. 0. 0. 0. 0.
      0. 0. 0. 0. 0. 0. 0. 0. 0. 0. 0. 0. 0. 0. 0. 0. 0. 0. 0. 0. 0. 0.
      0. 0. 0. 0. 0. 0. 0. 0. 0. 0. 0. 0. 0. 0. 0. 0. 0. 0. 0. 0. 0. 0.
      0. 0. 0. 0. 0. 0. 0. 0. 0. 0. 0. 0. 0. 0. 0. 0. 0. 0. 0. 0. 0. 0.
      0. 0. 0. 0. 0. 0. 0. 0. 0. 0. 0. 0. 0. 0. 0. 0. 0. 1.91326533e-003
      0. 0. 0. 0. 0. 0. 0. 0. 0. 0. 3.66709195e-003 0. 0. 0. 0. 0. 0. 0.
      0. 0. 0. 1.24362241e-002 0. 0. 0. 0. 0. 0. 0. 0. 0. 0.
      2.91772950e-002 0. 0. 0. 0. 0. 0. 0. 0. 0. 0. 5.38903065e-002 0.
      0. 0. 0. 0. 0. 0. 0. 0. 0. 7.19068870e-002 0. 0. 0. 0. 0. 0. 0. 0.
      0. 0. 3.02933669e-003 0. 0. 0. 0. 0. 0. 0. 0. 8.23979616e-001 0.</_>
    <_>
      0. 0. 0. 0. 0. 0. 0. 0. 0. 0. 0. 0. 0. 0. 0. 0. 0. 0. 0. 0. 0. 0.
      0. 0. 0. 0. 0. 0. 0. 0. 0. 0. 0. 0. 0. 0. 0. 0. 0. 0. 0. 0. 0. 0.
      0. 0. 0. 0. 0. 0. 0. 0. 0. 0. 0. 1.79036462e-003 0. 0. 0. 0. 0. 0.
      0. 0. 0. 0. 1.46484375e-003 0. 0. 0. 0. 0. 0. 0. 0. 0. 0.
      1.46484375e-003 0. 0. 0. 0. 0. 0. 0. 0. 0. 0. 4.23177099e-003 0.
      0. 0. 0. 0. 0. 0. 0. 0. 0. 1.10677080e-002 0. 0. 0. 0. 0. 0. 0. 0.
      0. 0. 1.43229170e-002 0. 0. 0. 0. 0. 0. 0. 0. 0. 0.
      1.92057285e-002 0. 0. 0. 0. 0. 0. 0. 0. 0. 0. 2.36002598e-002 0.
      0. 0. 0. 0. 0. 0. 0. 0. 0. 6.38020858e-002 0. 0. 0. 0. 0. 0. 0. 0.
      0. 0. 1.70898438e-002 5.09440117e-002 0. 2.43326828e-001 0. 0. 0.
      0. 0. 0. 0. 2.37630215e-002 1.08398438e-001 0. 0. 0.
      4.15527344e-001 0. 0. 0. 0. 0. 0. 0. 0. 0. 0. 0. 0. 0. 0. 0. 0. 0.
      0. 0. 0. 0. 0. 0. 0. 0. 0. 0. 0. 0. 0. 0. 0. 0. 0. 0. 0. 0. 0. 0.
      0. 0. 0. 0. 0. 0. 0. 0. 0. 0. 0. 0. 0. 0. 0. 0. 0. 0. 0. 0. 0. 0.
      0. 0. 0. 0. 0. 0. 0. 0. 0. 0. 1.79036462e-003 0. 0. 0. 0. 0. 0. 0.
      0. 0. 0. 1.79036462e-003 0. 0. 0. 0. 0. 0. 0. 0. 0. 0.
      1.30208337e-003 0. 0. 0. 0. 0. 0. 0. 0. 0. 0. 1.62760413e-003 0.
      0. 0. 0. 0. 0. 0. 0. 0. 0. 3.58072924e-003 0. 0. 0. 0. 0. 0. 0. 0.
      0. 0. 1.44856768e-002 0. 0. 0. 0. 0. 0. 0. 0. 0. 0.
      2.01822910e-002 0. 0. 0. 0. 0. 0. 0. 0. 0. 0. 2.94596348e-002 0.
      0. 0. 0. 0. 0. 0. 0. 0. 0. 6.59179688e-002 4.06901054e-002 0. 0.
      0. 0. 0. 0. 0. 0. 0. 1.62760422e-004 0. 0. 0. 0. 0. 0. 0. 0.
      8.19010437e-001 0. 0. 0. 0. 0. 0. 0. 0. 0. 0. 0. 0. 0. 0. 0. 0. 0.
      0. 0. 0. 0. 0. 0. 0. 0. 0. 0. 0. 0. 0. 0. 0. 0. 0. 0. 0. 0. 0. 0.
      0. 0. 0. 0. 0. 0. 0. 0. 0. 0. 0. 0. 0. 0. 0. 0. 0. 0. 0. 0. 0. 0.
      0. 0. 0. 0. 0. 0. 1.79036462e-003 0. 0. 0. 0. 0. 0. 0. 0. 0. 0.
      8.13802064e-004 0. 0. 0. 0. 0. 0. 0. 0. 0. 0. 2.11588549e-003 0.
      0. 0. 0. 0. 0. 0. 0. 0. 0. 1.46484375e-003 0. 0. 0. 0. 0. 0. 0. 0.
      0. 0. 1.79036462e-003 0. 0. 0. 0. 0. 0. 0. 0. 0. 0.
      3.09244799e-003 0. 0. 0. 0. 0. 0. 0. 0. 0. 0. 2.60416674e-003 0.
      0. 0. 0. 0. 0. 0. 0. 0. 0. 7.97526073e-003 0. 0. 0. 0. 0. 0. 0. 0.
      0. 0. 2.53906250e-002 0. 0. 0. 0. 0. 0. 0. 0. 0. 0. 0. 0. 0. 0. 0.
      0. 0. 0. 0. 0. 9.52962220e-001</_>
    <_>
      0. 0. 0. 0. 0. 0. 0. 0. 0. 0. 0. 0. 0. 0. 0. 0. 0. 0. 0. 0. 0. 0.
      0. 0. 0. 0. 0. 0. 0. 0. 0. 0. 0. 0. 0. 0. 0. 0. 0. 0. 0. 0. 0. 0.
      0. 0. 0. 0. 0. 0. 0. 0. 0. 0. 0. 2.11148639e-003 0. 0. 0. 0. 0. 0.
      0. 0. 0. 0. 7.81250000e-003 0. 0. 0. 0. 0. 0. 0. 0. 0. 0.
      7.81250000e-003 0. 0. 0. 0. 0. 0. 0. 0. 0. 0. 9.71283764e-003 0.
      0. 0. 0. 0. 0. 0. 0. 0. 0. 1.03462841e-002 0. 0. 0. 0. 0. 0. 0. 0.
      0. 0. 1.03462841e-002 0. 0. 0. 0. 0. 0. 0. 0. 0. 0.
      2.38597970e-002 0. 0. 0. 0. 0. 0. 0. 0. 0. 0. 3.77956070e-002 0.
      0. 0. 0. 0. 0. 0. 0. 0. 0. 5.34206070e-002 0. 0. 0. 0. 0. 0. 0. 0.
      0. 0. 3.33614871e-002 0. 0. 0. 0. 0. 0. 0. 0. 0. 0.
      8.44594615e-004 0. 0. 0. 0. 0. 0. 0. 0. 8.02576005e-001 0. 0. 0.
      0. 0. 0. 0. 0. 0. 0. 0. 0. 0. 0. 0. 0. 0. 0. 0. 0. 0. 0. 0.
      4.22297308e-004 0. 0. 0. 0. 0. 0. 0. 0. 0. 0. 4.64527030e-003 0.
      0. 0. 0. 0. 0. 0. 0. 0. 0. 6.75675692e-003 0. 0. 0. 0. 0. 0. 0. 0.
      0. 0. 6.54560793e-003 0. 0. 0. 0. 0. 0. 0. 0. 0. 0.
      6.33445941e-003 0. 0. 0. 0. 0. 0. 0. 0. 0. 0. 9.07939207e-003 0.
      0. 0. 0. 0. 0. 0. 0. 0. 0. 1.43581079e-002 0. 0. 0. 0. 0. 0. 0. 0.
      0. 0. 1.83699317e-002 0. 0. 0. 0. 0. 0. 0. 0. 0. 0.
      2.82939188e-002 0. 0. 0. 0. 0. 0. 0. 0. 0. 0. 3.08277030e-002 0.
      0. 0. 0. 0. 0. 0. 0. 0. 0. 2.97719594e-002 0. 0. 0. 0. 0. 0. 0. 0.
      0. 0. 2.74493247e-002 0. 0. 0. 0. 0. 0. 0. 0. 0. 0.
      2.23817565e-002 0. 0. 0. 0. 0. 0. 0. 0. 0. 0. 6.33445918e-004 0.
      0. 0. 0. 0. 0. 0. 7.94130087e-001 0. 0. 0. 0. 0. 0. 0. 0. 0. 0. 0.
      0. 0. 0. 0. 0. 0. 0. 0. 0. 0. 0. 0. 0. 5.27871633e-003 0. 0. 0. 0.
      0. 0. 0. 0. 0. 0. 5.70101338e-003 0. 0. 0. 0. 0. 0. 0. 0. 0. 0.
      8.44594557e-003 0. 0. 0. 0. 0. 0. 0. 0. 0. 0. 1.09797297e-002 0.
      0. 0. 0. 0. 0. 0. 0. 0. 0. 9.07939207e-003 0. 0. 0. 0. 0. 0. 0. 0.
      0. 0. 1.09797297e-002 0. 0. 0. 0. 0. 0. 0. 0. 0. 0.
      7.17905397e-003 0. 0. 0. 0. 0. 0. 0. 0. 0. 0. 7.39020249e-003 0.
      0. 0. 0. 0. 0. 0. 0. 0. 0. 1.64695941e-002 0. 0. 0. 0. 0. 0. 0. 0.
      0. 0. 2.36486495e-002 0. 0. 0. 0. 0. 0. 0. 0. 0. 0.
      2.61824317e-002 0. 0. 0. 0. 0. 0. 0. 0. 0. 0. 3.31503376e-002 0.
      0. 0. 0. 0. 0. 0. 0. 0. 0. 3.37837823e-002 0. 0. 0. 0. 0. 0. 0. 0.
      0. 0. 2.11148654e-004 0. 0. 0. 0. 0. 0. 0. 0. 8.01520288e-001 0.</_>
    <_>
      0. 0. 0. 0. 0. 0. 0. 0. 0. 0. 0. 0. 0. 0. 0. 0. 0. 0. 0. 0. 0. 0.
      0. 0. 0. 0. 0. 0. 0. 0. 0. 0. 0. 1.04166672e-003 2.93154754e-002
      0. 0. 0. 0. 0. 0. 0. 0. 0. 1.11607146e-002 4.52380963e-002 0. 0.
      0. 0. 0. 0. 0. 0. 0. 1.19047624e-003 0. 0. 0. 0. 0. 0. 0. 0. 0. 0.
      1.04166672e-003 0. 0. 0. 0. 0. 0. 0. 0. 0. 0. 2.11309530e-002 0.
      0. 0. 0. 0. 0. 0. 0. 0. 0. 2.05357149e-002 0. 0. 0. 0. 0. 0. 0. 0.
      0. 0. 4.76190494e-003 0. 0. 0. 0. 0. 0. 0. 0. 0. 0.
      8.03571474e-003 0. 0. 0. 0. 0. 0. 0. 0. 0. 0. 1.99404769e-002 0.
      0. 0. 0. 0. 0. 0. 0. 0. 0. 3.18452381e-002 0. 0. 0. 0. 0. 0. 0. 0.
      0. 0. 3.18452381e-002 0. 0. 0. 0. 0. 0. 0. 0. 0. 0.
      3.22916657e-002 0. 1.12351194e-001 0. 0. 0. 0. 0. 0. 0. 0. 0. 0.
      9.37500000e-002 0. 0. 0. 5.34523785e-001 0. 0. 0. 0. 0. 0. 0. 0.
      0. 0. 0. 0. 0. 0. 0. 0. 0. 0. 0. 0. 0. 0. 0. 0. 0. 0. 0. 0. 0. 0.
      0. 0. 0. 0. 0. 0. 0. 0. 0. 0. 0. 0. 0. 0. 0. 0. 0. 0. 0. 0. 0. 0.
      0. 0. 0. 0. 0. 0. 0. 0. 0. 0. 0. 0. 0. 0. 0. 0. 0. 0. 0. 0. 0. 0.
      0. 0. 0. 0. 0. 0. 0. 0. 0. 0. 0. 0. 0. 0. 0. 0. 0. 0. 0. 0. 0. 0.
      0. 0. 0. 0. 0. 0. 0. 1.63690478e-003 2.97619049e-002 0. 0. 0. 0.
      0. 0. 0. 0. 0. 3.27380956e-003 0. 0. 0. 0. 0. 0. 0. 0. 0. 0.
      2.08333340e-002 0. 0. 0. 0. 0. 0. 0. 0. 0. 0. 1.54761905e-002 0.
      0. 0. 0. 0. 0. 0. 0. 0. 0. 5.26785702e-002 6.04166649e-002 0. 0.
      0. 0. 0. 0. 0. 0. 0. 5.44642843e-002 0. 1.12351194e-001 0. 0. 0.
      0. 0. 0. 0. 0. 0. 0. 9.37500000e-002 0. 0. 0. 5.55357158e-001 0.
      0. 0. 0. 0. 0. 0. 0. 0. 0. 0. 0. 0. 0. 0. 0. 0. 0. 0. 0. 0. 0. 0.
      0. 0. 0. 0. 0. 0. 0. 0. 0. 0. 0. 0. 0. 0. 0. 0. 0. 0. 0. 0. 0. 0.
      0. 0. 0. 0. 0. 0. 0. 0. 0. 0. 0. 0. 0. 0. 0. 0. 0. 0. 0. 0. 0. 0.
      0. 0. 0. 0. 0. 0. 0. 0. 0. 0. 0. 0. 0. 0. 0. 0. 0. 0. 0. 0. 0. 0.
      0. 0. 0. 0. 0. 0. 0. 0. 0. 0. 0. 0. 0. 0. 1.04166672e-003 0. 0. 0.
      0. 0. 0. 0. 0. 0. 0. 1.48809527e-003 0. 0. 0. 0. 0. 0. 0. 0. 0. 0.
      2.52976199e-003 0. 0. 0. 0. 0. 0. 0. 0. 0. 0. 1.01190479e-002
      2.97619049e-002 0. 0. 0. 0. 0. 0. 0. 0. 0. 5.10416664e-002 0. 0.
      0. 0. 0. 0. 0. 0. 0. 0. 4.56845239e-002 0. 1.12351194e-001 0. 0.
      0. 0. 0. 0. 0. 0. 0. 0. 9.37500000e-002 0. 0. 0. 0.
      6.52232170e-001 0. 0. 0.</_>
    <_>
      0. 0. 0. 0. 0. 0. 0. 0. 0. 0. 0. 1.68918923e-003 0. 0. 0. 0. 0. 0.
      0. 0. 0. 0. 0. 2.71677934e-002 0. 0. 0. 0. 0. 0. 0. 0. 0.
      2.11148639e-003 1.28096845e-002 0. 0. 0. 0. 0. 0. 0. 0. 0.
      2.11148639e-003 0. 0. 0. 0. 0. 0. 0. 0. 0. 0. 3.37837846e-003 0.
      0. 0. 0. 0. 0. 0. 0. 0. 0. 1.06981983e-002 2.61824317e-002 0. 0.
      0. 0. 0. 0. 0. 0. 0. 9.43130627e-003 0. 0. 0. 0. 0. 0. 0. 0. 0. 0.
      1.19650904e-002 0. 0. 0. 0. 0. 0. 0. 0. 0. 0. 9.71283764e-003 0.
      0. 0. 0. 0. 0. 0. 0. 0. 0. 8.72747786e-003 5.09572066e-002 0. 0.
      0. 0. 0. 0. 0. 0. 0. 2.59009004e-002 0. 0. 0. 0. 0. 0. 0. 0. 0. 0.
      3.33614871e-002 0. 0. 0. 0. 0. 0. 0. 0. 0. 0. 2.42117122e-002
      3.11092343e-002 0. 0. 0. 0. 0. 0. 0. 0. 0. 3.58952694e-002
      1.02759013e-002 0. 0. 0. 0. 0. 0. 0. 0. 0. 0. 0. 0. 0. 0. 0. 0.
      6.62302911e-001 0. 0. 0. 0. 0. 0. 0. 0. 0. 0. 0. 0. 0. 0.
      1.68918923e-003 0. 0. 0. 0. 0. 0. 0. 0. 0. 0. 1.68918923e-003
      2.61824317e-002 0. 0. 0. 0. 0. 0. 0. 0. 0. 4.22297308e-004 0. 0.
      0. 0. 0. 0. 0. 0. 0. 0. 6.89752260e-003 0. 0. 0. 0. 0. 0. 0. 0. 0.
      0. 5.91216236e-003 0. 0. 0. 0. 0. 0. 0. 0. 0. 0. 8.86824355e-003
      1.09797297e-002 0. 0. 0. 0. 0. 0. 0. 0. 0. 6.61599077e-003 0. 0.
      0. 0. 0. 0. 0. 0. 0. 0. 8.58671125e-003 0. 0. 0. 0. 0. 0. 0. 0. 0.
      0. 9.57207195e-003 5.08164428e-002 0. 0. 0. 0. 0. 0. 0. 0. 0.
      1.57657657e-002 0. 0. 0. 0. 0. 0. 0. 0. 0. 0. 3.75844613e-002
      2.33671162e-002 0. 0. 0. 0. 0. 0. 0. 0. 0. 2.12556310e-002 0. 0.
      0. 0. 0. 0. 0. 0. 0. 0. 4.03997749e-002 3.11092343e-002 0. 0. 0.
      0. 0. 0. 0. 0. 0. 3.12500000e-002 0. 0. 0. 0. 0. 0. 0. 0. 0. 0. 0.
      0. 0. 0. 0. 0. 0. 6.61036015e-001 0. 0. 0. 2.53378367e-003
      4.42004502e-002 5.85585572e-002 0. 0. 0. 0. 0. 0. 0. 0.
      2.25225231e-003 0. 0. 0. 0. 0. 0. 0. 0. 0. 0. 5.48986485e-003 0.
      0. 0. 0. 0. 0. 0. 0. 0. 0. 3.37837846e-003 0. 0. 0. 0. 0. 0. 0. 0.
      0. 0. 5.06756734e-003 0. 0. 0. 0. 0. 0. 0. 0. 0. 0.
      2.78716218e-002 0. 0. 0. 0. 0. 0. 0. 0. 0. 0. 3.09684686e-003
      1.09797297e-002 0. 0. 0. 0. 0. 0. 0. 0. 0. 2.67454959e-003 0. 0.
      0. 0. 0. 0. 0. 0. 0. 0. 6.05292805e-003 2.32263505e-002 0. 0. 0.
      0. 0. 0. 0. 0. 0. 8.44594557e-003 0. 0. 0. 0. 0. 0. 0. 0. 0. 0.
      3.08277030e-002 0. 0. 0. 0. 0. 0. 0. 0. 0. 0. 1.43581079e-002 0.
      0. 0. 0. 0. 0. 0. 0. 0. 0. 1.42173423e-002 0. 0. 0. 0. 0. 0. 0. 0.
      0. 0. 2.37894151e-002 3.11092343e-002 0. 0. 0. 0. 0. 0. 0. 0. 0.
      2.37894151e-002 0. 0. 0. 0. 0. 0. 0. 0. 0. 0. 0. 0. 0. 0. 0. 0. 0.
      6.58079982e-001 0. 0. 0.</_>
    <_>
      0. 0. 0. 0. 0. 0. 0. 0. 0. 0. 0. 0. 0. 0. 0. 0. 0. 0. 0. 0. 0. 0.
      0. 0. 0. 0. 0. 0. 0. 0. 0. 0. 0. 0. 0. 0. 0. 0. 0. 0. 0. 0. 0. 0.
      5.95238118e-004 0. 0. 0. 0. 0. 0. 0. 0. 0. 0. 1.78571430e-003 0.
      0. 0. 0. 0. 0. 0. 0. 0. 0. 5.75396838e-003 0. 0. 0. 0. 0. 0. 0. 0.
      0. 0. 5.55555569e-003 1.28968256e-002 0. 0. 0. 0. 0. 0. 0. 0. 0.
      1.32936509e-002 0. 0. 0. 0. 0. 0. 0. 0. 0. 0. 1.60714295e-002 0.
      0. 0. 0. 0. 0. 0. 0. 0. 0. 2.04365086e-002 0. 0. 0. 0. 0. 0. 0. 0.
      0. 0. 3.43253985e-002 0. 0. 0. 0. 0. 0. 0. 0. 0. 0.
      4.20634933e-002 0. 0. 0. 0. 0. 0. 0. 0. 0. 0. 4.22619060e-002 0.
      0. 0. 0. 0. 0. 0. 0. 0. 0. 4.34523821e-002 0. 0. 0. 0. 0. 0. 0. 0.
      0. 0. 1.58730161e-003 0. 0. 0. 0. 0. 0. 0. 7.59920657e-001 0. 0.
      0. 0. 0. 0. 0. 0. 0. 0. 0. 0. 0. 0. 0. 0. 0. 0. 0. 0. 0. 0. 0. 0.
      0. 0. 0. 0. 0. 0. 0. 0. 0. 0. 0. 0. 0. 0. 0. 0. 0. 0. 0. 0. 0. 0.
      5.95238118e-004 0. 0. 0. 0. 0. 0. 0. 0. 0. 0. 1.78571430e-003 0.
      0. 0. 0. 0. 0. 0. 0. 0. 0. 7.34126987e-003 0. 0. 0. 0. 0. 0. 0. 0.
      0. 0. 1.40873017e-002 0. 0. 0. 0. 0. 0. 0. 0. 0. 0.
      1.07142860e-002 0. 0. 0. 0. 0. 0. 0. 0. 0. 0. 1.74603183e-002 0.
      0. 0. 0. 0. 0. 0. 0. 0. 0. 1.60714295e-002 0. 0. 0. 0. 0. 0. 0. 0.
      0. 0. 2.83730160e-002 0. 0. 0. 0. 0. 0. 0. 0. 0. 0.
      3.69047634e-002 0. 0. 0. 0. 0. 0. 0. 0. 0. 0. 4.70238104e-002 0.
      0. 0. 0. 0. 0. 0. 0. 0. 0. 5.45634925e-002 0. 0. 0. 0. 0. 0. 0. 0.
      0. 0. 2.18253979e-003 0. 0. 0. 0. 0. 0. 0. 7.62896836e-001 0. 0.
      0. 0. 0. 0. 0. 0. 0. 0. 0. 0. 0. 0. 0. 0. 0. 0. 0. 0. 0. 0. 0. 0.
      0. 0. 0. 0. 0. 0. 0. 0. 0. 0. 0. 0. 0. 0. 0. 0. 0. 0. 0. 0. 0. 0.
      0. 0. 0. 0. 0. 0. 0. 0. 0. 0. 0. 0. 0. 0. 0. 0. 0. 0. 0. 0. 0. 0.
      0. 0. 0. 0. 0. 0. 0. 0. 0. 0. 0. 0. 0. 0. 0. 0. 0. 0. 0. 0. 0. 0.
      0. 0. 0. 0. 0. 0. 0. 0. 0. 0. 0. 3.96825420e-003 0. 0. 0. 0. 0. 0.
      0. 0. 0. 0. 1.09126987e-002 0. 0. 0. 0. 0. 0. 0. 0. 0. 0.
      2.10317466e-002 0. 0. 0. 0. 0. 0. 0. 0. 0. 0. 2.89682541e-002
      1.86507944e-002 0. 0. 0. 0. 0. 0. 0. 0. 0. 5.09920642e-002 0. 0.
      0. 0. 0. 0. 0. 0. 0. 0. 7.12301582e-002 1.11111114e-002 0. 0. 0.
      0. 0. 0. 0. 0. 0. 1.05158733e-002 0. 0. 0. 0. 0. 0. 0.
      7.72619069e-001 0. 0.</_>
    <_>
      0. 0. 0. 0. 0. 0. 0. 0. 0. 0. 0. 0. 0. 0. 0. 0. 0. 0. 0. 0. 0. 0.
      0. 0. 0. 0. 0. 0. 0. 0. 0. 0. 0. 0. 0. 0. 0. 0. 0. 0. 0. 0. 0. 0.
      0. 0. 0. 0. 0. 0. 0. 0. 0. 0. 0. 1.92901236e-004 0. 0. 0. 0. 0. 0.
      0. 0. 0. 0. 0. 0. 0. 0. 0. 0. 0. 0. 0. 0. 0. 3.85802472e-004 0. 0.
      0. 0. 0. 0. 0. 0. 0. 0. 5.78703708e-004 0. 0. 0. 0. 0. 0. 0. 0. 0.
      0. 2.89351842e-003 0. 0. 0. 0. 0. 0. 0. 0. 0. 0. 1.81327164e-002
      0. 0. 0. 0. 0. 0. 0. 0. 0. 0. 2.33410485e-002 1.25385802e-002 0.
      0. 0. 0. 0. 0. 0. 0. 0. 4.07021604e-002 0. 1.03973769e-001 0. 0.
      0. 0. 0. 0. 0. 0. 3.16358022e-002 0. 0. 0. 0. 0. 0. 0. 0. 0. 0.
      9.83796269e-003 1.42746912e-002 0. 0. 0. 0. 0. 0. 0. 0. 0. 0. 0.
      0. 0. 0. 0. 0. 0. 7.41512358e-001 0. 0. 0. 0. 0. 0. 0. 0. 0. 0. 0.
      0. 0. 0. 0. 0. 0. 0. 0. 0. 0. 0. 0. 0. 0. 0. 0. 0. 0. 0. 0. 0. 0.
      0. 0. 1.92901236e-004 0. 0. 0. 0. 0. 0. 0. 0. 0. 0.
      3.85802472e-004 0. 0. 0. 0. 0. 0. 0. 0. 0. 0. 2.31481483e-003 0.
      0. 0. 0. 0. 0. 0. 0. 0. 0. 2.50771595e-003 0. 0. 0. 0. 0. 0. 0. 0.
      0. 0. 4.43672854e-003 0. 0. 0. 0. 0. 0. 0. 0. 0. 0.
      4.82253078e-003 0. 0. 0. 0. 0. 0. 0. 0. 0. 0. 1.04166670e-002 0.
      0. 0. 0. 0. 0. 0. 0. 0. 0. 4.57175933e-002 0. 0. 0. 0. 0. 0. 0. 0.
      0. 0. 3.89660485e-002 1.25385802e-002 0. 0. 0. 0. 0. 0. 0. 0. 0.
      6.32716045e-002 0. 1.04166664e-001 0. 0. 0. 0. 0. 0. 0. 0.
      4.41743843e-002 0. 0. 0. 0. 0. 0. 0. 0. 0. 0. 4.18595672e-002 0.
      0. 0. 0. 0. 0. 0. 0. 0. 0. 0. 0. 0. 0. 0. 0. 0. 6.24228418e-001 0.
      0. 0. 0. 0. 0. 0. 0. 0. 0. 0. 0. 0. 0. 0. 0. 0. 0. 0. 0. 0. 0. 0.
      0. 0. 0. 0. 0. 0. 0. 0. 0. 0. 0. 0. 0. 1.92901236e-004 0. 0. 0. 0.
      0. 0. 0. 0. 0. 0. 3.85802472e-004 0. 0. 0. 0. 0. 0. 0. 0. 0. 0.
      2.31481483e-003 0. 0. 0. 0. 0. 0. 0. 0. 0. 0. 2.50771595e-003 0.
      0. 0. 0. 0. 0. 0. 0. 0. 0. 4.43672854e-003 0. 0. 0. 0. 0. 0. 0. 0.
      0. 0. 4.82253078e-003 0. 0. 0. 0. 0. 0. 0. 0. 0. 0.
      1.04166670e-002 0. 0. 0. 0. 0. 0. 0. 0. 0. 0. 4.57175933e-002 0.
      0. 0. 0. 0. 0. 0. 0. 0. 0. 3.89660485e-002 1.25385802e-002 0. 0.
      0. 0. 0. 0. 0. 0. 0. 6.32716045e-002 0. 1.04166664e-001 0. 0. 0.
      0. 0. 0. 0. 0. 4.41743843e-002 0. 0. 0. 0. 0. 0. 0. 0. 0. 0.
      4.18595672e-002 0. 0. 0. 0. 0. 0. 0. 0. 0. 0. 0. 0. 0. 0. 0. 0. 0.
      6.24228418e-001 0. 0. 0.</_>
    <_>
      3.84221319e-003 0. 0. 0. 0. 0. 0. 0. 0. 0. 0. 5.12295077e-003 0.
      0. 0. 0. 0. 0. 0. 0. 0. 0. 4.16239770e-003 0. 0. 0. 0. 0. 0. 0. 0.
      0. 0. 4.03432362e-003 0. 0. 0. 0. 0. 0. 0. 0. 0. 0.
      3.97028681e-003 0. 0. 0. 0. 0. 0. 0. 0. 0. 0. 6.40368834e-003 0.
      0. 0. 0. 0. 0. 0. 0. 0. 0. 8.06864724e-003 0. 0. 0. 0. 0. 0. 0. 0.
      0. 0. 1.07581969e-002 0. 0. 0. 0. 0. 0. 0. 0. 0. 0.
      1.22950822e-002 0. 0. 0. 0. 0. 0. 0. 0. 0. 0. 1.06941601e-002 0.
      0. 0. 0. 0. 0. 0. 0. 0. 0. 9.92571749e-003 0. 0. 0. 0. 0. 0. 0. 0.
      0. 0. 8.26075859e-003 0. 0. 0. 0. 0. 0. 0. 0. 0. 0.
      7.81250000e-003 0. 0. 0. 0. 0. 0. 0. 0. 0. 0. 8.26075859e-003
      1.51127046e-002 0. 0. 0. 0. 0. 0. 0. 0. 0. 6.08350430e-003
      3.69492844e-002 0. 0. 0. 0. 0. 0. 0. 0. 0. 1.56890377e-002 0. 0.
      0. 0. 0. 0. 0. 0. 8.22553813e-001 0. 2.24129087e-003 0. 0. 0. 0.
      0. 0. 0. 0. 0. 0. 3.52202868e-003 0. 0. 0. 0. 0. 0. 0. 0. 0. 0.
      2.81762285e-003 0. 0. 0. 0. 0. 0. 0. 0. 0. 0. 5.57120889e-003 0.
      0. 0. 0. 0. 0. 0. 0. 0. 0. 3.97028681e-003 0. 0. 0. 0. 0. 0. 0. 0.
      0. 0. 5.89139340e-003 0. 0. 0. 0. 0. 0. 0. 0. 0. 0.
      7.49231549e-003 0. 0. 0. 0. 0. 0. 0. 0. 0. 0. 1.07581969e-002 0.
      0. 0. 0. 0. 0. 0. 0. 0. 0. 1.14626028e-002 0. 0. 0. 0. 0. 0. 0. 0.
      0. 0. 1.04380120e-002 0. 0. 0. 0. 0. 0. 0. 0. 0. 0.
      1.08222337e-002 0. 0. 0. 0. 0. 0. 0. 0. 0. 0. 1.05020488e-002 0.
      0. 0. 0. 0. 0. 0. 0. 0. 0. 9.02920123e-003 0. 0. 0. 0. 0. 0. 0. 0.
      0. 0. 8.58094264e-003 1.51127046e-002 0. 0. 0. 0. 0. 0. 0. 0. 0.
      5.76331979e-003 3.96388322e-002 0. 0. 0. 0. 0. 0. 0. 0. 0.
      1.44082988e-002 0. 0. 0. 0. 0. 0. 0. 0. 8.21977437e-001 0.
      2.04918021e-003 0. 0. 0. 0. 0. 0. 0. 0. 0. 0. 2.88165989e-003 0.
      0. 0. 0. 0. 0. 0. 0. 0. 0. 2.94569670e-003 0. 0. 0. 0. 0. 0. 0. 0.
      0. 0. 4.80276626e-003 0. 0. 0. 0. 0. 0. 0. 0. 0. 0.
      4.22643451e-003 0. 0. 0. 0. 0. 0. 0. 0. 0. 0. 5.89139340e-003 0.
      0. 0. 0. 0. 0. 0. 0. 0. 0. 6.85194694e-003 0. 0. 0. 0. 0. 0. 0. 0.
      0. 0. 1.10143442e-002 0. 0. 0. 0. 0. 0. 0. 0. 0. 0.
      1.04380120e-002 0. 0. 0. 0. 0. 0. 0. 0. 0. 0. 9.66956932e-003 0.
      0. 0. 0. 0. 0. 0. 0. 0. 0. 1.01818647e-002 0. 0. 0. 0. 0. 0. 0. 0.
      0. 0. 9.92571749e-003 0. 0. 0. 0. 0. 0. 0. 0. 0. 0.
      9.73360613e-003 0. 0. 0. 0. 0. 0. 0. 0. 0. 0. 1.15906764e-002
      1.50486678e-002 0. 0. 0. 0. 0. 0. 0. 0. 0. 7.10809417e-003
      3.66931334e-002 0. 0. 0. 0. 0. 0. 0. 0. 0. 1.56890377e-002 0. 0.
      0. 0. 0. 0. 0. 0. 8.23258221e-001 0.</_>
    <_>
      0. 0. 0. 0. 0. 0. 0. 0. 0. 0. 0. 0. 0. 0. 0. 0. 0. 0. 0. 0. 0. 0.
      0. 0. 0. 0. 0. 0. 0. 0. 0. 0. 0. 0. 0. 0. 0. 0. 0. 0. 0. 0. 0. 0.
      1.51699031e-004 0. 0. 0. 0. 0. 0. 0. 0. 0. 0. 3.79247562e-004 0.
      0. 0. 0. 0. 0. 0. 0. 0. 0. 1.13774277e-003 0. 0. 0. 0. 0. 0. 0. 0.
      0. 0. 3.10983020e-003 0. 0. 0. 0. 0. 0. 0. 0. 0. 0.
      5.91626205e-003 0. 0. 0. 0. 0. 0. 0. 0. 0. 0. 1.24393208e-002 0.
      0. 0. 0. 0. 0. 0. 0. 0. 0. 2.70024277e-002 0. 0. 0. 0. 0. 0. 0. 0.
      0. 0. 4.56614085e-002 0. 0. 0. 0. 0. 0. 0. 0. 0. 0.
      6.59132302e-002 0. 0. 0. 0. 0. 0. 0. 0. 0. 0. 8.57857987e-002 0.
      0. 0. 0. 0. 0. 0. 0. 0. 0. 9.30673555e-002 0. 0. 0. 0. 0. 0. 0. 0.
      0. 0. 8.34344700e-003 0. 0. 0. 0. 0. 0. 6.51092231e-001 0. 0. 0.
      0. 0. 0. 0. 0. 0. 0. 0. 0. 0. 0. 0. 0. 0. 0. 0. 0. 0. 0. 0. 0. 0.
      0. 0. 0. 0. 0. 0. 0. 0. 0. 0. 0. 0. 0. 0. 0. 0. 0. 0. 0. 0. 0. 0.
      7.58495153e-005 0. 0. 0. 0. 0. 0. 0. 0. 0. 0. 3.03398061e-004 0.
      0. 0. 0. 0. 0. 0. 0. 0. 0. 9.10194183e-004 0. 0. 0. 0. 0. 0. 0. 0.
      0. 0. 3.41322809e-003 0. 0. 0. 0. 0. 0. 0. 0. 0. 0.
      5.76456310e-003 0. 0. 0. 0. 0. 0. 0. 0. 0. 0. 1.14532765e-002 0.
      0. 0. 0. 0. 0. 0. 0. 0. 0. 2.44235434e-002 0. 0. 0. 0. 0. 0. 0. 0.
      0. 0. 4.55855578e-002 0. 0. 0. 0. 0. 0. 0. 0. 0. 0.
      6.35618940e-002 0. 0. 0. 0. 0. 0. 0. 0. 0. 0. 8.58616531e-002 0.
      0. 0. 0. 0. 0. 0. 0. 0. 0. 9.35224518e-002 0. 0. 0. 0. 0. 0. 0. 0.
      0. 0. 7.20570376e-003 0. 0. 0. 0. 0. 0. 6.57918692e-001 0. 0. 0.
      0. 0. 0. 0. 0. 0. 0. 0. 0. 0. 0. 0. 0. 0. 0. 0. 0. 0. 0. 0. 0. 0.
      0. 0. 0. 0. 0. 0. 0. 0. 0. 0. 0. 0. 0. 0. 0. 0. 0. 0. 0. 0. 0. 0.
      7.58495153e-005 0. 0. 0. 0. 0. 0. 0. 0. 0. 0. 4.55097092e-004 0.
      0. 0. 0. 0. 0. 0. 0. 0. 0. 9.10194183e-004 0. 0. 0. 0. 0. 0. 0. 0.
      0. 0. 3.33737861e-003 0. 0. 0. 0. 0. 0. 0. 0. 0. 0.
      6.14381069e-003 0. 0. 0. 0. 0. 0. 0. 0. 0. 0. 1.10740289e-002 0.
      0. 0. 0. 0. 0. 0. 0. 0. 0. 2.66990289e-002 0. 0. 0. 0. 0. 0. 0. 0.
      0. 0. 4.55097072e-002 0. 0. 0. 0. 0. 0. 0. 0. 0. 0.
      6.42445385e-002 0. 0. 0. 0. 0. 0. 0. 0. 0. 0. 8.37378651e-002 0.
      0. 0. 0. 0. 0. 0. 0. 0. 0. 9.41292495e-002 0. 0. 0. 0. 0. 0. 0. 0.
      0. 0. 8.34344700e-003 0. 0. 0. 0. 0. 0. 6.55339777e-001 0. 0. 0.</_>
    <_>
      0. 0. 0. 0. 0. 0. 0. 0. 0. 0. 0. 0. 0. 0. 0. 0. 0. 0. 0. 0. 0. 0.
      0. 0. 0. 0. 0. 0. 0. 0. 0. 0. 0. 0. 0. 0. 0. 0. 0. 0. 0. 0. 0. 0.
      0. 0. 0. 0. 0. 0. 0. 0. 0. 0. 0. 0. 0. 0. 0. 0. 0. 0. 0. 0. 0. 0.
      0. 0. 0. 0. 0. 0. 0. 0. 0. 0. 0. 0. 0. 0. 0. 0. 0. 0. 0. 0. 0. 0.
      3.36021505e-004 0. 0. 0. 0. 0. 0. 0. 0. 0. 0. 1.34408602e-003 0.
      0. 0. 0. 0. 0. 0. 0. 0. 0. 1.00806449e-002 0. 0. 0. 0. 0. 0. 0. 0.
      0. 0. 4.55309153e-002 0. 0. 0. 0. 0. 0. 0. 0. 0. 0.
      1.05174728e-001 0. 0. 0. 0. 0. 0. 0. 0. 0. 0. 1.27352148e-001 0.
      0. 0. 0. 0. 0. 0. 0. 0. 0. 3.36021505e-004 0. 0. 0. 0. 0. 0. 0.
      7.09845424e-001 0. 0. 0. 0. 0. 0. 0. 0. 0. 0. 0. 0. 0. 0. 0. 0. 0.
      0. 0. 0. 0. 0. 0. 0. 0. 0. 0. 0. 0. 0. 0. 0. 0. 0. 0. 0. 0. 0. 0.
      0. 0. 0. 0. 0. 0. 0. 0. 0. 0. 0. 0. 0. 0. 0. 0. 0. 0. 0. 0. 0. 0.
      0. 0. 0. 0. 0. 0. 0. 0. 0. 0. 0. 0. 0. 0. 0. 0. 0. 0. 0. 0. 0. 0.
      0. 0. 0. 0. 0. 0. 0. 0. 0. 0. 0. 0. 0. 0. 0. 0. 0. 0. 0. 0. 0. 0.
      0. 0. 0. 0. 0. 0. 0. 3.36021505e-004 0. 0. 0. 0. 0. 0. 0. 0. 0. 0.
      2.35215062e-003 0. 0. 0. 0. 0. 0. 0. 0. 0. 0. 1.68010760e-002 0.
      0. 0. 0. 0. 0. 0. 0. 0. 0. 6.11559153e-002 0. 0. 0. 0. 0. 0. 0. 0.
      0. 0. 1.22647852e-001 0. 0. 0. 0. 0. 0. 0. 0. 0. 0.
      6.72043010e-004 0. 0. 0. 0. 0. 0. 0. 7.92002678e-001 0. 0.
      4.03225794e-003 0. 0. 0. 0. 0. 0. 0. 0. 0. 0. 0. 0. 0. 0. 0. 0. 0.
      0. 0. 0. 0. 0. 0. 0. 0. 0. 0. 0. 0. 0. 0. 0. 0. 0. 0. 0. 0. 0. 0.
      0. 0. 0. 0. 0. 0. 0. 0. 0. 0. 0. 0. 0. 0. 0. 0. 0. 0. 0. 0. 0. 0.
      0. 0. 0. 0. 0. 0. 0. 0. 0. 0. 0. 0. 0. 0. 0. 0. 0. 0. 0. 0. 0. 0.
      0. 0. 0. 0. 0. 0. 0. 0. 0. 0. 0. 0. 0. 0. 0. 0. 0. 0. 0. 0. 0. 0.
      0. 0. 0. 0. 1.68010753e-004 0. 0. 0. 0. 0. 0. 0. 0. 0. 0.
      1.51209673e-003 0. 0. 0. 0. 0. 0. 0. 0. 0. 0. 9.91263427e-003 0.
      0. 0. 0. 0. 0. 0. 0. 0. 0. 4.82190847e-002 0. 0. 0. 0. 0. 0. 0. 0.
      0. 0. 1.06854841e-001 0. 0. 0. 0. 0. 0. 0. 0. 0. 0.
      1.32560477e-001 1.19287632e-002 0. 0. 0. 0. 0. 0. 0. 0. 0.
      1.68010753e-004 0. 0. 0. 0. 0. 0. 6.88676059e-001 0. 0. 0.</_>
    <_>
      0. 0. 0. 0. 0. 0. 0. 0. 0. 0. 0. 0. 0. 0. 0. 0. 0. 0. 0. 0. 0. 0.
      0. 0. 0. 0. 0. 0. 0. 0. 0. 0. 0. 0. 0. 0. 0. 0. 0. 0. 0. 0. 0. 0.
      0. 0. 0. 0. 0. 0. 0. 0. 0. 0. 0. 0. 0. 0. 0. 0. 0. 0. 0. 0. 0. 0.
      0. 0. 0. 0. 0. 0. 0. 0. 0. 0. 0. 0. 0. 0. 0. 0. 0. 0. 0. 0. 0. 0.
      1.79597700e-004 0. 0. 0. 0. 0. 0. 0. 0. 0. 0. 1.05962642e-002 0.
      0. 0. 0. 0. 0. 0. 0. 0. 0. 7.18390802e-003 0. 0. 0. 0. 0.
      5.72018683e-001 0. 0. 0. 0. 7.52514377e-002 0. 0. 0. 0. 0. 0. 0.
      0. 0. 0. 9.89583358e-002 0. 0. 0. 0. 0. 0. 0. 0. 0. 0.
      8.90804604e-002 0. 0. 0. 0. 0. 0. 0. 0. 0. 0. 6.33979887e-002
      1.04166670e-002 0. 0. 0. 0. 0. 0. 0. 0. 0. 1.47270113e-002
      5.81896566e-002 0. 0. 0. 0. 0. 0. 0. 0. 0. 0. 0. 0. 0. 0. 0. 0. 0.
      0. 0. 0. 0. 0. 0. 0. 0. 0. 0. 0. 0. 0. 0. 0. 0. 0. 0. 0. 0. 0. 0.
      0. 0. 0. 0. 0. 0. 0. 0. 0. 0. 0. 0. 0. 0. 0. 0. 0. 0. 0. 0. 0. 0.
      0. 0. 0. 0. 0. 0. 0. 0. 0. 0. 0. 0. 0. 0. 0. 0. 0. 0. 0. 0. 0. 0.
      0. 0. 0. 1.79597700e-004 0. 0. 0. 0. 0. 0. 0. 0. 0. 0.
      1.07758620e-003 0. 0. 0. 0. 0. 0. 0. 0. 0. 0. 5.20833349e-003 0.
      0. 0. 0. 0. 0. 0. 0. 0. 0. 1.90373566e-002 0. 0. 0. 0. 0. 0. 0. 0.
      0. 0. 5.06465510e-002 3.57399434e-002 0. 0. 0. 0. 0. 0. 0. 0. 0.
      6.37571812e-002 0. 0. 0. 0. 0. 5.83692551e-001 0. 0. 0. 0.
      2.78376434e-002 3.10704019e-002 1.02909483e-001 0. 0. 0. 0. 0. 0.
      0. 0. 1.76005755e-002 6.12428151e-002 0. 0. 0. 0. 0. 0. 0. 0. 0.
      0. 0. 0. 0. 0. 0. 0. 0. 0. 0. 0. 0. 0. 0. 0. 0. 0. 0. 0. 0. 0. 0.
      0. 0. 0. 0. 0. 0. 0. 0. 0. 0. 0. 0. 0. 0. 0. 0. 0. 0. 0. 0. 0. 0.
      0. 0. 0. 0. 0. 0. 0. 0. 0. 0. 0. 0. 0. 0. 0. 0. 0. 0. 0. 0. 0. 0.
      0. 0. 0. 0. 0. 0. 0. 0. 0. 0. 0. 3.59195401e-004 0. 0. 0. 0. 0. 0.
      0. 0. 0. 0. 8.97988502e-004 0. 0. 0. 0. 0. 0. 0. 0. 0. 0.
      6.64511509e-003 0. 0. 0. 0. 0. 0. 0. 0. 0. 0. 2.47844830e-002 0.
      0. 0. 0. 0. 0. 0. 0. 0. 0. 5.83692528e-002 0. 0. 0. 0. 0. 0. 0. 0.
      0. 0. 6.50143698e-002 0. 0. 0. 0. 0. 0. 0. 0. 0. 0.
      5.40589094e-002 7.45330453e-002 0. 0. 0. 0. 0. 0. 0. 0. 0.
      5.76508604e-002 0. 0. 0. 0. 0. 0. 0. 0. 0. 0. 6.55531585e-002 0.
      0. 0. 0. 0. 0. 0. 0. 0. 0. 3.41235637e-003 0. 0. 0. 0. 0.
      5.88721275e-001 0. 0. 0. 0.</_>
    <_>
      2.49999994e-003 2.87500005e-002 0. 0. 0. 0. 0. 0. 0. 0. 0.
      9.79166664e-003 0. 0. 0. 0. 0. 0. 0. 0. 0. 0. 1.12500004e-002 0.
      0. 0. 0. 0. 0. 0. 0. 0. 0. 6.66666683e-003 0. 0. 0. 0. 0. 0. 0. 0.
      0. 0. 4.99999989e-003 0. 0. 0. 0. 0. 0. 0. 0. 0. 0.
      1.85416657e-002 0. 0. 0. 0. 0. 0. 0. 0. 0. 0. 6.25000009e-003 0.
      0. 0. 0. 0. 0. 0. 0. 0. 0. 5.41666662e-003 0. 0. 0. 0. 0. 0. 0. 0.
      0. 0. 5.83333336e-003 0. 0. 0. 0. 0. 0. 0. 0. 0. 0.
      1.25000002e-002 0. 0. 0. 0. 0. 0. 0. 0. 0. 0. 2.54166666e-002 0.
      0. 0. 0. 0. 0. 0. 0. 0. 0. 4.18750010e-002 0. 0. 0. 0. 0. 0. 0. 0.
      0. 0. 5.29166684e-002 0. 0. 0. 0. 0. 0. 0. 0. 0. 0.
      8.66666660e-002 5.33333346e-002 0. 0. 0. 0. 0. 0. 0. 0. 0.
      7.02083334e-002 6.72916695e-002 0. 0. 0. 0. 0. 0. 0. 0. 0. 0. 0.
      0. 0. 0. 4.89791662e-001 0. 0. 0. 0. 0. 0. 0. 0. 0. 0. 0. 0. 0. 0.
      0. 0. 0. 0. 0. 0. 0. 0. 0. 0. 0. 0. 0. 0. 0. 0. 0. 0. 0. 0. 0. 0.
      0. 0. 0. 0. 0. 0. 0. 0. 0. 0. 0. 0. 0. 0. 0. 0. 0. 0. 0. 0. 0. 0.
      0. 0. 0. 0. 0. 0. 0. 0. 0. 0. 0. 0. 0. 2.08333338e-004 0. 0. 0. 0.
      0. 0. 0. 0. 0. 0. 1.04166672e-003 0. 0. 0. 0. 0. 0. 0. 0. 0. 0.
      2.91666668e-003 0. 0. 0. 0. 0. 0. 0. 0. 0. 0. 4.79166675e-003 0.
      0. 0. 0. 0. 0. 0. 0. 0. 0. 1.45833334e-002 4.08333316e-002 0. 0.
      0. 0. 0. 0. 0. 0. 0. 4.12500016e-002 0. 0. 0. 0. 0. 0. 0. 0. 0. 0.
      6.49999976e-002 0. 0. 0. 0. 0. 0. 0. 0. 0. 0. 6.77083358e-002 0.
      0. 0. 0. 0. 0. 0. 0. 0. 0. 9.06250030e-002 0. 0. 0. 0. 0. 0. 0. 0.
      0. 0. 0. 0. 0. 0. 0. 0. 0. 6.71041667e-001 0. 0. 0. 0. 0. 0. 0. 0.
      0. 0. 0. 0. 0. 0. 0. 0. 0. 0. 0. 0. 0. 0. 0. 0. 0. 0. 0. 0. 0. 0.
      0. 0. 0. 0. 0. 0. 0. 0. 0. 0. 0. 0. 0. 0. 0. 0. 0. 0. 0. 0. 0. 0.
      0. 0. 0. 0. 0. 0. 5.62500022e-003 1.27083333e-002 0. 0. 0. 0. 0.
      0. 0. 0. 0. 2.16666665e-002 0. 0. 0. 0. 0. 0. 0. 0. 0. 0.
      1.60416663e-002 0. 0. 0. 0. 0. 0. 0. 0. 0. 0. 1.08333332e-002 0.
      0. 0. 0. 0. 0. 0. 0. 0. 0. 3.16666663e-002 0. 0. 0. 0. 0. 0. 0. 0.
      0. 0. 2.04166658e-002 0. 0. 0. 0. 0. 0. 0. 0. 0. 0.
      3.04166675e-002 0. 0. 0. 0. 0. 0. 0. 0. 0. 0. 5.62499985e-002 0.
      0. 0. 0. 0. 0. 0. 0. 0. 0. 6.37499988e-002 0. 0. 0. 0. 0. 0. 0. 0.
      0. 0. 9.54166651e-002 4.29166667e-002 5.95833324e-002 0. 0. 0. 0.
      0. 0. 0. 0. 0. 0. 0. 0. 0. 0. 5.32708347e-001 0. 0. 0. 0.</_>
    <_>
      0. 0. 0. 0. 0. 0. 0. 0. 0. 0. 0. 6.94444461e-005 0. 0. 0. 0. 0. 0.
      0. 0. 0. 0. 1.80555554e-003 0. 0. 0. 0. 0. 0. 0. 0. 0. 0.
      2.36111111e-003 0. 0. 0. 0. 0. 0. 0. 0. 0. 0. 9.02777771e-004 0.
      0. 0. 0. 0. 0. 0. 0. 0. 0. 3.47222231e-004 0. 0. 0. 0. 0. 0. 0. 0.
      0. 0. 9.72222246e-004 0. 0. 0. 0. 0. 0. 0. 0. 0. 0.
      2.22222228e-003 0. 0. 0. 0. 0. 0. 0. 0. 0. 0. 5.76388882e-003 0.
      0. 0. 0. 0. 0. 0. 0. 0. 0. 1.35416668e-002 0. 0. 0. 0. 0. 0. 0. 0.
      0. 0. 2.44444441e-002 0. 0. 0. 0. 0. 0. 0. 0. 0. 0.
      4.11805548e-002 0. 0. 0. 0. 0. 0. 0. 0. 0. 0. 6.23611100e-002 0.
      0. 0. 0. 0. 0. 0. 0. 0. 0. 7.51388893e-002 0. 0. 0. 0. 0. 0. 0. 0.
      0. 0. 1.01458333e-001 0. 0. 0. 0. 0. 0. 0. 0. 0. 0.
      1.38888892e-004 0. 0. 0. 0. 0. 0. 6.67291641e-001 0. 0. 0. 0. 0.
      0. 0. 0. 0. 0. 0. 0. 0. 0. 0. 0. 0. 0. 0. 0. 0. 0. 0. 0. 0.
      1.38888892e-004 0. 0. 0. 0. 0. 0. 0. 0. 0. 0. 9.02777771e-004 0.
      0. 0. 0. 0. 0. 0. 0. 0. 0. 1.24999997e-003 0. 0. 0. 0. 0. 0. 0. 0.
      0. 0. 1.18055556e-003 0. 0. 0. 0. 0. 0. 0. 0. 0. 0.
      1.66666671e-003 0. 0. 0. 0. 0. 0. 0. 0. 0. 0. 1.73611112e-003 0.
      0. 0. 0. 0. 0. 0. 0. 0. 0. 5.83333336e-003 0. 0. 0. 0. 0. 0. 0. 0.
      0. 0. 1.69444438e-002 0. 0. 0. 0. 0. 0. 0. 0. 0. 0.
      2.77777780e-002 0. 0. 0. 0. 0. 0. 0. 0. 0. 0. 3.95138897e-002 0.
      0. 0. 0. 0. 0. 0. 0. 0. 0. 6.16666675e-002 0. 0. 0. 0. 0. 0. 0. 0.
      0. 0. 7.55555555e-002 0. 0. 0. 0. 0. 0. 0. 0. 0. 0.
      1.03124999e-001 0. 0. 0. 0. 0. 0. 0. 0. 0. 0. 6.94444461e-005 0.
      0. 0. 0. 0. 0. 6.62638903e-001 0. 0. 0. 0. 0. 0. 0. 0. 0. 0. 0. 0.
      0. 0. 0. 0. 0. 0. 0. 0. 0. 0. 0. 0. 0. 0. 0. 0. 0. 0. 0. 0. 0. 0.
      0. 0. 0. 0. 0. 0. 0. 0. 0. 0. 0. 0. 0. 8.33333354e-004 0. 0. 0. 0.
      0. 0. 0. 0. 0. 0. 1.38888892e-003 0. 0. 0. 0. 0. 0. 0. 0. 0. 0.
      2.08333344e-003 0. 0. 0. 0. 0. 0. 0. 0. 0. 0. 3.40277771e-003 0.
      0. 0. 0. 0. 0. 0. 0. 0. 0. 6.87499996e-003 0. 0. 0. 0. 0. 0. 0. 0.
      0. 0. 1.56250000e-002 0. 0. 0. 0. 0. 0. 0. 0. 0. 0.
      2.40972228e-002 0. 0. 0. 0. 0. 0. 0. 0. 0. 0. 3.75000015e-002 0.
      0. 0. 0. 0. 0. 0. 0. 0. 0. 6.31249994e-002 0. 0. 0. 0. 0. 0. 0. 0.
      0. 0. 8.01388919e-002 0. 0. 0. 0. 0. 0. 0. 0. 0. 0.
      1.02013886e-001 0. 0. 0. 0. 0. 0. 0. 0. 0. 0. 1.38888892e-004 0.
      0. 0. 0. 0. 0. 6.62777781e-001 0. 0. 0.</_>
    <_>
      0. 0. 0. 0. 0. 0. 0. 0. 0. 0. 0. 8.37053580e-004 0. 0. 0. 0. 0. 0.
      0. 0. 0. 0. 7.39397341e-003 0. 0. 0. 0. 0. 0. 0. 0. 0. 0.
      6.27790159e-003 0. 0. 0. 0. 0. 0. 0. 0. 0. 0. 9.76562500e-003 0.
      0. 0. 0. 0. 0. 0. 0. 0. 0. 1.22767854e-002 0. 0. 0. 0. 0. 0. 0. 0.
      0. 0. 1.43694198e-002 0. 0. 0. 0. 0. 0. 0. 0. 0. 0.
      1.89732146e-002 0. 0. 0. 0. 0. 0. 0. 0. 0. 0. 1.95312500e-002 0.
      0. 0. 0. 0. 0. 0. 0. 0. 0. 1.85546875e-002 0. 0. 0. 0. 0. 0. 0. 0.
      0. 0. 2.37165187e-002 0. 0. 0. 0. 0. 0. 0. 0. 0. 0.
      2.59486604e-002 0. 0. 0. 0. 0. 0. 0. 0. 0. 0. 2.99944188e-002 0.
      0. 0. 0. 0. 0. 0. 0. 0. 0. 3.09709813e-002 0. 0. 0. 0. 0. 0. 0. 0.
      0. 0. 3.69698666e-002 0. 0. 0. 0. 0. 0. 0. 0. 0. 0.
      6.69642864e-003 0. 0. 0. 0. 0. 0. 0. 7.37723231e-001 0. 0. 0. 0.
      0. 0. 0. 0. 0. 0. 0. 0. 0. 2.79017870e-004 0. 0. 0. 0. 0. 0. 0. 0.
      0. 0. 2.92968750e-003 0. 0. 0. 0. 0. 0. 0. 0. 0. 0.
      6.83593750e-003 0. 0. 0. 0. 0. 0. 0. 0. 0. 0. 8.37053545e-003 0.
      0. 0. 0. 0. 0. 0. 0. 0. 0. 7.39397341e-003 0. 0. 0. 0. 0. 0. 0. 0.
      0. 0. 1.10212052e-002 0. 0. 0. 0. 0. 0. 0. 0. 0. 0.
      1.36718750e-002 0. 0. 0. 0. 0. 0. 0. 0. 0. 0. 2.28794646e-002 0.
      0. 0. 0. 0. 0. 0. 0. 0. 0. 2.10658479e-002 0. 0. 0. 0. 0. 0. 0. 0.
      0. 0. 3.30636166e-002 0. 0. 0. 0. 0. 0. 0. 0. 0. 0.
      2.85993312e-002 0. 0. 0. 0. 0. 0. 0. 0. 0. 0. 2.84598209e-002 0.
      0. 0. 0. 0. 0. 0. 0. 0. 0. 3.36216502e-002 0. 0. 0. 0. 0. 0. 0. 0.
      0. 0. 3.76674123e-002 0. 0. 0. 0. 0. 0. 0. 0. 0. 0.
      6.13839272e-003 0. 0. 0. 0. 0. 0. 0. 7.38002241e-001 0. 0. 0. 0.
      0. 0. 0. 0. 0. 0. 0. 0. 0. 2.79017870e-004 0. 0. 0. 0. 0. 0. 0. 0.
      0. 0. 1.39508932e-003 0. 0. 0. 0. 0. 0. 0. 0. 0. 0.
      9.20758955e-003 0. 0. 0. 0. 0. 0. 0. 0. 0. 0. 8.64955317e-003 0.
      0. 0. 0. 0. 0. 0. 0. 0. 0. 9.20758955e-003 0. 0. 0. 0. 0. 0. 0. 0.
      0. 0. 1.86941959e-002 0. 0. 0. 0. 0. 0. 0. 0. 0. 0.
      1.04631698e-002 2.09263396e-002 0. 0. 0. 0. 0. 0. 0. 0. 0.
      1.19977677e-002 0. 0. 0. 0. 0. 0. 0. 0. 0. 0. 1.00446427e-002 0.
      0. 0. 0. 0. 0. 0. 0. 0. 0. 2.20424104e-002 0. 0. 0. 0. 0. 0. 0. 0.
      0. 0. 2.59486604e-002 0. 0. 0. 0. 0. 0. 0. 0. 0. 0.
      2.80412938e-002 0. 0. 0. 0. 0. 0. 0. 0. 0. 0. 3.19475457e-002 0.
      0. 0. 0. 0. 0. 0. 0. 0. 0. 3.58537957e-002 0. 0. 0. 0. 0. 0. 0. 0.
      0. 0. 6.13839272e-003 0. 0. 0. 0. 0. 0. 0. 7.49162972e-001 0. 0.</_>
    <_>
      0. 0. 0. 0. 0. 0. 0. 0. 0. 0. 0. 0. 0. 0. 0. 0. 0. 0. 0. 0. 0. 0.
      0. 0. 0. 0. 0. 0. 0. 0. 0. 0. 0. 0. 0. 0. 0. 0. 0. 0. 0. 0. 0. 0.
      0. 0. 0. 0. 0. 0. 0. 0. 0. 0. 0. 0. 0. 0. 0. 0. 0. 0. 0. 0. 0. 0.
      0. 0. 0. 0. 0. 0. 0. 0. 0. 0. 0. 0. 0. 0. 0. 0. 0. 0. 0. 0. 0. 0.
      9.41265025e-005 0. 0. 0. 0. 0. 0. 0. 0. 0. 0. 1.88253017e-003 0.
      0. 0. 0. 0. 0. 0. 0. 0. 0. 4.51807212e-003 0. 0. 0. 0. 0. 0. 0. 0.
      0. 0. 1.04480423e-002 0. 0. 0. 0. 0. 0. 0. 0. 0. 0.
      2.00489461e-002 0. 0. 0. 0. 0. 0. 0. 0. 0. 0. 5.38403615e-002 0.
      0. 0. 0. 0. 0. 0. 0. 0. 0. 6.28765076e-002 0. 0. 0. 0. 0. 0. 0. 0.
      0. 0. 2.82379508e-004 0. 0. 0. 0. 0. 0. 0. 0. 8.46009016e-001 0.
      0. 0. 0. 0. 0. 0. 0. 0. 0. 0. 0. 0. 0. 0. 0. 0. 0. 0. 0. 0. 0. 0.
      0. 0. 0. 0. 0. 0. 0. 0. 0. 0. 0. 0. 0. 0. 0. 0. 0. 0. 0. 0. 0. 0.
      0. 0. 0. 0. 0. 0. 0. 0. 0. 0. 0. 0. 0. 0. 0. 0. 0. 0. 0. 0. 0. 0.
      0. 0. 0. 0. 0. 0. 0. 0. 0. 0. 0. 0. 0. 0. 0. 0. 0. 0. 0. 0. 0. 0.
      5.64759015e-004 0. 0. 0. 0. 0. 0. 0. 0. 0. 0. 5.27108414e-003 0.
      0. 0. 0. 0. 0. 0. 0. 0. 0. 1.21423192e-002 0. 0. 0. 0. 0. 0. 0. 0.
      0. 0. 2.47552712e-002 0. 0. 0. 0. 0. 0. 0. 0. 0. 0.
      4.87575307e-002 6.69239461e-002 0. 0. 0. 0. 0. 0. 0. 0. 0.
      6.78652078e-002 0. 0. 0. 0. 0. 0. 0. 0. 0. 0. 7.27597922e-002 0.
      0. 0. 0. 0. 0. 0. 0. 0. 0. 2.82379508e-004 0. 0. 0. 0. 0. 0. 0.
      7.00677693e-001 0. 0. 0. 0. 0. 0. 0. 0. 0. 0. 0. 0. 0.
      1.48719875e-002 5.05459346e-002 0. 0. 0. 0. 0. 0. 0. 0. 0.
      4.98870481e-003 0. 0. 0. 0. 0. 0. 0. 0. 0. 0. 5.27108414e-003 0.
      0. 0. 0. 0. 0. 0. 0. 0. 0. 8.75376537e-003 0. 0. 0. 0. 0. 0. 0. 0.
      0. 0. 4.61219857e-003 0. 0. 0. 0. 0. 0. 0. 0. 0. 0.
      1.17658135e-002 0. 0. 0. 0. 0. 0. 0. 0. 0. 0. 4.98870481e-003 0.
      0. 0. 0. 0. 0. 0. 0. 0. 0. 7.62424711e-003 0. 0. 0. 0. 0. 0. 0. 0.
      0. 0. 7.90662691e-003 0. 0. 0. 0. 0. 0. 0. 0. 0. 0.
      1.51543673e-002 0. 0. 0. 0. 0. 0. 0. 0. 0. 0. 1.44954817e-002 0.
      0. 0. 0. 0. 0. 0. 0. 0. 0. 2.61671692e-002 0. 0. 0. 0. 0. 0. 0. 0.
      0. 0. 4.00978923e-002 0. 0. 0. 0. 0. 0. 0. 0. 0. 0.
      3.40737961e-002 0. 0. 0. 0. 0. 0. 0. 0. 0. 0. 0. 0. 0. 0. 0. 0. 0.
      0. 7.48682201e-001 0. 0.</_>
    <_>
      0. 0. 0. 0. 0. 0. 0. 0. 0. 0. 0. 1.34277344e-002 8.17871094e-002
      0. 0. 0. 0. 0. 0. 0. 0. 0. 1.97753906e-002 0. 0. 0. 0. 0. 0. 0. 0.
      0. 0. 2.05078125e-002 0. 0. 0. 0. 0. 0. 0. 0. 0. 0.
      1.36718750e-002 0. 0. 0. 0. 0. 0. 0. 0. 0. 0. 1.36718750e-002 0.
      0. 0. 0. 0. 0. 0. 0. 0. 0. 2.53906250e-002 0. 0. 0. 0. 0. 0. 0. 0.
      0. 0. 1.63574219e-002 0. 0. 0. 0. 0. 0. 0. 0. 0. 0.
      1.22070313e-002 0. 0. 0. 0. 0. 0. 0. 0. 0. 0. 2.27050781e-002 0.
      0. 0. 0. 0. 0. 0. 0. 0. 0. 2.39257813e-002 0. 0. 0. 0. 0. 0. 0. 0.
      0. 0. 2.00195313e-002 0. 0. 0. 0. 0. 0. 0. 0. 0. 0.
      1.34277344e-002 0. 0. 0. 0. 0. 0. 0. 0. 0. 0. 6.34765625e-003 0.
      0. 0. 0. 0. 0. 0. 0. 0. 0. 1.80664063e-002 0. 0. 0. 0. 0. 0. 0. 0.
      0. 0. 9.76562500e-004 0. 0. 0. 0. 0. 0. 6.77734375e-001 0. 0. 0.
      1.75781250e-002 4.29687500e-002 0. 0. 0. 0. 0. 0. 0. 0. 0.
      2.51464844e-002 1.63574219e-002 0. 0. 0. 0. 0. 0. 0. 0. 0.
      2.83203125e-002 0. 0. 0. 0. 0. 0. 0. 0. 0. 0. 1.02539063e-002 0.
      0. 0. 0. 0. 0. 0. 0. 0. 0. 1.36718750e-002 0. 0. 0. 0. 0. 0. 0. 0.
      0. 0. 2.34375000e-002 0. 0. 0. 0. 0. 0. 0. 0. 0. 0.
      1.36718750e-002 0. 0. 0. 0. 0. 0. 0. 0. 0. 0. 1.68457031e-002 0.
      0. 0. 0. 0. 0. 0. 0. 0. 0. 1.34277344e-002 0. 0. 0. 0. 0. 0. 0. 0.
      0. 0. 2.00195313e-002 0. 0. 0. 0. 0. 0. 0. 0. 0. 0.
      2.80761719e-002 0. 0. 0. 0. 0. 0. 0. 0. 0. 0. 1.48925781e-002 0.
      0. 0. 0. 0. 0. 0. 0. 0. 0. 1.34277344e-002 0. 0. 0. 0. 0. 0. 0. 0.
      0. 0. 5.85937500e-003 0. 0. 0. 0. 0. 0. 0. 0. 0. 0.
      1.70898438e-002 0. 0. 0. 0. 0. 0. 0. 0. 0. 0. 1.22070313e-003 0.
      0. 0. 0. 0. 0. 6.77734375e-001 0. 0. 0. 0. 0. 0. 0. 0. 0. 0. 0. 0.
      0. 0. 0. 0. 0. 0. 0. 0. 0. 0. 0. 0. 0. 0. 0. 0. 0. 0. 0. 0. 0. 0.
      0. 0. 0. 0. 0. 0. 0. 0. 0. 0. 0. 0. 0. 0. 0. 0. 0. 0. 0. 0. 0. 0.
      0. 0. 0. 0. 0. 0. 0. 0. 0. 0. 0. 0. 0. 0. 0. 0. 0. 0. 0. 0. 0. 0.
      0. 0. 0. 0. 0. 0. 0. 0. 0. 0. 0. 0. 0. 0. 0. 0. 0. 0. 0. 0. 0. 0.
      0. 0. 7.32421875e-003 0. 0. 0. 0. 0. 0. 0. 0. 0. 0.
      1.75781250e-002 0. 0. 0. 0. 0. 0. 0. 0. 0. 0. 3.10058594e-002 0.
      0. 0. 0. 0. 0. 0. 0. 0. 0. 5.12695313e-002 0. 0. 0. 0. 0. 0. 0. 0.
      0. 0. 6.71386719e-002 1.26953125e-002 0. 0. 0. 0. 0. 0. 0. 0. 0.
      3.39355469e-002 0. 7.71484375e-002 0. 0. 0. 0. 0. 0. 0. 0.
      3.17382813e-003 0. 0. 0. 0. 0. 0. 6.98730469e-001 0. 0. 0.</_>
    <_>
      0. 0. 0. 0. 0. 0. 0. 0. 0. 0. 0. 0. 0. 0. 0. 0. 0. 0. 0. 0. 0. 0.
      0. 0. 0. 0. 0. 0. 0. 0. 0. 0. 0. 0. 0. 0. 0. 0. 0. 0. 0. 0. 0. 0.
      0. 0. 0. 0. 0. 0. 0. 0. 0. 0. 0. 0. 0. 0. 0. 0. 0. 0. 0. 0. 0. 0.
      0. 0. 0. 0. 0. 0. 0. 0. 0. 0. 0. 7.32421875e-004 0. 0. 0. 0. 0. 0.
      0. 0. 0. 0. 3.41796875e-003 0. 0. 0. 0. 0. 0. 0. 0. 0. 0.
      7.81250000e-003 0. 0. 0. 0. 0. 0. 0. 0. 0. 0. 9.76562500e-003 0.
      0. 0. 0. 0. 0. 0. 0. 0. 0. 1.26953125e-002 0. 0. 0. 0. 0. 0. 0. 0.
      0. 0. 4.63867188e-003 1.97753906e-002 0. 0. 0. 0. 0. 0. 0. 0. 0.
      1.46484375e-002 0. 0. 0. 0. 0. 0. 0. 0. 0. 0. 4.19921875e-002 0.
      0. 0. 0. 0. 0. 0. 0. 0. 0. 0. 0. 0. 0. 0. 0. 0. 0. 0.
      8.84521484e-001 0. 0. 0. 0. 0. 0. 0. 0. 0. 0. 0. 0. 0. 0. 0. 0. 0.
      0. 0. 0. 0. 0. 0. 0. 0. 0. 0. 0. 0. 0. 0. 0. 0. 0. 0. 0. 0. 0. 0.
      0. 0. 0. 0. 0. 0. 0. 0. 0. 0. 0. 0. 0. 0. 0. 0. 0. 0. 0. 0. 0. 0.
      0. 0. 0. 0. 0. 0. 0. 0. 0. 0. 0. 0. 0. 0. 0. 0. 0. 1.46484375e-003
      0. 0. 0. 0. 0. 0. 0. 0. 0. 0. 5.85937500e-003 0. 0. 0. 0. 0. 0. 0.
      0. 0. 0. 1.09863281e-002 0. 0. 0. 0. 0. 0. 0. 0. 0. 0.
      9.76562500e-003 0. 0. 0. 0. 0. 0. 0. 0. 0. 0. 2.31933594e-002 0.
      0. 0. 0. 0. 0. 0. 0. 0. 0. 1.14746094e-002 0. 0. 0. 0. 0. 0. 0. 0.
      0. 0. 1.61132813e-002 0. 0. 0. 0. 0. 0. 0. 0. 0. 0.
      3.66210938e-002 0. 0. 0. 0. 0. 0. 0. 0. 0. 0. 0. 0. 0. 0. 0. 0. 0.
      0. 0. 8.84521484e-001 0. 0. 0. 0. 0. 0. 0. 0. 0. 0. 0. 0. 0. 0. 0.
      0. 0. 0. 0. 0. 0. 0. 0. 0. 0. 0. 0. 0. 0. 0. 0. 0. 0. 0. 0. 0. 0.
      0. 0. 0. 0. 0. 0. 0. 0. 0. 0. 0. 0. 0. 0. 0. 0. 0. 0. 0. 0. 0. 0.
      0. 0. 0. 0. 0. 0. 0. 0. 0. 0. 0. 0. 0. 0. 0. 0. 0. 0. 0. 0. 0. 0.
      0. 0. 0. 0. 0. 0. 0. 0. 1.46484375e-003 0. 0. 0. 0. 0. 0. 0. 0. 0.
      0. 2.19726563e-003 0. 0. 0. 0. 0. 0. 0. 0. 0. 0. 5.12695313e-003
      0. 0. 0. 0. 0. 0. 0. 0. 0. 0. 6.83593750e-003 0. 0. 0. 0. 0. 0. 0.
      0. 0. 0. 1.02539063e-002 0. 0. 0. 0. 0. 0. 0. 0. 0. 0.
      1.14746094e-002 1.04980469e-002 0. 0. 0. 0. 0. 0. 0. 0. 0.
      2.88085938e-002 1.85546875e-002 0. 0. 0. 0. 0. 0. 0. 0. 0. 0. 0.
      0. 0. 0. 0. 0. 0. 0. 0. 9.04785156e-001</_>
    <_>
      0. 0. 0. 0. 0. 0. 0. 0. 0. 0. 0. 0. 0. 0. 0. 0. 0. 0. 0. 0. 0. 0.
      0. 0. 0. 0. 0. 0. 0. 0. 0. 0. 0. 3.00480780e-004 0. 0. 0. 0. 0. 0.
      0. 0. 0. 0. 6.00961561e-004 0. 0. 0. 0. 0. 0. 0. 0. 0. 0.
      2.40384624e-003 0. 0. 0. 0. 0. 0. 0. 0. 0. 0. 5.85937500e-003 0.
      0. 0. 0. 0. 0. 0. 0. 0. 0. 5.25841350e-003 0. 0. 0. 0. 0. 0. 0. 0.
      0. 0. 9.16466303e-003 0. 0. 0. 0. 0. 0. 0. 0. 0. 0.
      1.99819710e-002 0. 0. 0. 0. 0. 0. 0. 0. 0. 0. 1.90805290e-002 0.
      0. 0. 0. 0. 0. 0. 0. 0. 0. 2.89963949e-002 0. 0. 0. 0. 0. 0. 0. 0.
      0. 0. 3.71093750e-002 0. 0. 0. 0. 0. 0. 0. 0. 0. 0.
      4.08653840e-002 0. 0. 0. 0. 0. 0. 0. 0. 0. 0. 3.72596160e-002
      1.02163460e-002 0. 0. 0. 0. 0. 0. 0. 0. 0. 3.15504801e-003 0. 0.
      0. 0. 0. 0. 0. 7.79747605e-001 0. 0. 0. 0. 0. 0. 0. 0. 0. 0. 0. 0.
      0. 0. 0. 0. 0. 0. 0. 0. 0. 0. 0. 0. 0. 0. 0. 0. 0. 0. 0. 0. 0. 0.
      0. 3.00480780e-004 0. 0. 0. 0. 0. 0. 0. 0. 0. 0. 7.51201937e-004
      0. 0. 0. 0. 0. 0. 0. 0. 0. 0. 2.25360575e-003 0. 0. 0. 0. 0. 0. 0.
      0. 0. 0. 5.55889402e-003 0. 0. 0. 0. 0. 0. 0. 0. 0. 0.
      6.00961549e-003 0. 0. 0. 0. 0. 0. 0. 0. 0. 0. 7.81250000e-003 0.
      0. 0. 0. 0. 0. 0. 0. 0. 0. 1.30709130e-002 0. 0. 0. 0. 0. 0. 0. 0.
      0. 0. 1.30709130e-002 0. 0. 0. 0. 0. 0. 0. 0. 0. 0.
      1.96814910e-002 0. 0. 0. 0. 0. 0. 0. 0. 0. 0. 2.77944710e-002 0.
      0. 0. 0. 0. 0. 0. 0. 0. 0. 3.51562500e-002 0. 0. 0. 0. 0. 0. 0. 0.
      0. 0. 4.01141830e-002 2.40384620e-002 0. 0. 0. 0. 0. 0. 0. 0. 0.
      0. 0. 0. 0. 0. 0. 0. 0. 0. 8.04387033e-001 0. 0. 0. 0. 0. 0. 0. 0.
      0. 0. 0. 0. 0. 0. 0. 0. 0. 0. 0. 0. 0. 0. 0. 0. 0. 0. 0. 0. 0. 0.
      0. 0. 0. 0. 3.00480780e-004 0. 0. 0. 0. 0. 0. 0. 0. 0. 0.
      7.51201937e-004 0. 0. 0. 0. 0. 0. 0. 0. 0. 0. 2.40384624e-003 0.
      0. 0. 0. 0. 0. 0. 0. 0. 0. 5.70913451e-003 0. 0. 0. 0. 0. 0. 0. 0.
      0. 0. 6.00961549e-003 0. 0. 0. 0. 0. 0. 0. 0. 0. 0.
      8.11298098e-003 0. 0. 0. 0. 0. 0. 0. 0. 0. 0. 1.24699520e-002 0.
      0. 0. 0. 0. 0. 0. 0. 0. 0. 1.35216350e-002 0. 0. 0. 0. 0. 0. 0. 0.
      0. 0. 2.01322120e-002 0. 0. 0. 0. 0. 0. 0. 0. 0. 0.
      2.77944710e-002 0. 0. 0. 0. 0. 0. 0. 0. 0. 0. 3.30528840e-002 0.
      0. 0. 0. 0. 0. 0. 0. 0. 0. 3.63581739e-002 1.06670670e-002 0. 0.
      0. 0. 0. 0. 0. 0. 0. 0. 0. 0. 0. 0. 0. 0. 0. 0. 8.22716355e-001 0.</_>
    <_>
      0. 0. 0. 0. 3.60595703e-001 0. 0. 0. 0. 0. 0. 4.15039063e-003
      2.78320313e-002 0. 0. 0. 0. 0. 0. 0. 0. 0. 8.05664063e-003
      2.39257813e-002 0. 0. 0. 0. 0. 0. 0. 0. 0. 1.22070313e-002 0. 0.
      0. 0. 0. 0. 0. 0. 0. 0. 7.81250000e-003 0. 0. 0. 0. 0. 0. 0. 0. 0.
      0. 1.17187500e-002 0. 0. 0. 0. 0. 0. 0. 0. 0. 0. 6.10351563e-003
      0. 0. 0. 0. 0. 0. 0. 0. 0. 0. 5.85937500e-003 0. 0. 0. 0. 0. 0. 0.
      0. 0. 0. 4.15039063e-003 0. 0. 0. 0. 0. 0. 0. 0. 0. 0.
      1.22070313e-002 0. 0. 0. 0. 0. 0. 0. 0. 0. 0. 5.61523438e-003 0.
      0. 0. 0. 0. 0. 0. 0. 0. 0. 6.10351563e-003 0. 0. 0. 0. 0. 0. 0. 0.
      0. 0. 5.37109375e-003 0. 0. 0. 0. 0. 0. 0. 0. 0. 0.
      1.29394531e-002 0. 0. 0. 0. 0. 0. 0. 0. 0. 0. 5.61523438e-003 0.
      0. 0. 0. 0. 0. 0. 0. 0. 0. 0. 0. 0. 0. 0. 4.79736328e-001 0. 0. 0.
      0. 0. 0. 0. 0. 0. 3.61572266e-001 0. 0. 0. 0. 0. 0.
      4.15039063e-003 3.41796875e-002 0. 0. 0. 0. 0. 0. 0. 0. 0.
      2.58789063e-002 0. 0. 0. 0. 0. 0. 0. 0. 0. 0. 1.14746094e-002 0.
      0. 0. 0. 0. 0. 0. 0. 0. 0. 7.56835938e-003 0. 0. 0. 0. 0. 0. 0. 0.
      0. 0. 1.17187500e-002 0. 0. 0. 0. 0. 0. 0. 0. 0. 0.
      6.10351563e-003 0. 0. 0. 0. 0. 0. 0. 0. 0. 0. 5.85937500e-003 0.
      0. 0. 0. 0. 0. 0. 0. 0. 0. 3.90625000e-003 0. 0. 0. 0. 0. 0. 0. 0.
      0. 0. 1.22070313e-002 0. 0. 0. 0. 0. 0. 0. 0. 0. 0.
      5.85937500e-003 0. 0. 0. 0. 0. 0. 0. 0. 0. 0. 5.85937500e-003 0.
      0. 0. 0. 0. 0. 0. 0. 0. 0. 5.85937500e-003 0. 0. 0. 0. 0. 0. 0. 0.
      0. 0. 1.24511719e-002 0. 0. 0. 0. 0. 0. 0. 0. 0. 0.
      5.61523438e-003 0. 0. 0. 0. 0. 0. 0. 0. 0. 0. 0. 0. 0. 0. 0.
      4.79736328e-001 0. 0. 0. 0. 0. 0. 0. 0. 0. 3.54980469e-001 0. 0.
      0. 0. 0. 0. 4.63867188e-003 1.44042969e-002 0. 0. 0. 0. 0. 0. 0.
      0. 0. 3.66210938e-003 3.97949219e-002 0. 0. 0. 0. 0. 0. 0. 0. 0.
      1.83105469e-002 0. 0. 0. 0. 0. 0. 0. 0. 0. 0. 7.56835938e-003 0.
      0. 0. 0. 0. 0. 0. 0. 0. 0. 1.22070313e-002 0. 0. 0. 0. 0. 0. 0. 0.
      0. 0. 6.83593750e-003 0. 0. 0. 0. 0. 0. 0. 0. 0. 0.
      5.37109375e-003 0. 0. 0. 0. 0. 0. 0. 0. 0. 0. 4.63867188e-003 0.
      0. 0. 0. 0. 0. 0. 0. 0. 0. 1.19628906e-002 0. 0. 0. 0. 0. 0. 0. 0.
      0. 0. 5.85937500e-003 0. 0. 0. 0. 0. 0. 0. 0. 0. 0.
      6.10351563e-003 0. 0. 0. 0. 0. 0. 0. 0. 0. 0. 4.88281250e-003 0.
      0. 0. 0. 0. 0. 0. 0. 0. 0. 1.34277344e-002 0. 0. 0. 0. 0. 0. 0. 0.
      0. 0. 5.61523438e-003 0. 0. 0. 0. 0. 0. 0. 0. 0. 0. 0. 0. 0. 0. 0.
      4.79736328e-001 0. 0. 0. 0. 0.</_>
    <_>
      7.56835938e-003 1.85546875e-002 5.68847656e-002 0. 0. 0. 0. 0. 0.
      0. 0. 1.70898438e-002 0. 0. 0. 0. 0. 0. 0. 0. 0. 0.
      1.56250000e-002 0. 0. 0. 0. 0. 0. 0. 0. 0. 0. 1.29394531e-002 0.
      0. 0. 0. 0. 0. 0. 0. 0. 0. 1.39160156e-002 0. 0. 0. 0. 0. 0. 0. 0.
      0. 0. 1.87988281e-002 0. 0. 0. 0. 0. 0. 0. 0. 0. 0.
      1.95312500e-002 0. 0. 0. 0. 0. 0. 0. 0. 0. 0. 1.70898438e-002 0.
      0. 0. 0. 0. 0. 0. 0. 0. 0. 1.78222656e-002 0. 0. 0. 0. 0. 0. 0. 0.
      0. 0. 1.63574219e-002 0. 0. 0. 0. 0. 0. 0. 0. 0. 0.
      2.12402344e-002 0. 0. 0. 0. 0. 0. 0. 0. 0. 0. 1.46484375e-002 0.
      0. 0. 0. 0. 0. 0. 0. 0. 0. 2.24609375e-002 0. 0. 0. 0. 0. 0. 0. 0.
      0. 0. 2.22167969e-002 0. 0. 0. 0. 0. 0. 0. 0. 0. 0.
      2.83203125e-002 0. 0. 0. 0. 0. 0. 0. 0. 0. 0. 0. 0. 0. 0. 0. 0. 0.
      6.58935547e-001 0. 0. 0. 7.56835938e-003 1.85546875e-002
      5.68847656e-002 0. 0. 0. 0. 0. 0. 0. 0. 1.70898438e-002 0. 0. 0.
      0. 0. 0. 0. 0. 0. 0. 1.56250000e-002 0. 0. 0. 0. 0. 0. 0. 0. 0. 0.
      1.29394531e-002 0. 0. 0. 0. 0. 0. 0. 0. 0. 0. 1.39160156e-002 0.
      0. 0. 0. 0. 0. 0. 0. 0. 0. 1.87988281e-002 0. 0. 0. 0. 0. 0. 0. 0.
      0. 0. 1.95312500e-002 0. 0. 0. 0. 0. 0. 0. 0. 0. 0.
      1.70898438e-002 0. 0. 0. 0. 0. 0. 0. 0. 0. 0. 1.73339844e-002 0.
      0. 0. 0. 0. 0. 0. 0. 0. 0. 1.68457031e-002 0. 0. 0. 0. 0. 0. 0. 0.
      0. 0. 2.12402344e-002 0. 0. 0. 0. 0. 0. 0. 0. 0. 0.
      1.46484375e-002 0. 0. 0. 0. 0. 0. 0. 0. 0. 0. 2.22167969e-002 0.
      0. 0. 0. 0. 0. 0. 0. 0. 0. 2.24609375e-002 0. 0. 0. 0. 0. 0. 0. 0.
      0. 0. 2.83203125e-002 0. 0. 0. 0. 0. 0. 0. 0. 0. 0. 0. 0. 0. 0. 0.
      0. 0. 6.58935547e-001 0. 0. 0. 7.56835938e-003 1.85546875e-002
      5.68847656e-002 0. 0. 0. 0. 0. 0. 0. 0. 1.70898438e-002 0. 0. 0.
      0. 0. 0. 0. 0. 0. 0. 1.56250000e-002 0. 0. 0. 0. 0. 0. 0. 0. 0. 0.
      1.29394531e-002 0. 0. 0. 0. 0. 0. 0. 0. 0. 0. 1.39160156e-002 0.
      0. 0. 0. 0. 0. 0. 0. 0. 0. 1.87988281e-002 0. 0. 0. 0. 0. 0. 0. 0.
      0. 0. 1.95312500e-002 0. 0. 0. 0. 0. 0. 0. 0. 0. 0.
      1.70898438e-002 0. 0. 0. 0. 0. 0. 0. 0. 0. 0. 1.78222656e-002 0.
      0. 0. 0. 0. 0. 0. 0. 0. 0. 1.63574219e-002 0. 0. 0. 0. 0. 0. 0. 0.
      0. 0. 2.12402344e-002 0. 0. 0. 0. 0. 0. 0. 0. 0. 0.
      1.46484375e-002 0. 0. 0. 0. 0. 0. 0. 0. 0. 0. 2.24609375e-002 0.
      0. 0. 0. 0. 0. 0. 0. 0. 0. 2.22167969e-002 0. 0. 0. 0. 0. 0. 0. 0.
      0. 0. 2.83203125e-002 0. 0. 0. 0. 0. 0. 0. 0. 0. 0. 0. 0. 0. 0. 0.
      0. 0. 6.58935547e-001 0. 0. 0.</_>
    <_>
      0. 0. 0. 0. 0. 0. 0. 0. 0. 0. 0. 0. 0. 0. 0. 0. 0. 0. 0. 0. 0. 0.
      0. 0. 0. 0. 0. 0. 0. 0. 0. 0. 0. 0. 0. 0. 0. 0. 0. 0. 0. 0. 0. 0.
      0. 0. 0. 0. 0. 0. 0. 0. 0. 0. 0. 0. 0. 0. 0. 0. 0. 0. 0. 0. 0. 0.
      1.21897168e-003 0. 0. 0. 0. 0. 0. 0. 0. 0. 0. 3.54609918e-003 0.
      0. 0. 0. 0. 0. 0. 0. 0. 0. 2.88120564e-003 0. 0. 0. 0. 0. 0. 0. 0.
      0. 0. 2.65957438e-003 0. 0. 0. 0. 0. 0. 0. 0. 0. 0.
      4.98670200e-003 0. 0. 0. 0. 0. 0. 0. 0. 0. 0. 4.87588672e-003
      1.82845742e-002 0. 0. 0. 0. 0. 0. 0. 0. 0. 3.61258872e-002
      1.82845742e-002 0. 0. 0. 0. 0. 0. 0. 0. 0. 2.58200355e-002
      1.21897161e-002 0. 0. 0. 0. 0. 0. 0. 0. 0. 5.27482256e-002
      1.88386533e-002 0. 0. 0. 0. 0. 0. 0. 0. 0. 1.21897168e-003 0. 0.
      0. 0. 0. 0. 0. 7.96320915e-001 0. 0. 0. 0. 0. 0. 0. 0. 0. 0. 0. 0.
      0. 0. 0. 0. 0. 0. 0. 0. 0. 0. 0. 0. 0. 0. 0. 0. 0. 0. 0. 0. 0. 0.
      0. 0. 0. 0. 0. 0. 0. 0. 0. 0. 0. 0. 0. 0. 0. 0. 0. 0. 0. 0. 0. 0.
      0. 0. 0. 0. 0. 0. 0. 0. 0. 0. 0. 0. 0. 0. 0. 0. 0. 0. 0. 0. 0. 0.
      0. 1.66223408e-003 0. 0. 0. 0. 0. 0. 0. 0. 0. 0. 4.32180846e-003
      0. 0. 0. 0. 0. 0. 0. 0. 0. 0. 2.65957438e-003 0. 0. 0. 0. 0. 0. 0.
      0. 0. 0. 3.98936169e-003 0. 0. 0. 0. 0. 0. 0. 0. 0. 0.
      7.09219836e-003 1.83953904e-002 0. 0. 0. 0. 0. 0. 0. 0. 0.
      4.13342193e-002 1.83953904e-002 0. 0. 0. 0. 0. 0. 0. 0. 0.
      2.69281920e-002 1.21897161e-002 0. 0. 0. 0. 0. 0. 0. 0. 0.
      3.82313840e-002 1.86170209e-002 0. 0. 0. 0. 0. 0. 0. 0. 0.
      6.64893596e-004 0. 0. 0. 0. 0. 0. 0. 0. 8.05518627e-001 0. 0. 0.
      0. 0. 0. 0. 0. 0. 0. 0. 0. 0. 0. 0. 0. 0. 0. 0. 0. 0. 0. 0. 0. 0.
      0. 0. 0. 0. 0. 0. 0. 0. 0. 0. 0. 0. 0. 0. 0. 0. 0. 0. 0. 0. 0. 0.
      0. 0. 0. 0. 0. 0. 0. 0. 0. 0. 0. 0. 0. 0. 0. 0. 0. 0. 0. 0. 0. 0.
      0. 0. 0. 0. 0. 0. 0. 0. 0. 2.43794336e-003 0. 0. 0. 0. 0. 0. 0. 0.
      0. 0. 2.32712761e-003 0. 0. 0. 0. 0. 0. 0. 0. 0. 0.
