<?xml version="1.0"?>
<opencv_storage>
<my_svm type_id="opencv-ml-svm">
  <svm_type>C_SVC</svm_type>
  <kernel><type>LINEAR</type></kernel>
  <C>6.2500000000000000e+001</C>
  <term_criteria><epsilon>9.9999997473787516e-006</epsilon>
    <iterations>1000000</iterations></term_criteria>
  <var_all>528</var_all>
  <var_count>528</var_count>
  <class_count>2</class_count>
  <class_labels type_id="opencv-matrix">
    <rows>1</rows>
    <cols>2</cols>
    <dt>i</dt>
    <data>
      -1 1</data></class_labels>
  <sv_total>1</sv_total>
  <support_vectors>
    <_>
      -5.41476107e+000 -9.40284348e+000 4.77208900e+000 7.07225513e+000
      2.94654346e+000 4.10422474e-001 2.81612182e+000 -2.97905374e+000
      -2.76350880e+000 -9.90802944e-001 1.30432701e+000 -3.53140092e+000
      2.80398369e+000 6.33140898e+000 1.37245870e+000 3.45277524e+000
      4.93934536e+000 0. 0. 3.21644902e+000 -4.12484765e-001 0.
      -6.02880144e+000 6.37298775e+000 -9.91833389e-001 2.27702236e+000
      0. 0. 2.09567726e-001 1.52402475e-001 -2.23190880e+000
      1.85545236e-001 -2.31079125e+000 4.40405273e+000 -3.24906898e+000
      1.17901802e+001 2.81075276e-002 0. 0. 0. -2.45916903e-001
      -1.25244462e+000 4.07228857e-001 0. -1.23931522e+001
      -4.36405039e+000 7.95287132e-001 -1.64127016e+000 0.
      -7.98549727e-002 0. 8.00517082e+000 -4.95930105e-001
      -3.11966062e-001 -4.04082537e-001 -9.34671402e+000
      -2.46435308e+000 1.54632056e+000 4.36873674e+000 0. 0. 0. 0.
      -7.06718349e+000 -2.96213889e+000 4.36550021e-001 -9.54091454e+000
      -1.25246544e+001 -2.62379670e+000 0. 0. 0. 0. 0. -2.37188220e+000
      3.06854415e+000 0. -4.38918591e+000 -3.54276276e+000
      -4.53181696e+000 -1.26020062e+000 0. 0. 1.65619564e+000
      4.68709648e-001 -1.07612538e+000 -2.03094053e+000 0.
      -1.11395073e+001 -1.48882666e+001 3.86794758e+000 0. 0.
      2.43047237e+000 0. 0. 3.95494604e+000 -1.60013103e+000 0.
      -1.37946444e+001 -3.80790257e+000 -5.19202042e+000 1.73295438e+000
      0. 0. 0. -2.52369285e-001 4.98257071e-001 1.45096868e-001 0.
      4.91172743e+000 -6.77598238e+000 -5.23224545e+000 5.57301581e-001
      0. 4.80688620e+000 1.13535367e-001 3.49585938e+000 5.49509764e+000
      3.99001408e+000 0. -7.58271646e+000 -9.33332443e+000
      -1.34225297e+000 2.97484577e-001 9.49223042e-001 1.15844011e+000
      3.83074790e-001 0. 2.72753310e+000 1.72977996e+000 0.
      -1.22781267e+001 3.65125179e-001 5.51691914e+000 1.35473967e+000
      3.98772216e+000 -9.33349323e+000 2.42111707e+000 8.00925553e-001
      -1.48905420e+000 -1.66722977e+000 1.31817353e+000 8.63084126e+000
      3.41959906e+000 3.46315050e+000 5.08644485e+000 6.13961363e+000
      1.76507253e-002 1.43737662e+000 2.75104921e-002 2.78142571e+000
      -3.12328398e-001 3.03837085e+000 9.81722832e+000 5.16033888e-001
      -2.09612441e+000 3.83163691e-001 1.23956323e+000 3.56252861e+000
      3.54974031e+000 2.01221418e+000 -8.99830639e-001 1.63520980e+000
      1.20104402e-001 1.48640881e+001 4.76286840e+000 4.76931381e+000
      -3.48140210e-001 1.65815091e+000 6.58532023e-001 8.61569822e-001
      5.29411495e-001 1.59039676e+000 1.18158281e+000 2.21948051e+000
      6.81692743e+000 -1.57818670e+001 2.21507931e+000 3.48267913e-001
      3.97450376e+000 4.61957979e+000 0. 6.14962912e+000 3.27167535e+000
      3.30642986e+000 -1.63549387e+000 8.80986023e+000 -1.41397429e+001
      2.62235522e+000 -6.75202227e+000 0. 1.47288680e+000 0.
      3.56236887e+000 -2.07171082e-001 2.13581753e+000 0.
      -3.79183602e+000 -5.78366899e+000 -1.01795793e+000 0.
      6.76690102e-001 0. 0. 0. -4.19912279e-001 2.22938108e+000
      1.25099599e+000 -2.30681872e+000 6.93629789e+000 5.05987501e+000
      2.85195950e-002 0. 0. 0. 0. 1.21685970e+000 -9.31490779e-001
      1.51155818e+000 -1.53094137e+000 -1.63519967e+000 -1.16431403e+000
      6.87302709e-001 0. -8.05382803e-002 0. 0. 2.50540137e+000
      3.13743532e-001 0. 7.54052258e+000 -1.33668556e+001
      -6.24327946e+000 7.16855824e-001 0. 0. 0. 0. -1.60723358e-001
      1.41733304e-001 0. 2.71296763e+000 4.46807766e+000
      -3.82462949e-001 4.92213964e+000 0. 1.98633015e-001 0.
      1.86254847e+000 -1.33659756e+000 -8.80162656e-001 0.
      1.73793674e+000 -7.09256840e+000 -6.94481707e+000 0. 0. 0. 0.
      1.36169279e+000 -3.04043174e+000 -1.50844896e+000 0.
      -5.20297241e+000 3.64190817e+000 4.76227570e+000 0. 0. 0. 0.
      1.38929224e+000 -5.94243574e+000 1.48337936e+000 0.
      -5.88490725e+000 -8.95380878e+000 -7.70427275e+000
      -1.47032988e+000 0. 0. 1.42908001e+000 -2.72158217e+000
      -2.15495396e+000 6.34641647e+000 0. -3.28413129e+000
      1.46279078e+001 3.35731149e+000 3.02859068e+000 0. 0. 0.
      -2.64577299e-001 2.76935607e-001 -2.98084188e+000 0.
      -2.31695914e+000 5.91397429e+000 -3.09127355e+000 1.62425101e+000
      -1.50677502e+000 0. 0. 0. -2.47736573e+000 0. 0. -5.55306768e+000
      -1.53379774e+001 -2.01028347e+000 0. 0. 0. 2.55536556e+000
      -1.00583836e-001 -1.26780462e+000 2.35431504e+000 0.
      2.86104751e+000 -6.52068233e+000 -6.99785900e+000 -4.49563408e+000
      -2.13758516e+000 0. -3.15825272e+000 3.71072960e+000
      3.70850158e+000 1.27462256e+000 0. 9.87655830e+000
      -2.34555197e+000 3.70337158e-001 -2.36932731e+000 0.
      -5.57014525e-001 1.87748194e-001 5.54550886e+000 1.55267966e+000
      -8.89626205e-001 1.20104402e-001 1.37797918e+001 1.07581301e+001
      7.97150433e-001 2.70618415e+000 -8.50494206e-001 4.58100766e-001
      -3.56239021e-001 3.73346627e-001 3.90939474e-001 6.81195021e-001
      -2.88289279e-001 8.08871841e+000 5.26894999e+000 4.57598305e+000
      -2.20070593e-002 -4.95822001e+000 5.68455791e+000 7.82350636e+000
      -1.24533224e+000 -1.83481848e+000 -1.91552949e+000 4.11874026e-001
      8.33412647e+000 1.18219604e+001 5.83907127e+000 -5.75038719e+000
      3.91740847e+000 0. -8.23593795e-001 -6.44183159e-001
      9.89072323e-001 4.75273728e-001 0. 2.16233873e+000 1.42023668e-001
      1.93862426e+000 3.19633991e-001 0. 0. 0. 1.76743281e+000
      4.32739210e+000 -1.81595218e+000 1.24362338e+000 6.68720675e+000
      1.51579773e+000 2.24855995e+000 2.86063459e-002 0. 0.
      -2.85190392e+000 -7.36069977e-001 9.42778736e-002 4.56247282e+000
      0. -1.08494949e+001 -2.53253222e+000 -3.72129798e+000
      1.50949299e+000 0. -8.22693035e-002 0. 1.38961613e+000 0.
      1.52864559e-002 0. 1.16527576e+001 -3.17410040e+000
      1.03219433e+001 6.14680052e-001 0. 0. 1.30135608e+000 0.
      2.28080368e+000 -7.62411177e-001 0. -1.32731318e+000
      -1.05911913e+001 6.43239117e+000 0. 0. 0. 0. 0. 0. 0. 0.
      4.70096684e+000 -7.13242006e+000 6.82106614e-001 -1.63543582e+000
      0. 0. -4.40262270e+000 0. -2.63896078e-001 -1.63880014e+000 0.
      -4.74362803e+000 -1.64779053e+001 9.21761799e+000 2.64267755e+000
      0. 6.98365927e-001 0. -2.51737833e-001 0. 2.13692451e+000 0.
      -1.38577299e+001 -6.23564720e+000 -3.29623103e+000
      -4.60639089e-001 0. 8.16743433e-001 0. 7.36592531e+000
      -5.33796215e+000 -2.04076028e+000 1.41087770e+000 1.16360159e+001
      -9.02311146e-001 -9.83811319e-001 0. 0. 0. 3.52503419e+000 0.
      -4.42483282e+000 0. 0. 5.53251207e-001 7.62023067e+000
      -8.44699764e+000 -1.20887972e-001 1.64659202e-001 -3.83526713e-001
      0. 1.45261753e+000 -7.84374380e+000 -3.74687147e+000 0.
      -1.06422102e+000 3.94431090e+000 7.73218536e+000 3.16016197e+000
      0. 0. 0. 1.81784356e+000 7.92925179e-001 -4.07998705e+000 0.
      -2.40198803e+000 7.74375629e+000 -6.15234017e-001 -7.48205364e-001
      0. -3.74771881e+000 1.24686085e-001 -8.01195577e-002
      1.57833958e+000 -3.37118506e+000 -3.01522017e+000 -1.71970863e+001
      1.23236251e+000 -4.42687958e-001 1.68011975e+000 6.57031775e+000
      -2.75276989e-001 3.49175513e-001 6.79409885e+000 -4.16733563e-001
      2.09900928e+000 -7.87003636e-001 -2.58971653e+001 -8.70137119e+000
      1.33679855e+000 -8.00094366e-001 2.86851853e-001 -4.07698989e-001
      2.84871519e-001 -2.95804948e-001 -9.06894445e-001 -1.15813673e+000
      -1.26180482e+000</_></support_vectors>
  <decision_functions>
    <_>
      <sv_count>1</sv_count>
      <rho>-1.2268667228476915e+000</rho>
      <alpha>
        1.</alpha>
      <index>
        0</index></_></decision_functions></my_svm>
</opencv_storage>
