<?xml version="1.0"?>
<opencv_storage>
<my_svm type_id="opencv-ml-svm">
  <svm_type>C_SVC</svm_type>
  <kernel><type>LINEAR</type></kernel>
  <C>3.1250000000000000e+002</C>
  <term_criteria><epsilon>9.9999997473787516e-006</epsilon>
    <iterations>1000000</iterations></term_criteria>
  <var_all>96</var_all>
  <var_count>96</var_count>
  <class_count>2</class_count>
  <class_labels type_id="opencv-matrix">
    <rows>1</rows>
    <cols>2</cols>
    <dt>i</dt>
    <data>
      -1 1</data></class_labels>
  <sv_total>1</sv_total>
  <support_vectors>
    <_>
      -3.27450424e-001 -2.30357647e+000 -3.52572381e-001
      -6.56353235e+000 8.34380090e-001 4.38821411e+000 1.04091966e+000
      2.68446231e+000 1.98613715e+000 1.73732738e+001 3.04531723e-001
      -6.71742964e+000 2.27908850e+000 -2.44987696e-001 8.77399027e-001
      -7.58762407e+000 5.93830967e+000 -4.18920708e+000 -5.00030100e-001
      -8.58204079e+000 -2.01596284e+000 -1.32937288e+001 1.93764985e+000
      1.30342550e+001 0. 0. 0. 0. 0. 0. 0. 0. 3.12348819e+000
      1.24535666e+001 1.97027445e+000 -2.90576029e+000 1.88003170e+000
      -4.96055460e+000 2.29697633e+000 -1.13667917e+000 3.43084526e+000
      -5.08590269e+000 3.54686189e+000 -1.08979216e+001 1.26982123e-001
      -7.53235102e+000 8.53857279e-001 -1.54204569e+001 3.73029876e+000
      7.52525330e+000 2.03540862e-001 -4.97842455e+000 -2.14936584e-001
      1.40424089e+001 -1.27543747e+000 -2.97167540e+000 -2.91667080e+000
      8.54210436e-001 1.79109871e-001 -2.18821735e+001 -1.21748102e+000
      1.83088894e+001 -5.55354416e-001 9.42535305e+000 -1.21428859e+000
      1.42891378e+001 1.36826916e+001 2.91178493e+001 1.73305467e-001
      -6.72027111e+000 1.68424404e+000 4.81323910e+000 -1.81421924e+000
      -7.18874884e+000 -2.12848163e+000 -2.74571228e+000 2.13583493e+000
      -4.78973866e+000 1.24635291e+000 -1.13247299e+001 -1.58749449e+000
      -6.88688135e+000 2.41810083e+000 -1.71582241e+001 -1.17665040e+000
      7.87325811e+000 -5.78323960e-001 -4.97019720e+000 -8.59026611e-001
      -1.38489685e+001 1.36179280e+000 3.72756982e+000 -3.71946961e-001
      1.23471177e+000 -1.07813787e+000 2.68380833e+000</_></support_vectors>
  <decision_functions>
    <_>
      <sv_count>1</sv_count>
      <rho>-5.3221866212131985e-001</rho>
      <alpha>
        1.</alpha>
      <index>
        0</index></_></decision_functions></my_svm>
</opencv_storage>
