<?xml version="1.0"?>
<opencv_storage>
<my_svm type_id="opencv-ml-svm">
  <svm_type>C_SVC</svm_type>
  <kernel><type>RBF</type>
    <gamma>5.0625000000000009e-001</gamma></kernel>
  <C>3.1250000000000000e+002</C>
  <term_criteria><epsilon>9.9999997473787516e-006</epsilon>
    <iterations>1000000</iterations></term_criteria>
  <var_all>96</var_all>
  <var_count>96</var_count>
  <class_count>2</class_count>
  <class_labels type_id="opencv-matrix">
    <rows>1</rows>
    <cols>2</cols>
    <dt>i</dt>
    <data>
      -1 1</data></class_labels>
  <sv_total>934</sv_total>
  <support_vectors>
    <_>
      0. 0. 0. 0. 0. 0. 0. 0. 0. 1.56250002e-003 0. 1.90972222e-003 0.
      1.21527782e-003 0. 3.64583335e-003 0. 4.86111129e-003 0.
      6.25000009e-003 0. 2.30902769e-002 0. 8.90624970e-002 0.
      7.60416687e-002 0. 4.16666679e-002 0. 7.43055567e-002
      6.76388860e-001 0. 0. 0. 0. 0. 0. 0. 0. 0. 0. 0. 0.
      1.73611115e-004 0. 1.73611115e-004 0. 1.04166672e-003 0.
      2.60416674e-003 0. 7.81250000e-003 0. 9.37500037e-003 0.
      9.72222239e-002 0. 8.21180567e-002 0. 3.83680537e-002 0.
      7.53472224e-002 6.85763896e-001 0. 0. 0. 0. 3.87152769e-002 0.
      2.30902769e-002 0. 1.66666675e-002 0. 1.30208330e-002 0.
      1.28472224e-002 0. 2.67361104e-002 0. 4.86111129e-003 0.
      3.12500005e-003 0. 4.16666688e-003 0. 3.28124985e-002 0.
      1.54513884e-002 0. 3.48958336e-002 0. 3.45486104e-002 0.
      6.59722239e-002 6.73090279e-001 0.</_>
    <_>
      0. 0. 0. 0. 0. 0. 0. 0. 0. 4.93463017e-002 0. 1.31536992e-002 0.
      1.03635201e-002 0. 1.70599483e-002 0. 3.67506370e-002 0.
      6.01084195e-002 0. 6.49712980e-002 0. 5.89126274e-002 0.
      5.91517873e-002 0. 4.83896695e-002 0. 5.03029339e-002
      3.67665827e-001 1.63823336e-001 0. 0. 0. 0. 0. 0. 0. 0. 0. 0. 0.
      0. 0. 0. 0. 0. 0. 0. 0. 4.94260192e-002 0. 2.16836743e-002 0.
      4.26498726e-002 0. 1.09614156e-001 0. 1.18144132e-001 0.
      8.49808678e-002 3.87197077e-001 1.86304212e-001 0. 4.91071418e-002
      0. 6.77614799e-003 0. 9.48660728e-003 0. 9.16772988e-003 0.
      1.44292088e-002 0. 2.35172193e-002 0. 3.76275517e-002 0.
      4.51211743e-002 0. 4.86288257e-002 0. 4.52806130e-002 0.
      5.09406887e-002 0. 3.60331647e-002 0. 3.12500000e-002 0.
      3.66709195e-002 0. 3.89827788e-002 3.62005740e-001 1.54974490e-001</_>
    <_>
      0. 0. 0. 1.48809529e-004 0. 1.48809529e-004 0. 4.91071446e-003 0.
      6.54761912e-003 0. 7.44047621e-003 0. 7.14285718e-003 0.
      7.44047621e-003 0. 1.16071431e-002 0. 2.32142862e-002 0.
      2.20238101e-002 0. 3.27380970e-002 0. 3.13988104e-002 0.
      3.69047634e-002 0. 4.24107127e-002 7.00148821e-001 6.57738075e-002
      0. 0. 0. 1.48809529e-004 0. 2.97619059e-004 0. 4.91071446e-003 0.
      7.44047621e-003 0. 7.14285718e-003 0. 7.14285718e-003 0.
      7.44047621e-003 0. 1.29464287e-002 0. 2.23214291e-002 0.
      2.47023813e-002 0. 3.31845246e-002 0. 3.03571429e-002 0.
      3.69047634e-002 0. 4.79166657e-002 6.98660731e-001 5.84821440e-002
      0. 0. 0. 0. 0. 0. 0. 3.86904762e-003 0. 4.46428591e-003 0.
      4.01785737e-003 0. 4.01785737e-003 0. 2.82738102e-003 0.
      4.16666688e-003 0. 8.18452425e-003 0. 1.78571437e-002 0.
      2.18749996e-002 0. 2.39583328e-002 0. 2.94642858e-002 0.
      8.08035731e-002 7.22767830e-001 7.17261881e-002</_>
    <_>
      0. 0. 0. 0. 0. 0. 0. 0. 0. 0. 0. 0. 0. 0. 0. 0. 0. 0. 0. 0. 0. 0.
      0. 0. 0. 0. 0. 0. 0. 0. 1. 0. 0. 0. 0. 0. 0. 0. 0. 0. 0. 0. 0. 0.
      0. 0. 0. 0. 0. 0. 0. 0. 0. 0. 0. 0. 0. 0. 0. 0. 0. 0. 1. 0. 0. 0.
      0. 0. 0. 0. 0. 0. 0. 0. 0. 0. 0. 0. 0. 0. 0. 0. 0. 0. 0. 0. 0. 0.
      0. 0. 0. 0. 0. 0. 1. 0.</_>
    <_>
      0. 0. 0. 5.12695313e-003 0. 6.59179688e-003 0. 1.90429688e-002 0.
      2.51464844e-002 0. 1.92871094e-002 0. 1.87988281e-002 0.
      3.10058594e-002 0. 1.36718750e-002 0. 1.02539063e-002 0.
      1.70898438e-002 0. 2.36816406e-002 0. 1.92871094e-002 0.
      2.68554688e-002 0. 3.14941406e-002 7.32666016e-001 0. 0. 0. 0. 0.
      0. 0. 0. 3.66210938e-003 0. 1.22070313e-003 0. 2.92968750e-003 0.
      7.32421875e-003 0. 7.32421875e-003 0. 1.04980469e-002 0.
      1.02539063e-002 0. 9.27734375e-003 0. 1.36718750e-002 0.
      1.63574219e-002 0. 5.59082031e-002 0. 1.04980469e-001
      7.50732422e-001 5.85937500e-003 0. 0. 0. 0. 0. 0. 0. 0. 0. 0. 0.
      0. 0. 0. 0. 0. 0. 0. 0. 0. 0. 0. 0. 0. 0. 0. 0. 5.37109375e-003 0.
      8.10546875e-002 9.13330078e-001 2.44140625e-004</_>
    <_>
      0. 0. 0. 0. 0. 2.84090900e-004 0. 3.25284079e-002 0.
      5.53977257e-003 0. 2.69886362e-003 0. 1.10795451e-002 0.
      7.10227294e-004 0. 9.94318165e-004 0. 1.42045459e-003 0.
      9.65909101e-003 0. 1.27840904e-003 0. 2.98295449e-003 0.
      4.82954551e-003 0. 2.01704539e-002 9.05823886e-001 0. 0. 0. 0. 0.
      0. 2.67045461e-002 0. 6.53409073e-003 0. 5.39772725e-003 0.
      9.65909101e-003 0. 3.83522734e-003 0. 7.10227294e-004 0.
      1.13636360e-003 0. 5.68181800e-004 0. 9.51704569e-003 0.
      1.42045459e-003 0. 2.84090918e-003 0. 4.68750019e-003
      4.36363637e-001 2.88352277e-002 3.83522719e-001 7.82670453e-002 0.
      0. 0. 0. 0. 0. 0. 0. 0. 0. 0. 0. 0. 0. 0. 0. 0. 0. 0. 0. 0.
      4.26136365e-004 0. 7.10227294e-004 0. 3.12500005e-003 0.
      4.82954532e-002 0. 5.25568165e-002 8.16477299e-001 7.84090906e-002</_>
    <_>
      0. 0. 0. 1.10981306e-002 0. 2.74532717e-002 0. 4.26401868e-002 0.
      4.46845777e-002 0. 3.86974290e-002 0. 1.19742993e-002 0.
      9.63785034e-003 0. 1.13901868e-002 0. 3.06658889e-003 0.
      5.40303718e-003 0. 1.78154204e-002 0. 1.08060744e-002 0.
      4.62908894e-002 1.15800232e-001 4.23481315e-003 5.20297885e-001
      7.87091106e-002 0. 0. 0. 0. 0. 5.84112131e-004 0. 1.91296730e-002
      0. 3.31483632e-002 0. 3.76752354e-002 0. 5.91413565e-002 0.
      2.32184585e-002 0. 1.29964957e-002 0. 1.19742993e-002 0.
      4.38084127e-003 0. 1.44567760e-002 0. 1.70852803e-002
      1.06454439e-001 2.33644852e-003 0. 6.61507025e-002 5.20443916e-001
      7.08235949e-002 0. 0. 0. 0. 0. 0. 0. 0. 0. 0. 0. 5.84112131e-004
      0. 2.19042064e-003 0. 3.19801420e-002 0. 3.09579447e-002 0.
      4.57067750e-002 0. 6.93633184e-002 0. 1.46028036e-002 0.
      1.82535052e-002 0. 1.04264021e-001 0. 8.95151868e-002
      5.21320105e-001 7.12616816e-002</_>
    <_>
      0. 0. 0. 3.90625000e-003 0. 1.05298916e-002 0. 1.05298916e-002 0.
      1.68138593e-002 0. 2.25883145e-002 0. 1.95312500e-002 0.
      1.39266308e-002 0. 1.00203808e-002 0. 1.23980977e-002 0.
      1.63043477e-002 0. 1.88519023e-002 0. 2.22486407e-002 0.
      2.25883145e-002 0. 3.90625000e-002 7.59171188e-001 1.52853259e-003
      0. 0. 0. 5.26494579e-003 0. 1.23980977e-002 0. 1.06997285e-002 0.
      1.74932070e-002 0. 2.29279883e-002 0. 1.78328808e-002 0.
      1.29076084e-002 0. 1.12092393e-002 0. 1.27377715e-002 0.
      1.68138593e-002 0. 1.59646738e-002 0. 2.34375000e-002 0.
      2.13994570e-002 0. 3.90625000e-002 7.59171188e-001 6.79347839e-004
      0. 0. 0. 6.28396729e-003 0. 1.23980977e-002 0. 1.10394023e-002 0.
      1.91915762e-002 0. 2.19089668e-002 0. 1.64741855e-002 0.
      1.30774453e-002 0. 9.85054392e-003 0. 1.13790762e-002 0.
      1.54551631e-002 0. 1.49456523e-002 0. 2.24184785e-002 0.
      2.30978262e-002 0. 4.11005430e-002 7.60699749e-001 6.79347839e-004</_>
    <_>
      0. 0. 0. 0. 0. 9.30175781e-002 0. 1.44042969e-002 0.
      1.02539063e-002 0. 9.27734375e-003 0. 4.15039063e-003 0.
      4.88281250e-002 0. 8.30078125e-003 0. 8.78906250e-003 0.
      1.63574219e-002 0. 5.17578125e-002 0. 1.48925781e-002 0.
      1.19628906e-002 0. 1.66015625e-002 6.88720703e-001 2.68554688e-003
      0. 7.69042969e-002 0. 3.00292969e-002 0. 8.05664063e-003 0.
      4.39453125e-003 0. 7.81250000e-003 0. 3.24707031e-002 0.
      1.90429688e-002 0. 5.12695313e-003 0. 5.85937500e-003 0.
      1.26953125e-002 0. 3.56445313e-002 0. 2.70996094e-002 0.
      1.78222656e-002 0. 9.03320313e-003 0. 1.66015625e-002
      6.88720703e-001 2.68554688e-003 0. 0. 0. 0. 0. 0. 0. 0. 0.
      4.88281250e-004 0. 2.44140625e-004 0. 7.32421875e-004 0.
      1.22070313e-003 0. 4.15039063e-003 0. 4.39453125e-003 0.
      9.27734375e-003 0. 9.03320313e-003 0. 6.49414063e-002
      1.08642578e-001 1.95312500e-002 0. 7.51953125e-002 6.91894531e-001
      1.02539063e-002</_>
    <_>
      0. 0. 0. 0. 0. 0. 0. 0. 0. 0. 0. 0. 0. 0. 0. 1.59438772e-004 0.
      2.07270402e-003 0. 6.37755124e-003 0. 1.70599483e-002 0.
      3.87436226e-002 0. 5.58035709e-002 0. 7.31823966e-002
      8.04368615e-001 2.23214296e-003 0. 0. 0. 0. 0. 0. 0. 0. 0. 0. 0.
      0. 0. 0. 0. 0. 0. 0. 0. 1.59438772e-004 0. 1.91326533e-003 0.
      4.46428591e-003 0. 1.27551025e-002 0. 3.18877548e-002 0.
      5.05420901e-002 0. 7.23852068e-002 8.23660731e-001 2.23214296e-003
      0. 0. 0. 0. 0. 0. 0. 0. 0. 0. 0. 0. 0. 0. 0. 0. 0. 0. 0.
      1.91326533e-003 0. 3.66709195e-003 0. 1.24362241e-002 0.
      2.91772950e-002 0. 5.38903065e-002 0. 7.19068870e-002
      8.23979616e-001 3.02933669e-003</_>
    <_>
      0. 0. 0. 0. 0. 0. 0. 3.03571429e-002 0. 5.63988090e-002 0.
      1.19047624e-003 0. 1.04166672e-003 0. 2.11309530e-002 0.
      2.05357149e-002 0. 4.76190494e-003 0. 8.03571474e-003 0.
      1.99404769e-002 0. 3.18452381e-002 0. 3.18452381e-002
      1.12351194e-001 3.22916657e-002 5.34523785e-001 9.37500000e-002 0.
      0. 0. 0. 0. 0. 0. 0. 0. 0. 0. 0. 0. 0. 0. 0. 0. 0. 0.
      3.13988104e-002 0. 3.27380956e-003 0. 2.08333340e-002 0.
      1.54761905e-002 0. 1.13095239e-001 1.12351194e-001 5.44642843e-002
      5.55357158e-001 9.37500000e-002 0. 0. 0. 0. 0. 0. 0. 0. 0. 0. 0.
      0. 0. 0. 0. 0. 0. 0. 0. 1.04166672e-003 0. 1.48809527e-003 0.
      2.52976199e-003 0. 3.98809537e-002 0. 5.10416664e-002
      1.12351194e-001 4.56845239e-002 6.52232170e-001 9.37500000e-002</_>
    <_>
      0. 0. 0. 0. 0. 0. 0. 0. 0. 5.95238118e-004 0. 1.78571430e-003 0.
      5.75396838e-003 0. 1.84523817e-002 0. 1.32936509e-002 0.
      1.60714295e-002 0. 2.04365086e-002 0. 3.43253985e-002 0.
      4.20634933e-002 0. 4.22619060e-002 0. 4.34523821e-002
      7.59920657e-001 1.58730161e-003 0. 0. 0. 0. 0. 0. 0. 0. 0.
      5.95238118e-004 0. 1.78571430e-003 0. 7.34126987e-003 0.
      1.40873017e-002 0. 1.07142860e-002 0. 1.74603183e-002 0.
      1.60714295e-002 0. 2.83730160e-002 0. 3.69047634e-002 0.
      4.70238104e-002 0. 5.45634925e-002 7.62896836e-001 2.18253979e-003
      0. 0. 0. 0. 0. 0. 0. 0. 0. 0. 0. 0. 0. 0. 0. 0. 0. 0. 0.
      3.96825420e-003 0. 1.09126987e-002 0. 2.10317466e-002 0.
      4.76190485e-002 0. 5.09920642e-002 0. 8.23412687e-002
      7.72619069e-001 1.05158733e-002</_>
    <_>
      5.67274332e-001 1.49739580e-002 0. 4.36197929e-002 0.
      4.38368060e-002 2.60199666e-001 7.00954869e-002 0. 0. 0. 0. 0. 0.
      0. 0. 0. 0. 0. 0. 0. 0. 0. 0. 0. 0. 0. 0. 0. 0. 0. 0.
      5.40581584e-001 1.17187500e-002 0. 1.62760410e-002 0.
      1.08506940e-002 0. 1.41059030e-002 0. 1.54079860e-002 0.
      9.98263899e-003 0. 1.30208330e-002 0. 1.15017360e-002 0.
      1.41059030e-002 0. 1.71440970e-002 0. 2.14843750e-002
      2.43489578e-001 6.03298619e-002 0. 0. 0. 0. 0. 0. 0. 0.
      5.41015625e-001 1.17187500e-002 0. 1.71440970e-002 0.
      1.12847220e-002 0. 1.36718750e-002 0. 1.56250000e-002 0.
      1.25868060e-002 0. 1.34548610e-002 0. 1.49739580e-002 0.
      1.43229170e-002 0. 1.84461810e-002 2.50868052e-001 6.48871511e-002
      0. 0. 0. 0. 0. 0. 0. 0. 0. 0.</_>
    <_>
      0. 0. 0. 0. 0. 0. 0. 0. 0. 1.51699031e-004 0. 3.79247562e-004 0.
      1.13774277e-003 0. 3.10983020e-003 0. 5.91626205e-003 0.
      1.24393208e-002 0. 2.70024277e-002 0. 4.56614085e-002 0.
      6.59132302e-002 0. 8.57857987e-002 0. 9.30673555e-002
      6.51092231e-001 8.34344700e-003 0. 0. 0. 0. 0. 0. 0. 0. 0.
      7.58495153e-005 0. 3.03398061e-004 0. 9.10194183e-004 0.
      3.41322809e-003 0. 5.76456310e-003 0. 1.14532765e-002 0.
      2.44235434e-002 0. 4.55855578e-002 0. 6.35618940e-002 0.
      8.58616531e-002 0. 9.35224518e-002 6.57918692e-001 7.20570376e-003
      0. 0. 0. 0. 0. 0. 0. 0. 0. 7.58495153e-005 0. 4.55097092e-004 0.
      9.10194183e-004 0. 3.33737861e-003 0. 6.14381069e-003 0.
      1.10740289e-002 0. 2.66990289e-002 0. 4.55097072e-002 0.
      6.42445385e-002 0. 8.37378651e-002 0. 9.41292495e-002
      6.55339777e-001 8.34344700e-003</_>
    <_>
      0. 0. 0. 0. 0. 0. 0. 0. 0. 0. 0. 0. 0. 0. 0. 0. 0. 3.36021505e-004
      0. 1.34408602e-003 0. 1.00806449e-002 0. 4.55309153e-002 0.
      1.05174728e-001 0. 1.27352148e-001 7.09845424e-001 3.36021505e-004
      0. 0. 0. 0. 0. 0. 0. 0. 0. 0. 0. 0. 0. 0. 0. 0. 0. 0. 0. 0. 0.
      3.36021505e-004 0. 2.35215062e-003 0. 1.68010760e-002 0.
      6.11559153e-002 0. 1.22647852e-001 7.92002678e-001 6.72043010e-004
      0. 4.03225794e-003 0. 0. 0. 0. 0. 0. 0. 0. 0. 0. 0. 0. 0. 0. 0. 0.
      0. 0. 0. 1.68010753e-004 0. 1.51209673e-003 0. 9.91263427e-003 0.
      4.82190847e-002 0. 1.06854841e-001 0. 1.44489244e-001
      6.88676059e-001 1.68010753e-004</_>
    <_>
      0. 3.12500000e-002 0. 9.79166664e-003 0. 1.12500004e-002 0.
      6.66666683e-003 0. 4.99999989e-003 0. 1.85416657e-002 0.
      6.25000009e-003 0. 5.41666662e-003 0. 5.83333336e-003 0.
      1.25000002e-002 0. 2.54166666e-002 0. 4.18750010e-002 0.
      5.29166684e-002 0. 1.40000001e-001 0. 1.37500003e-001
      4.89791662e-001 0. 0. 0. 0. 0. 0. 0. 0. 0. 0. 0. 0. 0. 0.
      2.08333338e-004 0. 1.04166672e-003 0. 2.91666668e-003 0.
      4.79166675e-003 0. 5.54166660e-002 0. 4.12500016e-002 0.
      6.49999976e-002 0. 6.77083358e-002 0. 9.06250030e-002
      6.71041667e-001 0. 0. 0. 0. 0. 0. 0. 0. 0. 0. 0. 0.
      1.83333326e-002 0. 2.16666665e-002 0. 1.60416663e-002 0.
      1.08333332e-002 0. 3.16666663e-002 0. 2.04166658e-002 0.
      3.04166675e-002 0. 5.62499985e-002 0. 6.37499988e-002 0.
      1.97916672e-001 5.32708347e-001 0.</_>
    <_>
      0. 0. 0. 6.94444461e-005 0. 1.80555554e-003 0. 2.36111111e-003 0.
      9.02777771e-004 0. 3.47222231e-004 0. 9.72222246e-004 0.
      2.22222228e-003 0. 5.76388882e-003 0. 1.35416668e-002 0.
      2.44444441e-002 0. 4.11805548e-002 0. 6.23611100e-002 0.
      7.51388893e-002 0. 1.01458333e-001 6.67291641e-001 1.38888892e-004
      0. 0. 0. 0. 0. 1.38888892e-004 0. 9.02777771e-004 0.
      1.24999997e-003 0. 1.18055556e-003 0. 1.66666671e-003 0.
      1.73611112e-003 0. 5.83333336e-003 0. 1.69444438e-002 0.
      2.77777780e-002 0. 3.95138897e-002 0. 6.16666675e-002 0.
      7.55555555e-002 0. 1.03124999e-001 6.62638903e-001 6.94444461e-005
      0. 0. 0. 0. 0. 0. 0. 0. 0. 8.33333354e-004 0. 1.38888892e-003 0.
      2.08333344e-003 0. 3.40277771e-003 0. 6.87499996e-003 0.
      1.56250000e-002 0. 2.40972228e-002 0. 3.75000015e-002 0.
      6.31249994e-002 0. 8.01388919e-002 0. 1.02013886e-001
      6.62777781e-001 1.38888892e-004</_>
    <_>
      0. 0. 0. 9.52148438e-002 0. 1.97753906e-002 0. 2.05078125e-002 0.
      1.36718750e-002 0. 1.36718750e-002 0. 2.53906250e-002 0.
      1.63574219e-002 0. 1.22070313e-002 0. 2.27050781e-002 0.
      2.39257813e-002 0. 2.00195313e-002 0. 1.34277344e-002 0.
      6.34765625e-003 0. 1.80664063e-002 6.77734375e-001 9.76562500e-004
      0. 6.05468750e-002 0. 4.15039063e-002 0. 2.83203125e-002 0.
      1.02539063e-002 0. 1.36718750e-002 0. 2.34375000e-002 0.
      1.36718750e-002 0. 1.68457031e-002 0. 1.34277344e-002 0.
      2.00195313e-002 0. 2.80761719e-002 0. 1.48925781e-002 0.
      1.34277344e-002 0. 5.85937500e-003 0. 1.70898438e-002
      6.77734375e-001 1.22070313e-003 0. 0. 0. 0. 0. 0. 0. 0. 0. 0. 0.
      0. 0. 0. 0. 0. 0. 0. 0. 7.32421875e-003 0. 1.75781250e-002 0.
      3.10058594e-002 0. 5.12695313e-002 0. 7.98339844e-002 0.
      1.11083984e-001 6.98730469e-001 3.17382813e-003</_>
    <_>
      0. 0. 0. 0. 0. 0. 0. 3.00480780e-004 0. 6.00961561e-004 0.
      2.40384624e-003 0. 5.85937500e-003 0. 5.25841350e-003 0.
      9.16466303e-003 0. 1.99819710e-002 0. 1.90805290e-002 0.
      2.89963949e-002 0. 3.71093750e-002 0. 4.08653840e-002 0.
      4.74759601e-002 7.79747605e-001 3.15504801e-003 0. 0. 0. 0. 0. 0.
      0. 3.00480780e-004 0. 7.51201937e-004 0. 2.25360575e-003 0.
      5.55889402e-003 0. 6.00961549e-003 0. 7.81250000e-003 0.
      1.30709130e-002 0. 1.30709130e-002 0. 1.96814910e-002 0.
      2.77944710e-002 0. 3.51562500e-002 0. 6.41526431e-002
      8.04387033e-001 0. 0. 0. 0. 0. 0. 0. 0. 3.00480780e-004 0.
      7.51201937e-004 0. 2.40384624e-003 0. 5.70913451e-003 0.
      6.00961549e-003 0. 8.11298098e-003 0. 1.24699520e-002 0.
      1.35216350e-002 0. 2.01322120e-002 0. 2.77944710e-002 0.
      3.30528840e-002 0. 4.70252410e-002 8.22716355e-001 0.</_>
    <_>
      0. 8.30078125e-002 0. 1.70898438e-002 0. 1.56250000e-002 0.
      1.29394531e-002 0. 1.39160156e-002 0. 1.87988281e-002 0.
      1.95312500e-002 0. 1.70898438e-002 0. 1.78222656e-002 0.
      1.63574219e-002 0. 2.12402344e-002 0. 1.46484375e-002 0.
      2.24609375e-002 0. 2.22167969e-002 0. 2.83203125e-002
      6.58935547e-001 0. 0. 8.30078125e-002 0. 1.70898438e-002 0.
      1.56250000e-002 0. 1.29394531e-002 0. 1.39160156e-002 0.
      1.87988281e-002 0. 1.95312500e-002 0. 1.70898438e-002 0.
      1.73339844e-002 0. 1.68457031e-002 0. 2.12402344e-002 0.
      1.46484375e-002 0. 2.22167969e-002 0. 2.24609375e-002 0.
      2.83203125e-002 6.58935547e-001 0. 0. 8.30078125e-002 0.
      1.70898438e-002 0. 1.56250000e-002 0. 1.29394531e-002 0.
      1.39160156e-002 0. 1.87988281e-002 0. 1.95312500e-002 0.
      1.70898438e-002 0. 1.78222656e-002 0. 1.63574219e-002 0.
      2.12402344e-002 0. 1.46484375e-002 0. 2.24609375e-002 0.
      2.22167969e-002 0. 2.83203125e-002 6.58935547e-001 0.</_>
    <_>
      0. 1.23456791e-002 0. 6.17283955e-003 0. 6.55864179e-003 0.
      1.09953703e-002 0. 6.17283955e-003 0. 6.94444450e-003 0.
      5.78703685e-003 0. 9.45216045e-003 0. 1.17669757e-002 0.
      1.27314813e-002 0. 1.94830243e-002 0. 2.93209869e-002 0.
      5.15046306e-002 0. 6.88657388e-002 0. 7.48456791e-002
      6.59915149e-001 7.13734562e-003 0. 1.19598769e-002 0.
      2.70061730e-003 0. 1.35030865e-003 0. 1.92901236e-003 0.
      5.78703708e-004 0. 3.66512337e-003 0. 3.66512337e-003 0.
      4.82253078e-003 0. 7.90895056e-003 0. 9.45216045e-003 0.
      2.17978396e-002 0. 3.20216045e-002 0. 5.09259254e-002 0.
      6.94444478e-002 0. 7.79320970e-002 6.92708313e-001 7.13734562e-003
      0. 1.19598769e-002 0. 2.31481483e-003 0. 1.73611112e-003 0.
      1.92901236e-003 0. 3.85802472e-004 0. 5.20833349e-003 0.
      5.97993843e-003 0. 1.06095681e-002 0. 1.21527780e-002 0.
      1.06095681e-002 0. 2.00617276e-002 0. 2.73919757e-002 0.
      4.74537052e-002 0. 6.25000000e-002 0. 7.25308657e-002
      7.06983030e-001 1.92901236e-004</_>
    <_>
      0. 0. 0. 5.53097343e-004 0. 6.91371679e-004 0. 8.57300870e-003 0.
      8.71128310e-003 0. 1.10619469e-002 0. 1.03705749e-002 0.
      1.23064155e-002 0. 2.32300889e-002 0. 1.16150444e-002 0.
      9.54092946e-003 0. 4.83960174e-002 0. 4.36946899e-002 0.
      4.60453555e-002 0. 6.12555295e-002 7.03954637e-001 0. 0. 0. 0.
      5.53097343e-004 0. 6.91371679e-004 0. 7.19026569e-003 0.
      8.71128310e-003 0. 1.14767700e-002 0. 1.09236725e-002 0.
      1.05088493e-002 0. 2.39214599e-002 0. 1.32743362e-002 0.
      1.05088493e-002 0. 4.32798676e-002 0. 4.89491150e-002 0.
      4.79811952e-002 0. 5.94579652e-002 7.02571929e-001 0. 0. 0. 0.
      5.53097343e-004 0. 6.91371679e-004 0. 9.67920350e-004 0.
      6.91371679e-004 0. 2.35066377e-003 0. 3.18030966e-003 0.
      3.45685845e-003 0. 8.15818552e-003 0. 1.41039826e-002 0.
      2.59955749e-002 0. 4.52157073e-002 0. 5.19911498e-002 0.
      7.60508850e-002 0. 5.90431429e-002 7.07549751e-001 0.</_>
    <_>
      0. 8.18196684e-004 0. 2.61822948e-003 0. 8.01832788e-003 0.
      1.75094102e-002 0. 1.80003271e-002 0. 1.68548524e-002 0.
      1.47275403e-002 0. 1.55457370e-002 0. 2.14367528e-002 0.
      2.22549494e-002 0. 2.32367869e-002 0. 3.24005894e-002 0.
      1.86548848e-002 0. 2.68368516e-002 0. 4.51644585e-002
      6.77630484e-001 3.82916071e-002 0. 6.54557371e-004 0.
      1.96367200e-003 0. 4.41826228e-003 0. 1.21093113e-002 0.
      1.91458035e-002 0. 1.96367204e-002 0. 1.45639013e-002 0.
      1.11274747e-002 0. 1.55457370e-002 0. 2.02912781e-002 0.
      2.16003936e-002 0. 3.40369828e-002 0. 3.12551148e-002 0.
      3.12551148e-002 0. 4.58190143e-002 6.78448677e-001 3.81279662e-002
      0. 4.90917999e-004 0. 1.63639337e-003 0. 3.27278674e-003 0.
      8.18196684e-003 0. 1.30911469e-002 0. 1.60366558e-002 0.
      1.66912135e-002 0. 1.52184581e-002 0. 1.24365902e-002 0.
      1.37457047e-002 0. 1.45639013e-002 0. 2.53640972e-002 0.
      3.04369163e-002 0. 4.66372110e-002 0. 5.90738021e-002
      6.78939641e-001 4.41826209e-002</_>
    <_>
      8.62335503e-001 3.28947383e-004 0. 2.22039465e-002 0.
      1.49671054e-002 0. 1.36513161e-002 0. 8.88157915e-003 0.
      1.13486843e-002 0. 1.16776312e-002 0. 9.21052601e-003 0.
      7.40131596e-003 0. 5.75657887e-003 0. 6.08552620e-003 0.
      3.12500005e-003 0. 2.79605272e-003 0. 1.80921052e-003 0.
      1.11842109e-002 0. 7.23684207e-003 8.50822389e-001 3.45394737e-003
      0. 2.35197376e-002 0. 1.62828956e-002 0. 1.43092107e-002 0.
      9.21052601e-003 0. 9.21052601e-003 0. 1.20065790e-002 0.
      1.05263162e-002 0. 9.53947380e-003 0. 8.22368450e-003 0.
      6.08552620e-003 0. 3.61842103e-003 0. 2.63157906e-003 0.
      2.46710517e-003 0. 1.23355268e-002 0. 5.75657887e-003
      7.55756557e-001 2.61513162e-002 0. 4.75328937e-002 0.
      3.10855266e-002 0. 2.69736834e-002 0. 1.99013166e-002 0.
      1.15131577e-002 0. 9.04605258e-003 0. 1.23355268e-002 0.
      1.00328950e-002 0. 1.06907897e-002 0. 8.05921014e-003 0.
      6.25000009e-003 0. 2.30263150e-003 0. 3.94736836e-003 0.
      1.23355268e-002 0. 6.08552620e-003</_>
    <_>
      0. 0. 0. 0. 0. 0. 0. 0. 0. 4.11184214e-004 0. 1.50767539e-003 0.
      3.70065798e-003 0. 1.15131577e-002 0. 1.74067989e-002 0.
      2.57675443e-002 0. 3.13870609e-002 0. 3.42653506e-002 0.
      3.28947380e-002 0. 3.33059207e-002 0. 3.08388155e-002
      7.76864052e-001 1.37061405e-004 0. 0. 0. 0. 0. 0. 0. 0. 0.
      4.11184214e-004 0. 1.50767539e-003 0. 3.70065798e-003 0.
      1.15131577e-002 0. 1.74067989e-002 0. 2.59046052e-002 0.
      3.15241218e-002 0. 3.46765369e-002 0. 3.35800424e-002 0.
      3.38541679e-002 0. 3.00164465e-002 7.75767565e-001 1.37061405e-004
      0. 0. 0. 0. 0. 0. 0. 0. 0. 4.11184214e-004 0. 1.64473685e-003 0.
      3.70065798e-003 0. 1.16502196e-002 0. 1.78179815e-002 0.
      2.61787288e-002 0. 3.23464908e-002 0. 3.48135978e-002 0.
      3.34429815e-002 0. 3.35800424e-002 0. 2.85087712e-002
      7.75767565e-001 1.37061405e-004</_>
    <_>
      0. 8.30078125e-002 0. 1.70898438e-002 0. 1.56250000e-002 0.
      1.29394531e-002 0. 1.39160156e-002 0. 1.87988281e-002 0.
      1.95312500e-002 0. 1.70898438e-002 0. 1.78222656e-002 0.
      1.63574219e-002 0. 2.12402344e-002 0. 1.46484375e-002 0.
      2.24609375e-002 0. 2.22167969e-002 0. 2.83203125e-002
      6.58935547e-001 0. 0. 8.30078125e-002 0. 1.70898438e-002 0.
      1.56250000e-002 0. 1.29394531e-002 0. 1.39160156e-002 0.
      1.87988281e-002 0. 1.95312500e-002 0. 1.70898438e-002 0.
      1.73339844e-002 0. 1.68457031e-002 0. 2.12402344e-002 0.
      1.46484375e-002 0. 2.22167969e-002 0. 2.24609375e-002 0.
      2.83203125e-002 6.58935547e-001 0. 0. 8.30078125e-002 0.
      1.70898438e-002 0. 1.56250000e-002 0. 1.29394531e-002 0.
      1.39160156e-002 0. 1.87988281e-002 0. 1.95312500e-002 0.
      1.70898438e-002 0. 1.78222656e-002 0. 1.63574219e-002 0.
      2.12402344e-002 0. 1.46484375e-002 0. 2.24609375e-002 0.
      2.22167969e-002 0. 2.83203125e-002 6.58935547e-001 0.</_>
    <_>
      0. 0. 0. 0. 0. 0. 0. 0. 0. 0. 0. 1.87125755e-004 0.
      1.87125744e-003 0. 6.83008973e-003 0. 1.22567369e-002 0.
      1.74962580e-002 0. 2.71332338e-002 0. 3.98577861e-002 0.
      5.37050888e-002 0. 7.10142180e-002 0. 7.86863789e-002
      6.90774679e-001 1.87125755e-004 0. 0. 0. 0. 0. 0. 0. 0. 0. 0. 0.
      9.35628777e-005 0. 1.30988029e-003 0. 3.18113761e-003 0.
      9.73053928e-003 0. 1.79640725e-002 0. 2.97529940e-002 0.
      4.27582338e-002 0. 5.62312864e-002 0. 7.15755969e-002 0.
      7.84056857e-002 6.88903451e-001 9.35628777e-005 0. 0. 0. 0. 0. 0.
      0. 0. 0. 0. 0. 9.35628777e-005 0. 1.02919166e-003 0.
      1.96482032e-003 0. 5.89446118e-003 0. 1.17889224e-002 0.
      2.62911674e-002 0. 4.69685644e-002 0. 6.16579354e-002 0.
      6.87687099e-002 0. 8.28967094e-002 6.92552388e-001 9.35628777e-005</_>
    <_>
      0. 0. 0. 0. 0. 0. 0. 1.38274336e-003 0. 1.93584070e-003 0.
      5.53097343e-003 0. 1.05088493e-002 0. 8.15818552e-003 0.
      7.60508841e-003 0. 1.83904860e-002 0. 1.70077439e-002 0.
      3.51216830e-002 0. 6.29148260e-002 0. 9.76216793e-002 0.
      1.14491150e-001 6.17947996e-001 1.38274336e-003 0. 0. 0. 0. 0. 0.
      0. 5.53097343e-004 0. 4.14823007e-004 0. 5.53097343e-004 0.
      6.91371679e-004 0. 1.52101775e-003 0. 5.39269904e-003 0.
      1.24446899e-002 0. 1.27212387e-002 0. 2.11559739e-002 0.
      4.25884947e-002 0. 8.64214599e-002 0. 1.50304198e-001
      6.63302004e-001 1.93584070e-003 0. 0. 0. 0. 0. 0. 0.
      5.53097343e-004 0. 4.14823007e-004 0. 5.53097343e-004 0.
      6.91371679e-004 0. 1.52101775e-003 0. 2.07411498e-003 0.
      5.11615025e-003 0. 3.87168140e-003 0. 9.81747825e-003 0.
      1.70077439e-002 0. 4.17588502e-002 0. 1.47815272e-001
      7.66454637e-001 2.35066377e-003</_>
    <_>
      0. 0. 0. 6.51625544e-003 8.56362104e-001 2.80269072e-004 0.
      3.51737663e-002 0. 3.43329608e-002 0. 2.64854264e-002 0.
      1.87079590e-002 0. 9.94955190e-003 0. 6.37612119e-003 0.
      3.57343047e-003 0. 1.33127801e-003 0. 8.40807159e-004 0.
      7.00672681e-005 0. 0. 0. 0. 0. 0. 0. 0. 0. 1.38102576e-001
      7.04386234e-001 1.38733182e-002 0. 2.94983182e-002 0.
      2.97785867e-002 0. 2.38228701e-002 0. 1.94786992e-002 0.
      1.72365475e-002 0. 1.33127803e-002 0. 5.25504490e-003 0.
      2.52242154e-003 0. 1.47141260e-003 0. 8.40807159e-004 0.
      2.80269072e-004 0. 1.40134536e-004 0. 0. 0. 1.40134536e-004
      3.67713004e-001 1.10916480e-001 3.53559405e-001 5.14994413e-002 0.
      3.46832946e-002 0. 3.10397986e-002 0. 2.31922641e-002 0.
      1.11406948e-002 0. 8.47813860e-003 0. 3.85369966e-003 0.
      2.38228706e-003 0. 8.40807159e-004 0. 5.60538145e-004 0. 0. 0. 0.
      0. 0. 0. 0.</_>
    <_>
      4.66796875e-001 0. 0. 1.58691406e-002 0. 2.58789063e-002 0.
      2.29492188e-002 0. 3.88183594e-002 0. 2.49023438e-002
      3.59375000e-001 0. 0. 8.78906250e-003 0. 8.54492188e-003 0.
      6.59179688e-003 0. 9.76562500e-004 0. 7.08007813e-003 0.
      3.66210938e-003 0. 4.88281250e-004 0. 3.41796875e-003 0.
      5.85937500e-003 4.52880859e-001 0. 0. 1.48925781e-002 0.
      1.07421875e-002 0. 5.61523438e-003 0. 1.51367188e-002 0.
      1.26953125e-002 0. 1.36718750e-002 0. 1.00097656e-002 0.
      2.85644531e-002 0. 9.76562500e-003 0. 1.87988281e-002 0.
      8.30078125e-003 3.68408203e-001 0. 0. 1.04980469e-002 0.
      1.02539063e-002 0. 9.76562500e-003 4.54345703e-001 0. 0.
      1.61132813e-002 0. 1.22070313e-002 0. 1.66015625e-002 0.
      1.39160156e-002 0. 1.80664063e-002 0. 3.05175781e-002 0.
      1.22070313e-002 0. 2.09960938e-002 3.59619141e-001 0. 0.
      1.12304688e-002 0. 1.26953125e-002 0. 3.41796875e-003 0.
      8.30078125e-003 0. 1.70898438e-003 0. 8.05664063e-003</_>
    <_>
      0. 0. 0. 0. 0. 0. 0. 8.68055577e-005 0. 1.73611115e-004 0.
      9.54861112e-004 0. 3.90625000e-003 0. 6.07638899e-003 0.
      5.98958321e-003 0. 1.28472224e-002 0. 2.39583328e-002 0.
      4.69618067e-002 0. 6.13715276e-002 0. 7.27430582e-002 0.
      7.10937530e-002 6.92361116e-001 1.47569447e-003 0. 0. 0. 0. 0. 0.
      0. 0. 0. 2.60416680e-004 0. 2.60416680e-004 0. 2.34375009e-003 0.
      6.07638899e-003 0. 8.07291642e-003 0. 1.35416668e-002 0.
      2.56076381e-002 0. 4.76562493e-002 0. 6.30208328e-002 0.
      7.28298575e-002 0. 7.03993067e-002 6.88454866e-001 1.47569447e-003
      0. 0. 0. 0. 0. 0. 0. 0. 0. 8.68055577e-005 0. 1.73611115e-004 0.
      3.47222231e-004 0. 3.03819450e-003 0. 7.03124981e-003 0.
      1.60590280e-002 0. 3.02951392e-002 0. 4.97395843e-002 0.
      6.43229187e-002 0. 7.23090246e-002 0. 6.98784739e-002
      6.85243070e-001 1.47569447e-003</_>
    <_>
      0. 0. 0. 9.76562500e-004 0. 0. 0. 1.46484375e-003 0.
      2.44140625e-003 0. 3.66210938e-003 0. 4.63867188e-003 0.
      4.15039063e-003 0. 7.56835938e-003 0. 1.48925781e-002 0.
      3.97949219e-002 0. 7.12890625e-002 0. 5.90820313e-002 0.
      2.39257813e-002 0. 1.90429688e-002 7.47070313e-001 0. 0.
      9.76562500e-004 0. 0. 0. 1.46484375e-003 0. 1.46484375e-003 0.
      2.68554688e-003 0. 4.63867188e-003 0. 3.66210938e-003 0.
      1.12304688e-002 0. 4.27246094e-002 0. 7.32421875e-002 0.
      4.93164063e-002 0. 1.46484375e-002 0. 9.03320313e-003 0.
      2.78320313e-002 0. 1.26953125e-002 7.44384766e-001 0. 0. 0. 0.
      9.76562500e-004 0. 9.76562500e-004 0. 0. 0. 1.22070313e-003 0.
      1.95312500e-003 0. 3.17382813e-003 0. 4.15039063e-003 0.
      1.46484375e-003 0. 1.22070313e-003 0. 1.29394531e-002 0.
      6.34765625e-003 0. 4.63867188e-003 0. 3.41796875e-002 0.
      1.23046875e-001 7.82958984e-001 2.07519531e-002</_>
    <_>
      5.49657524e-001 0. 0. 3.14640403e-002 0. 3.08219176e-002
      2.67765403e-001 8.77568498e-003 0. 1.36986300e-002 0.
      1.28424661e-002 0. 1.43407537e-002 0. 1.32705476e-002 0.
      1.45547949e-002 0. 7.70547939e-003 0. 7.06335623e-003 0.
      5.77910943e-003 0. 2.78253434e-003 0. 4.28082189e-003 0.
      3.85273970e-003 0. 1.13441776e-002 5.29537678e-001 0. 0.
      1.86215751e-002 0. 1.79794524e-002 0. 1.71232875e-002 0.
      1.99058224e-002 0. 1.66952051e-002 0. 1.64811648e-002 0.
      2.14041099e-002 0. 2.56849322e-002 0. 1.62671227e-002 0.
      2.63270549e-002 2.43364722e-001 6.63527381e-003 0. 4.49486310e-003
      0. 4.28082189e-003 0. 3.85273970e-003 0. 1.13441776e-002
      5.27825356e-001 0. 0. 1.69092473e-002 0. 1.81934927e-002 0.
      1.45547949e-002 0. 1.90496575e-002 0. 1.56250000e-002 0.
      1.84075348e-002 0. 1.77654102e-002 0. 2.11900678e-002 0.
      1.60530824e-002 0. 1.66952051e-002 0. 1.69092473e-002 0.
      1.79794524e-002 2.43364722e-001 4.28082189e-003 0. 3.85273970e-003
      0. 1.13441776e-002</_>
    <_>
      8.86580884e-001 0. 0. 1.07230395e-002 0. 8.94607883e-003 0.
      7.35294120e-003 0. 7.59803923e-003 0. 7.84313772e-003 0.
      8.21078476e-003 0. 7.10784318e-003 0. 7.59803923e-003 0.
      8.27205926e-003 0. 1.20098041e-002 0. 2.77573522e-002 0. 0. 0. 0.
      0. 0. 0. 0. 8.85600507e-001 0. 0. 1.04166670e-002 0.
      8.21078476e-003 0. 6.92401966e-003 0. 7.41421571e-003 0.
      7.29166670e-003 0. 7.29166670e-003 0. 7.16911769e-003 0.
      6.80147065e-003 0. 7.90441222e-003 0. 8.76225531e-003 0.
      9.37500037e-003 0. 2.68382356e-002 0. 0. 0. 0. 0. 0.
      8.84374976e-001 0. 0. 9.98774543e-003 0. 8.14951025e-003 0.
      6.67892164e-003 0. 6.49509812e-003 0. 6.43382361e-003 0.
      6.31127460e-003 0. 7.04656867e-003 0. 6.43382361e-003 0.
      7.10784318e-003 0. 7.23039219e-003 0. 7.16911769e-003 0.
      8.63970630e-003 0. 1.36029413e-002 0. 1.43382354e-002 0. 0.</_>
    <_>
      0. 0. 0. 0. 0. 0. 0. 1.56249997e-004 0. 1.09375000e-003 0.
      2.18750001e-003 0. 4.68750019e-003 0. 8.59375019e-003 0.
      1.99999996e-002 0. 1.26562500e-002 0. 1.65624991e-002 0.
      2.60937493e-002 0. 2.96874996e-002 0. 2.57812496e-002 0.
      5.06250001e-002 7.69375026e-001 3.24999988e-002 0. 0. 0. 0. 0. 0.
      0. 4.68749990e-004 0. 7.81250012e-004 0. 2.81250011e-003 0.
      4.68750019e-003 0. 9.84374993e-003 0. 1.85937509e-002 0.
      1.32812504e-002 0. 1.68750007e-002 0. 2.57812496e-002 0.
      2.89062504e-002 0. 2.60937493e-002 0. 5.06250001e-002
      7.68750012e-001 3.24999988e-002 0. 0. 0. 0. 0. 0. 0.
      4.68749990e-004 0. 7.81250012e-004 0. 2.18750001e-003 0.
      5.15625020e-003 0. 8.75000004e-003 0. 1.92187503e-002 0.
      1.32812504e-002 0. 1.62499994e-002 0. 2.60937493e-002 0.
      2.96874996e-002 0. 2.54687499e-002 0. 6.75000027e-002
      7.52656221e-001 3.24999988e-002</_>
    <_>
      0. 0. 0. 0. 0. 0. 0. 6.91371679e-004 0. 1.52101775e-003 0.
      1.31360618e-002 0. 1.18915932e-002 0. 8.71128310e-003 0.
      1.06471237e-002 0. 1.78373903e-002 0. 2.46128310e-002 0.
      3.71957980e-002 0. 6.58185855e-002 0. 8.97400454e-002 0.
      1.13246679e-001 6.01216793e-001 3.73340701e-003 0. 0. 0. 0. 0. 0.
      0. 5.53097343e-004 0. 4.14823007e-004 0. 5.53097343e-004 0.
      6.91371679e-004 0. 1.52101775e-003 0. 4.83960193e-003 0.
      1.85287613e-002 0. 1.67311952e-002 0. 2.30918135e-002 0.
      5.07466830e-002 0. 7.99225643e-002 0. 1.48783192e-001
      6.49197996e-001 4.42477874e-003 0. 0. 0. 0. 0. 0. 0.
      5.53097343e-004 0. 4.14823007e-004 0. 5.53097343e-004 0.
      6.91371679e-004 0. 1.52101775e-003 0. 1.93584070e-003 0.
      5.39269904e-003 0. 3.45685845e-003 0. 1.16150444e-002 0.
      1.72842927e-002 0. 3.23561952e-002 0. 1.33987829e-001
      7.88440287e-001 1.79756642e-003</_>
    <_>
      0. 2.76548672e-004 0. 1.65929203e-003 0. 3.87168140e-003 0.
      7.41150454e-002 0. 1.03705749e-002 0. 8.57300870e-003 0.
      5.11615025e-003 0. 8.71128310e-003 0. 6.22234493e-003 0.
      1.61780976e-002 0. 5.53097343e-003 0. 9.26438067e-003 0.
      1.85287613e-002 0. 5.22677004e-002 0. 9.00165960e-002
      6.75470114e-001 1.38274338e-002 0. 0. 0. 0. 0. 0. 0. 0. 0. 0. 0.
      0. 0. 0. 0. 0. 0. 2.76548672e-004 0. 7.60508841e-003 0.
      1.17533188e-002 0. 2.01880522e-002 0. 1.14905976e-001 0.
      7.53595158e-002 0. 8.33794251e-002 6.69247806e-001 1.72842927e-002
      0. 4.70132753e-003 0. 2.76548672e-003 0. 3.87168140e-003 0.
      2.21238937e-003 0. 2.76548672e-003 0. 4.14822996e-003 0.
      4.70132753e-003 0. 2.48893816e-003 0. 2.62721232e-003 0.
      3.59513285e-003 0. 4.00995556e-003 0. 9.67920385e-003 0.
      1.82522126e-002 0. 4.00995575e-002 0. 9.58241150e-002
      7.97428071e-001 8.29646015e-004</_>
    <_>
      0. 1.89453121e-002 0. 4.10156231e-003 0. 9.76562500e-004 0.
      3.51562491e-003 0. 2.92968750e-003 0. 4.88281250e-003 0.
      6.05468731e-003 0. 7.61718769e-003 0. 7.81250000e-003 0.
      1.23046879e-002 0. 2.28515621e-002 0. 2.14843750e-002 0.
      3.90625000e-002 0. 4.88281250e-002 0. 8.08593780e-002
      7.15039074e-001 2.73437495e-003 0. 1.89453121e-002 0.
      4.29687509e-003 0. 7.81250012e-004 0. 3.51562491e-003 0.
      1.75781245e-003 0. 3.90625000e-003 0. 2.53906241e-003 0.
      7.03124981e-003 0. 7.61718769e-003 0. 1.03515629e-002 0.
      2.24609375e-002 0. 2.10937504e-002 0. 3.75000015e-002 0.
      5.48828132e-002 0. 7.85156265e-002 7.22460926e-001 2.34375009e-003
      0. 1.89453121e-002 0. 3.90625000e-003 0. 1.17187505e-003 0.
      3.51562491e-003 0. 1.36718748e-003 0. 4.10156231e-003 0.
      1.95312500e-003 0. 4.88281250e-003 0. 5.46874991e-003 0.
      1.03515629e-002 0. 2.12890618e-002 0. 3.67187485e-002 0.
      4.45312485e-002 0. 5.60546890e-002 0. 7.44140595e-002
      7.07617164e-001 3.71093745e-003</_>
    <_>
      0. 0. 0. 0. 0. 0. 0. 0. 0. 0. 0. 0. 0. 0. 0. 2.75735301e-003 0.
      2.06801482e-003 0. 6.20404398e-003 0. 3.44669111e-002 0.
      1.95312500e-002 0. 5.95128685e-002 0. 7.62867630e-002 0.
      6.77849278e-002 7.25413620e-001 5.97426482e-003 0. 0. 0. 0. 0. 0.
      0. 0. 0. 0. 0. 0. 0. 0. 0. 3.44669120e-003 0. 2.52757361e-003 0.
      2.13694852e-002 0. 2.52757352e-002 0. 2.29779407e-002 0.
      8.36397037e-002 0. 5.42279407e-002 0. 7.03125000e-002
      7.11167276e-001 5.05514722e-003 0. 0. 0. 0. 0. 0. 0. 0. 0. 0. 0.
      0. 0. 1.14889711e-003 0. 5.97426482e-003 0. 7.58272037e-003 0.
      2.32077204e-002 0. 2.27481611e-002 0. 2.36672796e-002 0.
      8.15716907e-002 0. 5.12408093e-002 0. 7.65165463e-002
      7.00827181e-001 5.51470602e-003</_>
    <_>
      0. 0. 0. 3.87146720e-004 0. 1.54858688e-003 0. 2.71002715e-003 0.
      5.61362738e-003 0. 4.25861403e-003 0. 7.35578779e-003 0.
      1.02593880e-002 0. 1.16144018e-002 0. 1.06465351e-002 0.
      1.83894690e-002 0. 2.61324048e-002 0. 4.18118462e-002 0.
      5.72977141e-002 0. 7.78164938e-002 7.19125032e-001 5.03290724e-003
      0. 0. 0. 5.80720080e-004 0. 9.67866799e-004 0. 1.54858688e-003 0.
      2.51645362e-003 0. 3.87146720e-003 0. 7.16221426e-003 0.
      7.54936133e-003 0. 1.21951215e-002 0. 1.00658145e-002 0.
      1.80023238e-002 0. 2.65195500e-002 0. 4.43283021e-002 0.
      6.13627583e-002 0. 7.97522292e-002 7.18737900e-001 4.83933417e-003
      0. 0. 0. 5.80720080e-004 0. 7.74293439e-004 0. 7.74293439e-004 0.
      2.51645362e-003 0. 3.67789390e-003 0. 5.42005431e-003 0.
      8.71080160e-003 0. 8.32365453e-003 0. 8.90437514e-003 0.
      1.72280297e-002 0. 2.53581107e-002 0. 4.60704602e-002 0.
      5.88463023e-002 0. 8.32365453e-002 7.24738657e-001 4.83933417e-003</_>
    <_>
      0. 0. 0. 0. 0. 4.31338027e-002 0. 2.20070430e-003 0.
      1.98063371e-003 0. 9.90316854e-004 0. 3.13600339e-002 0.
      2.92693656e-002 0. 4.51144343e-003 0. 8.91285203e-003 0.
      2.58582737e-002 0. 3.97227108e-002 0. 2.15669014e-002 0.
      4.97359149e-002 0. 8.45070407e-002 6.55149639e-001 1.10035215e-003
      0. 0. 0. 0. 0. 0. 0. 2.34375000e-002 0. 4.40140837e-004 0.
      3.30105628e-004 0. 1.10035215e-003 0. 1.79357398e-002 0.
      3.19102104e-003 0. 4.68750000e-002 0. 1.32042253e-002 0.
      5.52376769e-002 0. 2.07966547e-002 0. 6.30501732e-002 0.
      9.38600376e-002 6.59440994e-001 1.10035215e-003 0. 2.31073946e-002
      0. 3.30105628e-004 0. 3.30105628e-004 0. 0. 0. 0. 0.
      1.62852108e-002 0. 1.21038733e-003 0. 2.42077466e-003 0.
      2.20070430e-003 0. 5.83186606e-003 0. 2.23371480e-002 0.
      9.90316924e-003 0. 1.38644362e-002 0. 2.88292263e-002 0.
      8.06558132e-002 7.91373253e-001 1.32042251e-003</_>
    <_>
      0. 0. 0. 0. 0. 3.27278685e-004 0. 1.30911474e-003 0.
      1.96367200e-003 0. 3.10914754e-003 0. 1.03092780e-002 0.
      8.67288467e-003 0. 6.87285233e-003 0. 1.01456391e-002 0.
      2.71641295e-002 0. 2.97823604e-002 0. 2.48731803e-002 0.
      2.37277038e-002 8.44379008e-001 7.36377016e-003 0. 0. 0. 0. 0. 0.
      0. 4.90917999e-004 0. 9.81835998e-004 0. 1.63639337e-003 0.
      2.61822948e-003 0. 4.74554067e-003 0. 9.16380342e-003 0.
      8.83652456e-003 0. 1.14547536e-002 0. 2.71641295e-002 0.
      2.94550806e-002 0. 2.52004582e-002 0. 2.45459005e-002
      8.46342683e-001 7.36377016e-003 0. 0. 0. 0. 0. 0. 0.
      3.27278685e-004 0. 6.54557371e-004 0. 4.90917999e-004 0.
      9.81835998e-004 0. 3.43642617e-003 0. 3.92734399e-003 0.
      3.27278674e-003 0. 5.89101622e-003 0. 2.78186873e-002 0.
      3.28915082e-002 0. 3.02732773e-002 0. 3.19096707e-002
      8.50270033e-001 7.36377016e-003 0. 4.90917999e-004</_>
    <_>
      0. 0. 0. 0. 0. 0. 0. 0. 0. 0. 0. 3.38855432e-003 0.
      4.70632548e-003 0. 1.03539154e-002 0. 8.09487980e-003 0.
      1.35542173e-002 0. 1.31777106e-002 0. 4.61219884e-002 0.
      1.63780116e-002 0. 1.86370481e-002 0. 1.28012048e-002
      8.49585831e-001 3.20030120e-003 0. 0. 0. 0. 0. 0. 0. 0. 0. 0. 0.
      2.07078317e-003 0. 1.88253017e-003 0. 6.40060240e-003 0.
      8.84789135e-003 0. 1.12951808e-002 0. 1.03539154e-002 0.
      1.33659635e-002 0. 4.72515076e-002 0. 2.25903615e-002 0.
      2.07078308e-002 8.54292154e-001 9.41265083e-004 0. 0. 0. 0. 0. 0.
      0. 0. 0. 0. 0. 0. 0. 0. 0. 2.63554207e-003 0. 6.58885529e-003 0.
      7.15361442e-003 0. 1.09186750e-002 0. 1.43072288e-002 0.
      2.56024096e-002 0. 4.08509038e-002 0. 3.42620499e-002
      8.57492447e-001 1.88253005e-004</_>
    <_>
      0. 0. 0. 0. 0. 5.60224103e-003 0. 5.97572373e-003 0.
      2.61437916e-003 0. 3.36134457e-003 0. 7.65639590e-003 0.
      1.25116715e-002 0. 1.47525677e-002 0. 2.52100844e-002 0.
      3.02521009e-002 0. 4.10831012e-002 0. 5.04201688e-002 0.
      4.72455658e-002 0. 3.99626531e-002 7.08123267e-001 5.22875832e-003
      0. 3.92156886e-003 0. 5.41549968e-003 0. 3.54808592e-003 0.
      1.86741364e-003 0. 3.73482727e-003 0. 6.16246508e-003 0.
      4.66853427e-003 0. 1.32586369e-002 0. 1.21381888e-002 0.
      2.59570498e-002 0. 3.13725509e-002 0. 4.16433252e-002 0.
      4.87394966e-002 0. 4.61251177e-002 0. 3.82819809e-002
      7.08123267e-001 5.04201697e-003 0. 0. 0. 0. 0. 0. 0. 0. 0. 0. 0.
      0. 0. 1.86741367e-004 0. 8.77684448e-003 0. 9.52380989e-003 0.
      2.20354814e-002 0. 2.59570498e-002 0. 3.88422050e-002 0.
      5.19140996e-002 0. 5.78898229e-002 0. 6.06909432e-002
      7.16900110e-001 7.28291320e-003</_>
    <_>
      0. 3.51277366e-002 0. 1.65374093e-002 0. 3.99178825e-003 0.
      4.44799289e-003 0. 1.25456201e-002 0. 1.00364964e-002 0.
      1.36861317e-002 0. 1.30018247e-002 0. 1.65374093e-002 0.
      2.46350374e-002 0. 3.18202563e-002 0. 3.17062028e-002 0.
      2.88549270e-002 0. 2.95392331e-002 0. 3.70666049e-002
      6.89324796e-001 1.14051090e-003 0. 2.05291971e-003 0.
      2.58895978e-002 0. 2.53193434e-002 0. 7.75547465e-003 0.
      9.23813879e-003 0. 1.42563870e-002 0. 1.65374093e-002 0.
      1.63093060e-002 0. 1.72217153e-002 0. 2.08713505e-002 0.
      2.32664235e-002 0. 3.15921530e-002 0. 2.91970801e-002 0.
      3.13640498e-002 0. 3.51277366e-002 6.92974448e-001 1.02645985e-003
      0. 2.39507295e-003 0. 2.28102179e-003 0. 9.69434343e-003 0.
      4.77874093e-002 0. 1.80200730e-002 0. 1.34580294e-002 0.
      2.08713505e-002 0. 2.23540142e-002 0. 1.58531014e-002 0.
      1.83622260e-002 0. 1.98448896e-002 0. 3.09078470e-002 0.
      2.42928825e-002 0. 2.76003648e-002 0. 3.33029181e-002
      6.92062020e-001 9.12408752e-004</_>
    <_>
      0. 0. 0. 0. 0. 4.39453125e-003 0. 1.46484375e-002 0.
      1.90429688e-002 0. 1.95312500e-002 0. 2.41699219e-002 0.
      3.66210938e-002 0. 1.24511719e-002 0. 1.36718750e-002 0.
      9.52148438e-003 0. 2.36816406e-002 0. 2.31933594e-002 0.
      2.24609375e-002 0. 3.58886719e-002 7.39501953e-001 1.22070313e-003
      0. 0. 0. 2.19726563e-003 0. 1.24511719e-002 0. 1.75781250e-002 0.
      1.68457031e-002 0. 1.80664063e-002 0. 3.41796875e-002 0.
      2.24609375e-002 0. 1.56250000e-002 0. 1.04980469e-002 0.
      1.68457031e-002 0. 2.07519531e-002 0. 2.56347656e-002 0.
      3.02734375e-002 0. 1.92871094e-002 7.37304688e-001 0. 0. 0. 0. 0.
      0. 0. 0. 0. 0. 0. 0. 0. 0. 2.44140625e-004 0. 1.22070313e-003 0.
      2.68554688e-003 0. 4.15039063e-003 0. 1.63574219e-002 0.
      4.46777344e-002 0. 6.86035156e-002 0. 6.86035156e-002 0.
      5.24902344e-002 7.40966797e-001 0.</_>
    <_>
      0. 0. 0. 9.76562500e-004 0. 2.68554688e-003 0. 2.19726563e-003 0.
      4.15039063e-003 0. 4.88281250e-004 0. 3.17382813e-003 0.
      3.41796875e-003 0. 4.88281250e-003 0. 1.22070313e-002 0.
      2.17285156e-002 0. 5.07812500e-002 0. 4.41894531e-002 0.
      4.34570313e-002 0. 5.22460938e-002 7.42675781e-001 1.07421875e-002
      0. 2.44140625e-003 0. 2.44140625e-003 0. 3.17382813e-003 0.
      2.19726563e-003 0. 1.22070313e-003 0. 1.46484375e-003 0.
      2.44140625e-003 0. 2.92968750e-003 0. 7.56835938e-003 0.
      1.44042969e-002 0. 2.83203125e-002 0. 4.88281250e-002 0.
      4.29687500e-002 0. 4.63867188e-002 0. 1.17187500e-001
      6.25000000e-001 5.10253906e-002 0. 0. 0. 0. 0. 0. 0. 0. 0. 0. 0.
      0. 0. 4.88281250e-004 0. 9.76562500e-004 0. 3.90625000e-003 0.
      8.78906250e-003 0. 2.41699219e-002 0. 4.56542969e-002 0.
      4.49218750e-002 0. 5.61523438e-002 0. 8.17871094e-002
      6.36962891e-001 9.61914063e-002</_>
    <_>
      0. 0. 0. 1.83823530e-003 0. 9.00735334e-003 0. 1.63602941e-002 0.
      2.38970593e-002 0. 2.99632344e-002 0. 1.23345591e-001
      5.66544116e-001 9.00735334e-003 0. 2.70220581e-002 0.
      4.57720570e-002 0. 1.96691174e-002 0. 1.47058824e-002 0.
      4.44852933e-002 0. 5.69852954e-003 0. 6.98529417e-003 0.
      5.56985289e-002 0. 0. 0. 5.51470614e-004 0. 3.12500005e-003 0.
      7.72058824e-003 0. 1.19485296e-002 0. 2.46323533e-002
      6.37132347e-001 2.38970597e-003 0. 3.38235311e-002 0.
      3.14338244e-002 0. 6.54411763e-002 0. 2.37132348e-002 0.
      2.79411767e-002 0. 4.96323518e-002 0. 1.17647061e-002 0.
      1.06617650e-002 0. 5.80882356e-002 0. 0. 0. 5.14705898e-003
      6.04595602e-001 1.83823533e-004 0. 6.12132363e-002 0.
      2.84926463e-002 0. 2.27941182e-002 0. 2.62867641e-002 0.
      5.88235296e-002 0. 1.81985293e-002 0. 1.98529419e-002 0.
      1.74632352e-002 0. 5.20220585e-002 0. 9.37500037e-003 0.
      8.63970630e-003 0. 8.82352982e-003 0. 5.80882356e-002</_>
    <_>
      0. 7.88163673e-003 0. 5.80752222e-003 0. 5.37887178e-002 0.
      2.97289826e-002 0. 1.50719024e-002 0. 6.91371690e-003 0.
      7.88163673e-003 0. 7.46681402e-003 0. 6.77544251e-003 0.
      7.60508841e-003 0. 8.57300870e-003 0. 9.54092946e-003 0.
      3.73340696e-002 7.87057519e-001 0. 0. 8.57300870e-003 0. 0. 0. 0.
      0. 1.38274338e-002 0. 4.70132753e-002 0. 2.28152648e-002 0.
      8.71128310e-003 0. 5.66924782e-003 0. 5.25442464e-003 0.
      5.25442464e-003 0. 4.83960193e-003 0. 5.94579661e-003 0.
      4.70132753e-003 0. 8.84955749e-003 0. 3.42920348e-002
      8.23561966e-001 0. 0. 9.26438067e-003 0. 0. 0. 0. 0.
      1.13384956e-002 0. 3.95464599e-002 0. 1.92201324e-002 0.
      7.19026569e-003 0. 4.00995556e-003 0. 3.04203550e-003 0.
      3.87168140e-003 0. 3.87168140e-003 0. 4.28650435e-003 0.
      3.04203550e-003 0. 7.32853962e-003 0. 2.64103990e-002
      7.73091793e-001 5.53097343e-004 0. 7.05199093e-002 0.
      2.26769913e-002</_>
    <_>
      0. 1.96078438e-002 0. 7.65639590e-003 0. 1.86741367e-004 0. 0. 0.
      8.40336177e-003 0. 4.66853427e-003 0. 5.60224114e-004 0.
      9.15032718e-003 0. 2.42763781e-003 0. 6.16246508e-003 0.
      1.92343611e-002 0. 9.89729259e-003 0. 2.25957055e-002 0.
      2.59570498e-002 0. 4.27637734e-002 8.20728302e-001 0. 0. 0. 0. 0.
      0. 0. 0. 0. 0. 0. 0. 0. 0. 0. 0. 7.46965467e-004 0.
      1.30718958e-003 0. 5.04201697e-003 0. 5.97572373e-003 0.
      9.71055124e-003 0. 3.90289463e-002 0. 4.51914109e-002 0.
      6.44257739e-002 8.28571439e-001 0. 0. 0. 0. 0. 0. 0. 0. 0. 0. 0.
      0. 0. 0. 0. 0. 7.46965467e-004 0. 1.30718958e-003 0.
      5.04201697e-003 0. 5.97572373e-003 0. 8.40336177e-003 0.
      1.25116715e-002 0. 2.35294122e-002 0. 3.92156877e-002
      9.03267980e-001 0.</_>
    <_>
      8.63246679e-001 8.29646015e-004 0. 2.65486725e-002 0.
      2.14325227e-002 0. 1.90818589e-002 0. 1.78373903e-002 0.
      1.76991150e-002 0. 1.17533188e-002 0. 1.17533188e-002 0.
      4.83960193e-003 0. 2.48893816e-003 0. 1.65929203e-003 0.
      8.29646015e-004 0. 0. 0. 0. 0. 0. 0. 0. 8.62693608e-001
      1.38274336e-004 0. 2.46128310e-002 0. 1.83904860e-002 0.
      2.00497787e-002 0. 1.82522126e-002 0. 1.65929198e-002 0.
      1.21681420e-002 0. 1.34126106e-002 0. 6.91371690e-003 0.
      3.31858406e-003 0. 2.21238937e-003 0. 6.91371679e-004 0.
      5.53097343e-004 0. 0. 0. 0. 0. 0. 8.31028759e-001 2.76548672e-004
      0. 2.83462387e-002 0. 2.01880522e-002 0. 2.18473449e-002 0.
      2.24004425e-002 0. 2.04646010e-002 0. 1.46570792e-002 0.
      1.81139372e-002 0. 9.95575264e-003 0. 6.22234493e-003 0.
      4.14822996e-003 0. 1.79756642e-003 0. 5.53097343e-004 0. 0. 0. 0.
      0. 0.</_>
    <_>
      0. 3.72023816e-004 0. 3.53422621e-003 0. 5.39434515e-003 0.
      3.27380970e-002 0. 2.43675597e-002 0. 2.58556549e-002 0.
      2.32514888e-002 0. 2.21354160e-002 0. 2.45535709e-002 0.
      2.28794646e-002 0. 3.25520821e-002 0. 3.19940485e-002 0.
      3.08779757e-002 0. 3.42261903e-002 0. 3.60863097e-002
      6.43043160e-001 6.13839272e-003 0. 3.72023816e-004 0.
      3.53422621e-003 0. 5.39434515e-003 0. 3.27380970e-002 0.
      2.43675597e-002 0. 2.58556549e-002 0. 2.32514888e-002 0.
      2.21354160e-002 0. 2.45535709e-002 0. 2.28794646e-002 0.
      3.25520821e-002 0. 3.19940485e-002 0. 3.08779757e-002 0.
      3.42261903e-002 0. 3.60863097e-002 6.43043160e-001 6.13839272e-003
      0. 3.72023816e-004 0. 3.53422621e-003 0. 5.39434515e-003 0.
      3.27380970e-002 0. 2.43675597e-002 0. 2.58556549e-002 0.
      2.32514888e-002 0. 2.21354160e-002 0. 2.45535709e-002 0.
      2.28794646e-002 0. 3.25520821e-002 0. 3.19940485e-002 0.
      3.08779757e-002 0. 3.42261903e-002 0. 3.60863097e-002
      6.43043160e-001 6.13839272e-003</_>
    <_>
      0. 7.53676472e-003 0. 4.55882363e-002 0. 2.09558830e-002 0.
      2.31617652e-002 0. 1.56250000e-002 0. 1.56250000e-002 0.
      1.80147067e-002 0. 1.36029413e-002 0. 1.32352943e-002 0.
      1.47058824e-002 0. 1.81985293e-002 0. 1.94852948e-002 0.
      2.22426467e-002 0. 2.66544111e-002 0. 3.38235311e-002
      6.81985319e-001 9.55882389e-003 0. 7.53676472e-003 0.
      6.43382361e-003 0. 4.87132370e-002 0. 2.44485289e-002 0.
      1.87500007e-002 0. 1.76470596e-002 0. 1.70955881e-002 0.
      1.56250000e-002 0. 1.39705883e-002 0. 1.50735294e-002 0.
      1.94852948e-002 0. 1.81985293e-002 0. 2.29779407e-002 0.
      2.66544111e-002 0. 3.14338244e-002 6.86764717e-001 9.19117685e-003
      0. 7.53676472e-003 0. 6.43382361e-003 0. 4.77941195e-003 0.
      9.19117685e-003 0. 6.25000009e-003 0. 7.35294120e-003 0.
      7.16911769e-003 0. 4.96323546e-003 0. 8.08823574e-003 0.
      7.16911769e-003 0. 1.56250000e-002 0. 2.57352944e-002 0.
      7.84926489e-002 0. 4.41176482e-002 0. 5.77205867e-002
      7.00183809e-001 9.19117685e-003</_>
    <_>
      0. 8.45588278e-003 0. 1.54411765e-002 0. 1.15808826e-002 0.
      9.00735334e-003 0. 1.23161767e-002 0. 1.74632352e-002 0.
      1.93014704e-002 0. 1.41544119e-002 0. 1.59926470e-002 0.
      1.70955881e-002 0. 1.37867648e-002 0. 1.70955881e-002 0.
      1.58088244e-002 0. 2.20588241e-002 0. 2.73897052e-002
      7.63051450e-001 0. 0. 0. 0. 1.83823533e-004 0. 6.98529417e-003 0.
      7.35294120e-003 0. 8.45588278e-003 0. 1.59926470e-002 0.
      1.78308822e-002 0. 3.03308815e-002 0. 2.29779407e-002 0.
      2.02205889e-002 0. 1.85661763e-002 0. 1.83823537e-002 0.
      2.04044115e-002 0. 2.27941182e-002 0. 2.73897052e-002
      7.62132347e-001 0. 1.24080881e-001 0. 0. 1.32352943e-002 0.
      7.72058824e-003 0. 3.67647060e-003 0. 3.49264708e-003 0.
      5.69852954e-003 0. 5.69852954e-003 0. 3.49264708e-003 0.
      5.33088250e-003 0. 5.14705898e-003 0. 7.72058824e-003 0.
      9.37500037e-003 0. 1.10294120e-002 0. 1.41544119e-002 0.
      1.83823537e-002 7.61397064e-001 3.67647066e-004</_>
    <_>
      8.91357422e-001 0. 0. 2.80761719e-002 0. 2.36816406e-002 0.
      1.44042969e-002 0. 2.61230469e-002 0. 1.46484375e-003 0.
      2.92968750e-003 0. 2.44140625e-003 0. 2.44140625e-003 0.
      9.76562500e-004 0. 4.88281250e-004 0. 1.95312500e-003 0.
      1.70898438e-003 0. 0. 0. 4.88281250e-004 0. 1.46484375e-003
      8.91845703e-001 0. 0. 2.80761719e-002 0. 2.34375000e-002 0.
      1.56250000e-002 0. 2.49023438e-002 0. 1.46484375e-003 0.
      2.92968750e-003 0. 2.19726563e-003 0. 2.44140625e-003 0.
      9.76562500e-004 0. 4.88281250e-004 0. 1.95312500e-003 0.
      1.70898438e-003 0. 0. 0. 4.88281250e-004 0. 1.46484375e-003
      8.90625000e-001 0. 0. 2.58789063e-002 0. 2.68554688e-002 0.
      1.56250000e-002 0. 2.49023438e-002 0. 1.46484375e-003 0.
      2.92968750e-003 0. 2.19726563e-003 0. 2.44140625e-003 0.
      9.76562500e-004 0. 4.88281250e-004 0. 1.95312500e-003 0.
      1.70898438e-003 0. 0. 0. 4.88281250e-004 0. 1.46484375e-003</_>
    <_>
      1.24067165e-001 6.99626864e-004 0. 2.70522386e-002 0.
      4.68750000e-002 0. 3.14832106e-002 0. 1.28264921e-002 0.
      1.16604473e-002 0. 1.28264921e-002 0. 1.11940298e-002 0.
      8.16231314e-003 0. 6.99626887e-003 0. 1.44589553e-002 0.
      1.65578350e-002 0. 1.21268658e-002 0. 1.00279851e-002 0.
      2.77518649e-002 6.25233233e-001 0. 0. 0. 0. 9.32835799e-004 0.
      1.86567160e-003 0. 7.69589562e-003 0. 7.46268639e-003 0.
      1.56250000e-002 0. 1.60914175e-002 0. 1.98227614e-002 0.
      1.95895527e-002 0. 1.79570895e-002 0. 2.12220158e-002 0.
      1.49253728e-002 0. 1.63246263e-002 1.46921635e-001 1.32929105e-002
      0. 3.07835825e-002 6.49486959e-001 0. 0. 0. 0. 9.32835799e-004 0.
      1.86567160e-003 0. 5.13059692e-003 0. 6.76305965e-003 0.
      1.30597018e-002 0. 1.11940298e-002 0. 1.70242544e-002 0.
      1.79570895e-002 0. 1.95895527e-002 0. 2.14552246e-002 0.
      1.49253728e-002 0. 2.02891789e-002 0. 1.60914175e-002 0.
      2.37873141e-002 8.09701502e-001 2.33208950e-004</_>
    <_>
      0. 5.91856078e-004 0. 4.73484863e-004 0. 1.30208337e-003 0.
      1.18371216e-003 0. 1.18371216e-003 0. 1.42045459e-003 0.
      5.68181835e-003 0. 6.39204541e-003 0. 7.93087110e-003 0.
      1.43229170e-002 0. 2.20170449e-002 0. 3.58664766e-002 0.
      3.97727266e-002 0. 4.92424257e-002 0. 6.53409064e-002
      7.44791687e-001 2.48579541e-003 0. 0. 0. 1.18371216e-004 0.
      7.10227294e-004 0. 3.55113647e-004 0. 5.91856078e-004 0.
      7.10227294e-004 0. 4.02462110e-003 0. 4.73484863e-003 0.
      6.39204541e-003 0. 1.16003789e-002 0. 2.15435605e-002 0.
      2.58049238e-002 0. 4.10748124e-002 0. 5.57528399e-002 0.
      7.57575780e-002 7.49644876e-001 1.18371216e-003 0. 0. 0.
      2.36742431e-004 0. 5.91856078e-004 0. 5.91856078e-004 0.
      8.28598510e-004 0. 5.91856078e-004 0. 2.01231055e-003 0.
      3.66950757e-003 0. 4.37973486e-003 0. 8.87784082e-003 0.
      1.57433711e-002 0. 2.86458340e-002 0. 4.00094688e-002 0.
      5.07812500e-002 0. 7.10227266e-002 7.67992437e-001 4.02462110e-003</_>
    <_>
      0. 0. 0. 0. 0. 0. 0. 1.50240390e-004 0. 3.00480780e-004 0.
      1.50240390e-004 0. 3.00480780e-004 0. 1.50240390e-004 0.
      7.51201937e-004 0. 3.90625000e-003 0. 1.00661060e-002 0.
      1.86298080e-002 0. 3.68088931e-002 0. 4.86778840e-002 0.
      6.77584112e-002 8.12349737e-001 0. 0. 0. 0. 0. 0. 0. 0.
      1.50240390e-004 0. 1.50240390e-004 0. 1.50240390e-004 0.
      3.00480780e-004 0. 3.00480780e-004 0. 9.01442312e-004 0.
      4.05649049e-003 0. 1.14182690e-002 0. 2.10336540e-002 0.
      4.08653840e-002 0. 5.03305271e-002 1.60156250e-001 4.86778840e-002
      6.54747605e-001 6.76081749e-003 0. 0. 0. 0. 0. 0. 0.
      1.50240390e-004 0. 1.50240390e-004 0. 1.50240390e-004 0.
      3.00480780e-004 0. 3.00480780e-004 0. 9.01442312e-004 0.
      4.80769249e-003 0. 1.17187500e-002 0. 2.32872590e-002 0.
      3.90625000e-002 0. 4.85276431e-002 0. 1.76231965e-001
      6.80138230e-001 1.42728370e-002</_>
    <_>
      0. 5.84893045e-004 0. 1.83823530e-003 0. 2.00534752e-003 0.
      4.09425143e-003 0. 6.35026721e-003 0. 9.02406406e-003 0.
      7.52005354e-003 0. 1.58756692e-002 0. 1.81316845e-002 0.
      1.75467916e-002 0. 2.93282084e-002 0. 2.28943843e-002 0.
      3.02473269e-002 0. 3.74331549e-002 0. 3.88536081e-002
      7.57687151e-001 5.84893045e-004 0. 5.84893045e-004 0.
      1.83823530e-003 0. 2.00534752e-003 0. 4.09425143e-003 0.
      6.35026721e-003 0. 9.02406406e-003 0. 7.68716587e-003 0.
      1.62098929e-002 0. 1.89672466e-002 0. 1.80481281e-002 0.
      3.10828872e-002 0. 2.33121663e-002 0. 2.92446520e-002 0.
      3.52606960e-002 0. 3.86864990e-002 7.57018745e-001 5.84893045e-004
      0. 5.84893045e-004 0. 1.83823530e-003 0. 2.00534752e-003 0.
      4.09425143e-003 0. 6.35026721e-003 0. 9.02406406e-003 0.
      7.52005354e-003 0. 1.57921128e-002 0. 1.77974608e-002 0.
      1.63770057e-002 0. 2.75735296e-002 0. 1.99699197e-002 0.
      3.10828872e-002 0. 3.99398394e-002 0. 4.11096253e-002
      7.58355618e-001 5.84893045e-004</_>
    <_>
      0. 0. 0. 0. 0. 0. 0. 0. 0. 0. 0. 0. 0. 2.67094030e-004 0.
      2.27029924e-003 0. 6.81089750e-003 0. 2.57745720e-002
      3.69658113e-001 8.81410297e-003 0. 4.00641039e-002 0.
      1.37553420e-002 0. 2.35042740e-002 0. 8.14636797e-003
      5.00934839e-001 0. 0. 0. 0. 0. 0. 0. 0. 0. 0. 0. 0. 0. 0.
      8.01282062e-004 3.73798072e-001 2.67094024e-003 0. 2.55074780e-002
      0. 1.80288460e-002 0. 3.13835479e-002 0. 1.09508550e-002 0.
      8.27991497e-003 0. 2.11004280e-002 0. 6.54380349e-003
      5.00934839e-001 0. 0. 0. 3.77003193e-001 1.33547015e-004 0.
      9.61538497e-003 0. 5.47542749e-003 0. 7.61217950e-003 0.
      7.21153850e-003 0. 2.35042740e-002 0. 6.94444450e-003 0.
      8.94764997e-003 0. 7.87927397e-003 0. 8.68055597e-003 0.
      2.17681620e-002 0. 5.07478649e-003 0. 4.54059849e-003 0.
      5.87606849e-003 4.99732912e-001 0.</_>
    <_>
      0. 4.75206599e-002 0. 2.15650834e-002 0. 2.23398767e-002 0.
      2.14359500e-002 0. 2.24690083e-002 0. 2.24690083e-002 0.
      1.83367766e-002 0. 2.10485533e-002 0. 1.88533049e-002 0.
      1.58832651e-002 0. 2.20816117e-002 0. 1.91115700e-002 0.
      2.02737600e-002 0. 2.07902901e-002 0. 2.72468999e-002
      6.47985518e-001 1.05888434e-002 0. 4.75206599e-002 0.
      2.15650834e-002 0. 2.23398767e-002 0. 2.14359500e-002 0.
      2.24690083e-002 0. 2.24690083e-002 0. 1.84659082e-002 0.
      2.09194217e-002 0. 1.88533049e-002 0. 1.58832651e-002 0.
      2.20816117e-002 0. 1.91115700e-002 0. 2.01446284e-002 0.
      2.07902901e-002 0. 2.73760334e-002 6.47985518e-001 1.05888434e-002
      0. 4.75206599e-002 0. 2.15650834e-002 0. 2.23398767e-002 0.
      2.14359500e-002 0. 2.24690083e-002 0. 2.24690083e-002 0.
      1.82076450e-002 0. 2.09194217e-002 0. 1.87241733e-002 0.
      1.53667359e-002 0. 2.19524801e-002 0. 1.87241733e-002 0.
      2.00154968e-002 0. 2.05320250e-002 0. 2.81508267e-002
      6.49018586e-001 1.05888434e-002</_>
    <_>
      6.67628646e-001 4.24883775e-002 0. 4.36107107e-002 0.
      4.26487103e-002 0. 1.42215803e-001 0. 8.97867605e-003 0.
      9.94067639e-003 0. 9.29934252e-003 0. 7.69600784e-003 0.
      3.68767045e-003 0. 3.52733675e-003 0. 4.97033820e-003 0.
      3.36700329e-003 0. 1.60333491e-003 0. 1.28266797e-003 0.
      3.20666982e-003 0. 3.84800392e-003 6.42456293e-001 3.65560353e-002
      0. 2.24466883e-002 0. 1.87590197e-002 0. 2.43706908e-002 0.
      1.84383523e-002 0. 2.00416874e-002 0. 2.43706908e-002 0.
      2.05226876e-002 0. 1.49110146e-002 0. 2.27673557e-002 0.
      2.59740259e-002 0. 9.53984261e-002 0. 2.56533595e-003 0.
      2.72566942e-003 0. 3.36700329e-003 0. 4.32900432e-003
      6.38768613e-001 3.52733694e-002 0. 2.21260227e-002 0.
      1.82780176e-002 0. 2.13243552e-002 0. 2.03623530e-002 0.
      1.60333496e-002 0. 1.95606854e-002 0. 1.94003526e-002 0.
      1.60333496e-002 0. 1.23456791e-002 0. 1.63540170e-002 0.
      2.05226876e-002 0. 2.24466883e-002 0. 9.15504247e-002 0.
      4.97033820e-003 0. 4.64967126e-003</_>
    <_>
      0. 0. 0. 0. 0. 0. 0. 1.69683259e-003 0. 7.49434391e-003 0.
      5.37330331e-003 0. 5.72681008e-003 0. 5.30260196e-003 0.
      1.64734162e-002 0. 1.13122175e-002 0. 1.38574662e-002 0.
      3.64111997e-002 0. 4.95616533e-002 0. 7.30345026e-002 0.
      9.37500000e-002 6.10718310e-001 6.92873299e-002 0. 0. 0. 0. 0. 0.
      0. 2.12104083e-003 0. 7.56504526e-003 0. 5.16119925e-003 0.
      6.15101820e-003 0. 6.29242091e-003 0. 9.33257956e-003 0.
      1.71804298e-002 0. 1.64027158e-002 0. 2.75735296e-002 0.
      6.16515838e-002 0. 7.70644769e-002 0. 9.24773738e-002
      5.98981917e-001 7.20446855e-002 0. 0. 0. 0. 0. 1.76753395e-003 0.
      3.04015842e-003 0. 7.70644797e-003 0. 5.44400467e-003 0.
      8.69626738e-003 0. 7.21153850e-003 0. 1.01809958e-002 0.
      1.71804298e-002 0. 1.16657242e-002 0. 2.11397056e-002 0.
      4.45418544e-002 0. 6.29949123e-002 0. 9.40328091e-002
      6.24717176e-001 7.96804279e-002</_>
    <_>
      0. 0. 0. 0. 0. 2.59667262e-002 0. 2.36061146e-003 0.
      4.72122291e-003 0. 3.37230216e-004 0. 1.55125903e-002 0.
      4.32778783e-002 0. 6.51978422e-003 0. 1.23651084e-002 0.
      3.46223004e-002 0. 2.66411863e-002 0. 2.96762586e-002 0.
      5.81160076e-002 0. 7.85746425e-002 6.61196053e-001 1.12410075e-004
      0. 0. 0. 0. 0. 0. 0. 3.50719430e-002 0. 4.27158270e-003 0.
      1.12410075e-004 0. 3.14748194e-003 0. 2.34937053e-002 0.
      6.29496388e-003 0. 2.75404677e-002 0. 2.01214030e-002 0.
      4.30530570e-002 0. 3.43974829e-002 0. 4.86735627e-002 0.
      9.17266160e-002 6.61982894e-001 1.12410075e-004 0. 3.16996388e-002
      0. 7.08183460e-003 0. 5.62050380e-004 0. 1.12410075e-004 0.
      3.03507200e-003 0. 1.93345323e-002 0. 7.64388498e-003 0.
      1.34892086e-003 0. 1.79856119e-003 0. 7.98111502e-003 0.
      2.65287776e-002 0. 1.49505399e-002 0. 1.70863308e-002 0.
      2.67535970e-002 0. 8.28462243e-002 7.51124084e-001 1.12410075e-004</_>
    <_>
      0. 0. 0. 8.56164377e-004 0. 1.60530824e-002 0. 9.41780861e-003 0.
      1.30565064e-002 0. 2.05479451e-002 0. 1.24143837e-002 0.
      1.28424661e-002 0. 1.39126712e-002 0. 1.77654102e-002 0.
      2.63270549e-002 0. 3.74571905e-002 0. 5.67208901e-002 0.
      6.18578754e-002 5.95676363e-001 1.39126712e-002 0. 9.11815092e-002
      0. 0. 0. 5.56506868e-003 0. 1.45547949e-002 0. 8.34760256e-003 0.
      1.17722601e-002 0. 2.01198626e-002 0. 1.26284249e-002 0.
      1.36986300e-002 0. 1.43407537e-002 0. 2.16181502e-002 0.
      3.33904102e-002 0. 4.62328754e-002 0. 7.29880109e-002
      6.08732879e-001 2.39726026e-002 0. 8.83989707e-002 0.
      3.63869872e-003 0. 0. 0. 0. 0. 0. 0. 0. 0. 0. 0. 4.06678068e-003
      0. 6.63527381e-003 0. 1.17722601e-002 0. 1.04880137e-002 0.
      1.45547949e-002 0. 3.55308205e-002 0. 1.18792810e-001 0.
      1.09375000e-001 5.64640403e-001 3.98116447e-002 0. 6.61386997e-002
      0. 1.81934927e-002</_>
    <_>
      0. 0. 0. 2.32142862e-002 0. 3.17460322e-003 0. 2.77777785e-003 0.
      1.86507944e-002 0. 1.50793651e-002 0. 2.34126989e-002 0.
      1.64682548e-002 0. 1.86507944e-002 0. 2.38095243e-002 0.
      3.29365097e-002 0. 4.28571440e-002 0. 3.47222239e-002 0.
      3.25396843e-002 0. 4.92063500e-002 6.12698436e-001 4.98015881e-002
      0. 0. 0. 0. 0. 2.16269847e-002 0. 2.77777785e-003 0.
      3.96825420e-003 0. 5.55555569e-003 0. 4.36507957e-003 0.
      1.80555563e-002 0. 1.01190479e-002 0. 2.48015877e-002 0.
      3.13492082e-002 0. 4.36507948e-002 0. 3.82936522e-002 0.
      3.88888903e-002 0. 6.11111112e-002 6.36309505e-001 5.91269843e-002
      0. 1.21031748e-002 0. 8.33333377e-003 0. 4.36507957e-003 0.
      4.96031763e-003 0. 4.16666688e-003 0. 5.75396838e-003 0.
      5.35714300e-003 0. 3.37301590e-003 0. 6.34920644e-003 0.
      6.15079375e-003 0. 7.34126987e-003 0. 1.13095241e-002 0.
      2.36111116e-002 0. 8.78968239e-002 0. 1.04761906e-001
      6.73412681e-001 3.07539683e-002</_>
    <_>
      2.23090276e-001 3.47222225e-003 0. 1.50462966e-002 0.
      1.40335644e-002 0. 1.18634263e-002 0. 1.62037034e-002 0.
      2.83564813e-002 0. 1.57696754e-002 0. 1.25868060e-002 0.
      1.08506940e-002 0. 2.48842593e-002 0. 1.37442127e-002 0.
      1.02719907e-002 0. 1.31655093e-002 0. 1.30208330e-002
      5.73061347e-001 5.78703708e-004 0. 0. 2.23668978e-001
      4.05092584e-003 0. 1.41782407e-002 0. 1.44675924e-002 0.
      1.18634263e-002 0. 1.66377313e-002 0. 2.73437500e-002 0.
      1.46122687e-002 0. 1.27314813e-002 0. 1.09953703e-002 0.
      1.54803237e-002 0. 2.11226847e-002 0. 1.09953703e-002 0.
      8.10185168e-003 0. 1.47569440e-002 5.78414381e-001 1.44675927e-004
      0. 4.34027781e-004 2.22945601e-001 3.90625000e-003 0.
      1.40335644e-002 0. 1.41782407e-002 0. 1.20081017e-002 0.
      1.49016203e-002 0. 2.90798619e-002 0. 1.31655093e-002 0.
      1.38888890e-002 0. 9.25925933e-003 0. 9.98263899e-003 0.
      2.44502313e-002 0. 1.07060187e-002 0. 8.53587966e-003 0.
      1.07060187e-002 0. 1.05613424e-002 5.77401638e-001 2.89351854e-004</_>
    <_>
      6.82096362e-001 2.33072918e-002 0. 2.40234379e-002 0.
      2.35677082e-002 0. 3.19010415e-003 0. 1.27604166e-002 0.
      2.28515621e-002 0. 1.35416668e-002 0. 1.40624996e-002 0.
      1.86197925e-002 0. 2.70833336e-002 0. 3.09244785e-002 0.
      2.36979164e-002 0. 1.80989578e-002 0. 1.79036465e-002 0.
      1.57552082e-002 0. 2.85156257e-002 6.82096362e-001 2.33072918e-002
      0. 2.40234379e-002 0. 2.35677082e-002 0. 3.19010415e-003 0.
      1.27604166e-002 0. 2.28515621e-002 0. 1.35416668e-002 0.
      1.40624996e-002 0. 1.86197925e-002 0. 2.70833336e-002 0.
      3.09244785e-002 0. 2.36979164e-002 0. 1.80989578e-002 0.
      1.79036465e-002 0. 1.57552082e-002 0. 2.85156257e-002
      6.82096362e-001 2.33072918e-002 0. 2.40234379e-002 0.
      2.35677082e-002 0. 3.19010415e-003 0. 1.27604166e-002 0.
      2.28515621e-002 0. 1.35416668e-002 0. 1.40624996e-002 0.
      1.86197925e-002 0. 2.68880203e-002 0. 3.11197918e-002 0.
      2.36979164e-002 0. 1.80989578e-002 0. 1.79036465e-002 0.
      1.57552082e-002 0. 2.85156257e-002</_>
    <_>
      0. 0. 0. 0. 0. 0. 0. 4.26136365e-004 0. 5.68181800e-004 0.
      1.98863633e-003 0. 5.25568193e-003 0. 6.67613652e-003 0.
      1.43465912e-002 0. 2.27272734e-002 0. 3.30965891e-002 0.
      4.24715914e-002 0. 4.95738648e-002 0. 6.47727251e-002 0.
      9.74431783e-002 6.51988626e-001 8.66477285e-003 0. 0. 0. 0. 0. 0.
      0. 2.84090900e-004 0. 4.26136365e-004 0. 1.98863633e-003 0.
      3.26704537e-003 0. 3.12500005e-003 0. 9.09090880e-003 0.
      1.76136363e-002 0. 2.62784082e-002 0. 3.65056805e-002 0.
      5.31250015e-002 0. 8.62215906e-002 0. 1.04119316e-001
      6.51136339e-001 6.81818184e-003 0. 0. 0. 0. 0. 0. 0.
      2.84090900e-004 0. 1.13636360e-003 0. 1.70454546e-003 0.
      2.41477275e-003 0. 4.82954551e-003 0. 8.38068221e-003 0.
      1.30681815e-002 0. 2.51420457e-002 0. 3.12500000e-002 0.
      4.84374985e-002 0. 6.27840906e-002 0. 1.11647725e-001
      6.82528436e-001 6.39204541e-003</_>
    <_>
      0. 0. 0. 0. 0. 4.01376141e-003 0. 4.01376141e-003 0.
      8.74426588e-003 0. 1.16112381e-002 0. 1.36181191e-002 0.
      3.32568809e-002 0. 1.77752301e-002 0. 1.64850913e-002 0.
      1.46215595e-002 0. 1.33314217e-002 0. 1.29013760e-002 0.
      3.09633035e-002 0. 6.12098612e-002 7.55160570e-001 2.29357788e-003
      0. 0. 0. 4.30045882e-004 0. 4.73050447e-003 0. 5.16055059e-003 0.
      5.44724753e-003 0. 7.45412847e-003 0. 1.56250000e-002 0.
      2.72362381e-002 0. 2.06422023e-002 0. 2.10722480e-002 0.
      1.13245416e-002 0. 1.41915139e-002 0. 1.70584861e-002 0.
      3.02465595e-002 0. 5.40424325e-002 7.62041271e-001 3.29701835e-003
      0. 1.00344035e-003 0. 5.73394471e-004 0. 4.73050447e-003 0.
      4.30045882e-003 0. 3.72706424e-003 0. 7.59747718e-003 0.
      9.60435811e-003 0. 2.30791289e-002 0. 1.40481647e-002 0.
      2.39392202e-002 0. 1.53383026e-002 0. 1.46215595e-002 0.
      2.29357798e-002 0. 3.49770635e-002 0. 4.80217896e-002
      7.66915143e-001 4.58715577e-003</_>
    <_>
      5.51757813e-001 4.88281250e-004 0. 1.26953125e-002 0.
      4.63867188e-003 0. 9.27734375e-003 0. 1.00097656e-002 0.
      1.39160156e-002 0. 8.78906250e-003 0. 8.30078125e-003 0.
      1.51367188e-002 0. 1.41601563e-002 0. 1.92871094e-002 0.
      2.36816406e-002 0. 3.51562500e-002 0. 6.00585938e-002 0.
      8.08105469e-002 0. 1.31835938e-001 5.51757813e-001 4.88281250e-004
      0. 1.26953125e-002 0. 4.63867188e-003 0. 9.27734375e-003 0.
      1.00097656e-002 0. 1.39160156e-002 0. 8.78906250e-003 0.
      8.30078125e-003 0. 1.51367188e-002 0. 1.41601563e-002 0.
      1.92871094e-002 0. 2.36816406e-002 0. 3.51562500e-002 0.
      6.00585938e-002 0. 8.08105469e-002 0. 1.31835938e-001
      5.51757813e-001 4.88281250e-004 0. 1.26953125e-002 0.
      4.63867188e-003 0. 9.27734375e-003 0. 1.00097656e-002 0.
      1.39160156e-002 0. 8.78906250e-003 0. 8.30078125e-003 0.
      1.51367188e-002 0. 1.41601563e-002 0. 1.92871094e-002 0.
      2.36816406e-002 0. 3.51562500e-002 0. 6.00585938e-002 0.
      8.08105469e-002 0. 1.31835938e-001</_>
    <_>
      0. 0. 0. 0. 0. 2.69396551e-004 0. 1.01023708e-002 0.
      1.42780170e-002 0. 8.89008585e-003 0. 1.07758623e-002 0.
      1.19881462e-002 0. 1.44127151e-002 0. 1.45474141e-002 0.
      1.85883623e-002 0. 2.14170255e-002 0. 2.34375000e-002 0.
      3.20581906e-002 0. 4.80872840e-002 7.69531250e-001 1.61637936e-003
      0. 0. 0. 0. 0. 0. 0. 8.89008585e-003 0. 1.61637925e-002 0.
      9.02478490e-003 0. 1.11799566e-002 0. 1.22575434e-002 0.
      1.42780170e-002 0. 1.60290953e-002 0. 1.72413792e-002 0.
      2.18211208e-002 0. 2.42456906e-002 0. 3.30010764e-002 0.
      4.74137925e-002 7.67376065e-001 1.07758620e-003 0. 0. 0. 0. 0. 0.
      0. 0. 0. 1.07758620e-003 0. 1.61637936e-003 0. 6.19612075e-003 0.
      1.09105604e-002 0. 1.09105604e-002 0. 1.73760783e-002 0.
      2.11476292e-002 0. 2.45150868e-002 0. 3.39439660e-002 0.
      4.31034490e-002 0. 5.54956906e-002 7.72629321e-001 1.07758620e-003</_>
    <_>
      0. 0. 0. 7.30140193e-004 0. 4.23481315e-003 0. 9.63785034e-003 0.
      1.53329438e-002 0. 3.62149514e-002 0. 4.30782698e-002 0.
      1.91296730e-002 0. 9.49182268e-003 0. 1.37266358e-002 0.
      1.41647197e-002 0. 1.37266358e-002 0. 2.42406540e-002 0.
      3.73831764e-002 0. 4.14719619e-002 7.16121495e-001 1.31425238e-003
      0. 0. 0. 7.30140193e-004 0. 2.04439252e-003 0. 4.52686893e-003 0.
      8.32359772e-003 0. 8.46962631e-003 0. 9.19976644e-003 0.
      1.29964957e-002 0. 1.41647197e-002 0. 2.00058408e-002 0.
      2.23422889e-002 0. 2.51168218e-002 0. 2.87675243e-002 0.
      3.97196263e-002 0. 5.92873842e-002 7.43136704e-001 1.16822426e-003
      0. 2.19042064e-003 0. 2.33644852e-003 0. 4.38084127e-003 0.
      3.06658889e-003 0. 2.33644852e-003 0. 5.84112154e-003 0.
      4.96495329e-003 0. 7.30140181e-003 0. 7.00934557e-003 0.
      1.06600467e-002 0. 1.69392526e-002 0. 1.94217283e-002 0.
      2.74532717e-002 0. 4.22021039e-002 0. 5.27161211e-002
      7.88113296e-001 3.06658889e-003</_>
    <_>
      0. 5.97426482e-003 0. 9.49754938e-003 0. 3.98284337e-003 0.
      5.51470602e-003 0. 3.73774506e-002 0. 5.39215691e-002 0.
      9.48223025e-002 7.73437500e-001 1.53186280e-004 0. 1.47058824e-002
      0. 6.12745120e-004 0. 0. 0. 0. 0. 0. 0. 0. 0. 0. 0. 0. 0. 0. 0.
      9.65073518e-003 0. 7.04656867e-003 0. 6.12745108e-003 0.
      4.36580889e-002 0. 4.47303914e-002 0. 5.11642173e-002
      8.04381132e-001 0. 0. 2.91053914e-002 0. 4.13602963e-003 0. 0. 0.
      0. 0. 0. 0. 0. 0. 0. 0. 0. 0. 0. 0. 4.59558825e-004 0.
      2.46629901e-002 0. 2.57352944e-002 0. 2.94117648e-002 0.
      2.02205889e-002 0. 2.57352944e-002 0. 2.29779407e-002 0.
      1.95312500e-001 6.39399529e-001 6.43382361e-003 0. 9.19117685e-003
      0. 4.59558825e-004 0. 0. 0. 0. 0. 0. 0. 0.</_>
    <_>
      0. 0. 0. 2.32142862e-002 0. 3.17460322e-003 0. 2.77777785e-003 0.
      1.86507944e-002 0. 1.50793651e-002 0. 2.34126989e-002 0.
      1.64682548e-002 0. 1.86507944e-002 0. 2.38095243e-002 0.
      3.29365097e-002 0. 4.28571440e-002 0. 3.47222239e-002 0.
      3.25396843e-002 0. 4.92063500e-002 6.12698436e-001 4.98015881e-002
      0. 0. 0. 0. 0. 2.16269847e-002 0. 2.77777785e-003 0.
      3.96825420e-003 0. 5.55555569e-003 0. 4.36507957e-003 0.
      1.80555563e-002 0. 1.01190479e-002 0. 2.48015877e-002 0.
      3.13492082e-002 0. 4.36507948e-002 0. 3.82936522e-002 0.
      3.88888903e-002 0. 6.11111112e-002 6.36309505e-001 5.91269843e-002
      0. 1.21031748e-002 0. 8.33333377e-003 0. 4.36507957e-003 0.
      4.96031763e-003 0. 4.16666688e-003 0. 5.75396838e-003 0.
      5.35714300e-003 0. 3.37301590e-003 0. 6.34920644e-003 0.
      6.15079375e-003 0. 7.34126987e-003 0. 1.13095241e-002 0.
      2.36111116e-002 0. 8.78968239e-002 0. 1.04761906e-001
      6.73412681e-001 3.07539683e-002</_>
    <_>
      0. 0. 0. 0. 0. 0. 0. 3.25520843e-004 0. 9.76562500e-004 0.
      2.11588549e-003 0. 7.48697901e-003 0. 1.15559893e-002 0.
      1.83919277e-002 0. 2.60416660e-002 0. 3.33658867e-002 0.
      3.04361973e-002 0. 3.25520821e-002 0. 4.36197929e-002 0.
      5.55013008e-002 7.26725280e-001 1.09049482e-002 0. 0. 0. 0. 0. 0.
      0. 0. 0. 1.62760422e-004 0. 1.62760422e-004 0. 3.41796875e-003 0.
      4.88281250e-003 0. 1.10677080e-002 0. 2.05078125e-002 0.
      2.71809902e-002 0. 3.85742188e-002 0. 4.42708321e-002 0.
      4.34570313e-002 0. 5.63151054e-002 7.38444030e-001 1.15559893e-002
      0. 0. 0. 0. 0. 0. 0. 0. 0. 0. 0. 3.25520843e-004 0.
      3.25520843e-004 0. 1.95312500e-003 0. 6.02213526e-003 0.
      1.61132813e-002 0. 2.79947910e-002 0. 1.70898438e-002 0.
      1.69270840e-002 0. 2.13216152e-002 0. 5.72916679e-002
      8.32356751e-001 2.27864576e-003</_>
    <_>
      0. 0. 0. 0. 0. 0. 0. 0. 0. 0. 0. 0. 0. 0. 0. 0. 0. 0. 0. 0. 0.
      2.00080030e-004 6.68400705e-001 2.13418691e-003 0. 1.05442174e-001
      0. 3.64812575e-002 0. 1.70734953e-002 1.70268103e-001 0. 0. 0. 0.
      0. 0. 0. 0. 0. 0. 0. 0. 0. 0. 0. 0. 0. 0. 0. 0. 4.66853409e-004 0.
      7.66973477e-003 6.61731362e-001 2.20088032e-003 0. 1.04175001e-001
      0. 3.64145674e-002 0. 1.70734953e-002 1.70268103e-001 0. 0. 0. 0.
      0. 0. 0. 0. 0. 0. 0. 0. 0. 0. 0. 0. 0. 0. 1.66733365e-003 0.
      4.33506723e-003 0. 4.66853427e-003 6.59197032e-001 2.13418691e-003
      0. 1.04308389e-001 0. 3.63478735e-002 0. 1.70734953e-002
      1.70268103e-001 0.</_>
    <_>
      0. 8.30078125e-002 0. 1.70898438e-002 0. 1.56250000e-002 0.
      1.29394531e-002 0. 1.39160156e-002 0. 1.87988281e-002 0.
      1.95312500e-002 0. 1.70898438e-002 0. 1.78222656e-002 0.
      1.63574219e-002 0. 2.12402344e-002 0. 1.46484375e-002 0.
      2.24609375e-002 0. 2.22167969e-002 0. 2.83203125e-002
      6.58935547e-001 0. 0. 8.30078125e-002 0. 1.70898438e-002 0.
      1.56250000e-002 0. 1.29394531e-002 0. 1.39160156e-002 0.
      1.87988281e-002 0. 1.95312500e-002 0. 1.70898438e-002 0.
      1.73339844e-002 0. 1.68457031e-002 0. 2.12402344e-002 0.
      1.46484375e-002 0. 2.22167969e-002 0. 2.24609375e-002 0.
      2.83203125e-002 6.58935547e-001 0. 0. 8.30078125e-002 0.
      1.70898438e-002 0. 1.56250000e-002 0. 1.29394531e-002 0.
      1.39160156e-002 0. 1.87988281e-002 0. 1.95312500e-002 0.
      1.70898438e-002 0. 1.78222656e-002 0. 1.63574219e-002 0.
      2.12402344e-002 0. 1.46484375e-002 0. 2.24609375e-002 0.
      2.22167969e-002 0. 2.83203125e-002 6.58935547e-001 0.</_>
    <_>
      0. 0. 0. 0. 0. 0. 0. 0. 0. 7.46965467e-004 0. 5.60224103e-003 0.
      5.60224103e-003 0. 8.96358583e-003 0. 1.81139130e-002 0.
      2.01680679e-002 0. 2.46498603e-002 0. 3.52941193e-002 0.
      3.32399644e-002 0. 3.11858077e-002 0. 4.59383763e-002
      7.68440723e-001 2.05415511e-003 0. 0. 0. 0. 0. 0. 0.
      1.30718958e-003 0. 5.22875832e-003 0. 1.68067229e-003 0.
      7.46965467e-004 0. 7.84313772e-003 0. 1.51260504e-002 0.
      1.45658264e-002 0. 1.97945852e-002 0. 3.38001885e-002 0.
      3.86554636e-002 0. 3.66013087e-002 0. 5.09803928e-002
      7.71428585e-001 2.24089646e-003 0. 3.92156886e-003 0.
      7.46965467e-004 0. 5.60224114e-004 0. 9.33706819e-004 0.
      2.24089646e-003 0. 1.68067229e-003 0. 1.30718958e-003 0.
      8.02987907e-003 0. 1.60597581e-002 0. 1.32586369e-002 0.
      1.94211025e-002 0. 3.00653595e-002 0. 2.72642393e-002 0.
      3.34267057e-002 0. 6.25583604e-002 7.75536895e-001 2.98786187e-003</_>
    <_>
      0. 0. 0. 0. 0. 0. 0. 8.98783188e-003 0. 1.18915932e-002 0.
      6.36061933e-003 0. 5.66924782e-003 0. 4.14822996e-003 0.
      5.11615025e-003 0. 5.25442464e-003 0. 5.66924782e-003 0.
      1.53484512e-002 9.14546490e-001 0. 0. 1.70077439e-002 0. 0. 0. 0.
      0. 0. 0. 0. 0. 0. 0. 3.31858406e-003 0. 1.28595131e-002 0.
      6.63716812e-003 0. 7.19026569e-003 0. 7.60508841e-003 0.
      7.74336280e-003 0. 8.43473431e-003 3.98230076e-001 6.36061933e-003
      5.41205764e-001 4.14823007e-004 0. 0. 0. 0. 0. 0. 0. 0. 0. 0. 0.
      0. 0. 0. 0. 0. 0. 0. 0. 5.53097343e-004 0. 4.42477874e-003 0.
      1.13384956e-002 1.17118366e-001 1.23064155e-002 3.89518797e-001
      1.79756642e-003 4.47179198e-001 3.04203550e-003 0. 9.81747825e-003
      0. 2.35066377e-003 0. 5.53097343e-004 0. 0. 0. 0.</_>
    <_>
      0. 1.22222221e-002 0. 2.48611104e-002 0. 1.86111107e-002 0.
      1.17361108e-002 0. 9.79166664e-003 0. 8.33333377e-003 0.
      7.63888890e-003 0. 6.11111103e-003 0. 4.23611095e-003 0.
      3.74999992e-003 0. 5.06944442e-003 0. 5.55555569e-003 0.
      4.79166675e-003 0. 9.09722224e-003 0. 1.06250001e-002
      8.57569456e-001 0. 0. 0. 0. 1.18055556e-003 0. 2.70833331e-003 0.
      3.54166678e-003 0. 5.34722209e-003 0. 8.40277784e-003 0.
      1.43055553e-002 0. 1.81249995e-002 0. 2.18749996e-002 0.
      1.40277781e-002 0. 1.11805554e-002 0. 9.44444444e-003 0.
      8.05555563e-003 0. 1.13888886e-002 0. 1.11805554e-002
      8.59236121e-001 0. 0. 0. 0. 0. 0. 0. 0. 0. 0. 2.77777785e-004 0.
      2.22222228e-003 0. 2.70833331e-003 0. 3.54166678e-003 0.
      4.16666688e-003 0. 5.62500022e-003 0. 9.72222257e-003 0.
      1.33333337e-002 0. 1.86805557e-002 0. 2.14583334e-002 0.
      4.02777791e-002 8.63749981e-001 1.42361112e-002</_>
    <_>
      7.62029886e-001 6.91371679e-004 0. 3.38772126e-002 0.
      2.82079652e-002 0. 3.51216830e-002 0. 3.26327421e-002 0.
      2.80696899e-002 0. 2.26769913e-002 0. 1.99115053e-002 0.
      1.43805314e-002 0. 1.00940261e-002 0. 6.36061933e-003 0.
      3.45685845e-003 0. 9.67920350e-004 0. 8.29646015e-004 0.
      4.14823007e-004 0. 2.76548672e-004 7.62029886e-001 6.91371679e-004
      0. 3.38772126e-002 0. 2.82079652e-002 0. 3.51216830e-002 0.
      3.26327421e-002 0. 2.80696899e-002 0. 2.26769913e-002 0.
      1.99115053e-002 0. 1.43805314e-002 0. 1.00940261e-002 0.
      6.36061933e-003 0. 3.45685845e-003 0. 9.67920350e-004 0.
      8.29646015e-004 0. 4.14823007e-004 0. 2.76548672e-004
      7.62029886e-001 6.91371679e-004 0. 3.38772126e-002 0.
      2.82079652e-002 0. 3.51216830e-002 0. 3.26327421e-002 0.
      2.80696899e-002 0. 2.26769913e-002 0. 1.99115053e-002 0.
      1.43805314e-002 0. 1.00940261e-002 0. 6.36061933e-003 0.
      3.45685845e-003 0. 9.67920350e-004 0. 8.29646015e-004 0.
      4.14823007e-004 0. 2.76548672e-004</_>
    <_>
      0. 1.31899351e-002 0. 2.84090918e-003 0. 8.11688311e-004 0.
      3.65259731e-003 0. 2.84090918e-003 0. 4.05844161e-003 0.
      3.24675324e-003 0. 4.87012975e-003 0. 7.30519462e-003 0.
      1.23782465e-002 0. 2.17126627e-002 0. 3.16558443e-002 0.
      4.80925329e-002 0. 6.49350658e-002 0. 7.08198026e-002
      7.04748392e-001 2.84090918e-003 0. 1.33928573e-002 0.
      2.63798703e-003 0. 8.11688311e-004 0. 3.65259731e-003 0.
      1.21753244e-003 0. 5.47889620e-003 0. 3.04383109e-003 0.
      4.46428591e-003 0. 7.30519462e-003 0. 1.01461038e-002 0.
      2.02922076e-002 0. 3.51055190e-002 0. 4.74837646e-002 0.
      6.53409064e-002 0. 7.32548684e-002 7.03125000e-001 3.24675324e-003
      0. 1.25811687e-002 0. 2.02922081e-003 0. 2.23214296e-003 0.
      3.44967539e-003 0. 1.01461040e-003 0. 4.87012975e-003 0.
      3.44967539e-003 0. 4.46428591e-003 0. 9.13149305e-003 0.
      1.33928573e-002 0. 2.09009741e-002 0. 3.30762975e-002 0.
      4.66720797e-002 0. 6.35146126e-002 0. 7.18344152e-002
      7.02922106e-001 4.46428591e-003</_>
    <_>
      0. 0. 0. 1.47405663e-004 0. 1.03183964e-003 0. 1.91627361e-003 0.
      4.27476410e-003 0. 9.13915131e-003 0. 1.34139154e-002 0.
      2.56485846e-002 0. 3.68514135e-002 9.07429218e-001 1.47405663e-004
      0. 0. 0. 0. 0. 0. 0. 0. 0. 0. 0. 0. 0. 0. 0. 1.47405663e-004 0.
      5.89622650e-004 0. 1.62146229e-003 0. 4.27476410e-003 0.
      6.33844361e-003 0. 8.84433929e-003 0. 1.40035376e-002 0.
      2.57959906e-002 0. 3.25766504e-002 9.05807793e-001 0. 0. 0. 0. 0.
      0. 0. 0. 0. 0. 0. 0. 0. 0. 0. 0. 1.47405663e-004 0.
      5.89622650e-004 0. 1.03183964e-003 0. 2.21108482e-003 0.
      4.27476410e-003 0. 5.01179229e-003 0. 5.45400940e-003 0.
      9.58136749e-003 0. 9.72877350e-003 0. 2.00471692e-002 0.
      1.98997650e-002 0. 2.65330188e-002 8.90035391e-001 5.45400940e-003
      0. 0.</_>
    <_>
      1.31835938e-001 4.32128906e-002 0. 2.73437500e-002 0.
      1.56250000e-002 0. 1.63574219e-002 0. 8.54492188e-003 0.
      1.51367188e-002 0. 1.83105469e-002 0. 8.78906250e-003 0.
      1.09863281e-002 0. 9.76562500e-003 0. 1.66015625e-002 0.
      2.44140625e-002 0. 9.76562500e-003 0. 9.76562500e-003 0.
      1.39160156e-002 6.16455078e-001 3.17382813e-003 0. 1.46728516e-001
      0. 7.42187500e-002 0. 1.95312500e-002 0. 1.66015625e-002 0.
      1.12304688e-002 0. 1.36718750e-002 0. 1.34277344e-002 0.
      1.07421875e-002 0. 7.56835938e-003 0. 6.83593750e-003 0.
      1.31835938e-002 0. 2.19726563e-002 0. 7.81250000e-003 0.
      8.54492188e-003 0. 9.76562500e-003 6.15966797e-001 2.19726563e-003
      0. 0. 0. 0. 1.27929688e-001 5.61523438e-002 0. 4.85839844e-002 0.
      1.58691406e-002 0. 1.80664063e-002 0. 1.80664063e-002 0.
      1.39160156e-002 0. 9.76562500e-003 0. 8.30078125e-003 0.
      8.30078125e-003 0. 1.29394531e-002 0. 2.39257813e-002 0.
      9.03320313e-003 0. 1.07421875e-002 6.16455078e-001 1.95312500e-003</_>
    <_>
      0. 0. 0. 1.24007944e-004 0. 1.73611112e-003 0. 4.83630970e-003 0.
      1.07886903e-002 0. 1.81051586e-002 0. 2.71577388e-002 0.
      3.45982127e-002 0. 4.00545634e-002 0. 4.81150784e-002 0.
      5.33234142e-002 0. 6.36160746e-002 0. 5.12152761e-002
      6.46329343e-001 0. 0. 0. 0. 0. 0. 3.72023816e-004 0.
      6.20039704e-004 0. 2.60416674e-003 0. 7.19246035e-003 0.
      1.31448414e-002 0. 2.12053563e-002 0. 2.44295634e-002 0.
      2.98859123e-002 0. 3.14980149e-002 0. 4.37748022e-002 0.
      4.46428582e-002 0. 4.86111119e-002 0. 6.11359142e-002
      6.51909709e-001 1.24007941e-003 0. 1.77331343e-002 0. 0. 0. 0. 0.
      1.24007944e-004 0. 8.68055562e-004 0. 3.84424604e-003 0.
      7.68849207e-003 0. 1.12847220e-002 0. 1.68650802e-002 0.
      2.07093246e-002 0. 2.59176586e-002 0. 3.63343246e-002 0.
      3.85664664e-002 0. 4.24107127e-002 0. 5.67956343e-002
      7.11185515e-001 8.68055562e-004 0. 2.65376978e-002 0. 0.</_>
    <_>
      0. 1.70898438e-003 0. 1.51367188e-002 0. 1.00097656e-002 0.
      3.90625000e-003 0. 6.59179688e-003 0. 6.10351563e-003 0.
      8.78906250e-003 0. 6.83593750e-003 0. 1.66015625e-002 0.
      1.51367188e-002 0. 1.44042969e-002 0. 3.17382813e-002 0.
      2.58789063e-002 0. 1.87988281e-002 0. 3.73535156e-002
      7.80761719e-001 2.44140625e-004 0. 3.17382813e-003 0.
      1.66015625e-002 0. 7.08007813e-003 0. 3.66210938e-003 0.
      5.61523438e-003 0. 4.88281250e-003 0. 8.54492188e-003 0.
      6.83593750e-003 0. 8.30078125e-003 0. 8.05664063e-003 0.
      1.41601563e-002 0. 2.66113281e-002 0. 2.29492188e-002 0.
      3.00292969e-002 0. 3.75976563e-002 7.93212891e-001 2.68554688e-003
      0. 3.17382813e-003 0. 1.63574219e-002 0. 7.32421875e-003 0.
      2.92968750e-003 0. 5.37109375e-003 0. 3.17382813e-003 0.
      6.83593750e-003 0. 6.10351563e-003 0. 7.81250000e-003 0.
      6.59179688e-003 0. 8.30078125e-003 0. 1.66015625e-002 0.
      1.51367188e-002 0. 1.95312500e-002 0. 2.90527344e-002
      8.42529297e-001 3.17382813e-003</_>
    <_>
      0. 0. 0. 0. 0. 0. 0. 0. 0. 0. 0. 1.83823533e-004 0.
      3.67647066e-004 0. 7.35294132e-004 0. 7.35294132e-004 0.
      2.20588245e-003 0. 1.13970591e-002 0. 3.82352956e-002 0.
      4.76102941e-002 0. 3.03308815e-002 0. 4.30147052e-002
      8.22242618e-001 2.94117653e-003 0. 0. 0. 0. 0. 0. 0. 0. 0. 0. 0.
      0. 0. 0. 0. 3.67647066e-004 0. 3.67647066e-004 0. 1.10294123e-003
      0. 3.67647060e-003 0. 1.34191178e-002 0. 5.05514704e-002 0.
      4.61397059e-002 0. 4.94485311e-002 8.31617653e-001 3.30882357e-003
      0. 0. 0. 0. 0. 0. 0. 0. 0. 0. 0. 0. 0. 0. 0. 0. 0. 0. 0. 0. 0.
      1.65441178e-003 0. 1.65441185e-002 0. 4.35661748e-002 0.
      2.83088237e-002 0. 6.39705881e-002 8.45955908e-001 0.</_>
    <_>
      0. 8.92857183e-003 0. 3.72023816e-004 0. 7.62648787e-003 0.
      6.88244030e-003 0. 2.34375000e-002 0. 7.25446409e-003 0.
      6.69642864e-003 0. 3.86904776e-002 0. 3.64583321e-002
      1.34672612e-001 3.51562500e-002 0. 6.08258918e-002 0.
      2.99479160e-002 0. 5.02232127e-002 0. 3.14360112e-002
      4.87537205e-001 3.38541679e-002 0. 0. 0. 8.92857183e-003 0.
      1.48809527e-003 0. 9.30059527e-004 0. 1.48809527e-003 0.
      3.16220243e-003 0. 6.13839272e-003 0. 5.76636894e-003 0.
      8.92857183e-003 0. 1.82291660e-002 0. 3.10639888e-002
      1.33184522e-001 5.17113097e-002 0. 5.65476194e-002 0.
      6.97544664e-002 0. 6.64062500e-002 5.00372052e-001 3.59002985e-002
      0. 0. 0. 8.92857183e-003 0. 0. 0. 7.44047633e-004 0.
      3.34821432e-003 0. 4.65029757e-003 0. 2.60416674e-003 0.
      2.97619053e-003 0. 4.83630970e-003 0. 1.07886903e-002 0.
      1.65550597e-002 0. 1.74851194e-002 4.93489593e-001 4.40848209e-002
      1.64434522e-001 8.74255970e-002 0. 8.27752948e-002 0.
      4.74330373e-002 0. 7.44047621e-003</_>
    <_>
      0. 3.55113647e-004 0. 0. 0. 1.06534094e-003 0. 3.55113647e-003 0.
      6.39204541e-003 0. 1.70454551e-002 0. 7.81250000e-003 0.
      8.70028418e-003 0. 9.94318165e-003 0. 1.59801133e-002 0.
      2.16619316e-002 0. 2.18394883e-002 0. 3.28480117e-002 0.
      4.04829532e-002 6.74360812e-001 1.12215906e-001 0. 2.57457383e-002
      0. 0. 0. 0. 0. 0. 0. 0. 0. 3.55113647e-004 0. 1.77556823e-004 0.
      1.95312500e-003 0. 1.77556823e-003 0. 4.97159082e-003 0.
      8.16761330e-003 0. 1.59801133e-002 0. 3.62215899e-002 0.
      4.54545468e-002 0. 6.44531250e-002 0. 6.40980080e-002
      7.47514188e-001 8.87784082e-003 0. 0. 0. 0. 0. 0. 0. 0. 0.
      3.55113647e-004 0. 6.92471582e-003 0. 4.79403418e-003 0.
      6.56960206e-003 0. 5.85937500e-003 0. 6.03693165e-003 0.
      1.08309658e-002 0. 1.04758525e-002 0. 1.81107949e-002 0.
      3.74644883e-002 0. 6.49857968e-002 8.24041188e-001 3.55113647e-003</_>
    <_>
      0. 2.76041664e-002 0. 1.16319442e-002 0. 1.09374998e-002 0.
      1.26736108e-002 0. 1.11111114e-002 0. 1.09374998e-002 0.
      1.59722231e-002 0. 1.59722231e-002 0. 1.94444451e-002 0.
      2.29166672e-002 0. 4.04513888e-002 0. 2.04861108e-002 0.
      2.01388896e-002 0. 1.66666675e-002 0. 2.23958325e-002
      7.19270825e-001 1.38888892e-003 0. 1.92708336e-002 0.
      1.00694448e-002 0. 7.81250000e-003 0. 1.92708336e-002 0.
      7.81250000e-003 0. 9.02777817e-003 0. 1.42361112e-002 0.
      1.30208330e-002 0. 1.37152774e-002 0. 1.38888890e-002 0.
      2.01388896e-002 0. 2.01388896e-002 0. 3.05555556e-002 0.
      4.40972224e-002 0. 2.72569451e-002 7.26909697e-001 2.77777785e-003
      0. 2.10069437e-002 0. 9.37500037e-003 0. 7.46527780e-003 0.
      7.46527780e-003 0. 6.59722229e-003 0. 1.80555563e-002 0.
      9.37500037e-003 0. 1.26736108e-002 0. 1.16319442e-002 0.
      1.42361112e-002 0. 1.47569440e-002 0. 1.57986116e-002 0.
      2.34375000e-002 0. 1.64930560e-002 0. 2.51736119e-002
      7.84895837e-001 1.56250002e-003</_>
    <_>
      0. 0. 0. 0. 0. 0. 0. 0. 0. 0. 0. 0. 0. 0. 0. 1.06709346e-003 0.
      9.59050283e-002 0. 7.45631605e-002 0. 3.77484336e-002
      1.04308389e-001 2.50766966e-002 0. 9.07029491e-003 0.
      2.01413892e-002 0. 2.28091236e-002 6.09310389e-001 0. 0.
      1.20048015e-003 0. 8.93690810e-003 0. 1.04041621e-002 0.
      5.46885421e-003 0. 3.10790986e-002 1.00840338e-001 4.13498748e-003
      0. 1.60064027e-002 0. 5.46885421e-003 0. 3.41469906e-002 0.
      1.04975320e-001 0. 2.25423500e-002 0. 1.05375480e-002 0.
      9.47045442e-003 0. 7.86981452e-003 0. 2.04081628e-002
      6.06509268e-001 0. 0. 0. 0. 0. 0. 0. 0. 0. 0. 0. 0. 0. 0. 0. 0. 0.
      0. 0. 0. 0. 0. 0. 0. 0. 0. 0. 0. 1.88075230e-002 0.
      5.81565946e-002 9.23035860e-001 0.</_>
    <_>
      0. 0. 0. 0. 0. 2.91015618e-002 0. 7.81250000e-002 0.
      2.24609375e-002 0. 2.92968750e-003 0. 7.22656259e-003 0.
      8.39843787e-003 0. 6.83593750e-003 0. 8.20312463e-003 0.
      1.69921871e-002 0. 1.19140623e-002 0. 8.20312463e-003 0.
      1.89453121e-002 6.27929688e-001 1.95312503e-004 1.46874994e-001
      5.66406269e-003 0. 0. 0. 1.36718748e-003 0. 2.10937504e-002 0.
      4.29687509e-003 0. 4.29687509e-003 0. 3.32031259e-003 0.
      5.85937500e-003 0. 4.68750019e-003 0. 7.42187491e-003 0.
      3.96484360e-002 0. 4.27734368e-002 0. 4.90234382e-002 0.
      1.03515629e-002 0. 1.26953125e-002 6.17968738e-001 3.90625006e-004
      1.65820315e-001 8.98437481e-003 0. 0. 0. 0. 0. 1.09374998e-002 0.
      1.23046879e-002 0. 4.29687509e-003 0. 2.92968750e-003 0.
      4.68750019e-003 0. 4.10156231e-003 0. 4.88281250e-003 0.
      7.81250000e-003 0. 1.07421875e-002 0. 1.62109379e-002 0.
      5.44921868e-002 0. 4.37499993e-002 0. 4.19921875e-002
      7.80859351e-001 0.</_>
    <_>
      0. 2.64705885e-002 0. 9.19117650e-004 0. 3.67647066e-004 0.
      1.83823533e-004 0. 7.90441222e-003 0. 4.77941195e-003 0.
      8.63970630e-003 0. 9.19117650e-004 0. 3.86029412e-003 0.
      6.61764713e-003 0. 1.76470596e-002 0. 1.98529419e-002 0.
      1.37867648e-002 0. 2.83088237e-002 0. 4.59558815e-002
      8.13786745e-001 0. 0. 0. 0. 0. 0. 0. 0. 0. 0. 0. 0. 0. 0. 0. 0.
      3.67647066e-004 0. 2.57352949e-003 0. 5.14705898e-003 0.
      5.88235306e-003 0. 1.01102944e-002 0. 3.89705896e-002 0.
      4.70588244e-002 0. 6.76470622e-002 8.22242618e-001 0. 0. 0. 0. 0.
      0. 0. 0. 0. 0. 0. 0. 0. 0. 0. 0. 3.67647066e-004 0.
      2.57352949e-003 0. 5.14705898e-003 0. 5.88235306e-003 0.
      9.37500037e-003 0. 1.10294120e-002 0. 2.42647063e-002 0.
      4.41176482e-002 8.97242665e-001 0.</_>
    <_>
      0. 0. 0. 0. 0. 0. 0. 0. 0. 0. 0. 3.73340701e-003 0.
      5.11615025e-003 0. 3.73340701e-003 0. 4.14822996e-003 0.
      8.71128310e-003 0. 1.56250000e-002 0. 3.40154879e-002
      9.24225688e-001 6.91371679e-004 0. 0. 0. 0. 0. 0. 0. 0. 0. 0. 0.
      0. 0. 0. 0. 0. 0. 3.04203550e-003 0. 6.63716812e-003 0.
      6.22234493e-003 0. 1.02323005e-002 5.44386089e-001 2.88993362e-002
      3.91454637e-001 8.98783188e-003 0. 1.38274336e-004 0. 0. 0. 0. 0.
      0. 0. 0. 0. 0. 0. 0. 0. 0. 0. 0. 0. 0. 0. 0. 0. 1.10619469e-003
      6.33572996e-001 1.79756642e-003 2.45713502e-001 1.76991150e-002 0.
      6.72013238e-002 0. 2.54424773e-002 0. 5.66924782e-003 0.
      1.24446908e-003 0. 5.53097343e-004 0. 0. 0. 0.</_>
    <_>
      0. 0. 0. 1.10728352e-003 0. 4.67519695e-003 0. 1.13188978e-002 0.
      1.47637799e-002 0. 2.32529528e-002 0. 2.87893694e-002 0.
      3.35875973e-002 0. 4.09694873e-002 0. 4.20767702e-002 0.
      4.78592515e-002 0. 5.68405502e-002 0. 4.03543301e-002
      6.52928174e-001 1.47637795e-003 0. 0. 0. 0. 0. 0. 0.
      1.47637795e-003 0. 4.92125982e-003 0. 9.47342534e-003 0.
      1.59940943e-002 0. 2.04232279e-002 0. 2.52214558e-002 0.
      2.92814951e-002 0. 3.08809057e-002 0. 4.78592515e-002 0.
      3.82627957e-002 0. 4.13385816e-002 0. 5.62253930e-002
      5.07504940e-001 1.73474401e-002 0. 1.53789371e-001 0. 0. 0. 0. 0.
      6.15157478e-004 0. 3.32185044e-003 0. 6.52066944e-003 0.
      1.09498035e-002 0. 1.40255904e-002 0. 1.75935049e-002 0.
      2.11614165e-002 0. 2.42372043e-002 0. 3.78937013e-002 0.
      2.85433065e-002 0. 4.12155502e-002 0. 7.22194910e-002 0.
      7.77559057e-002 6.41609251e-001 2.33759847e-003 0. 0.</_>
    <_>
      0. 0. 0. 0. 0. 0. 0. 9.52743925e-004 0. 7.62195094e-004 0.
      5.14481729e-003 0. 1.52439028e-002 0. 8.76524393e-003 0.
      1.14329271e-002 0. 2.45807935e-002 0. 3.37271355e-002 0.
      4.85899374e-002 0. 6.70731738e-002 0. 7.94588402e-002 0.
      9.37500000e-002 6.04230165e-001 6.28810981e-003 0. 0. 0. 0. 0. 0.
      0. 9.52743925e-004 0. 5.71646320e-004 0. 4.19207336e-003 0.
      1.35289636e-002 0. 7.43140234e-003 0. 8.57469533e-003 0.
      1.88643299e-002 0. 3.16310972e-002 0. 4.53506112e-002 0.
      6.34527430e-002 0. 8.11737776e-002 0. 1.01943597e-001
      6.15853667e-001 6.47865841e-003 0. 0. 0. 0. 0. 0. 0.
      9.52743925e-004 0. 3.81097547e-004 0. 1.71493902e-003 0.
      7.62195094e-004 0. 3.23932921e-003 0. 5.33536589e-003 0.
      6.28810981e-003 0. 1.02896346e-002 0. 2.11509150e-002 0.
      4.74466458e-002 0. 9.54649374e-002 0. 1.31669208e-001
      6.73399389e-001 1.90548785e-003</_>
    <_>
      0. 5.84893045e-004 0. 1.83823530e-003 0. 2.00534752e-003 0.
      4.09425143e-003 0. 6.35026721e-003 0. 9.02406406e-003 0.
      7.52005354e-003 0. 1.58756692e-002 0. 1.81316845e-002 0.
      1.75467916e-002 0. 2.93282084e-002 0. 2.28943843e-002 0.
      3.02473269e-002 0. 3.74331549e-002 0. 3.88536081e-002
      7.57687151e-001 5.84893045e-004 0. 5.84893045e-004 0.
      1.83823530e-003 0. 2.00534752e-003 0. 4.09425143e-003 0.
      6.35026721e-003 0. 9.02406406e-003 0. 7.68716587e-003 0.
      1.62098929e-002 0. 1.89672466e-002 0. 1.80481281e-002 0.
      3.10828872e-002 0. 2.33121663e-002 0. 2.92446520e-002 0.
      3.52606960e-002 0. 3.86864990e-002 7.57018745e-001 5.84893045e-004
      0. 5.84893045e-004 0. 1.83823530e-003 0. 2.00534752e-003 0.
      4.09425143e-003 0. 6.35026721e-003 0. 9.02406406e-003 0.
      7.52005354e-003 0. 1.57921128e-002 0. 1.77974608e-002 0.
      1.63770057e-002 0. 2.75735296e-002 0. 1.99699197e-002 0.
      3.10828872e-002 0. 3.99398394e-002 0. 4.11096253e-002
      7.58355618e-001 5.84893045e-004</_>
    <_>
      0. 0. 0. 0. 0. 0. 0. 0. 0. 0. 0. 0. 0. 0. 0. 0. 0. 0. 0. 0. 0. 0.
      0. 0. 0. 2.18749996e-002 8.52625012e-001 3.01249996e-002 0.
      8.58749971e-002 0. 9.49999969e-003 0. 0. 0. 0. 0. 0. 0. 0. 0. 0.
      0. 0. 0. 0. 0. 0. 0. 0. 0. 0. 0. 0. 7.90750027e-001
      1.35000004e-002 0. 7.69999996e-002 0. 7.18749985e-002 0.
      4.41249982e-002 0. 2.74999999e-003 0. 0. 0. 0. 0. 0. 0. 0. 0. 0.
      7.82374978e-001 6.25000009e-003 0. 1.91249996e-002 0.
      2.30000000e-002 0. 3.24999988e-002 0. 4.19999994e-002 0.
      3.56249996e-002 0. 3.97499986e-002 0. 1.28750000e-002 0.
      5.49999997e-003 0. 8.75000027e-004 0. 1.25000006e-004</_>
    <_>
      0. 1.90972220e-002 0. 3.94097231e-002 0. 1.92708336e-002 0.
      1.09374998e-002 0. 1.23263886e-002 0. 1.78819448e-002 0.
      1.89236104e-002 0. 1.78819448e-002 0. 2.01388896e-002 0.
      1.89236104e-002 0. 2.67361104e-002 0. 1.85763892e-002 0.
      2.01388896e-002 0. 1.99652780e-002 0. 2.03124993e-002
      6.95138872e-001 4.34027798e-003 0. 0. 0. 0. 0. 7.81250000e-003 0.
      4.30555567e-002 0. 1.38888890e-002 0. 1.00694448e-002 0.
      1.31944446e-002 0. 1.85763892e-002 0. 1.42361112e-002 0.
      2.10069437e-002 0. 2.88194437e-002 0. 3.71527784e-002 0.
      3.24652791e-002 0. 3.31597216e-002 0. 2.29166672e-002
      6.98784709e-001 4.86111129e-003 0. 0. 0. 0. 0. 1.73611115e-004 0.
      2.95138895e-003 0. 6.59722229e-003 0. 3.64583335e-003 0.
      2.51736119e-002 0. 3.17708328e-002 0. 1.87500007e-002 0.
      2.65625007e-002 0. 2.44791675e-002 0. 2.95138881e-002 0.
      3.88888903e-002 0. 4.07986119e-002 0. 3.71527784e-002
      7.02256918e-001 1.12847220e-002</_>
    <_>
      0. 0. 0. 0. 0. 0. 0. 0. 0. 0. 0. 0. 0. 0. 6.28213704e-001
      4.47127223e-003 1.24524929e-001 4.69483584e-002 0. 2.66040694e-002
      0. 5.61144650e-002 0. 4.78426106e-002 0. 3.19695957e-002 0.
      1.27431257e-002 0. 1.27431257e-002 0. 7.82472640e-003 0. 0. 0. 0.
      0. 0. 0. 0. 7.48267353e-001 3.80058121e-003 0. 1.36373797e-002 0.
      4.60541025e-002 0. 1.58730168e-002 0. 2.07914151e-002 0.
      4.31477763e-002 0. 1.58730168e-002 0. 5.36552668e-002 0.
      1.40845068e-002 0. 1.20724346e-002 0. 5.58909029e-003 0.
      7.15403538e-003 7.48938084e-001 3.80058121e-003 0. 8.04828946e-003
      0. 9.38967150e-003 0. 4.29242104e-002 0. 1.27431257e-002 0.
      1.69908330e-002 0. 8.27185344e-003 0. 1.36373797e-002 0.
      4.06885743e-002 0. 9.38967150e-003 0. 2.21327972e-002 0.
      3.89000662e-002 0. 1.05074896e-002 0. 4.02414473e-003 0.
      9.38967150e-003 0. 2.23563606e-004</_>
    <_>
      0. 0. 0. 0. 0. 4.66417900e-004 0. 2.91511184e-003 0.
      4.31436580e-003 0. 5.83022367e-003 0. 8.62873159e-003 0.
      1.02611938e-002 0. 9.79477633e-003 0. 1.10774254e-002 0.
      1.86567158e-002 0. 2.72854473e-002 0. 3.46315317e-002 0.
      6.69309720e-002 0. 9.57322791e-002 7.00909495e-001 2.56529846e-003
      0. 0. 0. 0. 0. 0. 0. 0. 0. 1.51585822e-003 0. 2.68190308e-003 0.
      3.38152982e-003 0. 6.76305965e-003 0. 7.46268639e-003 0.
      1.31763062e-002 0. 1.73740666e-002 0. 2.29710825e-002 0.
      3.74300368e-002 0. 6.94962665e-002 0. 1.09724812e-001
      7.05340505e-001 2.68190308e-003 0. 0. 0. 0. 0. 0. 0. 0. 0.
      3.49813432e-004 0. 6.99626864e-004 0. 1.98227610e-003 0.
      5.01399254e-003 0. 1.13106342e-002 0. 1.63246263e-002 0.
      1.76072754e-002 0. 2.58861948e-002 0. 4.02285457e-002 0.
      6.57649264e-002 0. 9.49160457e-002 7.17933774e-001 1.98227610e-003</_>
    <_>
      0. 1.38274336e-004 0. 1.38274336e-004 0. 6.91371679e-004 0. 0. 0.
      2.48893816e-003 0. 4.97787632e-003 0. 1.07853981e-002 0.
      1.57632735e-002 0. 2.44745575e-002 0. 3.20796445e-002 0.
      4.46626097e-002 0. 3.42920348e-002 0. 2.75165923e-002 0.
      2.97289826e-002 0. 4.50774319e-002 7.25110590e-001 2.07411498e-003
      0. 1.38274336e-004 0. 1.38274336e-004 0. 6.91371679e-004 0. 0. 0.
      2.48893816e-003 0. 4.97787632e-003 0. 1.07853981e-002 0.
      1.57632735e-002 0. 2.44745575e-002 0. 3.20796445e-002 0.
      4.46626097e-002 0. 3.42920348e-002 0. 2.75165923e-002 0.
      2.97289826e-002 0. 4.50774319e-002 7.25110590e-001 2.07411498e-003
      0. 1.38274336e-004 0. 1.38274336e-004 0. 6.91371679e-004 0. 0. 0.
      2.48893816e-003 0. 4.97787632e-003 0. 1.07853981e-002 0.
      1.57632735e-002 0. 2.44745575e-002 0. 3.20796445e-002 0.
      4.46626097e-002 0. 3.42920348e-002 0. 2.75165923e-002 0.
      2.97289826e-002 0. 4.50774319e-002 7.25110590e-001 2.07411498e-003</_>
    <_>
      0. 0. 0. 0. 0. 1.73611115e-004 0. 1.73611115e-004 0. 0. 0.
      3.99305578e-003 0. 1.02430554e-002 0. 1.12847220e-002 0.
      1.40624996e-002 0. 1.59722231e-002 0. 1.78819448e-002 0.
      2.93402784e-002 0. 6.02430552e-002 0. 5.36458343e-002 0.
      9.54861119e-002 6.86631918e-001 8.68055562e-004 0. 0. 0. 0. 0. 0.
      0. 0. 0. 0. 0. 3.29861115e-003 0. 9.20138881e-003 0.
      9.72222257e-003 0. 1.31944446e-002 0. 1.35416668e-002 0.
      1.85763892e-002 0. 2.76041664e-002 0. 6.45833313e-002 0.
      7.36111104e-002 0. 1.02951393e-001 6.62847221e-001 8.68055562e-004
      0. 0. 0. 0. 0. 0. 0. 0. 0. 0. 0. 4.34027798e-003 0.
      9.20138881e-003 0. 1.00694448e-002 0. 1.26736108e-002 0.
      1.26736108e-002 0. 1.64930560e-002 0. 1.92708336e-002 0.
      5.12152761e-002 0. 5.26041649e-002 0. 1.11631945e-001
      6.98958337e-001 8.68055562e-004</_>
    <_>
      0. 4.38084098e-004 0. 4.38084127e-003 0. 4.30782698e-002 0.
      2.75992993e-002 0. 3.53387855e-002 0. 1.22663556e-002 0.
      1.78154204e-002 0. 1.73773356e-002 0. 7.44742993e-003 0.
      3.94275691e-003 0. 5.98714966e-003 0. 2.70151868e-002 0.
      9.78387892e-003 0. 2.42406540e-002 0. 3.32943909e-002
      6.29964948e-001 1.00029208e-001 0. 1.46028033e-004 0.
      8.76168197e-004 0. 5.69509342e-003 0. 2.48247664e-002 0.
      3.21261697e-002 0. 3.38785052e-002 0. 2.73072422e-002 0.
      2.23422889e-002 0. 9.92990658e-003 0. 1.03679905e-002 0.
      5.11098141e-003 0. 2.57009342e-002 0. 1.21203270e-002 0.
      4.04497646e-002 0. 2.21962612e-002 6.27628505e-001 9.92990658e-002
      0. 0. 0. 0. 0. 7.30140193e-004 0. 7.30140193e-004 0.
      4.08878503e-003 0. 5.69509342e-003 0. 1.54789723e-002 0.
      2.93516349e-002 0. 4.32242975e-002 0. 4.17640172e-002 0.
      1.83995329e-002 0. 1.40186911e-002 0. 2.38025710e-002 0.
      4.77511697e-002 0. 2.52628513e-002 6.29234791e-001 1.00467287e-001</_>
    <_>
      0. 1.18832238e-001 0. 1.16502196e-002 0. 9.04605258e-003 0.
      1.11019732e-002 0. 1.28837721e-002 0. 1.91885959e-002 0.
      8.63486808e-003 0. 1.05537279e-002 0. 1.67214908e-002 0.
      1.68585535e-002 0. 2.82346494e-002 0. 1.97368413e-002 0.
      2.22039465e-002 0. 2.93311402e-002 0. 2.71381587e-002
      6.30619526e-001 7.26425461e-003 0. 1.37061405e-004 0.
      1.91885966e-003 0. 1.50767539e-003 0. 8.27850848e-002 0.
      9.86842066e-003 0. 1.08278506e-002 0. 7.81250000e-003 0.
      1.78179815e-002 0. 1.24725876e-002 0. 6.18146919e-002 0.
      2.06962712e-002 0. 3.56359631e-002 0. 2.28892546e-002 0.
      3.76918875e-002 0. 3.15241218e-002 6.36239052e-001 8.36074539e-003
