<?xml version="1.0"?>
<opencv_storage>
<my_svm type_id="opencv-ml-svm">
  <svm_type>C_SVC</svm_type>
  <kernel><type>LINEAR</type></kernel>
  <C>6.2500000000000000e+001</C>
  <term_criteria><epsilon>9.9999997473787516e-006</epsilon>
    <iterations>1000000</iterations></term_criteria>
  <var_all>96</var_all>
  <var_count>96</var_count>
  <class_count>2</class_count>
  <class_labels type_id="opencv-matrix">
    <rows>1</rows>
    <cols>2</cols>
    <dt>i</dt>
    <data>
      -1 1</data></class_labels>
  <sv_total>1</sv_total>
  <support_vectors>
    <_>
      2.90727305e+000 -6.48627949e+000 2.56584001e+000 4.52570963e+000
      2.49842286e+000 -7.39617395e+000 2.05402637e+000 3.90337610e+000
      -1.91410494e+000 -5.76199341e+000 1.55195296e-001 6.56382513e+000
      -1.77522504e+000 -4.88702297e+000 3.35127950e-001 -7.61475563e+000
      8.87200236e-001 -1.21616268e+001 2.54303408e+000 -2.87362814e+000
      2.69747949e+000 -4.92639828e+000 4.61278915e+000 -1.08878031e+001
      1.83125901e+000 4.04995322e-001 2.40395045e+000 5.58805132e+000
      1.75033069e+000 4.26493931e+000 2.46861672e+000 1.17235537e+001
      1.07474148e-001 1.49374592e+000 2.21354914e+000 -7.23408759e-001
      -1.18705976e+000 -4.78450108e+000 4.15608311e+000 5.05055475e+000
      9.22795892e-001 -3.99575996e+000 1.58552885e+000 -6.70089769e+000
      7.39838898e-001 8.25399113e+000 1.49378574e+000 -4.44895411e+000
      2.01624572e-001 -1.75244331e+000 -2.54473186e+000 -1.54229641e+001
      -7.74310768e-001 9.28619385e+000 2.83430964e-001 2.23813057e-001
      2.59897423e+000 -1.15084639e+001 2.24142742e+000 -3.77490187e+000
      1.50642776e+000 5.19844437e+000 1.59734535e+000 8.46340084e+000
      -1.54697359e+000 1.02972889e+001 -1.05426109e+000 2.64540434e+000
      1.98016744e-002 5.58712101e+000 -1.01142645e+000 4.26791954e+000
      6.02331340e-001 -5.19182110e+000 9.12390113e-001 6.19784021e+000
      1.69219291e+000 -1.64722288e+000 -5.27514887e+000 1.88660216e+000
      3.48971772e+000 -1.72260571e+000 6.56175137e-001 -5.57626295e+000
      -3.14562845e+000 4.86506224e+000 -2.23543668e+000 2.83497190e+000
      -1.38866711e+000 2.56701231e+000 -5.88786900e-002 -2.74498820e+000
      8.32529366e-001 -4.83777142e+000 -1.78235805e+000 -1.01348982e+001</_></support_vectors>
  <decision_functions>
    <_>
      <sv_count>1</sv_count>
      <rho>8.9723165118045692e-002</rho>
      <alpha>
        1.</alpha>
      <index>
        0</index></_></decision_functions></my_svm>
</opencv_storage>
