<?xml version="1.0"?>
<opencv_storage>
<my_svm type_id="opencv-ml-svm">
  <svm_type>C_SVC</svm_type>
  <kernel><type>LINEAR</type></kernel>
  <C>3.1250000000000000e+002</C>
  <term_criteria><epsilon>9.9999997473787516e-006</epsilon>
    <iterations>1000000</iterations></term_criteria>
  <var_all>528</var_all>
  <var_count>528</var_count>
  <class_count>2</class_count>
  <class_labels type_id="opencv-matrix">
    <rows>1</rows>
    <cols>2</cols>
    <dt>i</dt>
    <data>
      -1 1</data></class_labels>
  <sv_total>1</sv_total>
  <support_vectors>
    <_>
      -7.70625210e+000 -1.24785633e+001 -7.07622814e+000 0. 0. 0. 0. 0.
      0. 0. 0. -2.04704499e+000 -1.68299830e+000 2.38477802e+000
      4.45848608e+000 0. 0. 0. 0. 0. 0. 0. -7.74017954e+000
      6.56234384e-001 1.26294303e+000 0. 0. 0. 0. 0. 0. 0. 0.
      -6.85849190e+000 -5.63834524e+000 1.89174614e+001 0.
      9.94616413e+000 0. 0. 0. 0. 0. 0. -5.56227827e+000
      -7.09966087e+000 -1.54877388e+000 -2.38168693e+000 0. 0. 0. 0. 0.
      0. 0. -9.41907310e+000 -1.22550087e+001 -8.75670338e+000 0. 0. 0.
      0. 0. 0. 0. 0. -1.40061970e+001 -1.33375788e+001 -1.13724623e+001
      0. 0. 0. 0. 0. 0. 0. 0. -4.57384253e+000 -1.38615761e+001
      -1.73943558e+001 0. 0. 0. 0. 0. 0. 0. 0. -5.60540915e+000
      -1.53329048e+001 -6.66271544e+000 0. 0. 0. 0. 0. 0. 0. 0.
      -1.40874920e+001 -8.17955303e+000 -9.12806511e+000
      -5.91986084e+000 0. 0. 0. 0. 0. 0. 0. -7.99323991e-002
      -1.07307854e+001 -9.89856243e+000 0. 0. 0. 0. 0. 0. 0. 0.
      -6.80356789e+000 -8.10663128e+000 -2.66322970e+000 9.87123013e+000
      0. 0. 0. 0. 0. 0. 0. -1.14166927e+001 -6.97737169e+000
      -4.82006550e+000 5.26426744e+000 0. 0. 0. 0. 0. 0. 0.
      -3.54416847e+000 -3.69198751e+000 -3.48898387e+000
      -4.25584221e+000 0. 0. 0. 0. 0. 0. 0. -4.38587236e+000
      -6.43696260e+000 -6.91917324e+000 -3.49690843e+000 1.56250978e+000
      0. 0. 0. 0. 0. 0. 8.01058102e+000 -3.32153058e+000
      -3.15735960e+000 -4.12958574e+000 -1.63152008e+001 0. 0. 0. 0. 0.
      0. 1.22565889e+001 -6.81328964e+000 2.14515376e+000
      -4.20889664e+000 0. 0. 0. 0. 0. 0. 0. -5.29431391e+000
      -1.09672117e+001 -2.28183961e+000 -2.47484612e+000 0. 0. 0. 0. 0.
      0. 0. 2.85631642e-002 -1.57772958e+000 -9.70916939e+000 0. 0. 0.
      0. 0. 0. 0. 0. -2.28395176e+000 6.01850462e+000 -3.03709960e+000
      0. 0. 0. 0. 0. 0. 0. 0. 1.72987914e+000 -1.03416288e+000
      -4.16443300e+000 0. 0. 0. 0. 0. 0. 0. 0. 2.94270849e+000
      -2.49250269e+000 -1.08446064e+001 0. 0. 0. 0. 0. 0. 0. 0.
      -3.06931019e-001 5.32090855e+000 1.97471106e+000 5.84332561e+000
      0. 0. 0. 0. 0. 0. 0. 3.96264017e-001 2.02904892e+000
      9.16062641e+000 0. 0. 0. 0. 0. 0. 0. 0. -5.07274342e+000
      3.05154347e+000 -1.94379508e+000 0. 0. 0. 0. 0. 0. 0. 0.
      2.04016352e+000 -7.65467930e+000 -5.51446819e+000 0. 0. 0. 0. 0.
      0. 0. 0. -9.95452166e-001 7.28748274e+000 -7.76738822e-001 0.
      5.46116829e+000 0. 0. 0. 0. 0. 0. 2.50332308e+000 3.50615430e+000
      -1.44619358e+000 -1.59512126e+000 6.91081238e+000 0. 0. 0. 0. 0.
      0. 1.01553595e+000 -1.81078172e+000 -4.16006136e+000 0. 0. 0. 0.
      0. 0. 0. 0. -1.99278072e-001 -5.57694793e-001 -2.63739419e+000
      -5.78804612e-001 0. 0. 0. 0. 0. 0. 0. 3.36047173e+000
      -4.86849189e-001 3.42884988e-001 -1.31964147e-001 0. 0. 0. 0. 0.
      0. 0. 7.87930632e+000 2.30960011e+000 -6.58692479e-001
      2.84259653e+000 5.35067272e+000 3.51362326e-003 0. 0. 0. 0. 0.
      -3.05744767e+000 6.52211189e+000 7.36517191e+000 4.91696405e+000
      1.12114918e+000 0. 0. 0. 0. 0. 0. 8.17144513e-001 5.86995840e+000
      5.52532911e+000 -1.60747681e+001 3.30446267e+000 0. 0. 0. 0. 0. 0.
      4.65368843e+000 -3.12397027e+000 9.60154152e+000 9.74116707e+000
      0. 0. 0. 0. 0. 0. 0. 3.59246755e+000 2.97653508e+000
      -1.58511961e+000 0. 0. 0. 0. 0. 0. 0. 0. -2.50533557e+000
      -5.75547647e+000 2.22758794e+000 -5.21220541e+000 0. 0. 0. 0. 0.
      0. 0. 6.23966312e+000 -2.55048823e+000 5.42196751e+000
      2.73030853e+000 0. 0. 0. 0. 0. 0. 0. -1.55566722e-001
      -7.11509037e+000 7.69317627e+000 0. 0. 6.23908639e-001 0. 0. 0. 0.
      0. 2.21787429e+000 -5.80334616e+000 -9.03322029e+000
      -2.93702602e+000 0. 0. 0. 0. 0. 0. 0. -6.15695238e-001
      -1.08799658e+001 1.09525862e+001 -4.36071730e+000 0.
      2.96814060e+000 0. 0. 0. 0. 0. -4.51750803e+000 -5.20018816e+000
      9.78689289e+000 5.47527790e+000 0. 0. 0. 0. 0. 0. 0.
      1.50430715e+000 -5.21380961e-001 -9.17843401e-001 0. 0. 0. 0. 0.
      0. 0. 0. -1.47414088e-001 3.05956316e+000 -4.79823494e+000
      -1.35090923e+001 0. 0. 0. 0. 0. 0. 0. -7.11812496e-001
      1.65397465e+000 4.29953814e+000 7.13196754e+000 0. 0. 0. 0. 0. 0.
      0. -6.81299686e-001 -4.25076336e-001 -5.94020844e-001
      -7.70927250e-001 0. 0. 0. 0. 0. 0. 0. -2.77218246e+000
      2.07738066e+000 1.37021434e+000 -7.77182221e-001 0. 0. 0. 0. 0. 0.
      0. -2.24123383e+001 -4.53411484e+000 -9.28217590e-001
      -4.34095860e+000 5.88319635e+000 0. 0. 0. 0. 0. 0.</_></support_vectors>
  <decision_functions>
    <_>
      <sv_count>1</sv_count>
      <rho>-7.0498073146412761e+000</rho>
      <alpha>
        1.</alpha>
      <index>
        0</index></_></decision_functions></my_svm>
</opencv_storage>
