<?xml version="1.0"?>
<opencv_storage>
<my_svm type_id="opencv-ml-svm">
  <svm_type>C_SVC</svm_type>
  <kernel><type>LINEAR</type></kernel>
  <C>3.1250000000000000e+002</C>
  <term_criteria><epsilon>9.9999997473787516e-006</epsilon>
    <iterations>1000000</iterations></term_criteria>
  <var_all>792</var_all>
  <var_count>792</var_count>
  <class_count>2</class_count>
  <class_labels type_id="opencv-matrix">
    <rows>1</rows>
    <cols>2</cols>
    <dt>i</dt>
    <data>
      -1 1</data></class_labels>
  <sv_total>1</sv_total>
  <support_vectors>
    <_>
      2.07238808e+001 7.01809740e+000 2.18920364e+001 2.91060925e+000
      -1.57981050e+000 0. 0. 0. 0. 0. 0. -7.77467203e+000
      -9.04507875e-001 6.28299809e+000 1.33486128e+001 0. 0. 0. 0. 0. 0.
      0. 1.16249104e+001 -2.91680670e+000 -5.68614602e-001
      3.93764108e-001 -7.75379062e-001 3.54634905e+000 0. 0. 0. 0. 0.
      2.32611871e+000 1.38645611e+001 5.72756958e+000 0. 0. 0. 0. 0. 0.
      0. 0. -3.22770271e+001 -4.32090874e+001 -9.74779320e+000 0. 0. 0.
      0. 0. 0. 0. 0. -1.23124533e+001 -1.76881542e+001 -1.48964357e+001
      9.92616653e+000 0. 0. 0. 0. 0. 0. 0. -6.69699192e+000
      6.34624672e+000 1.72342739e+001 0. 0. 0. 0. 0. 0. 0. 0.
      3.14235020e+000 -1.41870480e+001 -6.77519131e+000 0. 0. 0. 0. 0.
      0. 0. 0. 5.68074684e+001 2.87097836e+001 2.16379509e+001 0.
      5.74955368e+000 0. 0. 0. 0. 0. 0. 1.62665920e+001 4.94284725e+000
      0. 0. 0. 0. 0. 0. 0. 0. 0. -3.00985718e+001 -8.24348831e+000
      1.53956842e+001 0. 0. 0. 0. 0. 0. 0. 0. -9.15114880e+000
      2.42866874e-002 -5.73418522e+000 -1.22674155e+000 0.
      -3.08206916e+000 0. 0. 0. 0. 0. 4.16608391e+001 5.76848507e+000
      -6.92556143e+000 0. 0. 0. 0. 0. 0. 0. 0. -3.65690765e+001
      -1.92462234e+001 -9.24310398e+000 0. 0. 0. 0. 0. 0. 0. 0.
      -1.23850660e+001 -2.44500141e+001 -9.49286461e+000
      -2.37205887e+000 0. 0. 0. 0. 0. 0. 0. 7.54360485e+000
      3.90325570e+000 0. 0. 0. 0. 0. 0. 0. 0. 0. -8.25790882e+000
      -2.43533630e+001 -1.51208639e+001 0. 0. 0. 0. 0. 0. 0. 0.
      2.58807678e+001 1.10994377e+001 -1.35183725e+001 0. 0.
      2.00719357e+000 0. 0. 0. 0. 0. 8.92524338e+000 0. 9.93581295e+000
      0. 0. 0. 0. 0. 0. 0. 0. 1.26265574e+001 -3.71077609e+000
      3.10163069e+000 0. 0. 0. 0. 0. 0. 0. 0. 2.37897301e+000
      7.39743328e+000 3.94974053e-001 2.83011770e+000 4.97293651e-001 0.
      0. 0. 0. 0. 0. 6.98630905e+000 7.36877871e+000 4.25886869e+000 0.
      0. 0. 0. 0. 0. 0. 0. -1.64269905e+001 2.14941120e+000 0. 0. 0. 0.
      0. 0. 0. 0. 0. -2.75759296e+001 -8.94269753e+000 -1.16173096e+001
      0. 0. 0. 0. 0. 0. 0. 0. 7.42349815e+000 5.39635599e-001 0. 0. 0.
      0. 0. 0. 0. 0. 0. 5.75744057e+000 6.56118917e+000 0. 0. 0. 0. 0.
      0. 0. 0. 0. 2.91083646e+000 -8.24931049e+000 1.21738589e+000 0. 0.
      0. 0. 0. 0. 0. 0. 6.87874734e-001 -4.45521355e+000 0. 0. 0. 0. 0.
      0. 0. 0. 0. -6.47710371e+000 8.74291706e+000 -2.78048706e+000 0.
      0. 0. 0. 0. 0. 0. 0. 1.73161831e+001 -3.84007502e+000
      -3.07448554e+000 0. 7.75673032e-001 0. 0. 0. 0. 0. 0.
      2.69164562e+000 4.23704338e+000 1.64357910e+001 0. 0. 0. 0. 0. 0.
      0. 0. 1.52600040e+001 -1.00228682e+001 1.07304182e+001 0. 0. 0. 0.
      0. 0. 0. 0. 3.33264947e+000 -5.44627428e+000 -5.13084412e+000 0.
      0. 0. 0. 0. 0. 0. 0. 6.41731215e+000 3.70279956e+000 0. 0. 0. 0.
      0. 0. 0. 0. 0. -1.23700905e+000 3.98449922e+000 -4.39964581e+000
      0. 0. 0. 0. 0. 0. 0. 0. -4.78707552e+000 4.78104830e+000 0. 0. 0.
      0. 0. 0. 0. 0. 0. 1.05013714e+001 7.76218534e-001 0. 0. 0. 0. 0.
      0. 0. 0. 0. -2.31268120e+001 -3.25463462e+000 -1.00541306e+001 0.
      0. 0. 0. 0. 0. 0. 0. 3.65628910e+000 -5.86242342e+000
      -1.52139938e+000 -1.64183640e+000 0. 0. 0. 0. 0. 0. 0.
      8.23088646e+000 7.08722293e-001 0. 0. 0. 0. 0. 0. 0. 0. 0.
      -2.13292694e+001 -1.51384478e+001 -5.59086418e+000 0. 0. 0. 0. 0.
      0. 0. 0. -3.50182700e+000 -6.03855944e+000 -9.60611916e+000
      -5.36805296e+000 0. 0. 0. 0. 0. 0. 0. 4.44691801e+000 0. 0. 0. 0.
      0. 0. 0. 0. 0. 0. 5.16688108e+000 3.44016337e+000 8.93092251e+000
      0. 0. 0. 0. 0. 0. 0. 0. 5.12216997e+000 1.39379549e+001
      8.78659439e+000 0. 0. 0. 0. 0. 0. 0. 0. 9.32220459e+000
      1.23060589e+001 8.87171650e+000 1.09120870e+000 0. 0. 0. 0. 0. 0.
      0. -1.40183687e+001 1.34244752e+000 5.93885854e-002 0. 0. 0. 0. 0.
      0. 0. 0. 1.40907440e+001 -3.71237606e-001 -4.61433798e-001
      3.49026012e+000 3.00438595e+000 0. 0. 0. 0. 0. 0. -3.47888527e+001
      -4.19028711e+000 -2.96813178e+000 -6.78839087e-002 0. 0. 0. 0. 0.
      0. 0. 2.27067661e+000 -4.72435141e+000 -8.27007711e-001 0.
      -1.27851715e+001 0. 0. 0. 0. 0. 0. -2.87186575e+000
      -1.14039660e+001 -3.81230783e+000 0. 0. 0. 0. 0. 0. 0. 0.
      1.12395182e+001 1.63165665e+001 2.23895645e+001 0. 0. 0. 0. 0. 0.
      0. 0. -6.65997171e+000 -3.60146850e-001 5.43729496e+000 0. 0. 0.
      0. 0. 0. 0. 0. 1.73177605e+001 9.49836159e+000 1.17733836e+000 0.
      0. 0. 0. 0. 0. 0. 0. -1.11101980e+001 -1.91219902e+001
      9.05277157e+000 0. 0. 0. 0. 0. 0. 0. 0. -4.35181189e+000
      2.50841546e+000 7.59658575e+000 0. 0. 0. 0. 0. 0. 0. 0.
      9.15928745e+000 -1.46153088e+001 -3.16931248e+000 1.34034281e+001
      1.84990811e+000 0. 0. 0. 0. 0. 0. -1.77920401e+000
      -1.21855774e+001 2.49851894e+000 8.71745586e+000 0. 0. 0. 0. 0. 0.
      0. -1.20391893e+001 -4.41245222e+000 0. 0. 0. 0. 0. 0. 0. 0. 0.
      -4.38958311e+000 1.41640739e+001 -2.62612724e+000 0. 0. 0. 0. 0.
      0. 0. 0. 3.24501491e+000 -2.37335548e+001 5.02731419e+000
      9.95486069e+000 0. 0. 0. 0. 0. 0. 0. -3.74343204e+000
      -1.98241442e-001 0. 0. 0. 0. 0. 0. 0. 0. 0. 0. 0. 0. 0. 0. 0. 0.
      0. 0. 0. 0. -1.05474651e+000 0. 0. 0. 0. 0. 0. 0. 0. 0. 0.
      -3.48676133e+000 5.56821156e+000 0. 0. 0. 0. 0. 0. 0. 0. 0.
      -7.56388903e+000 -4.96103811e+000 -8.18479443e+000
      -6.38762426e+000 -3.44979644e+000 0. 0. 0. 0. 0. 0.
      -1.75632801e+001 1.04461348e+000 0. 0. 0. 0. 0. 0. 0. 0. 0.
      -2.68946190e+001 -1.64548168e+001 0. 0. 0. 0. 0. 0. 0. 0. 0.
      -1.79076519e+001 -4.27063894e+000 -1.15357962e+001 0. 0. 0. 0. 0.
      0. 0. 0. 2.07302165e+000 3.02388120e+000 0. 0. 0. 0. 0. 0. 0. 0.
      0. -5.64252567e+000 -1.66222725e+001 0. 0. 0. 0. 0. 0. 0. 0. 0. 0.
      0. 0. 0. 0. 0. 0. 0. 0. 0. 0.</_></support_vectors>
  <decision_functions>
    <_>
      <sv_count>1</sv_count>
      <rho>-1.3958176615643545e+000</rho>
      <alpha>
        1.</alpha>
      <index>
        0</index></_></decision_functions></my_svm>
</opencv_storage>
