<?xml version="1.0"?>
<opencv_storage>
<my_svm type_id="opencv-ml-svm">
  <svm_type>C_SVC</svm_type>
  <kernel><type>RBF</type>
    <gamma>5.0625000000000009e-001</gamma></kernel>
  <C>3.1250000000000000e+002</C>
  <term_criteria><epsilon>9.9999997473787516e-006</epsilon>
    <iterations>1000000</iterations></term_criteria>
  <var_all>528</var_all>
  <var_count>528</var_count>
  <class_count>2</class_count>
  <class_labels type_id="opencv-matrix">
    <rows>1</rows>
    <cols>2</cols>
    <dt>i</dt>
    <data>
      -1 1</data></class_labels>
  <sv_total>844</sv_total>
  <support_vectors>
    <_>
      6.56063631e-002 0. 0. 0. 0. 0. 0. 0. 0. 0. 0. 1.63021863e-001 0.
      0. 0. 0. 0. 0. 0. 0. 0. 0. 6.95825070e-002 1.41153082e-001 0. 0.
      0. 0. 0. 0. 0. 0. 0. 8.15109313e-002 0. 0. 0. 0. 0. 0. 0. 0. 0. 0.
      5.16898595e-002 0. 0. 0. 0. 0. 0. 0. 0. 0. 0. 4.57256474e-002 0.
      0. 0. 0. 0. 0. 0. 0. 0. 0. 2.78330017e-002 0. 0. 0. 0. 0. 0. 0. 0.
      0. 0. 4.57256474e-002 0. 0. 0. 0. 0. 0. 0. 0. 0. 0.
      3.77733596e-002 0. 0. 0. 0. 0. 0. 0. 0. 0. 0. 3.77733596e-002 0.
      0. 0. 0. 0. 0. 0. 0. 0. 0. 3.77733596e-002 0. 0. 0. 0. 0. 0. 0. 0.
      0. 0. 3.57852876e-002 0. 0. 0. 0. 0. 0. 0. 0. 0. 0.
      5.76540753e-002 0. 0. 0. 0. 0. 0. 0. 0. 0. 0. 3.18091437e-002 0.
      0. 0. 0. 0. 0. 0. 0. 0. 0. 6.95825070e-002 0. 0. 0. 0. 0. 0. 0. 0.
      0. 0. 0. 0. 0. 0. 0. 0. 0. 0. 0. 0. 0. 6.56063631e-002 0. 0. 0. 0.
      0. 0. 0. 0. 0. 0. 1.63021863e-001 0. 0. 0. 0. 0. 0. 0. 0. 0. 0.
      6.95825070e-002 1.41153082e-001 0. 0. 0. 0. 0. 0. 0. 0. 0.
      8.15109313e-002 0. 0. 0. 0. 0. 0. 0. 0. 0. 0. 5.16898595e-002 0.
      0. 0. 0. 0. 0. 0. 0. 0. 0. 4.57256474e-002 0. 0. 0. 0. 0. 0. 0. 0.
      0. 0. 2.78330017e-002 0. 0. 0. 0. 0. 0. 0. 0. 0. 0.
      4.57256474e-002 0. 0. 0. 0. 0. 0. 0. 0. 0. 0. 3.77733596e-002 0.
      0. 0. 0. 0. 0. 0. 0. 0. 0. 3.77733596e-002 0. 0. 0. 0. 0. 0. 0. 0.
      0. 0. 3.77733596e-002 0. 0. 0. 0. 0. 0. 0. 0. 0. 0.
      3.57852876e-002 0. 0. 0. 0. 0. 0. 0. 0. 0. 0. 5.76540753e-002 0.
      0. 0. 0. 0. 0. 0. 0. 0. 0. 3.18091437e-002 0. 0. 0. 0. 0. 0. 0. 0.
      0. 0. 6.95825070e-002 0. 0. 0. 0. 0. 0. 0. 0. 0. 0. 0. 0. 0. 0. 0.
      0. 0. 0. 0. 0. 0. 6.56063631e-002 0. 0. 0. 0. 0. 0. 0. 0. 0. 0.
      1.63021863e-001 0. 0. 0. 0. 0. 0. 0. 0. 0. 0. 6.95825070e-002
      1.41153082e-001 0. 0. 0. 0. 0. 0. 0. 0. 0. 8.15109313e-002 0. 0.
      0. 0. 0. 0. 0. 0. 0. 0. 5.16898595e-002 0. 0. 0. 0. 0. 0. 0. 0. 0.
      0. 4.57256474e-002 0. 0. 0. 0. 0. 0. 0. 0. 0. 0. 2.78330017e-002
      0. 0. 0. 0. 0. 0. 0. 0. 0. 0. 4.57256474e-002 0. 0. 0. 0. 0. 0. 0.
      0. 0. 0. 3.77733596e-002 0. 0. 0. 0. 0. 0. 0. 0. 0. 0.
      3.77733596e-002 0. 0. 0. 0. 0. 0. 0. 0. 0. 0. 3.77733596e-002 0.
      0. 0. 0. 0. 0. 0. 0. 0. 0. 3.57852876e-002 0. 0. 0. 0. 0. 0. 0. 0.
      0. 0. 5.76540753e-002 0. 0. 0. 0. 0. 0. 0. 0. 0. 0.
      3.18091437e-002 0. 0. 0. 0. 0. 0. 0. 0. 0. 0. 6.95825070e-002 0.
      0. 0. 0. 0. 0. 0. 0. 0. 0. 0. 0. 0. 0. 0. 0. 0. 0. 0. 0. 0.</_>
    <_>
      0. 0. 0. 0. 0. 0. 0. 0. 0. 0. 0. 0. 0. 0. 0. 0. 0. 0. 0. 0. 0. 0.
      0. 0. 0. 0. 0. 0. 0. 0. 0. 0. 0. 0. 0. 0. 0. 0. 0. 0. 0. 0. 0. 0.
      0. 0. 0. 0. 0. 0. 0. 0. 0. 0. 0. 4.08639805e-003 0. 0. 0. 0. 0. 0.
      0. 0. 0. 0. 4.37828377e-002 0. 0. 0. 0. 0. 0. 0. 0. 0. 0.
      3.56100425e-002 0. 0. 0. 0. 0. 0. 0. 0. 0. 0. 8.17279611e-003 0.
      0. 0. 0. 0. 0. 0. 0. 0. 0. 4.61179204e-002 0. 0. 0. 0. 0. 0. 0. 0.
      0. 0. 5.42907193e-002 5.66258021e-002 0. 0. 0. 0. 0. 0. 0. 0. 0.
      8.17279592e-002 0. 0. 0. 0. 0. 0. 0. 0. 0. 0. 9.51547027e-002 0.
      0. 0. 0. 0. 0. 0. 0. 0. 0. 1.73963800e-001 0. 0. 0. 0. 0. 0. 0. 0.
      0. 0. 3.59603047e-001 4.08639796e-002 0. 0. 0. 0. 0. 0. 0. 0. 0.
      0. 0. 0. 0. 0. 0. 0. 0. 0. 0. 0. 0. 0. 0. 0. 0. 0. 0. 0. 0. 0. 0.
      0. 0. 0. 0. 0. 0. 0. 0. 0. 0. 0. 0. 0. 0. 0. 0. 0. 0. 0. 0. 0. 0.
      0. 0. 0. 0. 0. 0. 0. 0. 0. 0. 0. 0. 0. 0. 0. 0. 0. 0. 0. 0. 0. 0.
      0. 0. 0. 0. 0. 0. 0. 0. 0. 0. 0. 0. 0. 0. 0. 0. 0. 0. 0. 0. 0. 0.
      5.72737714e-004 0. 0. 0. 0. 0. 0. 0. 0. 0. 0. 4.75372262e-002 0.
      0. 0. 0. 0. 0. 0. 0. 0. 0. 3.60824727e-002 0. 0. 0. 0. 0. 0. 0. 0.
      0. 0. 9.33562443e-002 0. 0. 0. 0. 0. 0. 0. 0. 0. 0.
      9.45017189e-002 0. 0. 0. 0. 0. 0. 0. 0. 0. 0. 9.90836173e-002
      3.72279510e-002 0. 0. 0. 0. 0. 0. 0. 0. 0. 2.72050411e-001
      4.18098494e-002 0. 0. 0. 0. 0. 0. 0. 0. 0. 2.37113401e-001
      4.00916375e-002 0. 0. 0. 0. 0. 0. 0. 0. 0. 5.72737714e-004 0. 0.
      0. 0. 0. 0. 0. 0. 0. 0. 0. 0. 0. 0. 0. 0. 0. 0. 0. 0. 0. 0. 0. 0.
      0. 0. 0. 0. 0. 0. 0. 0. 0. 0. 0. 0. 0. 0. 0. 0. 0. 0. 0. 0. 0. 0.
      0. 0. 0. 0. 0. 0. 0. 0. 0. 0. 0. 0. 0. 0. 0. 0. 0. 0. 0. 0. 0. 0.
      0. 0. 0. 0. 0. 0. 0. 0. 0. 0. 0. 0. 0. 0. 0. 0. 0. 0. 0.
      6.62690552e-004 0. 0. 0. 0. 0. 0. 0. 0. 0. 0. 1.98807158e-002 0.
      0. 0. 0. 0. 0. 0. 0. 0. 0. 6.89198151e-002 0. 0. 0. 0. 0. 0. 0. 0.
      0. 0. 1.72299538e-002 0. 0. 0. 0. 0. 0. 0. 0. 0. 0.
      1.39165014e-001 5.56660034e-002 0. 0. 0. 0. 0. 0. 0. 0. 0.
      1.99469849e-001 0. 0. 0. 0. 0. 0. 0. 0. 0. 0. 1.67660698e-001 0.
      0. 0. 0. 0. 0. 0. 0. 0. 0. 2.84294248e-001 4.63883355e-002 0. 0.
      0. 0. 0. 0. 0. 0. 0. 6.62690552e-004 0. 0. 0. 0. 0. 0. 0. 0. 0. 0.</_>
    <_>
      0. 0. 0. 0. 0. 0. 0. 0. 0. 0. 0. 0. 0. 0. 0. 0. 0. 0. 0. 0. 0. 0.
      0. 0. 0. 0. 0. 0. 0. 0. 0. 0. 0. 0. 0. 0. 0. 0. 0. 0. 0. 0. 0. 0.
      2.69996631e-003 0. 0. 0. 0. 0. 0. 0. 0. 0. 0. 1.04623688e-002 0.
      0. 0. 0. 0. 0. 0. 0. 0. 0. 2.69996631e-003 0. 0. 0. 0. 0. 0. 0. 0.
      0. 0. 9.44988150e-003 0. 0. 0. 0. 0. 0. 0. 0. 0. 0.
      1.75497811e-002 0. 0. 0. 0. 0. 0. 0. 0. 0. 0. 4.38744500e-002 0.
      0. 0. 0. 0. 0. 0. 0. 0. 0. 7.86365196e-002 2.49746870e-002 0. 0.
      0. 0. 0. 0. 0. 0. 0. 7.55990520e-002 0. 0. 0. 0. 0. 0. 0. 0. 0. 0.
      9.55113098e-002 0. 0. 0. 0. 0. 0. 0. 0. 0. 0. 1.20823488e-001 0.
      0. 0. 0. 0. 0. 0. 0. 0. 0. 1.56935543e-001 5.16368560e-002
      8.09989870e-002 0. 0. 0. 0. 0. 0. 0. 0. 2.46371925e-002 0.
      2.03509957e-001 0. 0. 0. 0. 0. 0. 0. 0. 0. 0. 0. 0. 0. 0. 0. 0. 0.
      0. 0. 0. 0. 0. 0. 0. 0. 0. 0. 0. 0. 0. 0. 0. 0. 0. 0. 0. 0. 0. 0.
      0. 0. 9.84251965e-004 0. 0. 0. 0. 0. 0. 0. 0. 0. 0.
      2.29658792e-003 0. 0. 0. 0. 0. 0. 0. 0. 0. 0. 8.85826815e-003 0.
      0. 0. 0. 0. 0. 0. 0. 0. 0. 2.95275589e-003 0. 0. 0. 0. 0. 0. 0. 0.
      0. 0. 6.56167977e-003 0. 0. 0. 0. 0. 0. 0. 0. 0. 0.
      1.47637799e-002 0. 0. 0. 0. 0. 0. 0. 0. 0. 0. 4.72440943e-002 0.
      0. 0. 0. 0. 0. 0. 0. 0. 0. 7.15223104e-002 2.26377957e-002 0. 0.
      0. 0. 0. 0. 0. 0. 0. 7.80839920e-002 0. 0. 0. 0. 0. 0. 0. 0. 0. 0.
      9.44881886e-002 0. 0. 0. 0. 0. 0. 0. 0. 0. 0. 1.35826766e-001 0.
      0. 0. 0. 0. 0. 0. 0. 0. 0. 1.77165359e-001 4.75721769e-002
      8.16929117e-002 0. 0. 0. 0. 0. 0. 0. 0. 2.85433065e-002
      9.18635204e-002 8.69422555e-002 0. 0. 0. 0. 0. 0. 0. 0. 0. 0. 0.
      0. 0. 0. 0. 0. 0. 0. 0. 0. 0. 0. 0. 0. 0. 0. 0. 0. 0. 0. 0. 0. 0.
      0. 0. 0. 0. 0. 0. 0. 0. 0. 0. 0. 0. 0. 0. 0. 0. 0. 0. 0. 0. 0. 0.
      0. 0. 0. 0. 0. 0. 0. 0. 0. 0. 0. 0. 0. 0. 0. 0. 0. 0. 0. 0. 0. 0.
      0. 0. 0. 0. 0. 0. 0. 0. 0. 0. 0. 0. 0. 0. 0. 0. 0. 0. 0. 0. 0. 0.
      0. 0. 0. 0. 0. 0. 0. 0. 3.94866755e-003 0. 0. 0. 0. 0. 0. 0. 0. 0.
      0. 2.96150055e-003 0. 0. 0. 0. 0. 0. 0. 0. 0. 0. 1.38203353e-002
      0. 0. 0. 0. 0. 0. 0. 0. 0. 0. 5.33070080e-002 0. 0. 0. 0. 0. 0. 0.
      0. 0. 0. 1.38203353e-001 0. 0. 0. 0. 0. 0. 0. 0. 0. 0.
      4.23494577e-001 1.35241851e-001 2.28035539e-001 0. 0. 0. 0. 0. 0.
      0. 0. 9.87166888e-004 0. 0. 0. 0. 0. 0. 0. 0. 0. 0.</_>
    <_>
      0. 0. 0. 0. 0. 0. 0. 0. 0. 0. 0. 0. 0. 0. 0. 0. 0. 0. 0. 0. 0. 0.
      0. 0. 0. 0. 0. 0. 0. 0. 0. 0. 0. 0. 0. 0. 0. 0. 0. 0. 0. 0. 0. 0.
      0. 0. 0. 0. 0. 0. 0. 0. 0. 0. 0. 0. 0. 0. 0. 0. 0. 0. 0. 0. 0. 0.
      0. 0. 0. 0. 0. 0. 0. 0. 0. 0. 0. 0. 0. 0. 0. 0. 0. 0. 0. 0. 0. 0.
      0. 0. 0. 0. 0. 0. 0. 0. 0. 0. 0. 0. 0. 0. 0. 0. 0. 0. 0. 0. 0. 0.
      0. 0. 0. 0. 0. 0. 0. 0. 0. 0. 0. 0. 0. 0. 0. 0. 0. 0. 0. 0. 0. 0.
      0. 0. 0. 0. 0. 0. 0. 0. 0. 0. 0. 0. 0. 0. 0. 0. 0. 0. 0. 0. 0. 0.
      0. 0. 0. 0. 0. 0. 0. 0. 0. 0. 0. 0. 0. 0. 0. 0. 0. 0. 0. 0. 0. 0.
      0. 0. 0. 0. 0. 0. 0. 0. 0. 0. 0. 0. 0. 0. 0. 0. 0. 0. 0. 0. 0. 0.
      0. 0. 0. 0. 0. 0. 0. 0. 0. 0. 0. 0. 0. 0. 0. 0. 0. 0. 0. 0. 0. 0.
      0. 0. 0. 0. 0. 0. 0. 0. 0. 0. 0. 0. 0. 0. 0. 0. 0. 0. 0. 0. 0. 0.
      0. 0. 0. 0. 0. 0. 0. 0. 0. 0. 0. 0. 0. 0. 0. 0. 0. 0. 0. 0. 0. 0.
      0. 0. 0. 0. 0. 0. 0. 0. 0. 0. 0. 0. 0. 0. 0. 0. 0. 0. 0. 0. 0. 0.
      0. 0. 0. 0. 0. 0. 0. 0. 0. 0. 0. 0. 0. 0. 0. 0. 0. 0. 0. 0. 0. 0.
      0. 0. 0. 0. 0. 0. 0. 0. 0. 0. 0. 0. 0. 0. 0. 0. 0. 0. 0. 0. 0. 0.
      0. 0. 0. 0. 0. 0. 0. 0. 0. 0. 0. 0. 0. 0. 0. 0. 0. 0. 0. 0. 0. 0.
      0. 0. 0. 0. 0. 0. 0. 0. 0. 0. 0. 0. 0. 0. 0. 0. 0. 0. 0. 0. 0. 0.
      0. 0. 0. 0. 0. 0. 0. 0. 0. 0. 0. 0. 0. 0. 0. 0. 0. 0. 0. 0. 0. 0.
      0. 0. 0. 0. 0. 0. 0. 0. 0. 0. 0. 0. 0. 0. 0. 0. 0. 0. 0. 0. 0. 0.
      0. 0. 0. 0. 0. 0. 0. 0. 0. 0. 0. 0. 0. 0. 0. 0. 0. 0. 0. 0. 0. 0.
      0. 0. 0. 0. 0. 0. 0. 0. 0. 0. 0. 0. 0. 0. 0. 0. 0. 0. 0. 0. 0. 0.
      0. 0. 0. 0. 0. 0. 0. 0. 0. 0. 0. 0. 0. 0. 0. 0. 0. 0. 0. 0. 0. 0.
      0. 0. 0. 0. 0. 0. 0. 0. 0. 0. 0. 0. 0. 0. 0. 0. 0. 0. 0. 0. 0. 0.
      0. 0. 0. 0. 0. 0. 0. 0. 0. 0. 0. 0. 0. 0. 0. 0. 0. 0. 0. 0. 0. 0.</_>
    <_>
      1.30890054e-003 0. 0. 0. 0. 0. 0. 0. 0. 0. 0. 1.57068055e-002 0.
      0. 0. 0. 0. 0. 0. 0. 0. 0. 2.87958123e-002 0. 0. 0. 0. 0. 0. 0. 0.
      0. 0. 7.72251338e-002 0. 0. 0. 0. 0. 0. 0. 0. 0. 0.
      2.61780098e-002 0. 0. 0. 0. 0. 0. 0. 0. 0. 0. 5.62827215e-002 0.
      0. 0. 0. 0. 0. 0. 0. 0. 0. 5.89005239e-002 0. 0. 0. 0. 0. 0. 0. 0.
      0. 0. 6.15183264e-002 0. 0. 0. 0. 0. 0. 0. 0. 0. 0.
      6.15183264e-002 0. 0. 0. 0. 0. 0. 0. 0. 0. 0. 5.62827215e-002 0.
      0. 0. 0. 0. 0. 0. 0. 0. 0. 8.76963362e-002 0. 0. 0. 0. 0. 0. 0. 0.
      0. 0. 1.29581153e-001 0. 0. 0. 0. 0. 0. 0. 0. 0. 0.
      1.00785337e-001 0. 0. 0. 0. 0. 0. 0. 0. 0. 0. 9.29319337e-002 0.
      0. 0. 0. 0. 0. 0. 0. 0. 0. 1.03403144e-001 0. 0. 0. 0. 0. 0. 0. 0.
      0. 0. 4.18848172e-002 0. 0. 0. 0. 0. 0. 0. 0. 0. 0.
      5.45702595e-003 0. 0. 0. 0. 0. 0. 0. 0. 0. 0. 1.63710769e-002 0.
      0. 0. 0. 0. 0. 0. 0. 0. 0. 2.18281038e-002 0. 0. 0. 0. 0. 0. 0. 0.
      0. 0. 6.82128221e-002 0. 0. 0. 0. 0. 0. 0. 0. 0. 0.
      2.04638466e-002 0. 0. 0. 0. 0. 0. 0. 0. 0. 0. 4.77489755e-002 0.
      0. 0. 0. 0. 0. 0. 0. 0. 0. 4.63847220e-002 0. 0. 0. 0. 0. 0. 0. 0.
      0. 0. 5.72987720e-002 0. 0. 0. 0. 0. 0. 0. 0. 0. 0.
      4.63847220e-002 0. 0. 0. 0. 0. 0. 0. 0. 0. 0. 4.77489755e-002 0.
      0. 0. 0. 0. 0. 0. 0. 0. 0. 6.13915399e-002 0. 0. 0. 0. 0. 0. 0. 0.
      0. 0. 9.14051831e-002 0. 0. 0. 0. 0. 0. 0. 0. 0. 0.
      9.00409296e-002 0. 0. 0. 0. 0. 0. 0. 0. 0. 0. 5.59345149e-002
      1.03683494e-001 0. 0. 0. 0. 0. 0. 0. 0. 0. 1.80081859e-001 0. 0.
      0. 0. 0. 0. 0. 0. 0. 0. 3.95634398e-002 0. 0. 0. 0. 0. 0. 0. 0. 0.
      0. 0. 0. 0. 0. 0. 0. 0. 0. 0. 0. 0. 0. 0. 0. 0. 0. 0. 0. 0. 0. 0.
      0. 5.49450563e-003 0. 0. 0. 0. 0. 0. 0. 0. 0. 0. 2.74725277e-002
      0. 0. 0. 0. 0. 0. 0. 0. 0. 0. 1.28205130e-002 0. 0. 0. 0. 0. 0. 0.
      0. 0. 0. 2.38095243e-002 0. 0. 0. 0. 0. 0. 0. 0. 0. 0.
      5.49450563e-003 0. 0. 0. 0. 0. 0. 0. 0. 0. 0. 1.64835174e-002 0.
      0. 0. 0. 0. 0. 0. 0. 0. 0. 1.83150191e-002 0. 0. 0. 0. 0. 0. 0. 0.
      0. 0. 4.94505502e-002 0. 0. 0. 0. 0. 0. 0. 0. 0. 0.
      9.89011005e-002 0. 0. 0. 0. 0. 0. 0. 0. 0. 0. 1.30036637e-001 0.
      0. 0. 0. 0. 0. 0. 0. 0. 0. 1.22710623e-001 0. 0. 0. 0. 0. 0. 0. 0.
      0. 0. 2.23443225e-001 0. 0. 0. 0. 0. 0. 0. 0. 0. 0.
      2.32600734e-001 0. 0. 0. 0. 0. 0. 0. 0. 0. 0. 3.29670347e-002 0.
      0. 0. 0. 0. 0. 0. 0. 0. 0.</_>
    <_>
      0. 0. 0. 0. 0. 0. 0. 0. 0. 0. 0. 1.81774702e-002 0. 0. 0. 0. 0. 0.
      0. 0. 0. 0. 2.77445596e-002 1.72207598e-002 0. 0. 0. 0. 0. 0. 0.
      0. 0. 4.80746217e-002 2.17651278e-002 0. 0. 0. 0. 0. 0. 0. 0. 0.
      4.11384851e-002 3.20497490e-002 0. 0. 0. 0. 0. 0. 0. 0. 0.
      8.37120321e-003 5.50107621e-002 0. 0. 0. 0. 0. 0. 0. 0. 0.
      1.96125321e-002 0. 0. 0. 0. 0. 0. 0. 0. 0. 0. 1.57856978e-002 0.
      0. 0. 0. 0. 0. 0. 0. 0. 0. 1.86558235e-002 0. 0. 0. 0. 0. 0. 0. 0.
      0. 0. 5.02272183e-003 0. 0. 0. 0. 0. 0. 0. 0. 0. 0.
      8.84955749e-003 0. 0. 0. 0. 0. 0. 0. 0. 0. 0. 2.91796215e-002 0.
      0. 0. 0. 0. 0. 0. 0. 0. 0. 1.76991150e-002 0. 0. 0. 0. 0. 0. 0. 0.
      0. 0. 4.06601280e-003 7.17531666e-002 0. 0. 0. 0. 0. 0. 0. 0. 0.
      6.93613989e-003 0. 1.89667538e-001 0. 0. 0. 0. 0. 0. 0. 0. 0.
      3.94642428e-002 3.03755075e-001 0. 0. 0. 0. 0. 0. 0. 0. 0. 0. 0.
      0. 0. 0. 0. 0. 0. 0. 0. 0. 0. 0. 0. 0. 0. 0. 0. 0. 0. 0.
      9.56937787e-004 0. 0. 0. 0. 0. 0. 0. 0. 0. 0. 6.69856463e-003
      2.46411487e-002 0. 0. 0. 0. 0. 0. 0. 0. 0. 5.43062203e-002 0. 0.
      0. 0. 0. 0. 0. 0. 0. 0. 6.17224872e-002 0. 0. 0. 0. 0. 0. 0. 0. 0.
      0. 1.98564585e-002 7.70334899e-002 0. 0. 0. 0. 0. 0. 0. 0. 0.
      1.72248799e-002 2.08133962e-002 0. 0. 0. 0. 0. 0. 0. 0. 0.
      2.12918669e-002 0. 0. 0. 0. 0. 0. 0. 0. 0. 0. 1.96172241e-002 0.
      0. 0. 0. 0. 0. 0. 0. 0. 0. 7.17703346e-003 0. 0. 0. 0. 0. 0. 0. 0.
      0. 0. 2.36842111e-002 0. 0. 0. 0. 0. 0. 0. 0. 0. 0.
      2.79904306e-002 0. 0. 0. 0. 0. 0. 0. 0. 0. 0. 3.82775115e-003 0.
      1.74401909e-001 0. 0. 0. 0. 0. 0. 0. 0. 7.17703346e-003
      1.01196170e-001 0. 0. 0. 0. 0. 0. 0. 0. 0. 0. 1.16028711e-001
      2.14354068e-001 0. 0. 0. 0. 0. 0. 0. 0. 0. 0. 0. 0. 0. 0. 0. 0. 0.
      0. 0. 0. 0. 0. 0. 0. 0. 0. 0. 0. 0. 0. 0. 0. 0. 0. 0. 0. 0. 0. 0.
      0. 0. 0. 0. 0. 0. 0. 0. 0. 0. 0. 0. 0. 0. 0. 0. 0. 0. 0. 0. 0. 0.
      0. 0. 9.58313351e-004 0. 0. 0. 0. 0. 0. 0. 0. 0. 0.
      3.59367509e-003 0. 0. 0. 0. 0. 0. 0. 0. 0. 0. 3.06660272e-002
      2.18016300e-002 0. 0. 0. 0. 0. 0. 0. 0. 0. 5.07906079e-002 0. 0.
      0. 0. 0. 0. 0. 0. 0. 0. 5.31863905e-002 2.18016300e-002 0. 0. 0.
      0. 0. 0. 0. 0. 0. 3.66554856e-002 7.71442279e-002 0. 0. 0. 0. 0.
      0. 0. 0. 0. 2.39578336e-002 0. 0. 0. 0. 0. 0. 0. 0. 0. 0.
      2.99472921e-002 0. 0. 0. 0. 0. 0. 0. 0. 0. 0. 3.16243395e-002 0.
      1.39434591e-001 0. 0. 0. 0. 0. 0. 0. 0. 1.03018684e-002
      1.36559650e-001 0. 0. 0. 0. 0. 0. 0. 0. 0. 0. 1.16914228e-001
      2.14662194e-001 0. 0. 0. 0. 0. 0. 0. 0.</_>
    <_>
      0. 0. 0. 0. 0. 0. 0. 0. 0. 0. 0. 1.62200276e-002 0. 0. 0. 0. 0. 0.
      0. 0. 0. 0. 4.37235534e-002 0. 0. 0. 0. 0. 0. 0. 0. 0. 0.
      4.37235534e-002 0. 0. 0. 0. 0. 0. 0. 0. 0. 0. 6.98166415e-002 0.
      0. 0. 0. 0. 0. 0. 0. 0. 0. 9.37940776e-002 0. 0. 0. 0. 0. 0. 0. 0.
      0. 0. 8.11001435e-002 0. 0. 0. 0. 0. 0. 0. 0. 0. 0.
      5.78279272e-002 0. 0. 0. 0. 0. 0. 0. 0. 0. 0. 4.16078977e-002 0.
      0. 0. 0. 0. 0. 0. 0. 0. 0. 5.14809601e-002 0. 0. 0. 0. 0. 0. 0. 0.
      0. 0. 6.77009895e-002 0. 0. 0. 0. 0. 0. 0. 0. 0. 0.
      7.82792643e-002 0. 0. 0. 0. 0. 0. 0. 0. 0. 0. 9.23836380e-002 0.
      0. 0. 0. 0. 0. 0. 0. 0. 0. 9.37940776e-002 0. 0. 0. 0. 0. 0. 0. 0.
      0. 0. 1.62200287e-001 0. 0. 0. 0. 0. 0. 0. 0. 0. 0.
      6.34696754e-003 0. 0. 0. 0. 0. 0. 0. 0. 0. 0. 0. 0. 0. 0. 0. 0. 0.
      0. 0. 0. 0. 2.18617767e-002 0. 0. 0. 0. 0. 0. 0. 0. 0. 0.
      5.14809601e-002 0. 0. 0. 0. 0. 0. 0. 0. 0. 0. 4.44287732e-002 0.
      0. 0. 0. 0. 0. 0. 0. 0. 0. 7.26375207e-002 0. 0. 0. 0. 0. 0. 0. 0.
      0. 0. 9.52045098e-002 0. 0. 0. 0. 0. 0. 0. 0. 0. 0.
      7.40479529e-002 0. 0. 0. 0. 0. 0. 0. 0. 0. 0. 5.35966158e-002 0.
      0. 0. 0. 0. 0. 0. 0. 0. 0. 4.65444289e-002 0. 0. 0. 0. 0. 0. 0. 0.
      0. 0. 5.28913960e-002 0. 0. 0. 0. 0. 0. 0. 0. 0. 0.
      6.98166415e-002 0. 0. 0. 0. 0. 0. 0. 0. 0. 0. 6.62905499e-002 0.
      0. 0. 0. 0. 0. 0. 0. 0. 0. 9.73201692e-002 0. 0. 0. 0. 0. 0. 0. 0.
      0. 0. 8.88575464e-002 0. 0. 0. 0. 0. 0. 0. 0. 0. 0.
      1.62200287e-001 0. 0. 0. 0. 0. 0. 0. 0. 0. 0. 2.82087456e-003 0.
      0. 0. 0. 0. 0. 0. 0. 0. 0. 0. 0. 0. 0. 0. 0. 0. 0. 0. 0. 0.
      2.62597594e-002 0. 0. 0. 0. 0. 0. 0. 0. 0. 0. 5.18097952e-002 0.
      0. 0. 0. 0. 0. 0. 0. 0. 0. 4.61320095e-002 0. 0. 0. 0. 0. 0. 0. 0.
      0. 0. 8.01987201e-002 0. 0. 0. 0. 0. 0. 0. 0. 0. 0.
      9.15542915e-002 0. 0. 0. 0. 0. 0. 0. 0. 0. 0. 6.88431486e-002 0.
      0. 0. 0. 0. 0. 0. 0. 0. 0. 5.46486862e-002 0. 0. 0. 0. 0. 0. 0. 0.
      0. 0. 4.11639474e-002 0. 0. 0. 0. 0. 0. 0. 0. 0. 0.
      4.75514531e-002 0. 0. 0. 0. 0. 0. 0. 0. 0. 0. 6.45848140e-002 0.
      0. 0. 0. 0. 0. 0. 0. 0. 0. 6.24556430e-002 0. 0. 0. 0. 0. 0. 0. 0.
      0. 0. 9.36834663e-002 0. 0. 0. 0. 0. 0. 0. 0. 0. 0.
      9.65223536e-002 0. 0. 0. 0. 0. 0. 0. 0. 0. 0. 1.71753019e-001 0.
      0. 0. 0. 0. 0. 0. 0. 0. 0. 2.83889286e-003 0. 0. 0. 0. 0. 0. 0. 0.
      0. 0.</_>
    <_>
      0. 0. 0. 0. 0. 0. 0. 0. 0. 0. 0. 6.46830536e-004 0. 0. 0. 0. 0. 0.
      0. 0. 0. 0. 1.94049161e-003 0. 0. 0. 0. 0. 0. 0. 0. 0. 0.
      3.23415268e-003 0. 0. 0. 0. 0. 0. 0. 0. 0. 0. 4.52781375e-003 0.
      0. 0. 0. 0. 0. 0. 0. 0. 0. 7.76196644e-003 0. 0. 0. 0. 0. 0. 0. 0.
      0. 0. 9.70245805e-003 0. 0. 0. 0. 0. 0. 0. 0. 0. 0.
      2.32858993e-002 0. 0. 0. 0. 0. 0. 0. 0. 0. 0. 3.55756804e-002 0.
      0. 0. 0. 0. 0. 0. 0. 0. 0. 9.12031084e-002 0. 0. 0. 0. 0. 0. 0. 0.
      0. 0. 1.17723159e-001 8.99094418e-002 0. 0. 0. 0. 0. 0. 0. 0. 0.
      1.73350587e-001 0. 0. 0. 0. 0. 0. 0. 0. 0. 0. 1.50711507e-001 0.
      0. 0. 0. 0. 0. 0. 0. 0. 0. 1.63001299e-001 0. 0. 0. 0. 0. 0. 0. 0.
      0. 0. 1.22250967e-001 0. 0. 0. 0. 0. 0. 0. 0. 0. 0.
      5.17464429e-003 0. 0. 0. 0. 0. 0. 0. 0. 0. 0. 0. 0. 0. 0. 0. 0. 0.
      0. 0. 0. 0. 2.58732215e-003 0. 0. 0. 0. 0. 0. 0. 0. 0. 0.
      2.58732215e-003 0. 0. 0. 0. 0. 0. 0. 0. 0. 0. 2.58732215e-003 0.
      0. 0. 0. 0. 0. 0. 0. 0. 0. 5.17464429e-003 0. 0. 0. 0. 0. 0. 0. 0.
      0. 0. 9.05562751e-003 0. 0. 0. 0. 0. 0. 0. 0. 0. 0.
      7.76196644e-003 0. 0. 0. 0. 0. 0. 0. 0. 0. 0. 2.32858993e-002 0.
      0. 0. 0. 0. 0. 0. 0. 0. 0. 3.81630026e-002 0. 0. 0. 0. 0. 0. 0. 0.
      0. 0. 8.66752937e-002 0. 0. 0. 0. 0. 0. 0. 0. 0. 0.
      1.48771018e-001 5.04527800e-002 0. 0. 0. 0. 0. 0. 0. 0. 0.
      1.81112543e-001 0. 0. 0. 0. 0. 0. 0. 0. 0. 0. 1.50064677e-001 0.
      0. 0. 0. 0. 0. 0. 0. 0. 0. 1.56532988e-001 0. 0. 0. 0. 0. 0. 0. 0.
      0. 0. 1.30012929e-001 0. 0. 0. 0. 0. 0. 0. 0. 0. 0.
      5.17464429e-003 0. 0. 0. 0. 0. 0. 0. 0. 0. 0. 0. 0. 0. 0. 0. 0. 0.
      0. 0. 0. 0. 0. 0. 0. 0. 0. 0. 0. 0. 0. 0. 0. 0. 0. 0. 0. 0. 0. 0.
      0. 0. 0. 0. 0. 0. 0. 0. 0. 0. 0. 0. 0. 0. 0. 0. 0. 0. 0. 0. 0. 0.
      0. 0. 0. 0. 0. 0. 0. 0. 0. 0. 0. 0. 0. 0. 0. 0. 0. 0. 0. 0. 0. 0.
      0. 0. 0. 0. 6.46830536e-004 0. 0. 0. 0. 0. 0. 0. 0. 0. 0.
      7.76196644e-003 0. 0. 0. 0. 0. 0. 0. 0. 0. 0. 6.14489019e-002 0.
      0. 0. 0. 0. 0. 0. 0. 0. 0. 1.42302718e-002 2.41914615e-001 0. 0.
      0. 0. 0. 0. 0. 0. 0. 1.88874513e-001 0. 0. 0. 0. 0. 0. 0. 0. 0. 0.
      1.04786545e-001 4.91591208e-002 0. 0. 0. 0. 0. 0. 0. 0. 0.
      1.16429493e-001 5.62742576e-002 0. 0. 0. 0. 0. 0. 0. 0. 0.
      7.30918497e-002 8.02069828e-002 0. 0. 0. 0. 0. 0. 0. 0. 0.
      5.17464429e-003 0. 0. 0. 0. 0. 0. 0. 0. 0. 0.</_>
    <_>
      0. 0. 0. 0. 0. 0. 0. 0. 0. 0. 0. 0. 0. 0. 0. 0. 0. 0. 0. 0. 0. 0.
      4.70588217e-003 8.31372514e-002 2.10980386e-001 0. 0. 0. 0. 0. 0.
      0. 0. 4.62745093e-002 0. 0. 0. 0. 0. 0. 0. 0. 0. 0.
      3.29411775e-002 0. 0. 0. 0. 0. 0. 0. 0. 0. 0. 2.98039224e-002 0.
      0. 0. 0. 0. 0. 0. 0. 0. 0. 1.33333337e-002 0. 0. 0. 0. 0. 0. 0. 0.
      0. 0. 1.56862751e-001 0. 0. 0. 0. 0. 0. 0. 0. 0. 0.
      2.66666673e-002 0. 0. 0. 0. 0. 0. 0. 0. 0. 0. 2.82352939e-002 0.
      0. 0. 0. 0. 0. 0. 0. 0. 0. 5.25490195e-002 0. 0. 0. 0. 0. 0. 0. 0.
      0. 0. 1.66274503e-001 0. 0. 0. 0. 0. 0. 0. 0. 0. 0.
      4.78431359e-002 0. 0. 0. 0. 0. 0. 0. 0. 0. 0. 3.84313725e-002 0.
      0. 0. 0. 0. 0. 0. 0. 0. 0. 5.33333346e-002 0. 0. 0. 0. 0. 0. 0. 0.
      0. 0. 8.62745102e-003 0. 0. 0. 0. 0. 0. 0. 0. 0. 0.
      2.27450989e-002 2.24313721e-001 0. 0. 0. 0. 0. 0. 0. 0. 0.
      9.64705870e-002 0. 0. 0. 0. 0. 0. 0. 0. 0. 0. 2.58823521e-002 0.
      0. 0. 0. 0. 0. 0. 0. 0. 0. 1.41176470e-002 0. 0. 0. 0. 0. 0. 0. 0.
      0. 0. 2.50980388e-002 0. 0. 0. 0. 0. 0. 0. 0. 0. 0.
      1.04313724e-001 0. 0. 0. 0. 0. 0. 0. 0. 0. 0. 6.11764714e-002 0.
      0. 0. 0. 0. 0. 0. 0. 0. 0. 1.64705887e-002 0. 0. 0. 0. 0. 0. 0. 0.
      0. 0. 1.88235287e-002 0. 0. 0. 0. 0. 0. 0. 0. 0. 0.
      4.07843143e-002 0. 0. 0. 0. 0. 0. 0. 0. 0. 0. 1.14509806e-001 0.
      0. 0. 0. 0. 0. 0. 0. 0. 0. 8.70588198e-002 0. 0. 0. 0. 0. 0. 0. 0.
      0. 0. 5.72549030e-002 0. 0. 0. 0. 0. 0. 0. 0. 0. 0.
      2.90196072e-002 0. 0. 0. 0. 0. 0. 0. 0. 0. 0. 5.33333346e-002 0.
      0. 0. 0. 0. 0. 0. 0. 0. 0. 8.62745102e-003 0. 0. 0. 0. 0. 0. 0. 0.
      0. 0. 0. 0. 0. 0. 0. 0. 0. 0. 0. 0. 0. 0. 0. 0. 0. 0. 0. 0. 0. 0.
      0. 0. 0. 0. 0. 0. 0. 0. 0. 0. 0. 0. 0. 0. 0. 0. 0. 0. 0. 0. 0. 0.
      0. 0. 1.58478611e-003 0. 0. 0. 0. 0. 0. 0. 0. 0. 0.
      7.92393053e-004 0. 0. 0. 0. 0. 0. 0. 0. 0. 0. 2.37717899e-003 0.
      0. 0. 0. 0. 0. 0. 0. 0. 0. 3.96196498e-003 0. 0. 0. 0. 0. 0. 0. 0.
      0. 0. 1.34706814e-002 0. 0. 0. 0. 0. 0. 0. 0. 0. 0.
      1.42630748e-002 0. 0. 0. 0. 0. 0. 0. 0. 0. 0. 3.01109347e-002 0.
      0. 0. 0. 0. 0. 0. 0. 0. 0. 2.93185413e-002 0. 0. 0. 0. 0. 0. 0. 0.
      0. 0. 1.12519808e-001 9.82567370e-002 0. 0. 0. 0. 0. 0. 0. 0. 0.
      6.33914396e-002 0. 3.52614909e-001 0. 0. 0. 0. 0. 0. 0. 0.
      2.44057059e-001 0. 0. 0. 0. 0. 0. 0. 0. 0. 0. 3.32805067e-002 0.
      0. 0. 0. 0. 0. 0. 0. 0. 0.</_>
    <_>
      0. 0. 0. 0. 0. 0. 0. 0. 0. 0. 0. 0. 0. 0. 0. 0. 0. 0. 0. 0. 0. 0.
      0. 0. 0. 0. 0. 0. 0. 0. 0. 0. 0. 0. 0. 0. 0. 0. 0. 0. 0. 0. 0. 0.
      4.58715577e-003 0. 0. 0. 0. 0. 0. 0. 0. 0. 0. 6.11620815e-003 0.
      0. 0. 0. 0. 0. 0. 0. 0. 0. 1.07033635e-002 0. 0. 0. 0. 0. 0. 0. 0.
      0. 0. 2.59938836e-002 0. 0. 0. 0. 0. 0. 0. 0. 0. 0.
      5.50458729e-002 0. 0. 0. 0. 0. 0. 0. 0. 0. 0. 7.33944923e-002 0.
      0. 0. 0. 0. 0. 0. 0. 0. 0. 7.79816508e-002 0. 0. 0. 0. 0. 0. 0. 0.
      0. 0. 1.17737003e-001 0. 0. 0. 0. 0. 0. 0. 0. 0. 0.
      1.89602450e-001 0. 0. 0. 0. 0. 0. 0. 0. 0. 0. 1.55963302e-001 0.
      0. 0. 0. 0. 0. 0. 0. 0. 0. 1.55963302e-001 0. 0. 0. 0. 0. 0. 0. 0.
      0. 0. 1.26911312e-001 0. 0. 0. 0. 0. 0. 0. 0. 0. 0. 0. 0. 0. 0. 0.
      0. 0. 0. 0. 0. 0. 0. 0. 0. 0. 0. 0. 0. 0. 0. 0. 0. 0. 0. 0. 0. 0.
      0. 0. 0. 0. 0. 0. 0. 0. 0. 0. 0. 0. 0. 0. 0. 0. 0. 4.58715577e-003
      0. 0. 0. 0. 0. 0. 0. 0. 0. 0. 6.11620815e-003 0. 0. 0. 0. 0. 0. 0.
      0. 0. 0. 1.07033635e-002 0. 0. 0. 0. 0. 0. 0. 0. 0. 0.
      2.59938836e-002 0. 0. 0. 0. 0. 0. 0. 0. 0. 0. 5.50458729e-002 0.
      0. 0. 0. 0. 0. 0. 0. 0. 0. 7.33944923e-002 0. 0. 0. 0. 0. 0. 0. 0.
      0. 0. 7.79816508e-002 0. 0. 0. 0. 0. 0. 0. 0. 0. 0.
      1.17737003e-001 0. 0. 0. 0. 0. 0. 0. 0. 0. 0. 1.89602450e-001 0.
      0. 0. 0. 0. 0. 0. 0. 0. 0. 1.55963302e-001 0. 0. 0. 0. 0. 0. 0. 0.
      0. 0. 1.55963302e-001 0. 0. 0. 0. 0. 0. 0. 0. 0. 0.
      1.26911312e-001 0. 0. 0. 0. 0. 0. 0. 0. 0. 0. 0. 0. 0. 0. 0. 0. 0.
      0. 0. 0. 0. 0. 0. 0. 0. 0. 0. 0. 0. 0. 0. 0. 0. 0. 0. 0. 0. 0. 0.
      0. 0. 0. 0. 0. 0. 0. 0. 0. 0. 0. 0. 0. 0. 0. 4.58715577e-003 0. 0.
      0. 0. 0. 0. 0. 0. 0. 0. 6.11620815e-003 0. 0. 0. 0. 0. 0. 0. 0. 0.
      0. 1.07033635e-002 0. 0. 0. 0. 0. 0. 0. 0. 0. 0. 2.59938836e-002
      0. 0. 0. 0. 0. 0. 0. 0. 0. 0. 5.50458729e-002 0. 0. 0. 0. 0. 0. 0.
      0. 0. 0. 7.33944923e-002 0. 0. 0. 0. 0. 0. 0. 0. 0. 0.
      7.79816508e-002 0. 0. 0. 0. 0. 0. 0. 0. 0. 0. 1.17737003e-001 0.
      0. 0. 0. 0. 0. 0. 0. 0. 0. 1.89602450e-001 0. 0. 0. 0. 0. 0. 0. 0.
      0. 0. 1.55963302e-001 0. 0. 0. 0. 0. 0. 0. 0. 0. 0.
      1.55963302e-001 0. 0. 0. 0. 0. 0. 0. 0. 0. 0. 1.26911312e-001 0.
      0. 0. 0. 0. 0. 0. 0. 0. 0.</_>
    <_>
      0. 0. 0. 0. 0. 0. 0. 0. 0. 0. 0. 0. 0. 0. 0. 0. 0. 0. 0. 0. 0. 0.
      0. 0. 0. 0. 0. 0. 0. 0. 0. 0. 0. 0. 0. 0. 0. 0. 0. 0. 0. 0. 0. 0.
      0. 0. 0. 0. 0. 0. 0. 0. 0. 0. 0. 3.06321355e-003 0. 0. 0. 0. 0. 0.
      0. 0. 0. 0. 2.50626565e-003 0. 0. 0. 0. 0. 0. 0. 0. 0. 0.
      2.50626565e-003 0. 0. 0. 0. 0. 0. 0. 0. 0. 0. 7.24032288e-003 0.
      0. 0. 0. 0. 0. 0. 0. 0. 0. 1.89362299e-002 0. 0. 0. 0. 0. 0. 0. 0.
      0. 0. 2.45057084e-002 0. 0. 0. 0. 0. 0. 0. 0. 0. 0.
      3.28599289e-002 0. 0. 0. 0. 0. 0. 0. 0. 0. 0. 4.03787233e-002 0.
      0. 0. 0. 0. 0. 0. 0. 0. 0. 1.09161794e-001 0. 0. 0. 0. 0. 0. 0. 0.
      0. 0. 2.92397663e-002 8.71623531e-002 0. 4.16318566e-001 0. 0. 0.
      0. 0. 0. 0. 4.06571999e-002 1.85463652e-001 0. 0. 0. 0. 0. 0. 0.
      0. 0. 0. 0. 0. 0. 0. 0. 0. 0. 0. 0. 0. 0. 0. 0. 0. 0. 0. 0. 0. 0.
      0. 0. 0. 0. 0. 0. 0. 0. 0. 0. 0. 0. 0. 0. 0. 0. 0. 0. 0. 0. 0. 0.
      0. 0. 0. 0. 0. 0. 0. 0. 0. 0. 0. 0. 0. 0. 0. 0. 0. 0. 0. 0. 0. 0.
      0. 0. 9.89208650e-003 0. 0. 0. 0. 0. 0. 0. 0. 0. 0.
      9.89208650e-003 0. 0. 0. 0. 0. 0. 0. 0. 0. 0. 7.19424477e-003 0.
      0. 0. 0. 0. 0. 0. 0. 0. 0. 8.99280608e-003 0. 0. 0. 0. 0. 0. 0. 0.
      0. 0. 1.97841730e-002 0. 0. 0. 0. 0. 0. 0. 0. 0. 0.
      8.00359696e-002 0. 0. 0. 0. 0. 0. 0. 0. 0. 0. 1.11510791e-001 0.
      0. 0. 0. 0. 0. 0. 0. 0. 0. 1.62769780e-001 0. 0. 0. 0. 0. 0. 0. 0.
      0. 0. 3.64208639e-001 2.24820137e-001 0. 0. 0. 0. 0. 0. 0. 0. 0.
      8.99280596e-004 0. 0. 0. 0. 0. 0. 0. 0. 0. 0. 0. 0. 0. 0. 0. 0. 0.
      0. 0. 0. 0. 0. 0. 0. 0. 0. 0. 0. 0. 0. 0. 0. 0. 0. 0. 0. 0. 0. 0.
      0. 0. 0. 0. 0. 0. 0. 0. 0. 0. 0. 0. 0. 0. 0. 0. 0. 0. 0. 0. 0. 0.
      0. 0. 0. 0. 0. 0. 0. 0. 0. 0. 0. 0. 0. 0. 0. 3.80622819e-002 0. 0.
      0. 0. 0. 0. 0. 0. 0. 0. 1.73010379e-002 0. 0. 0. 0. 0. 0. 0. 0. 0.
      0. 4.49826978e-002 0. 0. 0. 0. 0. 0. 0. 0. 0. 0. 3.11418679e-002
      0. 0. 0. 0. 0. 0. 0. 0. 0. 0. 3.80622819e-002 0. 0. 0. 0. 0. 0. 0.
      0. 0. 0. 6.57439455e-002 0. 0. 0. 0. 0. 0. 0. 0. 0. 0.
      5.53633235e-002 0. 0. 0. 0. 0. 0. 0. 0. 0. 0. 1.69550180e-001 0.
      0. 0. 0. 0. 0. 0. 0. 0. 0. 5.39792359e-001 0. 0. 0. 0. 0. 0. 0. 0.
      0. 0. 0. 0. 0. 0. 0. 0. 0. 0. 0. 0. 0.</_>
    <_>
      0. 0. 0. 0. 0. 0. 0. 0. 0. 0. 0. 0. 0. 0. 0. 0. 0. 0. 0. 0. 0. 0.
      1.08267721e-002 0. 0. 0. 0. 0. 0. 0. 0. 0. 0. 8.85826815e-003 0.
      0. 0. 0. 0. 0. 0. 0. 0. 0. 1.67322829e-002 0. 0. 0. 0. 0. 0. 0. 0.
      0. 0. 3.93700786e-003 0. 0. 0. 0. 0. 0. 0. 0. 0. 0.
      1.08267721e-002 0. 0. 0. 0. 0. 0. 0. 0. 0. 0. 4.03543301e-002 0.
      0. 0. 0. 0. 0. 0. 0. 0. 0. 6.98818862e-002 0. 0. 0. 0. 0. 0. 0. 0.
      0. 0. 1.51574805e-001 0. 0. 0. 0. 0. 0. 0. 0. 0. 0.
      1.33858263e-001 6.69291317e-002 0. 0. 0. 0. 0. 0. 0. 0. 0.
      1.44685045e-001 0. 0. 0. 0. 0. 0. 0. 0. 0. 0. 9.94094461e-002 0.
      0. 0. 0. 0. 0. 0. 0. 0. 0. 9.84251946e-002 0. 0. 0. 0. 0. 0. 0. 0.
      0. 0. 1.13188975e-001 0. 0. 0. 0. 0. 0. 0. 0. 0. 0.
      3.05118114e-002 0. 0. 0. 0. 0. 0. 0. 0. 0. 0. 0. 0. 0. 0. 0. 0. 0.
      0. 0. 0. 0. 0. 0. 0. 0. 0. 0. 0. 0. 0. 0. 0. 1.18343197e-002 0. 0.
      0. 0. 0. 0. 0. 0. 0. 0. 3.05719916e-002 0. 0. 0. 0. 0. 0. 0. 0. 0.
      0. 7.88954645e-002 0. 0. 0. 0. 0. 0. 0. 0. 0. 0. 9.66469422e-002
      0. 0. 0. 0. 0. 0. 0. 0. 0. 0. 1.12426035e-001 0. 0. 0. 0. 0. 0. 0.
      0. 0. 0. 9.17159766e-002 0. 0. 0. 0. 0. 0. 0. 0. 0. 0.
      5.32544367e-002 0. 0. 0. 0. 0. 0. 0. 0. 0. 0. 5.71992099e-002 0.
      0. 0. 0. 0. 0. 0. 0. 0. 0. 5.81854060e-002 0. 0. 0. 0. 0. 0. 0. 0.
      0. 0. 8.67850110e-002 0. 0. 0. 0. 0. 0. 0. 0. 0. 0.
      1.04536489e-001 0. 0. 0. 0. 0. 0. 0. 0. 0. 0. 9.46745574e-002 0.
      0. 0. 0. 0. 0. 0. 0. 0. 0. 9.27021727e-002 0. 0. 0. 0. 0. 0. 0. 0.
      0. 0. 3.05719916e-002 0. 0. 0. 0. 0. 0. 0. 0. 0. 0.
      9.87166888e-004 0. 0. 0. 0. 0. 0. 0. 0. 0. 0. 9.77295190e-002 0.
      0. 0. 0. 0. 0. 0. 0. 0. 0. 1.05626851e-001 0. 0. 0. 0. 0. 0. 0. 0.
      0. 0. 1.03652515e-001 0. 0. 0. 0. 0. 0. 0. 0. 0. 0.
      7.99605101e-002 0. 0. 0. 0. 0. 0. 0. 0. 0. 0. 6.12043440e-002 0.
      0. 0. 0. 0. 0. 0. 0. 0. 0. 6.71273470e-002 0. 0. 0. 0. 0. 0. 0. 0.
      0. 0. 4.83711734e-002 0. 0. 0. 0. 0. 0. 0. 0. 0. 0.
      5.03455102e-002 0. 0. 0. 0. 0. 0. 0. 0. 0. 0. 4.04738411e-002 0.
      0. 0. 0. 0. 0. 0. 0. 0. 0. 4.93583418e-002 0. 0. 0. 0. 0. 0. 0. 0.
      0. 0. 5.03455102e-002 0. 0. 0. 0. 0. 0. 0. 0. 0. 0.
      6.61401749e-002 0. 0. 0. 0. 0. 0. 0. 0. 0. 0. 6.12043440e-002 0.
      0. 0. 0. 0. 0. 0. 0. 0. 0. 8.68706778e-002 0. 0. 0. 0. 0. 0. 0. 0.
      0. 0. 3.06021720e-002 0. 0. 0. 0. 0. 0. 0. 0. 0. 0.</_>
    <_>
      0. 0. 0. 0. 0. 0. 0. 0. 0. 0. 0. 0. 0. 0. 0. 0. 0. 0. 0. 0. 0. 0.
      0. 0. 0. 0. 0. 0. 0. 0. 0. 0. 0. 0. 0. 0. 0. 0. 0. 0. 0. 0. 0. 0.
      0. 0. 0. 0. 0. 0. 0. 0. 0. 0. 0. 1.06951874e-002 0. 0. 0. 0. 0. 0.
      0. 0. 0. 0. 3.95721942e-002 0. 0. 0. 0. 0. 0. 0. 0. 0. 0.
      3.95721942e-002 0. 0. 0. 0. 0. 0. 0. 0. 0. 0. 4.91978601e-002 0.
      0. 0. 0. 0. 0. 0. 0. 0. 0. 5.24064153e-002 0. 0. 0. 0. 0. 0. 0. 0.
      0. 0. 5.24064153e-002 0. 0. 0. 0. 0. 0. 0. 0. 0. 0.
      1.20855615e-001 0. 0. 0. 0. 0. 0. 0. 0. 0. 0. 1.91443846e-001 0.
      0. 0. 0. 0. 0. 0. 0. 0. 0. 2.70588249e-001 0. 0. 0. 0. 0. 0. 0. 0.
      0. 0. 1.68983951e-001 0. 0. 0. 0. 0. 0. 0. 0. 0. 0.
      4.27807495e-003 0. 0. 0. 0. 0. 0. 0. 0. 0. 0. 0. 0. 0. 0. 0. 0. 0.
      0. 0. 0. 0. 0. 0. 0. 0. 0. 0. 0. 0. 0. 0. 0. 2.05128198e-003 0. 0.
      0. 0. 0. 0. 0. 0. 0. 0. 2.25641020e-002 0. 0. 0. 0. 0. 0. 0. 0. 0.
      0. 3.28205116e-002 0. 0. 0. 0. 0. 0. 0. 0. 0. 0. 3.17948721e-002
      0. 0. 0. 0. 0. 0. 0. 0. 0. 0. 3.07692308e-002 0. 0. 0. 0. 0. 0. 0.
      0. 0. 0. 4.41025645e-002 0. 0. 0. 0. 0. 0. 0. 0. 0. 0.
      6.97435886e-002 0. 0. 0. 0. 0. 0. 0. 0. 0. 0. 8.92307684e-002 0.
      0. 0. 0. 0. 0. 0. 0. 0. 0. 1.37435898e-001 0. 0. 0. 0. 0. 0. 0. 0.
      0. 0. 1.49743587e-001 0. 0. 0. 0. 0. 0. 0. 0. 0. 0.
      1.44615382e-001 0. 0. 0. 0. 0. 0. 0. 0. 0. 0. 1.33333340e-001 0.
      0. 0. 0. 0. 0. 0. 0. 0. 0. 1.08717948e-001 0. 0. 0. 0. 0. 0. 0. 0.
      0. 0. 3.07692308e-003 0. 0. 0. 0. 0. 0. 0. 0. 0. 0. 0. 0. 0. 0. 0.
      0. 0. 0. 0. 0. 0. 0. 0. 0. 0. 0. 0. 0. 0. 0. 0. 0. 2.65957452e-002
      0. 0. 0. 0. 0. 0. 0. 0. 0. 0. 2.87234038e-002 0. 0. 0. 0. 0. 0. 0.
      0. 0. 0. 4.25531901e-002 0. 0. 0. 0. 0. 0. 0. 0. 0. 0.
      5.53191490e-002 0. 0. 0. 0. 0. 0. 0. 0. 0. 0. 4.57446799e-002 0.
      0. 0. 0. 0. 0. 0. 0. 0. 0. 5.53191490e-002 0. 0. 0. 0. 0. 0. 0. 0.
      0. 0. 3.61702144e-002 0. 0. 0. 0. 0. 0. 0. 0. 0. 0.
      3.72340418e-002 0. 0. 0. 0. 0. 0. 0. 0. 0. 0. 8.29787254e-002 0.
      0. 0. 0. 0. 0. 0. 0. 0. 0. 1.19148940e-001 0. 0. 0. 0. 0. 0. 0. 0.
      0. 0. 1.31914899e-001 0. 0. 0. 0. 0. 0. 0. 0. 0. 0.
      1.67021275e-001 0. 0. 0. 0. 0. 0. 0. 0. 0. 0. 1.70212761e-001 0.
      0. 0. 0. 0. 0. 0. 0. 0. 0. 1.06382975e-003 0. 0. 0. 0. 0. 0. 0. 0.
      0. 0.</_>
    <_>
      0. 0. 0. 0. 0. 0. 0. 0. 0. 0. 0. 0. 0. 0. 0. 0. 0. 0. 0. 0. 0. 0.
      0. 0. 0. 0. 0. 0. 0. 0. 0. 0. 0. 0. 0. 0. 0. 0. 0. 0. 0. 0. 0. 0.
      2.47933879e-003 0. 0. 0. 0. 0. 0. 0. 0. 0. 0. 7.43801659e-003 0.
      0. 0. 0. 0. 0. 0. 0. 0. 0. 2.39669420e-002 0. 0. 0. 0. 0. 0. 0. 0.
      0. 0. 2.31404956e-002 5.37190065e-002 0. 0. 0. 0. 0. 0. 0. 0. 0.
      5.53718992e-002 0. 0. 0. 0. 0. 0. 0. 0. 0. 0. 6.69421479e-002 0.
      0. 0. 0. 0. 0. 0. 0. 0. 0. 8.51239637e-002 0. 0. 0. 0. 0. 0. 0. 0.
      0. 0. 1.42975211e-001 0. 0. 0. 0. 0. 0. 0. 0. 0. 0.
      1.75206617e-001 0. 0. 0. 0. 0. 0. 0. 0. 0. 0. 1.76033065e-001 0.
      0. 0. 0. 0. 0. 0. 0. 0. 0. 1.80991739e-001 0. 0. 0. 0. 0. 0. 0. 0.
      0. 0. 6.61157025e-003 0. 0. 0. 0. 0. 0. 0. 0. 0. 0. 0. 0. 0. 0. 0.
      0. 0. 0. 0. 0. 0. 0. 0. 0. 0. 0. 0. 0. 0. 0. 0. 0. 0. 0. 0. 0. 0.
      0. 0. 0. 0. 0. 0. 0. 0. 0. 0. 0. 0. 0. 0. 0. 0. 0. 2.51046033e-003
      0. 0. 0. 0. 0. 0. 0. 0. 0. 0. 7.53138075e-003 0. 0. 0. 0. 0. 0. 0.
      0. 0. 0. 3.09623424e-002 0. 0. 0. 0. 0. 0. 0. 0. 0. 0.
      5.94142266e-002 0. 0. 0. 0. 0. 0. 0. 0. 0. 0. 4.51882854e-002 0.
      0. 0. 0. 0. 0. 0. 0. 0. 0. 7.36401677e-002 0. 0. 0. 0. 0. 0. 0. 0.
      0. 0. 6.77824244e-002 0. 0. 0. 0. 0. 0. 0. 0. 0. 0.
      1.19665273e-001 0. 0. 0. 0. 0. 0. 0. 0. 0. 0. 1.55648530e-001 0.
      0. 0. 0. 0. 0. 0. 0. 0. 0. 1.98326364e-001 0. 0. 0. 0. 0. 0. 0. 0.
      0. 0. 2.30125517e-001 0. 0. 0. 0. 0. 0. 0. 0. 0. 0.
      9.20502096e-003 0. 0. 0. 0. 0. 0. 0. 0. 0. 0. 0. 0. 0. 0. 0. 0. 0.
      0. 0. 0. 0. 0. 0. 0. 0. 0. 0. 0. 0. 0. 0. 0. 0. 0. 0. 0. 0. 0. 0.
      0. 0. 0. 0. 0. 0. 0. 0. 0. 0. 0. 0. 0. 0. 0. 0. 0. 0. 0. 0. 0. 0.
      0. 0. 0. 0. 0. 0. 0. 0. 0. 0. 0. 0. 0. 0. 0. 0. 0. 0. 0. 0. 0. 0.
      0. 0. 0. 0. 0. 0. 0. 0. 0. 0. 0. 0. 0. 0. 0. 0. 0. 0. 0. 0. 0. 0.
      0. 0. 0. 0. 1.74520072e-002 0. 0. 0. 0. 0. 0. 0. 0. 0. 0.
      4.79930192e-002 0. 0. 0. 0. 0. 0. 0. 0. 0. 0. 9.24956352e-002 0.
      0. 0. 0. 0. 0. 0. 0. 0. 0. 1.27399653e-001 8.20244327e-002 0. 0.
      0. 0. 0. 0. 0. 0. 0. 2.24258289e-001 0. 0. 0. 0. 0. 0. 0. 0. 0. 0.
      3.13263535e-001 4.88656200e-002 0. 0. 0. 0. 0. 0. 0. 0. 0.
      4.62478176e-002 0. 0. 0. 0. 0. 0. 0. 0. 0. 0.</_>
    <_>
      0. 0. 0. 0. 0. 0. 0. 0. 0. 0. 0. 0. 0. 0. 0. 0. 0. 0. 0. 0. 0. 0.
      0. 0. 0. 0. 0. 0. 0. 0. 0. 0. 0. 0. 0. 0. 0. 0. 0. 0. 0. 0. 0. 0.
      0. 0. 0. 0. 0. 0. 0. 0. 0. 0. 0. 7.46268663e-004 0. 0. 0. 0. 0. 0.
      0. 0. 0. 0. 0. 0. 0. 0. 0. 0. 0. 0. 0. 0. 0. 1.49253733e-003 0. 0.
      0. 0. 0. 0. 0. 0. 0. 0. 2.23880587e-003 0. 0. 0. 0. 0. 0. 0. 0. 0.
      0. 1.11940298e-002 0. 0. 0. 0. 0. 0. 0. 0. 0. 0. 7.01492503e-002
      0. 0. 0. 0. 0. 0. 0. 0. 0. 0. 9.02985111e-002 4.85074632e-002 0.
      0. 0. 0. 0. 0. 0. 0. 0. 1.57462686e-001 0. 4.02238816e-001 0. 0.
      0. 0. 0. 0. 0. 0. 1.22388057e-001 0. 0. 0. 0. 0. 0. 0. 0. 0. 0.
      3.80597003e-002 5.52238822e-002 0. 0. 0. 0. 0. 0. 0. 0. 0. 0. 0.
      0. 0. 0. 0. 0. 0. 0. 0. 0. 0. 0. 0. 0. 0. 0. 0. 0. 0. 0. 0. 0. 0.
      0. 0. 0. 0. 0. 0. 0. 0. 0. 0. 0. 0. 0. 0. 0. 0. 0. 0. 0. 0.
      5.13347040e-004 0. 0. 0. 0. 0. 0. 0. 0. 0. 0. 1.02669408e-003 0.
      0. 0. 0. 0. 0. 0. 0. 0. 0. 6.16016425e-003 0. 0. 0. 0. 0. 0. 0. 0.
      0. 0. 6.67351112e-003 0. 0. 0. 0. 0. 0. 0. 0. 0. 0.
      1.18069816e-002 0. 0. 0. 0. 0. 0. 0. 0. 0. 0. 1.28336754e-002 0.
      0. 0. 0. 0. 0. 0. 0. 0. 0. 2.77207401e-002 0. 0. 0. 0. 0. 0. 0. 0.
      0. 0. 1.21663243e-001 0. 0. 0. 0. 0. 0. 0. 0. 0. 0.
      1.03696100e-001 3.33675556e-002 0. 0. 0. 0. 0. 0. 0. 0. 0.
      1.68377817e-001 0. 2.77207404e-001 0. 0. 0. 0. 0. 0. 0. 0.
      1.17556468e-001 0. 0. 0. 0. 0. 0. 0. 0. 0. 0. 1.11396305e-001 0.
      0. 0. 0. 0. 0. 0. 0. 0. 0. 0. 0. 0. 0. 0. 0. 0. 0. 0. 0. 0. 0. 0.
      0. 0. 0. 0. 0. 0. 0. 0. 0. 0. 0. 0. 0. 0. 0. 0. 0. 0. 0. 0. 0. 0.
      0. 0. 0. 0. 0. 0. 0. 0. 0. 5.13347040e-004 0. 0. 0. 0. 0. 0. 0. 0.
      0. 0. 1.02669408e-003 0. 0. 0. 0. 0. 0. 0. 0. 0. 0.
      6.16016425e-003 0. 0. 0. 0. 0. 0. 0. 0. 0. 0. 6.67351112e-003 0.
      0. 0. 0. 0. 0. 0. 0. 0. 0. 1.18069816e-002 0. 0. 0. 0. 0. 0. 0. 0.
      0. 0. 1.28336754e-002 0. 0. 0. 0. 0. 0. 0. 0. 0. 0.
      2.77207401e-002 0. 0. 0. 0. 0. 0. 0. 0. 0. 0. 1.21663243e-001 0.
      0. 0. 0. 0. 0. 0. 0. 0. 0. 1.03696100e-001 3.33675556e-002 0. 0.
      0. 0. 0. 0. 0. 0. 0. 1.68377817e-001 0. 2.77207404e-001 0. 0. 0.
      0. 0. 0. 0. 0. 1.17556468e-001 0. 0. 0. 0. 0. 0. 0. 0. 0. 0.
      1.11396305e-001 0. 0. 0. 0. 0. 0. 0. 0. 0. 0. 0. 0. 0. 0. 0. 0. 0.
      0. 0. 0. 0.</_>
    <_>
      0. 4.93179448e-002 0. 0. 0. 0. 0. 0. 0. 0. 0. 4.19727154e-003 0.
      0. 0. 0. 0. 0. 0. 0. 0. 0. 6.29590778e-003 0. 0. 0. 0. 0. 0. 0. 0.
      0. 0. 1.04931798e-002 0. 0. 0. 0. 0. 0. 0. 0. 0. 0.
      4.19727154e-003 0. 0. 0. 0. 0. 0. 0. 0. 0. 0. 1.25918156e-002 0.
      0. 0. 0. 0. 0. 0. 0. 0. 0. 1.57397687e-002 0. 0. 0. 0. 0. 0. 0. 0.
      0. 0. 2.20356770e-002 0. 0. 0. 0. 0. 0. 0. 0. 0. 0.
      3.46274935e-002 0. 0. 0. 0. 0. 0. 0. 0. 0. 0. 6.08604401e-002 0.
      0. 0. 0. 0. 0. 0. 0. 0. 0. 8.18467960e-002 0. 0. 0. 0. 0. 0. 0. 0.
      0. 0. 9.96852070e-002 0. 0. 0. 0. 0. 0. 0. 0. 0. 0.
      1.60545647e-001 0. 0. 0. 0. 0. 0. 0. 0. 0. 0. 1.64742917e-001 0.
      0. 0. 0. 0. 0. 0. 0. 0. 0. 2.57082909e-001 0. 0. 0. 0. 0. 0. 0. 0.
      0. 0. 1.57397687e-002 0. 0. 0. 0. 0. 0. 0. 0. 0. 0. 0.
      4.93179448e-002 0. 0. 0. 0. 0. 0. 0. 0. 0. 4.19727154e-003 0. 0.
      0. 0. 0. 0. 0. 0. 0. 0. 6.29590778e-003 0. 0. 0. 0. 0. 0. 0. 0. 0.
      0. 1.04931798e-002 0. 0. 0. 0. 0. 0. 0. 0. 0. 0. 4.19727154e-003
      0. 0. 0. 0. 0. 0. 0. 0. 0. 0. 1.25918156e-002 0. 0. 0. 0. 0. 0. 0.
      0. 0. 0. 1.57397687e-002 0. 0. 0. 0. 0. 0. 0. 0. 0. 0.
      2.20356770e-002 0. 0. 0. 0. 0. 0. 0. 0. 0. 0. 3.46274935e-002 0.
      0. 0. 0. 0. 0. 0. 0. 0. 0. 6.08604401e-002 0. 0. 0. 0. 0. 0. 0. 0.
      0. 0. 8.18467960e-002 0. 0. 0. 0. 0. 0. 0. 0. 0. 0.
      9.96852070e-002 0. 0. 0. 0. 0. 0. 0. 0. 0. 0. 1.60545647e-001 0.
      0. 0. 0. 0. 0. 0. 0. 0. 0. 1.64742917e-001 0. 0. 0. 0. 0. 0. 0. 0.
      0. 0. 2.57082909e-001 0. 0. 0. 0. 0. 0. 0. 0. 0. 0.
      1.57397687e-002 0. 0. 0. 0. 0. 0. 0. 0. 0. 0. 0. 4.93179448e-002
      0. 0. 0. 0. 0. 0. 0. 0. 0. 4.19727154e-003 0. 0. 0. 0. 0. 0. 0. 0.
      0. 0. 6.29590778e-003 0. 0. 0. 0. 0. 0. 0. 0. 0. 0.
      1.04931798e-002 0. 0. 0. 0. 0. 0. 0. 0. 0. 0. 4.19727154e-003 0.
      0. 0. 0. 0. 0. 0. 0. 0. 0. 1.25918156e-002 0. 0. 0. 0. 0. 0. 0. 0.
      0. 0. 1.57397687e-002 0. 0. 0. 0. 0. 0. 0. 0. 0. 0.
      2.20356770e-002 0. 0. 0. 0. 0. 0. 0. 0. 0. 0. 3.46274935e-002 0.
      0. 0. 0. 0. 0. 0. 0. 0. 0. 6.08604401e-002 0. 0. 0. 0. 0. 0. 0. 0.
      0. 0. 8.18467960e-002 0. 0. 0. 0. 0. 0. 0. 0. 0. 0.
      9.96852070e-002 0. 0. 0. 0. 0. 0. 0. 0. 0. 0. 1.60545647e-001 0.
      0. 0. 0. 0. 0. 0. 0. 0. 0. 1.64742917e-001 0. 0. 0. 0. 0. 0. 0. 0.
      0. 0. 2.57082909e-001 0. 0. 0. 0. 0. 0. 0. 0. 0. 0.
      1.57397687e-002 0. 0. 0. 0. 0. 0. 0. 0. 0. 0.</_>
    <_>
      0. 0. 0. 0. 0. 0. 0. 0. 0. 0. 0. 0. 0. 0. 0. 0. 0. 0. 0. 0. 0. 0.
      3.18906596e-003 0. 0. 0. 0. 0. 0. 0. 0. 0. 0. 1.04783596e-002 0.
      0. 0. 0. 0. 0. 0. 0. 0. 0. 1.64009109e-002 0. 0. 0. 0. 0. 0. 0. 0.
      0. 0. 3.28018218e-002 0. 0. 0. 0. 0. 0. 0. 0. 0. 0.
      4.82915714e-002 0. 0. 0. 0. 0. 0. 0. 0. 0. 0. 4.60136682e-002 0.
      0. 0. 0. 0. 0. 0. 0. 0. 0. 6.10478371e-002 0. 0. 0. 0. 0. 0. 0. 0.
      0. 0. 4.23690192e-002 0. 0. 0. 0. 0. 0. 0. 0. 0. 0.
      6.28701597e-002 0. 0. 0. 0. 0. 0. 0. 0. 0. 0. 1.07972667e-001 0.
      0. 0. 0. 0. 0. 0. 0. 0. 0. 1.07517086e-001 0. 0. 0. 0. 0. 0. 0. 0.
      0. 0. 1.16173118e-001 0. 0. 0. 0. 0. 0. 0. 0. 0. 0.
      1.33940771e-001 8.20045546e-002 0. 0. 0. 0. 0. 0. 0. 0. 0.
      3.09794992e-002 9.79498848e-002 0. 0. 0. 0. 0. 0. 0. 0. 0. 0. 0.
      0. 0. 0. 0. 0. 0. 0. 0. 0. 0. 0. 0. 0. 0. 0. 0. 0. 0. 0. 0.
      3.18906596e-003 0. 0. 0. 0. 0. 0. 0. 0. 0. 0. 1.04783596e-002 0.
      0. 0. 0. 0. 0. 0. 0. 0. 0. 1.64009109e-002 0. 0. 0. 0. 0. 0. 0. 0.
      0. 0. 3.28018218e-002 0. 0. 0. 0. 0. 0. 0. 0. 0. 0.
      4.82915714e-002 0. 0. 0. 0. 0. 0. 0. 0. 0. 0. 4.60136682e-002 0.
      0. 0. 0. 0. 0. 0. 0. 0. 0. 6.10478371e-002 0. 0. 0. 0. 0. 0. 0. 0.
      0. 0. 4.23690192e-002 0. 0. 0. 0. 0. 0. 0. 0. 0. 0.
      6.28701597e-002 0. 0. 0. 0. 0. 0. 0. 0. 0. 0. 1.07972667e-001 0.
      0. 0. 0. 0. 0. 0. 0. 0. 0. 1.07517086e-001 0. 0. 0. 0. 0. 0. 0. 0.
      0. 0. 1.16173118e-001 0. 0. 0. 0. 0. 0. 0. 0. 0. 0.
      1.33940771e-001 8.20045546e-002 0. 0. 0. 0. 0. 0. 0. 0. 0.
      3.09794992e-002 9.79498848e-002 0. 0. 0. 0. 0. 0. 0. 0. 0. 0. 0.
      0. 0. 0. 0. 0. 0. 0. 0. 0. 0. 0. 0. 0. 0. 0. 0. 0. 0. 0. 0.
      3.18906596e-003 0. 0. 0. 0. 0. 0. 0. 0. 0. 0. 1.04783596e-002 0.
      0. 0. 0. 0. 0. 0. 0. 0. 0. 1.64009109e-002 0. 0. 0. 0. 0. 0. 0. 0.
      0. 0. 3.28018218e-002 0. 0. 0. 0. 0. 0. 0. 0. 0. 0.
      4.82915714e-002 0. 0. 0. 0. 0. 0. 0. 0. 0. 0. 4.60136682e-002 0.
      0. 0. 0. 0. 0. 0. 0. 0. 0. 6.10478371e-002 0. 0. 0. 0. 0. 0. 0. 0.
      0. 0. 4.23690192e-002 0. 0. 0. 0. 0. 0. 0. 0. 0. 0.
      6.28701597e-002 0. 0. 0. 0. 0. 0. 0. 0. 0. 0. 1.07972667e-001 0.
      0. 0. 0. 0. 0. 0. 0. 0. 0. 1.07517086e-001 0. 0. 0. 0. 0. 0. 0. 0.
      0. 0. 1.16173118e-001 0. 0. 0. 0. 0. 0. 0. 0. 0. 0.
      1.33940771e-001 8.20045546e-002 0. 0. 0. 0. 0. 0. 0. 0. 0.
      3.09794992e-002 9.79498848e-002 0. 0. 0. 0. 0. 0. 0. 0. 0.</_>
    <_>
      0. 0. 0. 0. 0. 0. 0. 0. 0. 0. 0. 3.19148926e-003 0. 0. 0. 0. 0. 0.
      0. 0. 0. 0. 2.81914901e-002 0. 0. 0. 0. 0. 0. 0. 0. 0. 0.
      2.39361711e-002 0. 0. 0. 0. 0. 0. 0. 0. 0. 0. 3.72340418e-002 0.
      0. 0. 0. 0. 0. 0. 0. 0. 0. 4.68085110e-002 0. 0. 0. 0. 0. 0. 0. 0.
      0. 0. 5.47872335e-002 0. 0. 0. 0. 0. 0. 0. 0. 0. 0.
      7.23404288e-002 0. 0. 0. 0. 0. 0. 0. 0. 0. 0. 7.44680837e-002 0.
      0. 0. 0. 0. 0. 0. 0. 0. 0. 7.07446784e-002 0. 0. 0. 0. 0. 0. 0. 0.
      0. 0. 9.04255286e-002 0. 0. 0. 0. 0. 0. 0. 0. 0. 0.
      9.89361703e-002 0. 0. 0. 0. 0. 0. 0. 0. 0. 0. 1.14361703e-001 0.
      0. 0. 0. 0. 0. 0. 0. 0. 0. 1.18085109e-001 0. 0. 0. 0. 0. 0. 0. 0.
      0. 0. 1.40957445e-001 0. 0. 0. 0. 0. 0. 0. 0. 0. 0.
      2.55319141e-002 0. 0. 0. 0. 0. 0. 0. 0. 0. 0. 0. 0. 0. 0. 0. 0. 0.
      0. 0. 0. 0. 1.06496271e-003 0. 0. 0. 0. 0. 0. 0. 0. 0. 0.
      1.11821089e-002 0. 0. 0. 0. 0. 0. 0. 0. 0. 0. 2.60915868e-002 0.
      0. 0. 0. 0. 0. 0. 0. 0. 0. 3.19488831e-002 0. 0. 0. 0. 0. 0. 0. 0.
      0. 0. 2.82215122e-002 0. 0. 0. 0. 0. 0. 0. 0. 0. 0.
      4.20660265e-002 0. 0. 0. 0. 0. 0. 0. 0. 0. 0. 5.21831736e-002 0.
      0. 0. 0. 0. 0. 0. 0. 0. 0. 8.73269439e-002 0. 0. 0. 0. 0. 0. 0. 0.
      0. 0. 8.04046839e-002 0. 0. 0. 0. 0. 0. 0. 0. 0. 0.
      1.26198083e-001 0. 0. 0. 0. 0. 0. 0. 0. 0. 0. 1.09158680e-001 0.
      0. 0. 0. 0. 0. 0. 0. 0. 0. 1.08626202e-001 0. 0. 0. 0. 0. 0. 0. 0.
      0. 0. 1.28328010e-001 0. 0. 0. 0. 0. 0. 0. 0. 0. 0.
      1.43769965e-001 0. 0. 0. 0. 0. 0. 0. 0. 0. 0. 2.34291796e-002 0.
      0. 0. 0. 0. 0. 0. 0. 0. 0. 0. 0. 0. 0. 0. 0. 0. 0. 0. 0. 0.
      1.11234700e-003 0. 0. 0. 0. 0. 0. 0. 0. 0. 0. 5.56173548e-003 0.
      0. 0. 0. 0. 0. 0. 0. 0. 0. 3.67074534e-002 0. 0. 0. 0. 0. 0. 0. 0.
      0. 0. 3.44827585e-002 0. 0. 0. 0. 0. 0. 0. 0. 0. 0.
      3.67074534e-002 0. 0. 0. 0. 0. 0. 0. 0. 0. 0. 7.45272562e-002 0.
      0. 0. 0. 0. 0. 0. 0. 0. 0. 4.17130142e-002 8.34260285e-002 0. 0.
      0. 0. 0. 0. 0. 0. 0. 4.78309244e-002 0. 0. 0. 0. 0. 0. 0. 0. 0. 0.
      4.00444940e-002 0. 0. 0. 0. 0. 0. 0. 0. 0. 0. 8.78754184e-002 0.
      0. 0. 0. 0. 0. 0. 0. 0. 0. 1.03448279e-001 0. 0. 0. 0. 0. 0. 0. 0.
      0. 0. 1.11790881e-001 0. 0. 0. 0. 0. 0. 0. 0. 0. 0.
      1.27363741e-001 0. 0. 0. 0. 0. 0. 0. 0. 0. 0. 1.42936602e-001 0.
      0. 0. 0. 0. 0. 0. 0. 0. 0. 2.44716350e-002 0. 0. 0. 0. 0. 0. 0. 0.
      0. 0.</_>
    <_>
      0. 0. 0. 0. 0. 0. 0. 0. 0. 0. 0. 0. 0. 0. 0. 0. 0. 0. 0. 0. 0. 0.
      0. 0. 0. 0. 0. 0. 0. 0. 0. 0. 0. 1.36425649e-003 0. 0. 0. 0. 0. 0.
      0. 0. 0. 0. 2.72851298e-003 0. 0. 0. 0. 0. 0. 0. 0. 0. 0.
      1.09140519e-002 0. 0. 0. 0. 0. 0. 0. 0. 0. 0. 2.66030021e-002 0.
      0. 0. 0. 0. 0. 0. 0. 0. 0. 2.38744877e-002 0. 0. 0. 0. 0. 0. 0. 0.
      0. 0. 4.16098237e-002 0. 0. 0. 0. 0. 0. 0. 0. 0. 0.
      9.07230526e-002 0. 0. 0. 0. 0. 0. 0. 0. 0. 0. 8.66302848e-002 0.
      0. 0. 0. 0. 0. 0. 0. 0. 0. 1.31650746e-001 0. 0. 0. 0. 0. 0. 0. 0.
      0. 0. 1.68485671e-001 0. 0. 0. 0. 0. 0. 0. 0. 0. 0.
      1.85538888e-001 0. 0. 0. 0. 0. 0. 0. 0. 0. 0. 1.69167802e-001
      4.63847220e-002 0. 0. 0. 0. 0. 0. 0. 0. 0. 1.43246930e-002 0. 0.
      0. 0. 0. 0. 0. 0. 0. 0. 0. 0. 0. 0. 0. 0. 0. 0. 0. 0. 0. 0. 0. 0.
      0. 0. 0. 0. 0. 0. 0. 0. 0. 0. 0. 0. 0. 0. 0. 0. 0. 0. 0.
      1.53609831e-003 0. 0. 0. 0. 0. 0. 0. 0. 0. 0. 3.84024577e-003 0.
      0. 0. 0. 0. 0. 0. 0. 0. 0. 1.15207378e-002 0. 0. 0. 0. 0. 0. 0. 0.
      0. 0. 2.84178182e-002 0. 0. 0. 0. 0. 0. 0. 0. 0. 0.
      3.07219662e-002 0. 0. 0. 0. 0. 0. 0. 0. 0. 0. 3.99385579e-002 0.
      0. 0. 0. 0. 0. 0. 0. 0. 0. 6.68202788e-002 0. 0. 0. 0. 0. 0. 0. 0.
      0. 0. 6.68202788e-002 0. 0. 0. 0. 0. 0. 0. 0. 0. 0.
      1.00614436e-001 0. 0. 0. 0. 0. 0. 0. 0. 0. 0. 1.42089099e-001 0.
      0. 0. 0. 0. 0. 0. 0. 0. 0. 1.79723501e-001 0. 0. 0. 0. 0. 0. 0. 0.
      0. 0. 2.05069125e-001 1.22887865e-001 0. 0. 0. 0. 0. 0. 0. 0. 0.
      0. 0. 0. 0. 0. 0. 0. 0. 0. 0. 0. 0. 0. 0. 0. 0. 0. 0. 0. 0. 0. 0.
      0. 0. 0. 0. 0. 0. 0. 0. 0. 0. 0. 0. 0. 0. 0. 0. 0. 0. 0. 0. 0. 0.
      1.69491523e-003 0. 0. 0. 0. 0. 0. 0. 0. 0. 0. 4.23728814e-003 0.
      0. 0. 0. 0. 0. 0. 0. 0. 0. 1.35593219e-002 0. 0. 0. 0. 0. 0. 0. 0.
      0. 0. 3.22033912e-002 0. 0. 0. 0. 0. 0. 0. 0. 0. 0.
      3.38983051e-002 0. 0. 0. 0. 0. 0. 0. 0. 0. 0. 4.57627103e-002 0.
      0. 0. 0. 0. 0. 0. 0. 0. 0. 7.03389794e-002 0. 0. 0. 0. 0. 0. 0. 0.
      0. 0. 7.62711838e-002 0. 0. 0. 0. 0. 0. 0. 0. 0. 0.
      1.13559321e-001 0. 0. 0. 0. 0. 0. 0. 0. 0. 0. 1.56779662e-001 0.
      0. 0. 0. 0. 0. 0. 0. 0. 0. 1.86440676e-001 0. 0. 0. 0. 0. 0. 0. 0.
      0. 0. 2.05084741e-001 6.01694919e-002 0. 0. 0. 0. 0. 0. 0. 0. 0.
      0. 0. 0. 0. 0. 0. 0. 0. 0. 0. 0.</_>
    <_>
      0. 0. 0. 0. 0. 0. 0. 0. 0. 0. 0. 1.49198063e-003 0. 0. 0. 0. 0. 0.
      0. 0. 0. 0. 0. 1.90600529e-001 0. 0. 0. 0. 0. 0. 0. 0. 0.
      3.61805297e-002 0. 0. 0. 0. 0. 0. 0. 0. 0. 0. 4.55054082e-002 0.
      0. 0. 0. 0. 0. 0. 0. 0. 0. 3.43155526e-002 0. 0. 0. 0. 0. 0. 0. 0.
      0. 0. 4.25214469e-002 0. 0. 0. 0. 0. 0. 0. 0. 0. 0.
      1.79037675e-002 0. 0. 0. 0. 0. 0. 0. 0. 0. 0. 8.57888814e-003 0.
      0. 0. 0. 0. 0. 0. 0. 0. 0. 3.02126072e-002 0. 0. 0. 0. 0. 0. 0. 0.
      0. 0. 2.76016407e-002 0. 0. 0. 0. 0. 0. 0. 0. 0. 0.
      6.67661354e-002 0. 0. 0. 0. 0. 0. 0. 0. 0. 0. 9.54867601e-002 0.
      0. 0. 0. 0. 0. 0. 0. 0. 0. 1.69339806e-001 0. 0. 0. 0. 0. 0. 0. 0.
      0. 0. 2.33494967e-001 0. 0. 0. 0. 0. 0. 0. 0. 0. 0. 0. 0. 0. 0. 0.
      0. 0. 0. 0. 0. 0. 0. 0. 0. 0. 0. 0. 0. 0. 0. 0. 0. 0. 0. 0. 0. 0.
      0. 0. 0. 0. 0. 0. 0. 1.76140606e-001 0. 0. 0. 0. 0. 0. 0. 0. 0.
      2.80478690e-002 0. 0. 0. 0. 0. 0. 0. 0. 0. 0. 4.26327586e-002 0.
      0. 0. 0. 0. 0. 0. 0. 0. 0. 2.61780098e-002 0. 0. 0. 0. 0. 0. 0. 0.
      0. 0. 3.85190733e-002 0. 0. 0. 0. 0. 0. 0. 0. 0. 0.
      3.14136110e-002 0. 0. 0. 0. 0. 0. 0. 0. 0. 0. 1.68287214e-002 0.
      0. 0. 0. 0. 0. 0. 0. 0. 0. 3.92670147e-002 0. 0. 0. 0. 0. 0. 0. 0.
      0. 0. 3.66492160e-002 0. 0. 0. 0. 0. 0. 0. 0. 0. 0.
      6.20792806e-002 0. 0. 0. 0. 0. 0. 0. 0. 0. 0. 1.00972325e-001 0.
      0. 0. 0. 0. 0. 0. 0. 0. 0. 1.72400892e-001 0. 0. 0. 0. 0. 0. 0. 0.
      0. 0. 2.28870600e-001 0. 0. 0. 0. 0. 0. 0. 0. 0. 0. 0. 0. 0. 0. 0.
      0. 0. 0. 0. 0. 0. 0. 0. 0. 0. 0. 0. 0. 0. 0. 0. 0. 0. 0. 0. 0. 0.
      0. 0. 0. 0. 0. 0. 3.71471018e-004 1.68647841e-001 0. 0. 0. 0. 0.
      0. 0. 0. 0. 3.12035661e-002 0. 0. 0. 0. 0. 0. 0. 0. 0. 0.
      2.26597320e-002 0. 0. 0. 0. 0. 0. 0. 0. 0. 0. 4.16047536e-002 0.
      0. 0. 0. 0. 0. 0. 0. 0. 0. 3.08320951e-002 0. 0. 0. 0. 0. 0. 0. 0.
      0. 0. 1.59732532e-002 0. 0. 0. 0. 0. 0. 0. 0. 0. 0.
      2.04309057e-002 0. 0. 0. 0. 0. 0. 0. 0. 0. 0. 4.16047536e-002 0.
      0. 0. 0. 0. 0. 0. 0. 0. 0. 4.75482903e-002 0. 0. 0. 0. 0. 0. 0. 0.
      0. 0. 7.05794916e-002 0. 0. 0. 0. 0. 0. 0. 0. 0. 0.
      1.05869241e-001 0. 0. 0. 0. 0. 0. 0. 0. 0. 0. 1.71619609e-001 0.
      0. 0. 0. 0. 0. 0. 0. 0. 0. 2.30312034e-001 0. 0. 0. 0. 0. 0. 0. 0.
      0. 0. 7.42942037e-004 0. 0. 0. 0. 0. 0. 0. 0. 0. 0.</_>
    <_>
      2.21904088e-002 5.44022918e-002 1.66785970e-001 0. 0. 0. 0. 0. 0.
      0. 0. 5.01073748e-002 0. 0. 0. 0. 0. 0. 0. 0. 0. 0.
      4.58124541e-002 0. 0. 0. 0. 0. 0. 0. 0. 0. 0. 3.79384384e-002 0.
      0. 0. 0. 0. 0. 0. 0. 0. 0. 4.08017188e-002 0. 0. 0. 0. 0. 0. 0. 0.
      0. 0. 5.51181100e-002 0. 0. 0. 0. 0. 0. 0. 0. 0. 0.
      5.72655685e-002 0. 0. 0. 0. 0. 0. 0. 0. 0. 0. 5.01073748e-002 0.
      0. 0. 0. 0. 0. 0. 0. 0. 0. 5.22548333e-002 0. 0. 0. 0. 0. 0. 0. 0.
      0. 0. 4.79599126e-002 0. 0. 0. 0. 0. 0. 0. 0. 0. 0.
      6.22763075e-002 0. 0. 0. 0. 0. 0. 0. 0. 0. 0. 4.29491773e-002 0.
      0. 0. 0. 0. 0. 0. 0. 0. 0. 6.58554062e-002 0. 0. 0. 0. 0. 0. 0. 0.
      0. 0. 6.51395842e-002 0. 0. 0. 0. 0. 0. 0. 0. 0. 0.
      8.30350742e-002 0. 0. 0. 0. 0. 0. 0. 0. 0. 0. 0. 0. 0. 0. 0. 0. 0.
      0. 0. 0. 0. 2.21904088e-002 5.44022918e-002 1.66785970e-001 0. 0.
      0. 0. 0. 0. 0. 0. 5.01073748e-002 0. 0. 0. 0. 0. 0. 0. 0. 0. 0.
      4.58124541e-002 0. 0. 0. 0. 0. 0. 0. 0. 0. 0. 3.79384384e-002 0.
      0. 0. 0. 0. 0. 0. 0. 0. 0. 4.08017188e-002 0. 0. 0. 0. 0. 0. 0. 0.
      0. 0. 5.51181100e-002 0. 0. 0. 0. 0. 0. 0. 0. 0. 0.
      5.72655685e-002 0. 0. 0. 0. 0. 0. 0. 0. 0. 0. 5.01073748e-002 0.
      0. 0. 0. 0. 0. 0. 0. 0. 0. 5.08231930e-002 0. 0. 0. 0. 0. 0. 0. 0.
      0. 0. 4.93915528e-002 0. 0. 0. 0. 0. 0. 0. 0. 0. 0.
      6.22763075e-002 0. 0. 0. 0. 0. 0. 0. 0. 0. 0. 4.29491773e-002 0.
      0. 0. 0. 0. 0. 0. 0. 0. 0. 6.51395842e-002 0. 0. 0. 0. 0. 0. 0. 0.
      0. 0. 6.58554062e-002 0. 0. 0. 0. 0. 0. 0. 0. 0. 0.
      8.30350742e-002 0. 0. 0. 0. 0. 0. 0. 0. 0. 0. 0. 0. 0. 0. 0. 0. 0.
      0. 0. 0. 0. 2.21904088e-002 5.44022918e-002 1.66785970e-001 0. 0.
      0. 0. 0. 0. 0. 0. 5.01073748e-002 0. 0. 0. 0. 0. 0. 0. 0. 0. 0.
      4.58124541e-002 0. 0. 0. 0. 0. 0. 0. 0. 0. 0. 3.79384384e-002 0.
      0. 0. 0. 0. 0. 0. 0. 0. 0. 4.08017188e-002 0. 0. 0. 0. 0. 0. 0. 0.
      0. 0. 5.51181100e-002 0. 0. 0. 0. 0. 0. 0. 0. 0. 0.
      5.72655685e-002 0. 0. 0. 0. 0. 0. 0. 0. 0. 0. 5.01073748e-002 0.
      0. 0. 0. 0. 0. 0. 0. 0. 0. 5.22548333e-002 0. 0. 0. 0. 0. 0. 0. 0.
      0. 0. 4.79599126e-002 0. 0. 0. 0. 0. 0. 0. 0. 0. 0.
      6.22763075e-002 0. 0. 0. 0. 0. 0. 0. 0. 0. 0. 4.29491773e-002 0.
      0. 0. 0. 0. 0. 0. 0. 0. 0. 6.58554062e-002 0. 0. 0. 0. 0. 0. 0. 0.
      0. 0. 6.51395842e-002 0. 0. 0. 0. 0. 0. 0. 0. 0. 0.
      8.30350742e-002 0. 0. 0. 0. 0. 0. 0. 0. 0. 0. 0. 0. 0. 0. 0. 0. 0.
      0. 0. 0. 0.</_>
    <_>
      0. 0. 0. 0. 0. 0. 0. 0. 0. 0. 0. 1.86828582e-003 0. 0. 0. 0. 0. 0.
      0. 0. 0. 0. 2.33535725e-003 0. 0. 0. 0. 0. 0. 0. 0. 0. 0.
      2.89584305e-002 0. 0. 0. 0. 0. 0. 0. 0. 0. 0. 2.94255018e-002 0.
      0. 0. 0. 0. 0. 0. 0. 0. 0. 3.73657160e-002 0. 0. 0. 0. 0. 0. 0. 0.
      0. 0. 3.50303613e-002 0. 0. 0. 0. 0. 0. 0. 0. 0. 0.
      4.15693596e-002 0. 0. 0. 0. 0. 0. 0. 0. 0. 0. 7.84680024e-002 0.
      0. 0. 0. 0. 0. 0. 0. 0. 0. 3.92340012e-002 0. 0. 0. 0. 0. 0. 0. 0.
      0. 0. 3.22279297e-002 0. 0. 0. 0. 0. 0. 0. 0. 0. 0.
      1.63475007e-001 0. 0. 0. 0. 0. 0. 0. 0. 0. 0. 1.47594586e-001 0.
      0. 0. 0. 0. 0. 0. 0. 0. 0. 1.55534804e-001 0. 0. 0. 0. 0. 0. 0. 0.
      0. 0. 2.06912652e-001 0. 0. 0. 0. 0. 0. 0. 0. 0. 0. 0. 0. 0. 0. 0.
      0. 0. 0. 0. 0. 0. 0. 0. 0. 0. 0. 0. 0. 0. 0. 0. 0. 1.85960019e-003
      0. 0. 0. 0. 0. 0. 0. 0. 0. 0. 2.32450012e-003 0. 0. 0. 0. 0. 0. 0.
      0. 0. 0. 2.41748020e-002 0. 0. 0. 0. 0. 0. 0. 0. 0. 0.
      2.92887036e-002 0. 0. 0. 0. 0. 0. 0. 0. 0. 0. 3.85867022e-002 0.
      0. 0. 0. 0. 0. 0. 0. 0. 0. 3.67271043e-002 0. 0. 0. 0. 0. 0. 0. 0.
      0. 0. 3.53324041e-002 0. 0. 0. 0. 0. 0. 0. 0. 0. 0.
      8.04277062e-002 0. 0. 0. 0. 0. 0. 0. 0. 0. 0. 4.46304046e-002 0.
      0. 0. 0. 0. 0. 0. 0. 0. 0. 3.53324041e-002 0. 0. 0. 0. 0. 0. 0. 0.
      0. 0. 1.45513713e-001 0. 0. 0. 0. 0. 0. 0. 0. 0. 0.
      1.64574623e-001 0. 0. 0. 0. 0. 0. 0. 0. 0. 0. 1.61320314e-001 0.
      0. 0. 0. 0. 0. 0. 0. 0. 0. 1.99907020e-001 0. 0. 0. 0. 0. 0. 0. 0.
      0. 0. 0. 0. 0. 0. 0. 0. 0. 0. 0. 0. 0. 0. 0. 0. 0. 0. 0. 0. 0. 0.
      0. 0. 1.89125293e-003 0. 0. 0. 0. 0. 0. 0. 0. 0. 0.
      2.36406620e-003 0. 0. 0. 0. 0. 0. 0. 0. 0. 0. 3.30969272e-003 0.
      0. 0. 0. 0. 0. 0. 0. 0. 0. 2.36406620e-003 0. 0. 0. 0. 0. 0. 0. 0.
      0. 0. 8.03782512e-003 0. 0. 0. 0. 0. 0. 0. 0. 0. 0.
      1.08747045e-002 0. 0. 0. 0. 0. 0. 0. 0. 0. 0. 1.18203312e-002 0.
      0. 0. 0. 0. 0. 0. 0. 0. 0. 2.78959814e-002 0. 0. 0. 0. 0. 0. 0. 0.
      0. 0. 4.82269488e-002 0. 0. 0. 0. 0. 0. 0. 0. 0. 0.
      8.88888910e-002 0. 0. 0. 0. 0. 0. 0. 0. 0. 0. 1.54609933e-001 0.
      0. 0. 0. 0. 0. 0. 0. 0. 0. 1.77777782e-001 0. 0. 0. 0. 0. 0. 0. 0.
      0. 0. 2.12765962e-001 4.72813249e-002 0. 0. 0. 0. 0. 0. 0. 0. 0.
      2.01891258e-001 0. 0. 0. 0. 0. 0. 0. 0. 0. 0. 0. 0. 0. 0. 0. 0. 0.
      0. 0. 0. 0.</_>
    <_>
      2.53807101e-003 0. 0. 0. 0. 0. 0. 0. 0. 0. 0. 8.12182762e-003 0.
      0. 0. 0. 0. 0. 0. 0. 0. 0. 2.48730965e-002 0. 0. 0. 0. 0. 0. 0. 0.
      0. 0. 5.43147214e-002 0. 0. 0. 0. 0. 0. 0. 0. 0. 0.
      5.58375642e-002 0. 0. 0. 0. 0. 0. 0. 0. 0. 0. 5.22842631e-002 0.
      0. 0. 0. 0. 0. 0. 0. 0. 0. 4.56852801e-002 0. 0. 0. 0. 0. 0. 0. 0.
      0. 0. 4.82233502e-002 0. 0. 0. 0. 0. 0. 0. 0. 0. 0.
      6.64974600e-002 0. 0. 0. 0. 0. 0. 0. 0. 0. 0. 6.90355301e-002 0.
      0. 0. 0. 0. 0. 0. 0. 0. 0. 7.20812157e-002 0. 0. 0. 0. 0. 0. 0. 0.
      0. 0. 1.00507617e-001 0. 0. 0. 0. 0. 0. 0. 0. 0. 0.
      5.78680187e-002 0. 0. 0. 0. 0. 0. 0. 0. 0. 0. 8.32487345e-002 0.
      0. 0. 0. 0. 0. 0. 0. 0. 0. 1.40101522e-001 0. 0. 0. 0. 0. 0. 0. 0.
      0. 0. 3.75634506e-002 8.12182724e-002 0. 0. 0. 0. 0. 0. 0. 0. 0.
      2.03562342e-003 0. 0. 0. 0. 0. 0. 0. 0. 0. 0. 6.10687025e-003 0.
      0. 0. 0. 0. 0. 0. 0. 0. 0. 1.37404576e-002 0. 0. 0. 0. 0. 0. 0. 0.
      0. 0. 3.76590341e-002 0. 0. 0. 0. 0. 0. 0. 0. 0. 0.
      5.95419854e-002 0. 0. 0. 0. 0. 0. 0. 0. 0. 0. 6.10687025e-002 0.
      0. 0. 0. 0. 0. 0. 0. 0. 0. 4.52926196e-002 0. 0. 0. 0. 0. 0. 0. 0.
      0. 0. 3.46055962e-002 0. 0. 0. 0. 0. 0. 0. 0. 0. 0.
      4.83460575e-002 0. 0. 0. 0. 0. 0. 0. 0. 0. 0. 6.31043240e-002 0.
      0. 0. 0. 0. 0. 0. 0. 0. 0. 6.71755746e-002 0. 0. 0. 0. 0. 0. 0. 0.
      0. 0. 1.05852418e-001 0. 0. 0. 0. 0. 0. 0. 0. 0. 0.
      9.72010195e-002 0. 0. 0. 0. 0. 0. 0. 0. 0. 0. 9.72010195e-002 0.
      0. 0. 0. 0. 0. 0. 0. 0. 0. 1.42493635e-001 0. 0. 0. 0. 0. 0. 0. 0.
      0. 0. 3.71501260e-002 8.14249367e-002 0. 0. 0. 0. 0. 0. 0. 0. 0.
      1.52905204e-003 0. 0. 0. 0. 0. 0. 0. 0. 0. 0. 5.09683974e-003 0.
      0. 0. 0. 0. 0. 0. 0. 0. 0. 1.01936795e-002 0. 0. 0. 0. 0. 0. 0. 0.
      0. 0. 2.54842006e-002 0. 0. 0. 0. 0. 0. 0. 0. 0. 0.
      4.07747179e-002 0. 0. 0. 0. 0. 0. 0. 0. 0. 0. 4.99490313e-002 0.
      0. 0. 0. 0. 0. 0. 0. 0. 0. 5.19877672e-002 0. 0. 0. 0. 0. 0. 0. 0.
      0. 0. 4.74006124e-002 0. 0. 0. 0. 0. 0. 0. 0. 0. 0.
      3.87359820e-002 0. 0. 0. 0. 0. 0. 0. 0. 0. 0. 4.28134538e-002 0.
      0. 0. 0. 0. 0. 0. 0. 0. 0. 4.53618765e-002 0. 0. 0. 0. 0. 0. 0. 0.
      0. 0. 7.90010169e-002 0. 0. 0. 0. 0. 0. 0. 0. 0. 0.
      9.48012248e-002 0. 0. 0. 0. 0. 0. 0. 0. 0. 0. 1.45259932e-001 0.
      0. 0. 0. 0. 0. 0. 0. 0. 0. 1.83995917e-001 0. 0. 0. 0. 0. 0. 0. 0.
      0. 0. 5.60652390e-002 8.15494359e-002 0. 0. 0. 0. 0. 0. 0. 0. 0.</_>
    <_>
      2.38948618e-003 0. 0. 0. 0. 0. 0. 0. 0. 0. 0. 1.61290318e-001 0.
      0. 0. 0. 0. 0. 0. 0. 0. 0. 1.08721621e-001 0. 0. 0. 0. 0. 0. 0. 0.
      0. 0. 9.91636813e-002 0. 0. 0. 0. 0. 0. 0. 0. 0. 0.
      6.45161271e-002 0. 0. 0. 0. 0. 0. 0. 0. 0. 0. 8.24372768e-002 0.
      0. 0. 0. 0. 0. 0. 0. 0. 0. 8.48267600e-002 0. 0. 0. 0. 0. 0. 0. 0.
      0. 0. 6.69056177e-002 0. 0. 0. 0. 0. 0. 0. 0. 0. 0.
      5.37634417e-002 0. 0. 0. 0. 0. 0. 0. 0. 0. 0. 4.18160111e-002 0.
      0. 0. 0. 0. 0. 0. 0. 0. 0. 4.42054942e-002 0. 0. 0. 0. 0. 0. 0. 0.
      0. 0. 2.27001198e-002 0. 0. 0. 0. 0. 0. 0. 0. 0. 0.
      2.03106329e-002 0. 0. 0. 0. 0. 0. 0. 0. 0. 0. 1.31421741e-002 0.
      0. 0. 0. 0. 0. 0. 0. 0. 0. 8.12425315e-002 0. 0. 0. 0. 0. 0. 0. 0.
      0. 0. 5.25686964e-002 0. 0. 0. 0. 0. 0. 0. 0. 0. 0.
      2.31532529e-002 0. 0. 0. 0. 0. 0. 0. 0. 0. 0. 1.57662630e-001 0.
      0. 0. 0. 0. 0. 0. 0. 0. 0. 1.09151050e-001 0. 0. 0. 0. 0. 0. 0. 0.
      0. 0. 9.59206149e-002 0. 0. 0. 0. 0. 0. 0. 0. 0. 0.
      6.17420077e-002 0. 0. 0. 0. 0. 0. 0. 0. 0. 0. 6.17420077e-002 0.
      0. 0. 0. 0. 0. 0. 0. 0. 0. 8.04851130e-002 0. 0. 0. 0. 0. 0. 0. 0.
      0. 0. 7.05622956e-002 0. 0. 0. 0. 0. 0. 0. 0. 0. 0.
      6.39470816e-002 0. 0. 0. 0. 0. 0. 0. 0. 0. 0. 5.51267900e-002 0.
      0. 0. 0. 0. 0. 0. 0. 0. 0. 4.07938249e-002 0. 0. 0. 0. 0. 0. 0. 0.
      0. 0. 2.42557880e-002 0. 0. 0. 0. 0. 0. 0. 0. 0. 0.
      1.76405739e-002 0. 0. 0. 0. 0. 0. 0. 0. 0. 0. 1.65380370e-002 0.
      0. 0. 0. 0. 0. 0. 0. 0. 0. 6.61521498e-003 7.60749727e-002 0. 0.
      0. 0. 0. 0. 0. 0. 0. 3.85887548e-002 0. 0. 0. 0. 0. 0. 0. 0. 0. 0.
      1.34680131e-002 9.36026946e-002 0. 0. 0. 0. 0. 0. 0. 0. 0.
      6.39730617e-002 1.30639732e-001 0. 0. 0. 0. 0. 0. 0. 0. 0.
      7.60942772e-002 5.11784516e-002 0. 0. 0. 0. 0. 0. 0. 0. 0.
      1.10437714e-001 0. 0. 0. 0. 0. 0. 0. 0. 0. 0. 8.14814791e-002 0.
      0. 0. 0. 0. 0. 0. 0. 0. 0. 4.71380465e-002 0. 0. 0. 0. 0. 0. 0. 0.
      0. 0. 3.70370373e-002 0. 0. 0. 0. 0. 0. 0. 0. 0. 0.
      5.05050495e-002 0. 0. 0. 0. 0. 0. 0. 0. 0. 0. 4.10774425e-002 0.
      0. 0. 0. 0. 0. 0. 0. 0. 0. 4.37710434e-002 0. 0. 0. 0. 0. 0. 0. 0.
      0. 0. 3.29966322e-002 0. 0. 0. 0. 0. 0. 0. 0. 0. 0.
      2.55892258e-002 0. 0. 0. 0. 0. 0. 0. 0. 0. 0. 9.42760985e-003 0.
      0. 0. 0. 0. 0. 0. 0. 0. 0. 1.61616169e-002 0. 0. 0. 0. 0. 0. 0. 0.
      0. 0. 6.73400657e-003 4.37710434e-002 0. 0. 0. 0. 0. 0. 0. 0. 0.
      2.49158256e-002 0. 0. 0. 0. 0. 0. 0. 0. 0. 0.</_>
    <_>
      3.45554166e-002 0. 0. 0. 0. 0. 0. 0. 0. 0. 0. 8.42814986e-003 0.
      0. 0. 0. 0. 0. 0. 0. 0. 0. 8.84955749e-003 0. 0. 0. 0. 0. 0. 0. 0.
      0. 0. 9.69237275e-003 0. 0. 0. 0. 0. 0. 0. 0. 0. 0.
      7.16392742e-003 0. 0. 0. 0. 0. 0. 0. 0. 0. 0. 2.61272658e-002 0.
      0. 0. 0. 0. 0. 0. 0. 0. 0. 5.05689019e-003 0. 0. 0. 0. 0. 0. 0. 0.
      0. 0. 6.74251979e-003 0. 0. 0. 0. 0. 0. 0. 0. 0. 0.
      8.84955749e-003 0. 0. 0. 0. 0. 0. 0. 0. 0. 0. 1.47492625e-002 0.
      0. 0. 0. 0. 0. 0. 0. 0. 0. 3.79266739e-002 0. 0. 0. 0. 0. 0. 0. 0.
      0. 0. 6.11040890e-002 0. 0. 0. 0. 0. 0. 0. 0. 0. 0.
      1.25158027e-001 0. 0. 0. 0. 0. 0. 0. 0. 0. 0. 2.33459756e-001 0.
      0. 0. 0. 0. 0. 0. 0. 0. 0. 2.00589970e-001 2.94985250e-002
      1.68562993e-001 0. 0. 0. 0. 0. 0. 0. 0. 1.34850396e-002 0. 0. 0.
      0. 0. 0. 0. 0. 0. 0. 3.45545374e-002 0. 0. 0. 0. 0. 0. 0. 0. 0. 0.
      1.04079936e-002 0. 0. 0. 0. 0. 0. 0. 0. 0. 0. 1.12406332e-002 0.
      0. 0. 0. 0. 0. 0. 0. 0. 0. 6.24479586e-003 0. 0. 0. 0. 0. 0. 0. 0.
      0. 0. 5.82847605e-003 0. 0. 0. 0. 0. 0. 0. 0. 0. 0.
      2.74771024e-002 0. 0. 0. 0. 0. 0. 0. 0. 0. 0. 4.57951706e-003 0.
      0. 0. 0. 0. 0. 0. 0. 0. 0. 6.66111568e-003 0. 0. 0. 0. 0. 0. 0. 0.
      0. 0. 7.91007467e-003 0. 0. 0. 0. 0. 0. 0. 0. 0. 0.
      1.87343881e-002 0. 0. 0. 0. 0. 0. 0. 0. 0. 0. 3.78850959e-002 0.
      0. 0. 0. 0. 0. 0. 0. 0. 0. 7.61865079e-002 0. 0. 0. 0. 0. 0. 0. 0.
      0. 0. 1.49042457e-001 0. 0. 0. 0. 0. 0. 0. 0. 0. 0.
      2.05661952e-001 1.31557032e-001 0. 0. 0. 0. 0. 0. 0. 0. 0.
      2.23980010e-001 2.91423816e-002 0. 0. 0. 0. 0. 0. 0. 0. 0.
      1.29059115e-002 0. 0. 0. 0. 0. 0. 0. 0. 0. 0. 3.51099819e-002 0.
      0. 0. 0. 0. 0. 0. 0. 0. 0. 7.61421304e-003 0. 0. 0. 0. 0. 0. 0. 0.
      0. 0. 1.31133674e-002 0. 0. 0. 0. 0. 0. 0. 0. 0. 0.
      7.19120121e-003 0. 0. 0. 0. 0. 0. 0. 0. 0. 0. 7.19120121e-003 0.
      0. 0. 0. 0. 0. 0. 0. 0. 0. 2.53807101e-002 0. 0. 0. 0. 0. 0. 0. 0.
      0. 0. 6.34517753e-003 0. 0. 0. 0. 0. 0. 0. 0. 0. 0.
      5.92216570e-003 0. 0. 0. 0. 0. 0. 0. 0. 0. 0. 9.30626038e-003 0.
      0. 0. 0. 0. 0. 0. 0. 0. 0. 2.07275804e-002 0. 0. 0. 0. 0. 0. 0. 0.
      0. 0. 4.69543152e-002 0. 0. 0. 0. 0. 0. 0. 0. 0. 0.
      6.81049079e-002 0. 0. 0. 0. 0. 0. 0. 0. 0. 0. 1.37478843e-001 0.
      0. 0. 0. 0. 0. 0. 0. 0. 0. 2.05583751e-001 1.29864633e-001 0. 0.
      0. 0. 0. 0. 0. 0. 0. 2.30541453e-001 2.96108294e-002 0. 0. 0. 0.
      0. 0. 0. 0. 0. 1.39593910e-002 0. 0. 0. 0. 0. 0. 0. 0. 0. 0.</_>
    <_>
      0. 0. 0. 0. 0. 0. 0. 0. 0. 0. 0. 0. 0. 0. 0. 0. 0. 0. 0. 0. 0. 0.
      0. 0. 0. 0. 0. 0. 0. 0. 0. 0. 0. 0. 0. 0. 0. 0. 0. 0. 0. 0. 0. 0.
      0. 0. 0. 0. 0. 0. 0. 0. 0. 0. 0. 0. 0. 0. 0. 0. 0. 0. 0. 0. 0. 0.
      0. 0. 0. 0. 0. 0. 0. 0. 0. 0. 0. 0. 0. 0. 0. 0. 0. 0. 0. 0. 0. 0.
      0. 0. 0. 0. 0. 0. 0. 0. 0. 0. 0. 1.20048015e-003 0. 0. 0. 0. 0. 0.
      0. 0. 0. 0. 1.56062422e-002 0. 0. 0. 0. 0. 0. 0. 0. 0. 0.
      3.36134471e-002 0. 0. 0. 0. 0. 0. 0. 0. 0. 0. 7.32292905e-002 0.
      0. 0. 0. 0. 0. 0. 0. 0. 0. 1.81272507e-001 2.37695083e-001 0. 0.
      0. 0. 0. 0. 0. 0. 0. 2.67707080e-001 1.84873953e-001 0. 0. 0. 0.
      0. 0. 0. 0. 0. 4.80192062e-003 0. 0. 0. 0. 0. 0. 0. 0. 0. 0. 0. 0.
      0. 0. 0. 0. 0. 0. 0. 0. 0. 0. 0. 0. 0. 0. 0. 0. 0. 0. 0. 0. 0. 0.
      0. 0. 0. 0. 0. 0. 0. 0. 0. 0. 0. 0. 0. 0. 0. 0. 0. 0. 0. 0. 0. 0.
      0. 0. 0. 0. 0. 0. 0. 0. 0. 0. 0. 0. 0. 0. 0. 0. 0. 0. 0. 0. 0. 0.
      0. 0. 0. 0. 0. 0. 0. 0. 0. 0. 0. 0. 0. 0. 0. 0. 0. 0. 0. 0. 0. 0.
      0. 0. 0. 0. 0. 0. 0. 0. 0. 2.22965446e-003 0. 0. 0. 0. 0. 0. 0. 0.
      0. 0. 1.67224072e-002 0. 0. 0. 0. 0. 0. 0. 0. 0. 0.
      3.34448144e-002 0. 0. 0. 0. 0. 0. 0. 0. 0. 0. 6.46599755e-002 0.
      0. 0. 0. 0. 0. 0. 0. 0. 0. 1.49386838e-001 2.80936450e-001 0. 0.
      0. 0. 0. 0. 0. 0. 0. 2.93199539e-001 1.54960975e-001 0. 0. 0. 0.
      0. 0. 0. 0. 0. 4.45930893e-003 0. 0. 0. 0. 0. 0. 0. 0. 0. 0. 0. 0.
      0. 0. 0. 0. 0. 0. 0. 0. 0. 0. 0. 0. 0. 0. 0. 0. 0. 0. 0. 0. 0. 0.
      0. 0. 0. 0. 0. 0. 0. 0. 0. 0. 0. 0. 0. 0. 0. 0. 0. 0. 0. 0. 0. 0.
      0. 0. 0. 0. 0. 0. 0. 0. 0. 0. 0. 0. 0. 0. 0. 0. 0. 0. 0. 0. 0. 0.
      0. 0. 0. 0. 0. 0. 0. 0. 0. 0. 0. 0. 0. 0. 0. 0. 0. 0. 0. 0. 0. 0.
      0. 0. 0. 0. 0. 0. 0. 0. 0. 0. 0. 0. 0. 0. 0. 0. 0. 0. 0. 0. 0. 0.
      0. 0. 0. 0. 0. 0. 0. 0. 0. 0. 0. 0. 0. 0. 0. 0. 0. 0. 0. 0.
      5.10855671e-003 0. 0. 0. 0. 0. 0. 0. 0. 0. 0. 6.64112419e-002
      6.13026805e-002 2.65644968e-001 0. 0. 0. 0. 0. 0. 0. 0.
      2.72030652e-001 3.21839094e-001 0. 0. 0. 0. 0. 0. 0. 0. 0.
      7.66283507e-003 0. 0. 0. 0. 0. 0. 0. 0. 0. 0.</_>
    <_>
      0. 0. 0. 0. 0. 0. 0. 0. 0. 0. 0. 0. 0. 0. 0. 0. 0. 0. 0. 0. 0. 0.
      0. 0. 0. 0. 0. 0. 0. 0. 0. 0. 0. 6.77506789e-004 0. 0. 0. 0. 0. 0.
      0. 0. 0. 0. 4.74254740e-003 0. 0. 0. 0. 0. 0. 0. 0. 0. 0.
      9.48509481e-003 0. 0. 0. 0. 0. 0. 0. 0. 0. 0. 2.03252025e-002 0.
      0. 0. 0. 0. 0. 0. 0. 0. 0. 3.72628719e-002 0. 0. 0. 0. 0. 0. 0. 0.
      0. 0. 8.67208689e-002 0. 0. 0. 0. 0. 0. 0. 0. 0. 0.
      5.48780486e-002 0. 0. 0. 0. 0. 0. 0. 0. 0. 0. 7.18157217e-002 0.
      0. 0. 0. 0. 0. 0. 0. 0. 0. 1.13143630e-001 0. 0. 0. 0. 0. 0. 0. 0.
      0. 0. 1.28726289e-001 0. 0. 0. 0. 0. 0. 0. 0. 0. 0.
      1.11788616e-001 0. 0. 0. 0. 0. 0. 0. 0. 0. 0. 2.19512194e-001 0.
      0. 0. 0. 0. 0. 0. 0. 0. 0. 0. 1.40921414e-001 0. 0. 0. 0. 0. 0. 0.
      0. 0. 0. 0. 0. 0. 0. 0. 0. 0. 0. 0. 0. 0. 0. 0. 0. 0. 0. 0. 0. 0.
      0. 0. 0. 0. 0. 0. 0. 0. 0. 0. 0. 0. 0. 2.02702708e-003 0. 0. 0. 0.
      0. 0. 0. 0. 0. 0. 3.37837846e-003 0. 0. 0. 0. 0. 0. 0. 0. 0. 0.
      1.21621620e-002 0. 0. 0. 0. 0. 0. 0. 0. 0. 0. 2.02702694e-002 0.
      0. 0. 0. 0. 0. 0. 0. 0. 0. 4.25675660e-002 0. 0. 0. 0. 0. 0. 0. 0.
      0. 0. 8.04054067e-002 0. 0. 0. 0. 0. 0. 0. 0. 0. 0.
      5.74324317e-002 0. 0. 0. 0. 0. 0. 0. 0. 0. 0. 7.29729757e-002 0.
      0. 0. 0. 0. 0. 0. 0. 0. 0. 1.11486487e-001 0. 0. 0. 0. 0. 0. 0. 0.
      0. 0. 1.25000000e-001 0. 0. 0. 0. 0. 0. 0. 0. 0. 0.
      1.12837836e-001 0. 0. 0. 0. 0. 0. 0. 0. 0. 0. 2.18918920e-001 0.
      0. 0. 0. 0. 0. 0. 0. 0. 0. 0. 1.40540540e-001 0. 0. 0. 0. 0. 0. 0.
      0. 0. 0. 0. 0. 0. 0. 0. 0. 0. 0. 0. 0. 0. 0. 0. 0. 0. 0. 0. 0. 0.
      0. 0. 0. 0. 0. 0. 0. 0. 0. 0. 0. 0. 0. 1.89513585e-003 0. 0. 0. 0.
      0. 0. 0. 0. 0. 0. 3.15855979e-003 0. 0. 0. 0. 0. 0. 0. 0. 0. 0.
      8.84396676e-003 0. 0. 0. 0. 0. 0. 0. 0. 0. 0. 2.08464935e-002 0.
      0. 0. 0. 0. 0. 0. 0. 0. 0. 3.53758670e-002 0. 0. 0. 0. 0. 0. 0. 0.
      0. 0. 7.77005702e-002 0. 0. 0. 0. 0. 0. 0. 0. 0. 0.
      5.36955148e-002 0. 0. 0. 0. 0. 0. 0. 0. 0. 0. 6.56980425e-002 0.
      0. 0. 0. 0. 0. 0. 0. 0. 0. 1.05495892e-001 0. 0. 0. 0. 0. 0. 0. 0.
      0. 0. 1.20025270e-001 0. 0. 0. 0. 0. 0. 0. 0. 0. 0.
      1.02969043e-001 0. 0. 0. 0. 0. 0. 0. 0. 0. 0. 2.72899568e-001 0.
      0. 0. 0. 0. 0. 0. 0. 0. 0. 0. 1.31396085e-001 0. 0. 0. 0. 0. 0. 0.
      0. 0.</_>
    <_>
      0. 0. 0. 0. 0. 0. 0. 0. 0. 0. 0. 0. 0. 0. 0. 0. 0. 0. 0. 0. 0. 0.
      0. 0. 0. 0. 0. 0. 0. 0. 0. 0. 0. 0. 0. 0. 0. 0. 0. 0. 0. 0. 0. 0.
      0. 0. 0. 0. 0. 0. 0. 0. 0. 0. 0. 0. 0. 0. 0. 0. 0. 0. 0. 0. 0. 0.
      0. 0. 0. 0. 0. 0. 0. 0. 0. 0. 0. 9.14076809e-004 0. 0. 0. 0. 0. 0.
      0. 0. 0. 0. 3.19926883e-003 0. 0. 0. 0. 0. 0. 0. 0. 0. 0.
      6.85557583e-003 0. 0. 0. 0. 0. 0. 0. 0. 0. 0. 1.14259599e-002 0.
      0. 0. 0. 0. 0. 0. 0. 0. 0. 1.69104207e-002 0. 0. 5.48903108e-001
      0. 0. 0. 0. 0. 0. 0. 9.78062153e-002 0. 0. 0. 0. 0. 0. 0. 0. 0. 0.
      9.18647200e-002 0. 0. 0. 0. 0. 0. 0. 0. 0. 0. 1.09232172e-001 0.
      0. 0. 0. 0. 0. 0. 0. 0. 0. 4.57038404e-004 0. 1.12431444e-001 0.
      0. 0. 0. 0. 0. 0. 0. 0. 0. 0. 0. 0. 0. 0. 0. 0. 0. 0. 0. 0. 0. 0.
      0. 0. 0. 0. 0. 0. 0. 0. 0. 0. 0. 0. 0. 0. 0. 0. 0. 0. 0. 0. 0. 0.
      0. 0. 0. 0. 0. 0. 0. 0. 0. 0. 0. 0. 0. 0. 0. 0. 0. 0. 0. 0. 0. 0.
      0. 0. 0. 0. 0. 0. 0. 0. 0. 0. 0. 0. 0. 0. 0. 0. 0. 0.
      9.31098708e-004 0. 0. 0. 0. 0. 0. 0. 0. 0. 0. 3.25884554e-003 0.
      0. 0. 0. 0. 0. 0. 0. 0. 0. 6.98324014e-003 0. 0. 0. 0. 0. 0. 0. 0.
      0. 0. 1.07076354e-002 0. 0. 0. 0. 0. 0. 0. 0. 0. 0.
      1.72253251e-002 0. 0. 0. 0. 0. 0. 0. 0. 0. 0. 3.30540054e-002 0.
      0. 5.40968359e-001 0. 0. 0. 0. 0. 0. 0. 1.36405960e-001 0. 0. 0.
      0. 0. 0. 0. 0. 0. 0. 1.30819365e-001 0. 0. 0. 0. 0. 0. 0. 0. 0. 0.
      4.65549354e-004 0. 1.19180635e-001 0. 0. 0. 0. 0. 0. 0. 0. 0. 0.
      0. 0. 0. 0. 0. 0. 0. 0. 0. 0. 0. 0. 0. 0. 0. 0. 0. 0. 0. 0. 0. 0.
      0. 0. 0. 0. 0. 0. 0. 0. 0. 0. 0. 0. 0. 0. 0. 0. 0. 0. 0. 0. 0. 0.
      0. 0. 0. 0. 0. 0. 0. 0. 0. 0. 0. 0. 0. 0. 0. 0. 0. 0. 0. 0. 0. 0.
      0. 0. 0. 0. 0. 0. 0. 0. 0. 5.63380262e-003 0. 0. 0. 0. 0. 0. 0. 0.
      0. 0. 1.97183099e-002 0. 0. 0. 0. 0. 0. 0. 0. 0. 0.
      4.22535203e-002 0. 0. 0. 0. 0. 0. 0. 0. 0. 0. 6.47887290e-002 0.
      0. 0. 0. 0. 0. 0. 0. 0. 0. 1.04225352e-001 0. 0. 0. 0. 0. 0. 0. 0.
      0. 0. 2.00000003e-001 0. 0. 0. 0. 0. 0. 0. 0. 0. 0.
      2.84507036e-001 0. 0. 0. 0. 0. 0. 0. 0. 0. 0. 2.76056349e-001 0.
      0. 0. 0. 0. 0. 0. 0. 0. 0. 2.81690131e-003 0. 0. 0. 0. 0. 0. 0. 0.
      0. 0.</_>
    <_>
      2.74160393e-002 3.90678532e-002 0. 0. 0. 0. 0. 0. 0. 0. 0.
      1.43934200e-002 0. 0. 0. 0. 0. 0. 0. 0. 0. 0. 3.42700491e-003 0.
      0. 0. 0. 0. 0. 0. 0. 0. 0. 1.23372171e-002 0. 0. 0. 0. 0. 0. 0. 0.
      0. 0. 1.02810143e-002 0. 0. 0. 0. 0. 0. 0. 0. 0. 0.
      1.71350241e-002 0. 0. 0. 0. 0. 0. 0. 0. 0. 0. 2.12474298e-002 0.
      0. 0. 0. 0. 0. 0. 0. 0. 0. 2.67306380e-002 0. 0. 0. 0. 0. 0. 0. 0.
      0. 0. 2.74160393e-002 0. 0. 0. 0. 0. 0. 0. 0. 0. 0.
      4.31802608e-002 0. 0. 0. 0. 0. 0. 0. 0. 0. 0. 8.01919103e-002 0.
      0. 0. 0. 0. 0. 0. 0. 0. 0. 7.53941089e-002 0. 0. 0. 0. 0. 0. 0. 0.
      0. 0. 1.37080193e-001 0. 0. 0. 0. 0. 0. 0. 0. 0. 0.
      1.71350241e-001 0. 0. 0. 0. 0. 0. 0. 0. 0. 0. 2.83755988e-001 0.
      0. 0. 0. 0. 0. 0. 0. 0. 0. 9.59561300e-003 0. 0. 0. 0. 0. 0. 0. 0.
      0. 0. 2.81491913e-002 4.01125960e-002 0. 0. 0. 0. 0. 0. 0. 0. 0.
      1.54820550e-002 0. 0. 0. 0. 0. 0. 0. 0. 0. 0. 2.81491899e-003 0.
      0. 0. 0. 0. 0. 0. 0. 0. 0. 1.26671363e-002 0. 0. 0. 0. 0. 0. 0. 0.
      0. 0. 6.33356813e-003 0. 0. 0. 0. 0. 0. 0. 0. 0. 0.
      1.40745956e-002 0. 0. 0. 0. 0. 0. 0. 0. 0. 0. 9.14848689e-003 0.
      0. 0. 0. 0. 0. 0. 0. 0. 0. 2.53342725e-002 0. 0. 0. 0. 0. 0. 0. 0.
      0. 0. 2.74454616e-002 0. 0. 0. 0. 0. 0. 0. 0. 0. 0.
      3.72976772e-002 0. 0. 0. 0. 0. 0. 0. 0. 0. 0. 8.09289217e-002 0.
      0. 0. 0. 0. 0. 0. 0. 0. 0. 7.60028139e-002 0. 0. 0. 0. 0. 0. 0. 0.
      0. 0. 1.35116115e-001 0. 0. 0. 0. 0. 0. 0. 0. 0. 0.
      1.97748065e-001 0. 0. 0. 0. 0. 0. 0. 0. 0. 0. 2.82899380e-001 0.
      0. 0. 0. 0. 0. 0. 0. 0. 0. 8.44475720e-003 0. 0. 0. 0. 0. 0. 0. 0.
      0. 0. 2.67201066e-002 3.80761512e-002 0. 0. 0. 0. 0. 0. 0. 0. 0.
      1.33600533e-002 0. 0. 0. 0. 0. 0. 0. 0. 0. 0. 4.00801608e-003 0.
      0. 0. 0. 0. 0. 0. 0. 0. 0. 1.20240478e-002 0. 0. 0. 0. 0. 0. 0. 0.
      0. 0. 4.67601884e-003 0. 0. 0. 0. 0. 0. 0. 0. 0. 0.
      1.40280565e-002 0. 0. 0. 0. 0. 0. 0. 0. 0. 0. 6.68002665e-003 0.
      0. 0. 0. 0. 0. 0. 0. 0. 0. 1.67000666e-002 0. 0. 0. 0. 0. 0. 0. 0.
      0. 0. 1.87040754e-002 0. 0. 0. 0. 0. 0. 0. 0. 0. 0.
      3.54041420e-002 0. 0. 0. 0. 0. 0. 0. 0. 0. 0. 7.28122890e-002 0.
      0. 0. 0. 0. 0. 0. 0. 0. 0. 7.54843056e-002 5.01001999e-002 0. 0.
      0. 0. 0. 0. 0. 0. 0. 1.52304605e-001 0. 0. 0. 0. 0. 0. 0. 0. 0. 0.
      1.91716760e-001 0. 0. 0. 0. 0. 0. 0. 0. 0. 0. 2.54509032e-001 0.
      0. 0. 0. 0. 0. 0. 0. 0. 0. 1.26920510e-002 0. 0. 0. 0. 0. 0. 0. 0.
      0. 0.</_>
    <_>
      0. 0. 0. 0. 0. 0. 0. 0. 0. 0. 0. 0. 0. 0. 0. 0. 0. 0. 0. 0. 0. 0.
      0. 0. 0. 0. 0. 0. 0. 0. 0. 0. 0. 0. 0. 0. 0. 0. 0. 0. 0. 0. 0. 0.
      0. 0. 0. 0. 0. 0. 0. 0. 0. 0. 0. 0. 0. 0. 0. 0. 0. 0. 0. 0. 0. 0.
      0. 0. 0. 0. 0. 0. 0. 0. 0. 0. 0. 1.00418413e-002 0. 0. 0. 0. 0. 0.
      0. 0. 0. 0. 7.53138075e-003 0. 0. 0. 0. 0. 0. 0. 0. 0. 0.
      2.25941427e-002 0. 0. 0. 0. 0. 0. 0. 0. 0. 0. 7.53138065e-002
      5.02092056e-002 0. 0. 0. 0. 0. 0. 0. 0. 0. 7.11297095e-002 0. 0.
      0. 0. 0. 0. 0. 0. 0. 0. 1.16317995e-001 1.00418411e-001 0. 0. 0.
      0. 0. 0. 0. 0. 0. 1.75732210e-001 1.02092050e-001 0. 0. 0. 0. 0.
      0. 0. 0. 0. 2.46861920e-001 0. 0. 0. 0. 0. 0. 0. 0. 0. 0.
      2.17573214e-002 0. 0. 0. 0. 0. 0. 0. 0. 0. 0. 0. 0. 0. 0. 0. 0. 0.
      0. 0. 0. 0. 0. 0. 0. 0. 0. 0. 0. 0. 0. 0. 0. 0. 0. 0. 0. 0. 0. 0.
      0. 0. 0. 0. 0. 0. 0. 0. 0. 0. 0. 0. 0. 0. 0. 0. 0. 0. 0. 0. 0. 0.
      0. 0. 0. 0. 0. 0. 0. 0. 0. 0. 0. 0. 0. 0. 0. 0. 0. 0. 0. 0. 0. 0.
      0. 0. 0. 0. 1.19331740e-002 0. 0. 0. 0. 0. 0. 0. 0. 0. 0.
      8.75099469e-003 0. 0. 0. 0. 0. 0. 0. 0. 0. 0. 7.39856809e-002 0.
      0. 0. 0. 0. 0. 0. 0. 0. 0. 3.97772491e-002 4.77326959e-002 0. 0.
      0. 0. 0. 0. 0. 0. 0. 7.95544982e-002 0. 0. 0. 0. 0. 0. 0. 0. 0. 0.
      1.08194113e-001 1.81384251e-001 0. 0. 0. 0. 0. 0. 0. 0. 0.
      1.87748611e-001 0. 0. 0. 0. 0. 0. 0. 0. 0. 0. 2.43436754e-001 0.
      0. 0. 0. 0. 0. 0. 0. 0. 0. 1.75019894e-002 0. 0. 0. 0. 0. 0. 0. 0.
      0. 0. 0. 0. 0. 0. 0. 0. 0. 0. 0. 0. 0. 0. 0. 0. 0. 0. 0. 0. 0. 0.
      0. 0. 0. 0. 0. 0. 0. 0. 0. 0. 0. 0. 0. 0. 0. 0. 0. 0. 0. 0. 0. 0.
      0. 0. 0. 0. 0. 0. 0. 0. 0. 0. 0. 0. 0. 0. 0. 0. 0. 0. 0. 0. 0. 0.
      0. 0. 3.84024577e-003 0. 0. 0. 0. 0. 0. 0. 0. 0. 0.
      1.99692789e-002 0. 0. 0. 0. 0. 0. 0. 0. 0. 0. 2.53456216e-002 0.
      0. 0. 0. 0. 0. 0. 0. 0. 0. 7.75729641e-002 0. 0. 0. 0. 0. 0. 0. 0.
      0. 0. 2.99539175e-002 4.60829511e-002 0. 0. 0. 0. 0. 0. 0. 0. 0.
      7.91090652e-002 0. 0. 0. 0. 0. 0. 0. 0. 0. 0. 9.83102918e-002
      1.74347162e-001 0. 0. 0. 0. 0. 0. 0. 0. 0. 1.71274960e-001 0. 0.
      0. 0. 0. 0. 0. 0. 0. 0. 2.21966207e-001 3.37941647e-002 0. 0. 0.
      0. 0. 0. 0. 0. 0. 1.84331797e-002 0. 0. 0. 0. 0. 0. 0. 0. 0. 0.</_>
    <_>
      1.23839006e-002 0. 0. 0. 0. 0. 0. 0. 0. 0. 0. 4.48916405e-002 0.
      0. 0. 0. 0. 0. 0. 0. 0. 0. 4.79876176e-002 0. 0. 0. 0. 0. 0. 0. 0.
      0. 0. 6.34674951e-002 0. 0. 0. 0. 0. 0. 0. 0. 0. 0.
      4.64396290e-002 0. 0. 0. 0. 0. 0. 0. 0. 0. 0. 4.02476788e-002 0.
      0. 0. 0. 0. 0. 0. 0. 0. 0. 5.10835908e-002 0. 0. 0. 0. 0. 0. 0. 0.
      0. 0. 6.34674951e-002 0. 0. 0. 0. 0. 0. 0. 0. 0. 0.
      6.81114569e-002 0. 0. 0. 0. 0. 0. 0. 0. 0. 0. 1.00619197e-001 0.
      0. 0. 0. 0. 0. 0. 0. 0. 0. 9.28792581e-002 0. 0. 0. 0. 0. 0. 0. 0.
      0. 0. 1.17647059e-001 0. 0. 0. 0. 0. 0. 0. 0. 0. 0.
      1.08359136e-001 0. 0. 0. 0. 0. 0. 0. 0. 0. 0. 8.35913345e-002 0.
      0. 0. 0. 0. 0. 0. 0. 0. 0. 5.88235296e-002 0. 0. 0. 0. 0. 0. 0. 0.
      0. 0. 0. 0. 0. 0. 0. 0. 0. 0. 0. 0. 0. 1.23839006e-002 0. 0. 0. 0.
      0. 0. 0. 0. 0. 0. 4.48916405e-002 0. 0. 0. 0. 0. 0. 0. 0. 0. 0.
      4.79876176e-002 0. 0. 0. 0. 0. 0. 0. 0. 0. 0. 6.34674951e-002 0.
      0. 0. 0. 0. 0. 0. 0. 0. 0. 4.64396290e-002 0. 0. 0. 0. 0. 0. 0. 0.
      0. 0. 4.02476788e-002 0. 0. 0. 0. 0. 0. 0. 0. 0. 0.
      5.10835908e-002 0. 0. 0. 0. 0. 0. 0. 0. 0. 0. 6.34674951e-002 0.
      0. 0. 0. 0. 0. 0. 0. 0. 0. 6.81114569e-002 0. 0. 0. 0. 0. 0. 0. 0.
      0. 0. 1.00619197e-001 0. 0. 0. 0. 0. 0. 0. 0. 0. 0.
      9.28792581e-002 0. 0. 0. 0. 0. 0. 0. 0. 0. 0. 1.17647059e-001 0.
      0. 0. 0. 0. 0. 0. 0. 0. 0. 1.08359136e-001 0. 0. 0. 0. 0. 0. 0. 0.
      0. 0. 8.35913345e-002 0. 0. 0. 0. 0. 0. 0. 0. 0. 0.
      5.88235296e-002 0. 0. 0. 0. 0. 0. 0. 0. 0. 0. 0. 0. 0. 0. 0. 0. 0.
      0. 0. 0. 0. 1.23839006e-002 0. 0. 0. 0. 0. 0. 0. 0. 0. 0.
      4.48916405e-002 0. 0. 0. 0. 0. 0. 0. 0. 0. 0. 4.79876176e-002 0.
      0. 0. 0. 0. 0. 0. 0. 0. 0. 6.34674951e-002 0. 0. 0. 0. 0. 0. 0. 0.
      0. 0. 4.64396290e-002 0. 0. 0. 0. 0. 0. 0. 0. 0. 0.
      4.02476788e-002 0. 0. 0. 0. 0. 0. 0. 0. 0. 0. 5.10835908e-002 0.
      0. 0. 0. 0. 0. 0. 0. 0. 0. 6.34674951e-002 0. 0. 0. 0. 0. 0. 0. 0.
      0. 0. 6.81114569e-002 0. 0. 0. 0. 0. 0. 0. 0. 0. 0.
      1.00619197e-001 0. 0. 0. 0. 0. 0. 0. 0. 0. 0. 9.28792581e-002 0.
      0. 0. 0. 0. 0. 0. 0. 0. 0. 1.17647059e-001 0. 0. 0. 0. 0. 0. 0. 0.
      0. 0. 1.08359136e-001 0. 0. 0. 0. 0. 0. 0. 0. 0. 0.
      8.35913345e-002 0. 0. 0. 0. 0. 0. 0. 0. 0. 0. 5.88235296e-002 0.
      0. 0. 0. 0. 0. 0. 0. 0. 0. 0. 0. 0. 0. 0. 0. 0. 0. 0. 0. 0.</_>
    <_>
      2.78551527e-003 0. 0. 0. 0. 0. 0. 0. 0. 0. 0. 1.39275764e-003 0.
      0. 0. 0. 0. 0. 0. 0. 0. 0. 4.17827303e-003 0. 0. 0. 0. 0. 0. 0. 0.
      0. 0. 9.19220075e-002 0. 0. 0. 0. 0. 0. 0. 0. 0. 0.
      4.31754887e-002 0. 0. 0. 0. 0. 0. 0. 0. 0. 0. 3.89972143e-002 0.
      0. 0. 0. 0. 0. 0. 0. 0. 0. 1.11420611e-002 0. 0. 0. 0. 0. 0. 0. 0.
      0. 0. 3.76044586e-002 0. 0. 0. 0. 0. 0. 0. 0. 0. 0.
      3.34261842e-002 0. 0. 0. 0. 0. 0. 0. 0. 0. 0. 2.92479116e-002 0.
      0. 0. 0. 0. 0. 0. 0. 0. 0. 4.03899737e-002 0. 0. 0. 0. 0. 0. 0. 0.
      0. 0. 1.01671308e-001 0. 0. 0. 0. 0. 0. 0. 0. 0. 0.
      1.43454045e-001 0. 0. 0. 0. 0. 0. 0. 0. 0. 0. 1.69916436e-001 0.
      0. 0. 0. 0. 0. 0. 0. 0. 0. 2.21448466e-001 0. 0. 0. 0. 0. 0. 0. 0.
      0. 0. 2.92479116e-002 0. 0. 0. 0. 0. 0. 0. 0. 0. 0.
      3.06278723e-003 0. 0. 0. 0. 0. 0. 0. 0. 0. 0. 1.53139362e-003 0.
      0. 0. 0. 0. 0. 0. 0. 0. 0. 1.53139362e-003 0. 0. 0. 0. 0. 0. 0. 0.
      0. 0. 1.53139362e-003 0. 0. 0. 0. 0. 0. 0. 0. 0. 0.
      6.12557447e-003 0. 0. 0. 0. 0. 0. 0. 0. 0. 0. 1.22511489e-002 0.
      0. 0. 0. 0. 0. 0. 0. 0. 0. 7.65696773e-003 0. 0. 0. 0. 0. 0. 0. 0.
      0. 0. 1.22511489e-002 0. 0. 0. 0. 0. 0. 0. 0. 0. 0.
      6.12557447e-003 0. 0. 0. 0. 0. 0. 0. 0. 0. 0. 2.29709037e-002 0.
      0. 0. 0. 0. 0. 0. 0. 0. 0. 3.98162343e-002 0. 0. 0. 0. 0. 0. 0. 0.
      0. 0. 7.81010687e-002 0. 0. 0. 0. 0. 0. 0. 0. 0. 0.
      1.82235837e-001 0. 0. 0. 0. 0. 0. 0. 0. 0. 0. 2.02143952e-001 0.
      0. 0. 0. 0. 0. 0. 0. 0. 0. 2.71056652e-001 1.19448699e-001 0. 0.
      0. 0. 0. 0. 0. 0. 0. 3.21592651e-002 0. 0. 0. 0. 0. 0. 0. 0. 0. 0.
      3.60360369e-003 0. 0. 0. 0. 0. 0. 0. 0. 0. 0. 0. 0. 0. 0. 0. 0. 0.
      0. 0. 0. 0. 3.60360369e-003 0. 0. 0. 0. 0. 0. 0. 0. 0. 0.
      1.80180185e-003 0. 0. 0. 0. 0. 0. 0. 0. 0. 0. 7.20720738e-003 0.
      0. 0. 0. 0. 0. 0. 0. 0. 0. 1.44144148e-002 0. 0. 0. 0. 0. 0. 0. 0.
      0. 0. 7.20720738e-003 0. 0. 0. 0. 0. 0. 0. 0. 0. 0.
      1.62162166e-002 0. 0. 0. 0. 0. 0. 0. 0. 0. 0. 7.20720738e-003 0.
      0. 0. 0. 0. 0. 0. 0. 0. 0. 1.62162166e-002 0. 0. 0. 0. 0. 0. 0. 0.
      0. 0. 4.68468480e-002 0. 0. 0. 0. 0. 0. 0. 0. 0. 0.
      8.46846849e-002 0. 0. 0. 0. 0. 0. 0. 0. 0. 0. 1.80180177e-001 0.
      0. 0. 0. 0. 0. 0. 0. 0. 0. 2.32432425e-001 0. 0. 0. 0. 0. 0. 0. 0.
      0. 0. 3.38738739e-001 0. 0. 0. 0. 0. 0. 0. 0. 0. 0.
      3.96396406e-002 0. 0. 0. 0. 0. 0. 0. 0. 0. 0.</_>
    <_>
      0. 0. 0. 0. 0. 0. 0. 0. 0. 0. 0. 0. 0. 0. 0. 0. 0. 0. 0. 0. 0. 0.
      6.55200658e-003 0. 0. 0. 0. 0. 0. 0. 0. 0. 0. 6.55200658e-003 0.
      0. 0. 0. 0. 0. 0. 0. 0. 0. 2.45700241e-003 0. 0. 0. 0. 0. 0. 0. 0.
      0. 0. 3.27600329e-003 0. 0. 0. 0. 0. 0. 0. 0. 0. 0.
      2.45700241e-003 0. 0. 0. 0. 0. 0. 0. 0. 0. 0. 8.19000788e-003 0.
      0. 0. 0. 0. 0. 0. 0. 0. 0. 3.27600329e-003 0. 0. 0. 0. 0. 0. 0. 0.
      0. 0. 2.04750206e-002 0. 0. 0. 0. 0. 0. 0. 0. 0. 0.
      2.04750206e-002 0. 0. 0. 0. 0. 0. 0. 0. 0. 0. 4.17690426e-002 0.
      0. 0. 0. 0. 0. 0. 0. 0. 0. 8.68140832e-002 0. 0. 0. 0. 0. 0. 0. 0.
      0. 0. 9.00900885e-002 1.08927108e-001 0. 0. 0. 0. 0. 0. 0. 0. 0.
      4.99590486e-002 2.25225225e-001 1.80999175e-001 0. 0. 0. 0. 0. 0.
      0. 0. 3.11220307e-002 1.11384109e-001 0. 0. 0. 0. 0. 0. 0. 0. 0.
      0. 0. 0. 0. 0. 0. 0. 0. 0. 0. 0. 9.16590274e-004 0. 0. 0. 0. 0. 0.
      0. 0. 0. 0. 6.41613221e-003 0. 0. 0. 0. 0. 0. 0. 0. 0. 0.
      7.33272219e-003 0. 0. 0. 0. 0. 0. 0. 0. 0. 0. 2.74977088e-003 0.
      0. 0. 0. 0. 0. 0. 0. 0. 0. 5.49954176e-003 0. 0. 0. 0. 0. 0. 0. 0.
      0. 0. 0. 0. 0. 0. 0. 0. 0. 0. 0. 0. 0. 1.00824935e-002 0. 0. 0. 0.
      0. 0. 0. 0. 0. 0. 2.74977088e-003 0. 0. 0. 0. 0. 0. 0. 0. 0. 0.
      2.38313470e-002 0. 0. 0. 0. 0. 0. 0. 0. 0. 0. 2.29147580e-002 0.
      0. 0. 0. 0. 0. 0. 0. 0. 0. 3.66636105e-002 0. 0. 0. 0. 0. 0. 0. 0.
      0. 0. 8.24931264e-002 5.31622358e-002 0. 0. 0. 0. 0. 0. 0. 0. 0.
      1.48487628e-001 4.76626940e-002 0. 0. 0. 0. 0. 0. 0. 0. 0.
      6.87442720e-002 2.34647110e-001 2.10815772e-001 0. 0. 0. 0. 0. 0.
      0. 0. 3.48304324e-002 0. 0. 0. 0. 0. 0. 0. 0. 0. 0. 0. 0. 0. 0. 0.
      0. 0. 0. 0. 0. 0. 8.14995903e-004 0. 0. 0. 0. 0. 0. 0. 0. 0. 0.
      8.96495488e-003 0. 0. 0. 0. 0. 0. 0. 0. 0. 0. 4.88997577e-003 0.
      0. 0. 0. 0. 0. 0. 0. 0. 0. 1.62999181e-003 0. 0. 0. 0. 0. 0. 0. 0.
      0. 0. 4.07497957e-003 0. 0. 0. 0. 0. 0. 0. 0. 0. 0.
      8.14995915e-003 0. 0. 0. 0. 0. 0. 0. 0. 0. 0. 1.30399344e-002 0.
      0. 0. 0. 0. 0. 0. 0. 0. 0. 6.51996722e-003 0. 0. 0. 0. 0. 0. 0. 0.
      0. 0. 3.01548485e-002 0. 0. 0. 0. 0. 0. 0. 0. 0. 0.
      1.87449064e-002 0. 0. 0. 0. 0. 0. 0. 0. 0. 0. 3.99347991e-002 0.
      0. 0. 0. 0. 0. 0. 0. 0. 0. 6.51996732e-002 3.66748162e-002 0. 0.
      0. 0. 0. 0. 0. 0. 0. 1.17359415e-001 6.84596598e-002 0. 0. 0. 0.
      0. 0. 0. 0. 0. 1.01874493e-001 1.44254282e-001 1.93154037e-001 0.
      0. 0. 0. 0. 0. 0. 0. 3.09698451e-002 1.05134472e-001 0. 0. 0. 0.
      0. 0. 0. 0. 0.</_>
    <_>
      0. 0. 0. 0. 0. 0. 0. 0. 0. 0. 0. 0. 0. 0. 0. 0. 0. 0. 0. 0. 0. 0.
      0. 0. 0. 0. 0. 0. 0. 0. 0. 0. 0. 0. 0. 0. 0. 0. 0. 0. 0. 0. 0. 0.
      0. 0. 0. 0. 0. 0. 0. 0. 0. 0. 0. 2.25281604e-002 0. 0. 0. 0. 0. 0.
      0. 0. 0. 0. 3.12891118e-002 0. 0. 0. 0. 0. 0. 0. 0. 0. 0.
      6.88360482e-002 0. 0. 0. 0. 0. 0. 0. 0. 0. 0. 5.38172722e-002 0.
      0. 0. 0. 0. 0. 0. 0. 0. 0. 9.01126415e-002 0. 0. 0. 0. 0. 0. 0. 0.
      0. 0. 8.76095146e-002 0. 0. 0. 0. 0. 0. 0. 0. 0. 0.
      9.38673317e-002 2.12765962e-001 0. 0. 0. 0. 0. 0. 0. 0. 0.
      1.08886108e-001 0. 0. 0. 0. 0. 0. 0. 0. 0. 0. 1.23904884e-001 0.
      0. 0. 0. 0. 0. 0. 0. 0. 0. 8.51063803e-002 0. 0. 0. 0. 0. 0. 0. 0.
      0. 0. 2.12765951e-002 0. 0. 0. 0. 0. 0. 0. 0. 0. 0. 0. 0. 0. 0. 0.
      0. 0. 0. 0. 0. 0. 0. 0. 0. 0. 0. 0. 0. 0. 0. 0. 0. 0. 0. 0. 0. 0.
      0. 0. 0. 0. 0. 0. 0. 0. 0. 0. 0. 0. 0. 0. 0. 0. 0. 0. 0. 0. 0. 0.
      0. 0. 0. 0. 0. 0. 1.42118866e-002 0. 0. 0. 0. 0. 0. 0. 0. 0. 0.
      1.29198963e-002 0. 0. 0. 0. 0. 0. 0. 0. 0. 0. 4.39276472e-002 0.
      0. 0. 0. 0. 0. 0. 0. 0. 0. 6.07235134e-002 0. 0. 0. 0. 0. 0. 0. 0.
      0. 0. 7.75193796e-002 0. 0. 0. 0. 0. 0. 0. 0. 0. 0.
      7.10594282e-002 0. 0. 0. 0. 0. 0. 0. 0. 0. 0. 9.17312652e-002 0.
      0. 0. 0. 0. 0. 0. 0. 0. 0. 1.33074939e-001 1.91214472e-001 0. 0.
      0. 0. 0. 0. 0. 0. 0. 1.55038759e-001 0. 0. 0. 0. 0. 0. 0. 0. 0. 0.
      1.42118856e-001 0. 0. 0. 0. 0. 0. 0. 0. 0. 0. 6.45994814e-003 0.
      0. 0. 0. 0. 0. 0. 0. 0. 0. 0. 0. 0. 0. 0. 0. 0. 0. 0. 0. 0. 0. 0.
      0. 0. 0. 0. 0. 0. 0. 0. 0. 0. 0. 0. 0. 0. 0. 0. 0. 0. 0. 0. 0. 0.
      0. 0. 0. 0. 0. 0. 0. 0. 0. 0. 0. 0. 0. 0. 0. 0. 0. 0. 0. 0. 0. 0.
      0. 0. 0. 0. 0. 0. 0. 0. 0. 0. 0. 0. 0. 0. 0. 0. 0. 0. 0. 0.
      1.84940547e-002 0. 0. 0. 0. 0. 0. 0. 0. 0. 0. 4.62351404e-002 0.
      0. 0. 0. 0. 0. 0. 0. 0. 0. 5.01981489e-002 0. 0. 0. 0. 0. 0. 0. 0.
      0. 0. 7.66182318e-002 0. 0. 0. 0. 0. 0. 0. 0. 0. 0.
      1.00396298e-001 0. 0. 0. 0. 0. 0. 0. 0. 0. 0. 1.79656535e-001 0.
      0. 0. 0. 0. 0. 0. 0. 0. 0. 8.45442563e-002 2.02113613e-001 0. 0.
      0. 0. 0. 0. 0. 0. 0. 2.40422726e-001 0. 0. 0. 0. 0. 0. 0. 0. 0. 0.
      1.32100401e-003 0. 0. 0. 0. 0. 0. 0. 0. 0. 0.</_>
    <_>
      0. 0. 0. 0. 0. 0. 0. 0. 0. 0. 0. 0. 0. 0. 0. 0. 0. 0. 0. 0. 0. 0.
      0. 0. 0. 0. 0. 0. 0. 0. 0. 0. 0. 0. 0. 0. 0. 0. 0. 0. 0. 0. 0. 0.
      0. 0. 0. 0. 0. 0. 0. 0. 0. 0. 0. 0. 0. 0. 0. 0. 0. 0. 0. 0. 0. 0.
      0. 0. 0. 0. 0. 0. 0. 0. 0. 0. 0. 0. 0. 0. 0. 0. 0. 0. 0. 0. 0. 0.
      1.18130455e-002 0. 0. 0. 0. 0. 0. 0. 0. 0. 0. 1.69491526e-002
      2.67077554e-002 0. 0. 0. 0. 0. 0. 0. 0. 0. 5.08474559e-002 0. 0.
      0. 0. 0. 0. 0. 0. 0. 0. 8.57729837e-002 1.03235744e-001 0. 0. 0.
      0. 0. 0. 0. 0. 0. 2.36260910e-002 8.57729837e-002 3.07139188e-001
      0. 0. 0. 0. 0. 0. 0. 0. 8.42321515e-002 1.12480737e-001 0. 0. 0.
      0. 0. 0. 0. 0. 0. 9.14226994e-002 0. 0. 0. 0. 0. 0. 0. 0. 0. 0. 0.
      0. 0. 0. 0. 0. 0. 0. 0. 0. 0. 0. 0. 0. 0. 0. 0. 0. 0. 0. 0. 0. 0.
      0. 0. 0. 0. 0. 0. 0. 0. 0. 0. 0. 0. 0. 0. 0. 0. 0. 0. 0. 0. 0. 0.
      0. 0. 0. 0. 0. 0. 0. 0. 0. 0. 0. 0. 0. 0. 0. 0. 0. 0. 0. 0. 0. 0.
      0. 0. 0. 0. 0. 0. 0. 0. 0. 0. 0. 0. 0. 0. 0. 0. 0. 0. 0. 0. 0. 0.
      0. 0. 0. 0. 0. 0. 0. 0. 0. 0. 9.76863783e-003 0. 0. 0. 0. 0. 0. 0.
      0. 0. 0. 4.11311053e-002 0. 0. 0. 0. 0. 0. 0. 0. 0. 0.
      6.01542406e-002 0. 0. 0. 0. 0. 0. 0. 0. 0. 0. 3.49614397e-002 0.
      2.60668367e-001 0. 0. 0. 0. 0. 0. 0. 0. 7.14652985e-002
      3.03341895e-002 3.41388166e-001 0. 0. 0. 0. 0. 0. 0. 0.
      5.80976866e-002 0. 0. 0. 0. 0. 0. 0. 0. 0. 0. 9.20308456e-002 0.
      0. 0. 0. 0. 0. 0. 0. 0. 0. 0. 0. 0. 0. 0. 0. 0. 0. 0. 0. 0. 0. 0.
      0. 0. 0. 0. 0. 0. 0. 0. 0. 0. 0. 0. 0. 0. 0. 0. 0. 0. 0. 0. 0. 0.
      0. 0. 0. 0. 0. 0. 0. 0. 0. 0. 0. 0. 0. 0. 0. 0. 0. 0. 0. 0. 0. 0.
      0. 0. 0. 0. 0. 0. 0. 0. 0. 0. 0. 0. 0. 0. 0. 0. 0. 0. 0. 0. 0. 0.
      0. 0. 0. 0. 0. 0. 0. 0. 0. 0. 0. 0. 0. 0. 0. 0. 0. 0. 0. 0. 0. 0.
      0. 0. 0. 0. 0. 0. 0. 0. 0. 4.20609862e-003 0. 0. 0. 0. 0. 0. 0. 0.
      0. 0. 2.36593056e-002 0. 0. 0. 0. 0. 0. 0. 0. 0. 0.
      2.78654043e-002 3.10199782e-002 0. 0. 0. 0. 0. 0. 0. 0. 0.
      8.56992602e-002 1.20925345e-001 0. 0. 0. 0. 0. 0. 0. 0. 0.
      2.62881182e-002 4.25867513e-002 4.86855954e-001 0. 0. 0. 0. 0. 0.
      0. 0. 1.50893793e-001 0. 0. 0. 0. 0. 0. 0. 0. 0. 0. 0. 0. 0. 0. 0.
      0. 0. 0. 0. 0. 0.</_>
    <_>
      0. 0. 0. 0. 0. 0. 0. 0. 0. 0. 0. 0. 0. 0. 0. 0. 0. 0. 0. 0. 0. 0.
      1.91938579e-002 0. 0. 0. 0. 0. 0. 0. 0. 0. 0. 2.04734486e-002 0.
      0. 0. 0. 0. 0. 0. 0. 0. 0. 8.95713363e-003 0. 0. 0. 0. 0. 0. 0. 0.
      0. 0. 1.15163149e-002 0. 0. 0. 0. 0. 0. 0. 0. 0. 0.
      2.62316056e-002 0. 0. 0. 0. 0. 0. 0. 0. 0. 0. 4.28662822e-002 0.
      0. 0. 0. 0. 0. 0. 0. 0. 0. 5.05438261e-002 0. 0. 0. 0. 0. 0. 0. 0.
      0. 0. 8.63723606e-002 0. 0. 0. 0. 0. 0. 0. 0. 0. 0.
      1.03646830e-001 0. 0. 0. 0. 0. 0. 0. 0. 0. 0. 1.40754953e-001 0.
      0. 0. 0. 0. 0. 0. 0. 0. 0. 1.72744721e-001 0. 0. 0. 0. 0. 0. 0. 0.
      0. 0. 1.61868200e-001 0. 0. 0. 0. 0. 0. 0. 0. 0. 0.
      1.36916190e-001 0. 0. 0. 0. 0. 0. 0. 0. 0. 0. 1.79142673e-002 0.
      0. 0. 0. 0. 0. 0. 0. 0. 0. 1.34357009e-002 0. 0. 0. 0. 0. 0. 0. 0.
      0. 0. 1.85540635e-002 0. 0. 0. 0. 0. 0. 0. 0. 0. 0.
      1.21561103e-002 0. 0. 0. 0. 0. 0. 0. 0. 0. 0. 6.39795279e-003 0.
      0. 0. 0. 0. 0. 0. 0. 0. 0. 1.27959056e-002 0. 0. 0. 0. 0. 0. 0. 0.
      0. 0. 2.11132430e-002 0. 0. 0. 0. 0. 0. 0. 0. 0. 0.
      1.59948822e-002 0. 0. 0. 0. 0. 0. 0. 0. 0. 0. 4.54254635e-002 0.
      0. 0. 0. 0. 0. 0. 0. 0. 0. 4.15866934e-002 0. 0. 0. 0. 0. 0. 0. 0.
      0. 0. 8.89315456e-002 0. 0. 0. 0. 0. 0. 0. 0. 0. 0.
      1.07485607e-001 0. 0. 0. 0. 0. 0. 0. 0. 0. 0. 1.42674342e-001 0.
      0. 0. 0. 0. 0. 0. 0. 0. 0. 1.66986570e-001 0. 0. 0. 0. 0. 0. 0. 0.
      0. 0. 1.58029437e-001 0. 0. 0. 0. 0. 0. 0. 0. 0. 0.
      1.31158024e-001 0. 0. 0. 0. 0. 0. 0. 0. 0. 0. 1.72744729e-002 0.
      0. 0. 0. 0. 0. 0. 0. 0. 0. 0. 0. 0. 0. 0. 0. 0. 0. 0. 0. 0. 0. 0.
      0. 0. 0. 0. 0. 0. 0. 0. 0. 0. 0. 0. 0. 0. 0. 0. 0. 0. 0. 0. 0. 0.
      0. 0. 0. 0. 0. 0. 0. 0. 0. 0. 0. 0. 0. 0. 0. 0. 0. 0. 0. 0. 0. 0.
      0. 0. 0. 0. 0. 0. 0. 0. 0. 6.59630634e-004 0. 0. 0. 0. 0. 0. 0. 0.
      0. 0. 3.10026389e-002 0. 0. 0. 0. 0. 0. 0. 0. 0. 0.
      3.36411595e-002 0. 0. 0. 0. 0. 0. 0. 0. 0. 0. 7.78364092e-002 0.
      0. 0. 0. 0. 0. 0. 0. 0. 0. 9.16886553e-002 0. 0. 0. 0. 0. 0. 0. 0.
      0. 0. 1.37203172e-001 0. 0. 0. 0. 0. 0. 0. 0. 0. 0.
      1.83377311e-001 0. 0. 0. 0. 0. 0. 0. 0. 0. 0. 2.04485491e-001 0.
      0. 0. 0. 0. 0. 0. 0. 0. 0. 1.66226909e-001 4.81530353e-002 0. 0.
      0. 0. 0. 0. 0. 0. 0. 2.57255938e-002 0. 0. 0. 0. 0. 0. 0. 0. 0. 0.</_>
    <_>
      0. 0. 0. 0. 0. 0. 0. 0. 0. 0. 0. 5.39840199e-003 0. 0. 0. 0. 0. 0.
      0. 0. 0. 0. 1.44677171e-002 0. 0. 0. 0. 0. 0. 0. 0. 0. 0.
      2.05139276e-002 0. 0. 0. 0. 0. 0. 0. 0. 0. 0. 1.05808685e-002 0.
      2.90649980e-001 0. 0. 0. 0. 0. 0. 0. 0. 2.67760735e-002 0. 0. 0.
      0. 0. 0. 0. 0. 0. 0. 3.23904119e-002 0. 0. 0. 0. 0. 0. 0. 0. 0. 0.
      3.30382213e-002 0. 0. 0. 0. 0. 0. 0. 0. 0. 0. 2.72079464e-002 0.
      0. 0. 0. 0. 0. 0. 0. 0. 0. 3.75728793e-002 0. 0. 0. 0. 0. 0. 0. 0.
      0. 0. 3.26063484e-002 0. 0. 0. 0. 0. 0. 0. 0. 0. 0.
      2.28892248e-002 0. 0. 0. 0. 0. 0. 0. 0. 0. 0. 2.72079464e-002 0.
      0. 0. 0. 0. 0. 0. 0. 0. 0. 3.51975821e-002 0. 0. 0. 0. 0. 0. 0. 0.
      0. 0. 7.55776279e-003 0. 0. 0. 0. 0. 0. 0. 0. 0. 0.
      2.15936088e-004 0. 0. 3.75728786e-001 0. 0. 0. 0. 0. 0. 0. 0. 0.
      0. 0. 0. 0. 0. 0. 0. 0. 0. 1.20627263e-003 0. 0. 0. 0. 0. 0. 0. 0.
      0. 0. 9.24808998e-003 0. 0. 0. 0. 0. 0. 0. 0. 0. 0.
      9.44913551e-003 0. 0. 0. 0. 0. 0. 0. 0. 0. 0. 1.64857265e-002 0.
      0. 0. 0. 0. 0. 0. 0. 0. 0. 2.99557708e-002 0. 0. 0. 0. 0. 0. 0. 0.
      0. 0. 2.13108156e-002 0. 2.62163252e-001 0. 0. 0. 0. 0. 0. 0. 0.
      3.35745886e-002 0. 0. 0. 0. 0. 0. 0. 0. 0. 0. 3.55850421e-002 0.
      0. 0. 0. 0. 0. 0. 0. 0. 0. 3.53839956e-002 0. 0. 0. 0. 0. 0. 0. 0.
      0. 0. 2.65379976e-002 0. 0. 0. 0. 0. 0. 0. 0. 0. 0.
      2.85484511e-002 0. 0. 0. 0. 0. 0. 0. 0. 0. 0. 2.81463619e-002 0.
      0. 0. 0. 0. 0. 0. 0. 0. 0. 2.15118621e-002 0. 7.84077197e-002 0.
      0. 0. 0. 0. 0. 0. 0. 1.22637721e-002 0. 0. 0. 0. 0. 0. 0. 0. 0. 0.
      4.02090867e-004 0. 0. 3.49819064e-001 0. 0. 0. 0. 0. 0. 0.
      6.48508430e-004 0. 0. 0. 0. 0. 0. 0. 0. 0. 0. 9.72762611e-003 0.
      0. 0. 0. 0. 0. 0. 0. 0. 0. 3.39386091e-002 5.53393848e-002 0. 0.
      0. 0. 0. 0. 0. 0. 0. 1.12408129e-002 0. 2.26545617e-001 0. 0. 0.
      0. 0. 0. 0. 0. 2.09684391e-002 0. 0. 0. 0. 0. 0. 0. 0. 0. 0.
      2.46433206e-002 0. 0. 0. 0. 0. 0. 0. 0. 0. 0. 3.22092511e-002 0.
      0. 0. 0. 0. 0. 0. 0. 0. 0. 2.63726767e-002 0. 0. 0. 0. 0. 0. 0. 0.
      0. 0. 2.61565074e-002 0. 0. 0. 0. 0. 0. 0. 0. 0. 0.
      3.89105044e-002 0. 0. 0. 0. 0. 0. 0. 0. 0. 0. 2.74535231e-002 0.
      0. 0. 0. 0. 0. 0. 0. 0. 0. 2.44271513e-002 0. 0. 0. 0. 0. 0. 0. 0.
      0. 0. 2.37786416e-002 0. 0. 0. 0. 0. 0. 0. 0. 0. 0.
      3.41547765e-002 0. 0. 0. 0. 0. 0. 0. 0. 0. 0. 7.13359285e-003 0.
      0. 0. 0. 0. 0. 0. 0. 0. 0. 2.16169472e-004 0. 0. 3.76134902e-001
      0. 0. 0. 0. 0. 0. 0.</_>
    <_>
      1.28487516e-002 1.00220263e-001 0. 0. 0. 0. 0. 0. 0. 0. 0.
      5.32305427e-002 0. 0. 0. 0. 0. 0. 0. 0. 0. 0. 1.28487516e-002 0.
      0. 0. 0. 0. 0. 0. 0. 0. 0. 1.43171810e-002 0. 0. 0. 0. 0. 0. 0. 0.
      0. 0. 4.03817929e-002 0. 0. 0. 0. 0. 0. 0. 0. 0. 0.
      3.23054343e-002 0. 0. 0. 0. 0. 0. 0. 0. 0. 0. 4.40528616e-002 0.
      0. 0. 0. 0. 0. 0. 0. 0. 0. 4.18502204e-002 0. 0. 0. 0. 0. 0. 0. 0.
      0. 0. 5.32305427e-002 0. 0. 0. 0. 0. 0. 0. 0. 0. 0.
      7.92951509e-002 0. 0. 0. 0. 0. 0. 0. 0. 0. 0. 1.02422908e-001 0.
      0. 0. 0. 0. 0. 0. 0. 0. 0. 1.02055803e-001 0. 0. 0. 0. 0. 0. 0. 0.
      0. 0. 9.28781182e-002 0. 0. 0. 0. 0. 0. 0. 0. 0. 0.
      9.50807631e-002 0. 0. 0. 0. 0. 0. 0. 0. 0. 0. 1.19309835e-001 0.
      0. 0. 0. 0. 0. 0. 0. 0. 0. 3.67107196e-003 0. 0. 0. 0. 0. 0. 0. 0.
      0. 0. 6.68647839e-003 0. 0. 0. 0. 0. 0. 0. 0. 0. 0.
      2.00594347e-002 6.42644837e-002 0. 0. 0. 0. 0. 0. 0. 0. 0.
      2.82317977e-002 5.42347692e-002 0. 0. 0. 0. 0. 0. 0. 0. 0.
      2.52600294e-002 0. 0. 0. 0. 0. 0. 0. 0. 0. 0. 3.00891530e-002 0.
      0. 0. 0. 0. 0. 0. 0. 0. 0. 4.64338772e-002 0. 0. 0. 0. 0. 0. 0. 0.
      0. 0. 5.38632981e-002 0. 0. 0. 0. 0. 0. 0. 0. 0. 0.
      5.31203561e-002 0. 0. 0. 0. 0. 0. 0. 0. 0. 0. 5.60921244e-002 0.
      0. 0. 0. 0. 0. 0. 0. 0. 0. 6.79791942e-002 0. 0. 0. 0. 0. 0. 0. 0.
      0. 0. 7.57800862e-002 0. 0. 0. 0. 0. 0. 0. 0. 0. 0.
      1.02897473e-001 0. 0. 0. 0. 0. 0. 0. 0. 0. 0. 9.50965807e-002 0.
      0. 0. 0. 0. 0. 0. 0. 0. 0. 1.02154531e-001 0. 0. 0. 0. 0. 0. 0. 0.
      0. 0. 1.14413075e-001 0. 0. 0. 0. 0. 0. 0. 0. 0. 0.
      3.34323919e-003 0. 0. 0. 0. 0. 0. 0. 0. 0. 0. 7.77777797e-003 0.
      0. 0. 0. 0. 0. 0. 0. 0. 0. 7.40740728e-003 0. 0. 0. 0. 0. 0. 0. 0.
      0. 0. 3.14814821e-002 0. 0. 0. 0. 0. 0. 0. 0. 0. 0.
      4.29629646e-002 1.12222224e-001 0. 0. 0. 0. 0. 0. 0. 0. 0.
      5.85185178e-002 0. 0. 0. 0. 0. 0. 0. 0. 0. 0. 4.37037051e-002 0.
      0. 0. 0. 0. 0. 0. 0. 0. 0. 6.77777752e-002 0. 0. 0. 0. 0. 0. 0. 0.
      0. 0. 7.25925937e-002 0. 0. 0. 0. 0. 0. 0. 0. 0. 0.
      5.14814816e-002 0. 0. 0. 0. 0. 0. 0. 0. 0. 0. 5.96296303e-002 0.
      0. 0. 0. 0. 0. 0. 0. 0. 0. 6.44444451e-002 0. 0. 0. 0. 0. 0. 0. 0.
      0. 0. 1.00370370e-001 0. 0. 0. 0. 0. 0. 0. 0. 0. 0.
      7.88888857e-002 0. 0. 0. 0. 0. 0. 0. 0. 0. 0. 8.96296278e-002 0.
      0. 0. 0. 0. 0. 0. 0. 0. 0. 1.08148150e-001 0. 0. 0. 0. 0. 0. 0. 0.
      0. 0. 2.96296296e-003 0. 0. 0. 0. 0. 0. 0. 0. 0. 0.</_>
    <_>
      0. 0. 0. 0. 0. 0. 0. 0. 0. 0. 0. 0. 0. 0. 0. 0. 0. 0. 0. 0. 0. 0.
      1.68697275e-002 0. 0. 0. 0. 0. 0. 0. 0. 0. 0. 5.62324263e-002 0.
      0. 0. 0. 0. 0. 0. 0. 0. 0. 7.31021538e-002 0. 0. 0. 0. 0. 0. 0. 0.
      0. 0. 7.49765709e-002 0. 0. 0. 0. 0. 0. 0. 0. 0. 0.
      9.27835032e-002 0. 0. 0. 0. 0. 0. 0. 0. 0. 0. 1.40581071e-001 0.
      0. 0. 0. 0. 0. 0. 0. 0. 0. 4.77975644e-002 0. 0. 0. 0. 0. 0. 0. 0.
      0. 0. 5.24835996e-002 0. 0. 0. 0. 0. 0. 0. 0. 0. 0.
      3.65510769e-002 0. 0. 0. 0. 0. 0. 0. 0. 0. 0. 9.09090936e-002 0.
      0. 0. 0. 0. 0. 0. 0. 0. 0. 8.90346766e-002 0. 0. 0. 0. 0. 0. 0. 0.
      0. 0. 8.62230584e-002 0. 0. 0. 0. 0. 0. 0. 0. 0. 0.
      4.59231474e-002 9.18462947e-002 0. 0. 0. 0. 0. 0. 0. 0. 0.
      4.68603568e-003 0. 0. 0. 0. 0. 0. 0. 0. 0. 0. 0. 0. 0. 0. 0. 0. 0.
      0. 0. 0. 0. 8.36431235e-003 0. 0. 0. 0. 0. 0. 0. 0. 0. 0.
      4.73977700e-002 0. 0. 0. 0. 0. 0. 0. 0. 0. 0. 6.69144988e-002 0.
      0. 0. 0. 0. 0. 0. 0. 0. 0. 6.41263947e-002 0. 0. 0. 0. 0. 0. 0. 0.
      0. 0. 6.87732324e-002 0. 0. 0. 0. 0. 0. 0. 0. 0. 0.
      1.30111530e-001 0. 0. 0. 0. 0. 0. 0. 0. 0. 0. 8.55018571e-002 0.
      0. 0. 0. 0. 0. 0. 0. 0. 0. 5.94795533e-002 0. 0. 0. 0. 0. 0. 0. 0.
      0. 0. 3.99628244e-002 0. 0. 0. 0. 0. 0. 0. 0. 0. 0.
      6.41263947e-002 0. 0. 0. 0. 0. 0. 0. 0. 0. 0. 7.89962858e-002 0.
      0. 0. 0. 0. 0. 0. 0. 0. 0. 9.75836441e-002 0. 0. 0. 0. 0. 0. 0. 0.
      0. 0. 5.29739782e-002 6.22676574e-002 0. 0. 0. 0. 0. 0. 0. 0. 0.
      7.34200776e-002 0. 0. 0. 0. 0. 0. 0. 0. 0. 0. 0. 0. 0. 0. 0. 0. 0.
      0. 0. 0. 0. 0. 0. 0. 0. 0. 0. 0. 0. 0. 0. 0. 0. 0. 0. 0. 0. 0. 0.
      0. 0. 0. 0. 0. 0. 0. 0. 0. 0. 0. 0. 0. 0. 0. 0. 0. 0. 0. 0. 0. 0.
      0. 0. 0. 0. 0. 0. 0. 0. 0. 0. 0. 0. 0. 0. 0. 0. 0. 0. 0. 0. 0. 0.
      0. 0. 0. 0. 9.42507060e-004 0. 0. 0. 0. 0. 0. 0. 0. 0. 0.
      4.71253553e-003 0. 0. 0. 0. 0. 0. 0. 0. 0. 0. 1.03675779e-002 0.
      0. 0. 0. 0. 0. 0. 0. 0. 0. 1.60226207e-002 0. 0. 0. 0. 0. 0. 0. 0.
      0. 0. 6.31479770e-002 0. 0. 0. 0. 0. 0. 0. 0. 0. 0.
      1.72478795e-001 0. 0. 0. 0. 0. 0. 0. 0. 0. 0. 2.64844477e-001 0.
      0. 0. 0. 0. 0. 0. 0. 0. 0. 2.18661636e-001 4.61828448e-002 0. 0.
      0. 0. 0. 0. 0. 0. 0. 1.24410935e-001 7.82280862e-002 0. 0. 0. 0.
      0. 0. 0. 0. 0. 0. 0. 0. 0. 0. 0. 0. 0. 0. 0. 0.</_>
    <_>
      0. 0. 0. 0. 0. 0. 0. 0. 0. 0. 0. 4.24088212e-003 0. 0. 0. 0. 0. 0.
      0. 0. 0. 0. 2.07803231e-002 0. 0. 0. 0. 0. 0. 0. 0. 0. 0.
      3.77438515e-002 0. 0. 0. 0. 0. 0. 0. 0. 0. 0. 5.51314689e-002 0.
      0. 0. 0. 0. 0. 0. 0. 0. 0. 6.91263750e-002 0. 0. 0. 0. 0. 0. 0. 0.
      0. 0. 1.52671754e-001 1.31891429e-001 0. 0. 0. 0. 0. 0. 0. 0. 0.
      2.07803231e-002 0. 0. 0. 0. 0. 0. 0. 0. 0. 0. 6.23409674e-002 0.
      0. 0. 0. 0. 0. 0. 0. 0. 0. 4.79219668e-002 5.76759949e-002 0. 0.
      0. 0. 0. 0. 0. 0. 0. 2.20525861e-002 2.33248509e-002 0. 0. 0. 0.
      0. 0. 0. 0. 0. 3.39270569e-002 0. 0. 0. 0. 0. 0. 0. 0. 0. 0.
      2.07803231e-002 8.18490237e-002 0. 0. 0. 0. 0. 0. 0. 0. 0.
      1.31467348e-002 0. 0. 0. 0. 0. 0. 0. 0. 0. 0. 1.61153525e-002 0.
      0. 0. 0. 0. 0. 0. 0. 0. 0. 2.54452918e-002 1.03053436e-001 0. 0.
      0. 0. 0. 0. 0. 0. 0. 0. 0. 0. 0. 0. 0. 0. 0. 0. 0. 0.
      1.51975686e-003 0. 0. 0. 0. 0. 0. 0. 0. 0. 0. 8.61195568e-003 0.
      0. 0. 0. 0. 0. 0. 0. 0. 0. 2.12765951e-002 0. 0. 0. 0. 0. 0. 0. 0.
      0. 0. 3.29280645e-002 0. 0. 0. 0. 0. 0. 0. 0. 0. 0.
      6.78824708e-002 0. 0. 0. 0. 0. 0. 0. 0. 0. 0. 6.58561289e-003 0.
      0. 0. 0. 0. 0. 0. 0. 0. 0. 9.32117552e-002 0. 0. 0. 0. 0. 0. 0. 0.
      0. 0. 8.66261423e-002 0. 0. 0. 0. 0. 0. 0. 0. 0. 0.
      8.25734586e-002 9.77710262e-002 0. 0. 0. 0. 0. 0. 0. 0. 0.
      6.53495416e-002 0. 0. 0. 0. 0. 0. 0. 0. 0. 0. 7.70010129e-002 0.
      0. 0. 0. 0. 0. 0. 0. 0. 0. 3.90070938e-002 9.77710262e-002 0. 0.
      0. 0. 0. 0. 0. 0. 0. 3.24214809e-002 0. 0. 0. 0. 0. 0. 0. 0. 0. 0.
      2.93819662e-002 0. 0. 0. 0. 0. 0. 0. 0. 0. 0. 3.64741646e-002
      1.23606890e-001 0. 0. 0. 0. 0. 0. 0. 0. 0. 0. 0. 0. 0. 0. 0. 0. 0.
      0. 0. 0. 1.30172009e-002 0. 0. 0. 0. 0. 0. 0. 0. 0. 0.
      4.64900048e-004 0. 0. 0. 0. 0. 0. 0. 0. 0. 0. 1.18084610e-001
      3.67271043e-002 0. 0. 0. 0. 0. 0. 0. 0. 0. 7.20595047e-002 0. 0.
      0. 0. 0. 0. 0. 0. 0. 0. 5.76476045e-002 0. 0. 0. 0. 0. 0. 0. 0. 0.
      0. 6.64807037e-002 0. 0. 0. 0. 0. 0. 0. 0. 0. 0. 5.90423048e-002
      8.97257105e-002 0. 0. 0. 0. 0. 0. 0. 0. 0. 4.60251048e-002 0. 0.
      0. 0. 0. 0. 0. 0. 0. 0. 5.02092056e-002 0. 0. 0. 0. 0. 0. 0. 0. 0.
      0. 4.41655032e-002 0. 0. 0. 0. 0. 0. 0. 0. 0. 0. 4.18410040e-002
      8.97257105e-002 0. 0. 0. 0. 0. 0. 0. 0. 0. 2.37099025e-002 0. 0.
      0. 0. 0. 0. 0. 0. 0. 0. 2.18503028e-002 0. 0. 0. 0. 0. 0. 0. 0. 0.
      0. 2.23152023e-002 0. 0. 0. 0. 0. 0. 0. 0. 0. 0. 3.34728025e-002
      1.13435611e-001 0. 0. 0. 0. 0. 0. 0. 0. 0.</_>
    <_>
      0. 0. 0. 0. 0. 0. 0. 0. 0. 0. 0. 2.20689662e-002 0.
      4.64827597e-001 0. 0. 0. 0. 0. 0. 0. 0. 6.55172393e-002 0. 0. 0.
      0. 0. 0. 0. 0. 0. 0. 5.37931025e-002 0. 0. 0. 0. 0. 0. 0. 0. 0. 0.
      3.72413807e-002 0. 0. 0. 0. 0. 0. 0. 0. 0. 0. 3.58620696e-002 0.
      0. 0. 0. 0. 0. 0. 0. 0. 0. 4.20689657e-002 0. 0. 0. 0. 0. 0. 0. 0.
      0. 0. 4.27586213e-002 0. 0. 0. 0. 0. 0. 0. 0. 0. 0.
      5.72413802e-002 0. 0. 0. 0. 0. 0. 0. 0. 0. 0. 5.24137914e-002 0.
      0. 0. 0. 0. 0. 0. 0. 0. 0. 6.75862059e-002 0. 0. 0. 0. 0. 0. 0. 0.
      0. 0. 3.72413807e-002 0. 0. 0. 0. 0. 0. 0. 0. 0. 0.
      1.99999996e-002 0. 0. 0. 0. 0. 0. 0. 0. 0. 0. 1.37931039e-003 0.
      0. 0. 0. 0. 0. 0. 0. 0. 0. 0. 0. 0. 0. 0. 0. 0. 0. 0. 0. 0. 0. 0.
      0. 0. 0. 0. 0. 0. 0. 0. 0. 0. 0. 0. 0. 0. 0. 0. 0. 0. 0. 0.
      2.36929923e-001 0. 0. 0. 0. 0. 0. 0. 0. 0. 0. 1.16796441e-001 0.
      0. 0. 0. 0. 0. 0. 0. 0. 0. 8.12013373e-002 0. 0. 0. 0. 0. 0. 0. 0.
      0. 0. 7.45272562e-002 0. 0. 0. 0. 0. 0. 0. 0. 0. 0.
      9.34371501e-002 0. 0. 0. 0. 0. 0. 0. 0. 0. 0. 1.15684092e-001 0.
      0. 0. 0. 0. 0. 0. 0. 0. 0. 1.10122360e-001 0. 0. 0. 0. 0. 0. 0. 0.
      0. 0. 9.34371501e-002 0. 0. 0. 0. 0. 0. 0. 0. 0. 0.
      5.33926599e-002 0. 0. 0. 0. 0. 0. 0. 0. 0. 0. 2.44716350e-002 0.
      0. 0. 0. 0. 0. 0. 0. 0. 0. 0. 0. 0. 0. 0. 0. 0. 0. 0. 0. 0. 0. 0.
      0. 0. 0. 0. 0. 0. 0. 0. 0. 0. 0. 0. 0. 0. 0. 0. 0. 0. 0. 0. 0. 0.
      0. 0. 0. 0. 0. 0. 0. 0. 0. 0. 0. 0. 0. 0. 0. 0. 0. 0. 0. 0. 0. 0.
      0. 0. 0. 0. 0. 0. 0. 0. 0. 1.71693742e-001 9.16473344e-002 0. 0.
      0. 0. 0. 0. 0. 0. 0. 1.35730863e-001 0. 0. 0. 0. 0. 0. 0. 0. 0. 0.
      1.19489558e-001 0. 0. 0. 0. 0. 0. 0. 0. 0. 0. 1.67053372e-001 0.
      0. 0. 0. 0. 0. 0. 0. 0. 0. 1.61252901e-001 0. 0. 0. 0. 0. 0. 0. 0.
      0. 0. 1.09048724e-001 0. 0. 0. 0. 0. 0. 0. 0. 0. 0.
      4.17633429e-002 0. 0. 0. 0. 0. 0. 0. 0. 0. 0. 2.32018554e-003 0.
      0. 0. 0. 0. 0. 0. 0. 0. 0. 0. 0. 0. 0. 0. 0. 0. 0. 0. 0. 0. 0. 0.
      0. 0. 0. 0. 0. 0. 0. 0. 0. 0. 0. 0. 0. 0. 0. 0. 0. 0. 0. 0. 0. 0.
      0. 0. 0. 0. 0. 0. 0. 0. 0. 0. 0. 0. 0. 0. 0. 0. 0. 0. 0. 0. 0. 0.
      0. 0. 0. 0. 0. 0. 0. 0. 0. 0. 0. 0. 0. 0. 0. 0. 0. 0. 0. 0.</_>
    <_>
      0. 0. 0. 0. 0. 0. 0. 0. 0. 0. 0. 0. 0. 0. 0. 0. 0. 0. 0. 0. 0. 0.
      0. 0. 0. 0. 0. 0. 0. 0. 0. 0. 0. 0. 0. 0. 0. 0. 0. 0. 0. 0. 0. 0.
      0. 0. 0. 0. 0. 0. 0. 0. 0. 0. 0. 4.66744462e-003 0. 0. 0. 0. 0. 0.
      0. 0. 0. 0. 3.03383898e-002 0. 0. 0. 0. 0. 0. 0. 0. 0. 0.
      7.93465599e-002 0. 0. 0. 0. 0. 0. 0. 0. 0. 0. 8.40140060e-002 0.
      0. 0. 0. 0. 0. 0. 0. 0. 0. 1.20186701e-001 0. 0. 0. 0. 0. 0. 0. 0.
      0. 0. 1.28354728e-001 0. 0. 0. 0. 0. 0. 0. 0. 0. 0.
      1.54025674e-001 0. 0. 0. 0. 0. 0. 0. 0. 0. 0. 1.29521593e-001 0.
      0. 0. 0. 0. 0. 0. 0. 0. 0. 1.38856471e-001 0. 0. 0. 0. 0. 0. 0. 0.
      0. 0. 1.30688444e-001 0. 0. 0. 0. 0. 0. 0. 0. 0. 0. 0. 0. 0. 0. 0.
      0. 0. 0. 0. 0. 0. 0. 0. 0. 0. 0. 0. 0. 0. 0. 0. 0. 0. 0. 0. 0. 0.
      0. 0. 0. 0. 0. 0. 0. 0. 0. 0. 0. 0. 0. 0. 0. 0. 0. 0. 0. 0. 0. 0.
      0. 0. 0. 0. 0. 0. 0. 0. 0. 0. 0. 0. 0. 0. 0. 0. 0. 1.40515221e-002
      0. 0. 0. 0. 0. 0. 0. 0. 0. 0. 4.80093695e-002 0. 0. 0. 0. 0. 0. 0.
      0. 0. 0. 5.62060885e-002 0. 0. 0. 0. 0. 0. 0. 0. 0. 0.
      9.71896946e-002 0. 0. 0. 0. 0. 0. 0. 0. 0. 0. 9.48477760e-002 0.
      0. 0. 0. 0. 0. 0. 0. 0. 0. 1.38173297e-001 0. 0. 0. 0. 0. 0. 0. 0.
      0. 0. 1.31147534e-001 0. 0. 0. 0. 0. 0. 0. 0. 0. 0.
      1.35831386e-001 0. 0. 0. 0. 0. 0. 0. 0. 0. 0. 1.42857149e-001 0.
      0. 0. 0. 0. 0. 0. 0. 0. 0. 1.41686186e-001 0. 0. 0. 0. 0. 0. 0. 0.
      0. 0. 0. 0. 0. 0. 0. 0. 0. 0. 0. 0. 0. 0. 0. 0. 0. 0. 0. 0. 0. 0.
      0. 0. 0. 0. 0. 0. 0. 0. 0. 0. 0. 0. 0. 0. 0. 0. 0. 0. 0. 0. 0. 0.
      0. 0. 0. 0. 0. 0. 0. 0. 0. 0. 0. 0. 0. 4.62249620e-003 0. 0. 0. 0.
      0. 0. 0. 0. 0. 0. 2.31124815e-002 0. 0. 0. 0. 0. 0. 0. 0. 0. 0.
      6.31741136e-002 0. 0. 0. 0. 0. 0. 0. 0. 0. 0. 7.70416036e-002 0.
      0. 0. 0. 0. 0. 0. 0. 0. 0. 1.01694912e-001 0. 0. 0. 0. 0. 0. 0. 0.
      0. 0. 1.15562402e-001 0. 0. 0. 0. 0. 0. 0. 0. 0. 0.
      1.20184898e-001 0. 0. 0. 0. 0. 0. 0. 0. 0. 0. 8.01232681e-002 0.
      0. 0. 0. 0. 0. 0. 0. 0. 0. 8.01232681e-002 0. 0. 0. 0. 0. 0. 0. 0.
      0. 0. 8.01232681e-002 0. 0. 0. 0. 0. 0. 0. 0. 0. 0.
      2.54237294e-001 0. 0. 0. 0. 0. 0. 0. 0. 0. 0. 0. 0. 0. 0. 0. 0. 0.
      0. 0. 0. 0.</_>
    <_>
      0. 0. 0. 0. 0. 0. 0. 0. 0. 0. 0. 1.26939351e-002 0. 0. 0. 0. 0. 0.
      0. 0. 0. 0. 5.00705205e-002 0. 0. 0. 0. 0. 0. 0. 0. 0. 0.
      1.00846261e-001 0. 0. 0. 0. 0. 0. 0. 0. 0. 0. 1.26939356e-001 0.
      0. 0. 0. 0. 0. 0. 0. 0. 0. 1.17771506e-001 0. 0. 0. 0. 0. 0. 0. 0.
      0. 0. 8.32157955e-002 0. 0. 0. 0. 0. 0. 0. 0. 0. 0.
      7.89844841e-002 0. 0. 0. 0. 0. 0. 0. 0. 0. 0. 7.05218613e-002 0.
      0. 0. 0. 0. 0. 0. 0. 0. 0. 6.98166415e-002 0. 0. 0. 0. 0. 0. 0. 0.
      0. 0. 5.14809601e-002 0. 0. 0. 0. 0. 0. 0. 0. 0. 0.
