<?xml version="1.0"?>
<opencv_storage>
<my_svm type_id="opencv-ml-svm">
  <svm_type>C_SVC</svm_type>
  <kernel><type>LINEAR</type></kernel>
  <C>3.1250000000000000e+002</C>
  <term_criteria><epsilon>9.9999997473787516e-006</epsilon>
    <iterations>1000000</iterations></term_criteria>
  <var_all>792</var_all>
  <var_count>792</var_count>
  <class_count>2</class_count>
  <class_labels type_id="opencv-matrix">
    <rows>1</rows>
    <cols>2</cols>
    <dt>i</dt>
    <data>
      -1 1</data></class_labels>
  <sv_total>1</sv_total>
  <support_vectors>
    <_>
      9.30379963e+000 1.25637233e+000 1.96913338e+001 4.56933594e+000
      2.68039584e+000 4.00360870e+000 3.22226226e-001 9.83375609e-001
      2.96116062e-002 -2.31868580e-001 3.22462291e-001 -9.41947269e+000
      -4.57855463e-001 4.44873762e+000 2.19983649e+000 0.
      1.12442863e+000 9.81429863e+000 1.09434042e+001 1.80222464e+000
      4.91176462e+000 6.95608497e-001 9.06797123e+000 -2.09478498e+000
      1.73262906e+000 1.34263957e+000 1.54042512e-001 6.21562421e-001
      6.09991610e-001 -2.86131613e-002 4.92957056e-001 5.32720685e-001
      9.63884115e-001 3.61842799e+000 9.76725101e+000 1.00907593e+001 0.
      0. 0. 0. 0. 0. 0. 5.75480044e-001 -2.76772537e+001
      -3.16950722e+001 -1.62663231e+001 -3.18590975e+000 9.50759125e+000
      0. 1.99477673e+000 0. 0. 8.09774339e-001 -2.08826375e+000
      -1.11455870e+001 -2.05181961e+001 -1.25693626e+001 8.22527218e+000
      0. 4.76196909e+000 0. -3.25382566e+000 -1.56434417e+000
      -3.03521347e+000 -1.05969572e+000 -1.07724266e+001 2.04013138e+001
      3.12922192e+000 2.96363950e+000 0. 0. 0. 0. 0. 0. 0.
      5.96888494e+000 -1.93503571e+001 -1.77622700e+001 0. 0. 0. 0. 0.
      0. -4.93874836e+000 -1.36029410e+000 4.45155182e+001
      1.88777981e+001 2.17353287e+001 0. 4.70846748e+000 4.04764175e+000
      7.51325369e+000 4.39515018e+000 1.77831948e+000 -6.42491102e-001
      2.64798164e-001 1.45777578e+001 4.94284725e+000 0. 0. 0. 0. 0. 0.
      0. 0. 0. -1.93274384e+001 -4.40008116e+000 1.12372601e+000 0. 0.
      0. 0. 0. 0. 0. 0. -1.23144693e+001 3.15683270e+000
      -6.26478958e+000 1.08549607e+000 -1.44356656e+000 3.19032168e+000
      0. -5.82902990e-002 -9.10194516e-001 2.02969694e+000 0.
      3.69819565e+001 9.35520172e+000 7.35563576e-001 0. 0. 0. 0. 0. 0.
      0. 0. -5.71949463e+001 -3.61147232e+001 -6.97995281e+000 0. 0. 0.
      0. 0. 0. -7.73691893e-001 -1.78546691e+000 -9.23219490e+000
      -2.44482327e+001 -1.47101173e+001 1.72491837e+000 0.
      1.69683254e+000 9.26399112e-001 9.53053117e-001 6.16260469e-001
      1.16170919e+000 8.43009830e-001 7.81857204e+000 3.22502351e+000 0.
      0. 0. 0. 2.39378858e+000 0. 0. 0. 0. -2.20180941e+000
      -3.49301767e+000 -7.29758084e-001 0. 0. 0. 0. 0. 0. 0. 0.
      3.21583748e+001 1.48730679e+001 -1.94255602e+000 0. 0. 0. 0. 0.
      -8.87179792e-001 0. 0. 1.44550219e+001 7.74272382e-001
      1.17328825e+001 0. 0. 0. 0. 3.83804941e+000 0. 0. 0.
      1.89653170e+000 -2.00274539e+000 -2.35630341e+001 0. 0. 0. 0. 0.
      0. -1.34575582e+000 0. 1.01000013e+001 6.85829258e+000
      1.16213882e+000 2.17761707e+000 -2.88787699e+000 -2.91725636e+000
      3.34334493e+000 6.07196055e-002 1.28528583e+000 1.67074466e+000
      2.07797438e-001 1.63943958e+001 4.00252151e+000 0. 0. 0. 0. 0. 0.
      0. 0. 0. -2.24034667e+000 -6.49083281e+000 0. 0. 0. 0. 0. 0. 0. 0.
      0. -3.89156876e+001 -1.13683538e+001 -1.19316149e+001 0. 0. 0.
      1.22229729e+001 0. 1.25829804e+000 -1.87352598e+000
      -1.94389963e+000 5.64415979e+000 6.23610318e-002 0. 0. 0. 0. 0. 0.
      0. 0. 0. 1.06460738e+000 -2.53629518e+000 0. 0. 0. 0. 0. 0. 0. 0.
      0. -2.39374638e+000 -1.70719433e+000 1.14701891e+001 0. 0. 0. 0.
      0. 2.92205882e+000 -2.88518620e+000 0. 3.51797432e-001
      -4.14636374e+000 0. 0. 0. 0. 0. 0. 0. 0. 0. -5.15512133e+000
      1.21027923e+000 1.20809332e-001 0. 0. 0. 0. 0. 0. 0. 0.
      2.21599083e+001 -4.76713753e+000 -4.73198414e+000 3.43754101e+000
      5.30735970e+000 1.75280678e+000 0. -4.22136575e-001
      1.31915402e+000 3.04522336e-001 8.12636688e-002 -2.75927663e+000
      8.96421969e-001 1.12106047e+001 0. 0. 0. 0. 0. 0. 0. 0.
      2.23752999e+000 -5.59367085e+000 5.43026161e+000 0.
      -7.22279429e-001 0. 0. 4.95925856e+000 0. 0. 0. -4.54290295e+000
      5.88422489e+000 -7.50942039e+000 0. 0. 0. 0. 0. 0. 0. 0.
      5.59480238e+000 1.04309452e+000 0. 0. 0. 0. 0. 0. 0. 0. 0.
      -4.04235077e+000 2.41149688e+000 -2.52916861e+000 0. 0. 0. 0. 0.
      0. 0. 0. -1.65335178e+000 4.13682699e+000 0. 0. 0. 0. 0. 0.
      -3.62495804e+000 0. 0. 1.14971161e+001 9.65903699e-001 0. 0. 0. 0.
      0. 0. 0. 0. 0. -3.11018696e+001 -4.11149502e+000 -3.13927919e-001
      0. 0. 0. 0. 0. 0. 0. 0. -1.78361642e+000 -7.43292809e+000
      -2.98615932e+000 2.72947580e-001 -3.17860293e+000 0.
      8.88350391e+000 0. 0. -1.68341100e+000 0. -6.09912777e+000
      2.92238407e-003 0. 0. 0. 0. 0. 0. 0. 0. 0. -2.51011505e+001
      4.99973059e+000 -2.02962190e-001 0. 0. 0. 0. 2.16405487e+000 0.
      -1.76270723e+000 1.05270910e+000 -3.88662863e+000 -9.25280762e+000
      -6.66714001e+000 -3.31927538e+000 0. 1.09628499e+000 0. 0.
      1.13102758e+000 -1.61249423e+000 -1.63258004e+000 1.75313854e+000
      0. 0. 0. 0. 0. 0. 0. 0. 0. 0. 8.51301956e+000 3.48767495e+000
      9.34455013e+000 0. 0. 0. 0. 0. 0. -2.21582556e+000 0.
      7.29443932e+000 1.63110790e+001 4.43561029e+000 0. 4.87585157e-001
      0. 0. 0. 2.44223309e+000 0. 1.87823579e-001 7.77585077e+000
      1.51621389e+001 5.86556339e+000 0. 0. 0. 0. 0. 0. 0. 0.
      -1.60176697e+001 5.23506498e+000 2.23639083e+000 0.
      5.84171534e-001 0. 0. 0. 0. 0. 0. 1.82765083e+001 1.49141216e+000
      -1.94024980e-001 4.04110765e+000 -1.10292090e-002 1.06391120e+000
      4.70173597e+000 2.29162407e+000 2.72039604e+000 8.28258514e-001
      5.94808519e-001 -3.55613594e+001 -1.51318083e+001 1.17727709e+001
      -1.64311492e+000 1.56685698e+000 0. 1.05559456e+000
      2.32732749e+000 2.16606045e+000 1.01586378e+000 2.09395185e-001
      -4.04625893e+000 -1.13889713e+001 -2.89852643e+000
      -1.28126459e+001 -1.18009167e+001 6.69319451e-001 0.
      1.57265234e+000 0. -1.00115371e+000 -2.02290130e+000
      -1.00459301e+000 -1.38527498e+001 -1.32170725e+000 0. 0. 0.
      1.94185734e+000 0. 0. 2.97619134e-001 9.76538777e-001
      4.19738054e+000 2.12603931e+001 1.20499830e+001 3.02172589e+000
      1.19416885e+001 0. 0. 0. 4.85147983e-001 0. 8.33461761e-001
      -2.42716098e+000 -1.09285569e+000 9.33263683e+000 0.
      4.36334848e-001 0. 0. 0. -8.21206868e-001 1.38322222e+000
      2.72235274e-001 9.68853569e+000 1.20522966e+001 3.03442270e-001 0.
      0. 0. 0. 0. -2.51663232e+000 -1.11821723e+000 3.23371857e-001
      -9.40864754e+000 -1.23619385e+001 5.41134834e+000 0. 0. 0. 0. 0.
      0. 0. 0. 9.59629953e-001 9.81206894e+000 1.50400610e+001
      -3.05914617e+000 0. 0. 0. 0. 0. 0. 0. 1.23926439e+001
      -1.31533184e+001 -3.00662327e+000 1.83660011e+001 3.17792153e+000
      0. 0. 1.55571699e+000 0. 0. 0. 5.99422407e+000 -9.76305580e+000
      4.23949385e+000 1.35454044e+001 0. 0. 0. 0. 0. 0. 0.
      6.01545286e+000 -8.50688362e+000 0. 0. 0. 0. 0. 0. 0. 0. 0.
      -3.29609323e+000 1.17637720e+001 -4.61374235e+000 0. 0. 0. 0. 0.
      0. 0. 0. -1.05052376e+001 -1.81791115e+001 8.18272972e+000
      4.68036795e+000 0. 0. 0. 0. 0. 0. 0. 2.41301417e-001
      -1.79630840e+000 0. 0. 0. 0. 0. 0. 0. 0. 0. 0. 0. 0. 0. 0. 0. 0.
      0. 0. 0. 0. 1.40066776e+001 0. 0. 0. 0. 0. 0. 0. 0. 0. 0.
      -3.62762761e+000 3.18318057e+000 0. 0. 0. 0. 0. 0. 0. 0. 0.
      -1.05537310e+001 -4.60390615e+000 -7.08346081e+000
      -5.54623079e+000 -2.41865087e+000 0. -3.03175747e-001 0. 0. 0. 0.
      -1.78489761e+001 1.28767109e+000 0. 0. 0. 0. 0. 0. 0. 0. 0.
      -1.99047680e+001 -1.74562130e+001 0. 0. 0. 0. 0. 0. 0. 0. 0.
      -3.77805924e+000 -4.27063894e+000 -6.61659145e+000 0. 0. 0. 0. 0.
      0. 0. 0. -2.13137341e+000 3.72746897e+000 1.38481121e+001 0. 0. 0.
      0. 0. 0. 0. 0. -2.76448345e+000 -1.89514904e+001 0. 0. 0. 0. 0. 0.
      0. 0. 0. 0. 0. 0. 0. 0. 0. 0. 0. 0. 0. 0.</_></support_vectors>
  <decision_functions>
    <_>
      <sv_count>1</sv_count>
      <rho>-9.9835258081884115e-001</rho>
      <alpha>
        1.</alpha>
      <index>
        0</index></_></decision_functions></my_svm>
</opencv_storage>
