<?xml version="1.0"?>
<opencv_storage>
<my_svm type_id="opencv-ml-svm">
  <svm_type>C_SVC</svm_type>
  <kernel><type>LINEAR</type></kernel>
  <C>6.2500000000000000e+001</C>
  <term_criteria><epsilon>9.9999997473787516e-006</epsilon>
    <iterations>1000000</iterations></term_criteria>
  <var_all>1056</var_all>
  <var_count>1056</var_count>
  <class_count>2</class_count>
  <class_labels type_id="opencv-matrix">
    <rows>1</rows>
    <cols>2</cols>
    <dt>i</dt>
    <data>
      -1 1</data></class_labels>
  <sv_total>1</sv_total>
  <support_vectors>
    <_>
      1.54481614e+000 -5.46154213e+000 1.05462847e+001 3.70166826e+000
      4.87614918e+000 1.17666769e+000 1.55057585e+000 2.32815504e+000
      1.85882092e+000 2.41012669e+000 1.11958182e+000 1.52072105e+001
      -5.16390276e+000 5.12807465e+000 0. 3.62552190e+000
      1.48562706e+000 0. 1.97711647e+000 1.20627022e+000 0. 0.
      2.07995439e+000 5.48524261e-001 -7.96840936e-002 0. 0.
      3.28852344e+000 5.99744737e-001 1.92201900e+000 2.20806408e+000
      -1.80294359e+000 0. -1.18171082e+001 2.39545751e+000
      5.92245579e+000 -1.67362094e+000 0. 3.58192980e-001 0.
      -1.09384155e+000 0. 0. 0. -7.29387426e+000 7.22280979e-001
      7.22246841e-002 8.57899368e-001 0. 0. 2.04818916e+000
      3.64114076e-001 1.58984327e+000 -1.92068434e+000 -9.31087673e-001
      6.15183651e-001 2.91677856e+000 1.72329509e+000 -9.58070815e-001
      0. 4.73283291e-001 -1.70034066e-001 9.43084121e-001
      3.12001133e+000 2.46170139e+000 0. -3.30480027e+000
      -3.28024912e+000 6.11822414e+000 7.49769108e-003 0.
      -7.23185360e-001 0. -2.15014267e+000 -6.95106149e-001
      3.61773342e-001 0. 3.32309103e+000 -8.41605484e-001
      1.10299883e+001 0. 0. 0. 0. 0. 9.92945075e-001 0. 0.
      -3.05686164e+000 3.63010693e+000 1.80371368e+000 2.57393241e+000
      0. 0. 0. 5.14041901e-001 2.70970911e-001 -1.87208116e-001 0.
      -9.18372440e+000 -5.23338699e+000 -1.87354434e+000 0. 0.
      -1.02608033e-001 0. 3.33409929e+000 0. -2.05664784e-001 0.
      -5.04992580e+000 2.38049316e+000 3.02127361e+000 0. 0. 0. 0. 0.
      -1.59918201e+000 -5.61377645e-001 0. -1.51350021e+001
      4.91589594e+000 1.38045061e+000 3.54587531e+000 0. 0. 0. 0. 0. 0.
      0. -1.22842026e+001 -1.60056705e+001 -5.89751911e+000
      2.91624784e-001 3.87619853e-001 0. 0. 0. -1.45346129e+000
      -9.90077406e-002 0. -5.42167091e+000 -4.73266697e+000
      -9.30375695e-001 0. 0. 0. 0. 0. 0. 0. 0. -2.54040384e+000
      -4.77939034e+000 -5.11281371e-001 1.82680517e-001 0. 0.
      8.50226879e-001 0. 2.85479617e+000 0. 0. -7.53479719e+000
      -2.49779558e+000 2.03748083e+000 0. 0. -5.38860321e-001
      6.66510224e-001 1.24230099e+000 -2.09648594e-001 -1.14926040e+000
      0. -9.89254856e+000 -6.58399391e+000 2.52846360e+000 0. 0. 0.
      2.63926649e+000 0. 0. 0. 0. 2.53864974e-001 -8.24525738e+000
      -8.88799846e-001 0. 1.51457489e+000 0. 0. 1.45205855e-001 0.
      -3.09371173e-001 0. -8.72932243e+000 1.32284617e+000
      -4.47281218e+000 0. 0. 0. 0. 0. 0. 0. 0. -7.37814569e+000
      -6.26399755e-001 8.16884100e-001 -6.05457723e-001 0. 0. 0.
      -4.35500592e-001 -5.05785525e-001 2.00640297e+000 0.
      -3.91610026e-001 -8.42423344e+000 -5.13086748e+000 1.04729748e+000
      0. 0. 0. 0. 0. 0. 0. -9.83098221e+000 -2.58987427e+000
      1.71458757e+000 1.19199052e-001 3.26646715e-001 0. 1.57962883e+000
      1.51501393e+000 3.06098700e-001 9.77474093e-001 0.
      -5.03520823e+000 -1.11011524e+001 -7.47726631e+000 6.15680695e-001
      1.64206922e+000 2.35696405e-001 0. 1.15385497e+000 0. 0. 0.
      7.91776061e-001 1.29759920e+000 3.86541438e+000 9.19146895e-001
      -8.11801374e-001 2.43576741e+000 2.61289980e-002 8.54026914e-001
      9.58529651e-001 0. 0. 3.05574036e+000 -8.82872939e-001
      -7.36326790e+000 0. 0. 0. 1.41534317e+000 -1.45215309e+000 0.
      1.07995653e+000 0. -5.60853481e+000 3.11956358e+000
      3.94310808e+000 0. 1.65536821e-001 9.09475863e-001
      -9.37154651e-001 3.97103024e+000 0. -1.40311229e+000 0.
      -5.64549923e+000 7.02102995e+000 5.28533198e-002 -2.75400877e+000
      -1.76895070e+000 0. 9.70649600e-001 4.41600657e+000
      9.21032429e-001 -2.21905661e+000 0. 1.43254471e+001
      8.15462017e+000 -4.34515905e+000 5.59744453e+000 -1.86599469e+000
      -1.25039065e+000 -2.21826673e+000 2.19040012e+000 -2.24878907e+000
      5.70107937e-001 0. -1.61158705e+000 -5.67200089e+000
      -1.84887543e-001 -2.14829469e+000 -3.77475095e+000 3.26150107e+000
      1.02934051e+000 -2.80734479e-001 -7.34274447e-001 -9.88469183e-001
      0. 1.18990898e+001 -2.24946165e+000 -3.16337061e+000
      4.44295073e+000 -2.69668031e+000 4.79711151e+000 6.98220396e+000
      -1.59896517e+000 -1.92742550e+000 5.80641985e-001 0.
      1.37943277e+001 2.50615001e+000 1.86235261e+000 6.46359348e+000
      1.12117159e+000 0. 3.31443071e+000 3.85501790e+000 2.29654598e+000
      7.09336996e-001 1.81446667e-003 9.33773518e+000 1.74663520e+000
      -7.97451511e-002 4.45462793e-001 -1.23504317e+000 -9.10047352e-001
      -2.50659078e-001 -5.92603624e-001 -1.15564680e+000
      -1.83493182e-001 3.76694828e-001 4.87235260e+000 -6.37815666e+000
      3.18175006e+000 6.72207296e-001 8.09669256e-001 3.29717755e+000
      5.57690430e+000 2.49804568e+000 2.65250802e-001 -6.25673011e-002
      0. -2.37779880e+000 -5.68859100e+000 -8.26624203e+000 0. 0.
      3.58403772e-001 1.56913006e+000 3.92705512e+000 3.12490296e+000
      1.27139556e+000 0. -8.79796886e+000 2.95839834e+000
      9.13925946e-001 4.23014820e-001 0. 0. 5.64622164e-001
      4.28554237e-001 1.75547695e+000 1.90017641e+000 0.
      -7.33583546e+000 5.17722607e+000 -2.66948014e-001 0. 0. 0.
      1.14470758e-001 1.07725954e+000 7.12261498e-002 3.58700544e-001 0.
      -3.97063828e+000 -4.79939342e-001 9.06997740e-001 0. 0.
      4.91862893e-001 6.53705776e-001 -1.60871840e+000 -1.24982631e+000
      -7.58554876e-001 0. 2.28132367e+000 -5.78632116e+000
      9.96731341e-001 0. -1.70280123e+000 4.31301892e-001
      6.23008668e-001 0. -2.07786083e+000 6.00356609e-003
      1.07178283e+000 5.45384598e+000 3.46601748e+000 2.28442955e+000
      9.01310518e-003 0. 0. 0. 0. 1.57847476e+000 2.51505017e+000 0.
      4.13699198e+000 -2.41496897e+000 3.41796875e+000 0. 0. 0. 0. 0.
      9.67398763e-001 0. 0. 2.23666382e+000 -3.93625212e+000
      3.76622295e+000 2.57393241e+000 0. 0. 0. 1.38198030e+000
      1.04580522e+000 -1.08396876e+000 0. 5.76499104e-001
      -3.29747200e+000 -3.60948944e+000 -1.04294322e-001 0. 0. 0. 0.
      3.40164566e+000 7.33758152e-001 0. 2.03055453e+000
      -1.06433928e+000 9.04361546e-001 1.61506021e+000 0.
      5.02556384e-001 0. 0. 8.73002112e-001 0. 0. -3.71746135e+000
      -1.26366196e+001 -1.98947608e+000 0. 0. 0. 0. 0. 7.32017517e-001
      0. 0. 2.22435045e+000 -6.15884900e-001 -2.10876679e+000
      3.83686161e+000 0. 0. 0. 0. 7.34445572e-001 0. 0. -3.97827172e+000
      3.90260124e+000 -2.93355060e+000 0. 0. 0. 1.28360403e+000 0.
      1.41136873e+000 -4.78471470e+000 0. 1.74680901e+000
      -9.59213924e+000 -4.49979687e+000 1.73980352e-002 0. 0. 0. 0. 0.
      -5.62155604e-001 0. -5.84485626e+000 -8.93213212e-001
      -4.88072783e-001 0. 0. 0. 0. -1.84146118e+000 0. 1.49336791e+000
      0. -2.27360249e+000 -2.22581577e+000 -4.82158363e-001 0. 0.
      5.36597681e+000 0. 0. 0. 0. 0. 3.98833364e-001 2.48252082e+000
      -2.58117294e+000 -7.40147293e-001 1.54029310e+000 0. 0.
      -2.13601068e-001 -9.89937961e-001 1.73337325e-001 0.
      -1.09257240e+001 -1.86448498e+001 -2.86098504e+000 2.60967880e-001
      0. -1.00782967e+000 6.43472433e-001 -3.30733389e-001 0. 0. 0.
      -1.56429946e+000 5.56768799e+000 5.13819838e+000 -1.58448005e+000
      0. 1.17002392e+000 9.59753036e-001 -1.59367144e+000
      1.13357449e+000 0. 0. 2.88600177e-001 7.51193810e+000
      1.27843285e+000 2.58346528e-001 0. 0. 0. 2.51337767e+000
      -1.64981425e-001 -1.23274255e+000 0. 6.19459677e+000
      4.28672409e+000 2.26109004e+000 1.36706069e-001 0. 0. 0.
      -4.99730647e-001 0. 0. 0. -2.65464830e+000 1.37972107e+001
      9.98794317e-001 0. 1.80797830e-001 0. 0. -7.72418797e-001
      1.96911693e+000 1.06401229e+000 0. -7.37418604e+000
      -1.30801785e+000 -4.95293427e+000 0. 0. 1.50944555e+000 0.
      -4.64116454e-001 -1.03970277e+000 0. 0. -8.77811050e+000
      -1.09314156e+000 -1.37812138e+000 -1.85854149e+000 0. 0. 0.
      3.31235170e+000 -6.05683041e+000 -6.34321749e-001 0.
      -4.62428951e+000 -1.24250135e+001 4.65750784e-001 -4.82101232e-001
      0. -1.59898388e+000 3.92931294e+000 3.23205262e-001
      2.16109467e+000 8.23781490e-001 0. -2.27729058e+000
      1.55899346e-001 -3.15720630e+000 0. 6.11000717e-001 0. 0.
      1.69145733e-001 4.80231667e+000 1.05818570e+000 0. 3.82288694e-001
      -9.50997543e+000 -4.56295919e+000 1.39324927e+000 -1.11200953e+001
      4.05426696e-002 1.34135854e+000 3.60184097e+000 8.69350255e-001
      5.45487690e+000 0. -1.06708651e+001 -9.59030247e+000
      -3.36751282e-001 -1.30379224e+000 4.26421785e+000 -3.87434936e+000
      3.00792360e+000 2.93167782e+000 -4.70714712e+000 -5.16120851e-001
      0. 7.06118917e+000 -5.78891456e-001 1.77654421e+000
      -7.45860398e-001 4.58387423e+000 -2.59195757e+000 -4.69884872e-001
      5.71932364e+000 8.35614383e-001 1.02561426e+000 0. 1.29653826e+001
      -3.21368170e+000 -9.98585999e-001 1.69480276e+000 1.87911510e+000
      1.26953411e+000 9.40525591e-001 9.57974121e-002 3.20383608e-001
      7.09336996e-001 1.81446667e-003 2.12305870e+001 1.32923450e+001
      4.59722900e+000 -4.92245495e-001 -6.83365524e-001 -7.54751325e-001
      -7.84010530e-001 -9.71679613e-002 1.43138123e+000 -2.19137922e-001
      3.76694828e-001 3.99351382e+000 1.97545648e+000 6.29167974e-001
      2.20887375e+000 -3.81032586e+000 0. 1.56283808e+000
      -4.14328194e+000 -2.74257588e+000 -2.46861696e+000 0.
      3.91074872e+000 1.08679523e+001 -3.31420541e+000 2.76315475e+000
      1.04051983e+000 8.65287066e-001 0. 6.70300126e-001
      -2.01145098e-001 -2.02982330e+000 0. 2.72651553e+000
      9.18557262e+000 1.31335497e+000 0. 3.57945740e-001 4.97303873e-001
      0. 0. -2.59783959e+000 4.32934493e-001 0. 3.04499006e+000
      -5.42100966e-001 -2.20077538e+000 1.55407265e-001 0. 0.
      -5.96212685e-001 -3.09884518e-001 2.28342843e+000 3.92922640e-001
      0. 5.54037035e-001 5.85135841e+000 1.16359532e+000 0.
      5.98440707e-001 5.01223564e-001 0. 7.35702693e-001 1.58493757e+000
      -4.22481388e-001 1.61507320e+000 1.32845759e+000 -3.00423384e+000
      5.17563701e-001 2.25649893e-001 0. 0. 1.35210729e+000 0.
      -2.71329075e-001 -1.63837481e+000 0. 5.93161173e-002
      1.31865036e+000 4.71296215e+000 9.24402568e-003 0.
      -4.43555737e+000 0. 2.11544275e+000 0. 0. 0. 5.11271954e+000
      -9.44123650e+000 -1.74486488e-001 0. 0. 0. 9.62620497e-001
      -8.84849489e-001 -1.82206571e+000 0. 0. 1.63849199e+000
      1.25226274e-001 2.91497946e+000 2.57393241e+000 0. 0. 0.
      1.38891768e+000 1.03778219e+000 0. 0. -5.35342836e+000
      -6.20166254e+000 7.16842189e-002 0. 0. -1.05163015e-001
      2.98930436e-001 0. -1.55681324e+000 0. 0. 5.78477716e+000
      -2.81944489e+000 1.08328235e+000 3.36151218e+000 -3.83139014e+000
      5.48138905e+000 0. 0. 7.37080257e-003 -1.21968341e+000 0.
      1.99711263e+000 -1.22071540e+000 7.47638845e+000 0. 0. 0. 0. 0. 0.
      0. 0. 1.97624728e-001 2.01445889e+000 2.70931864e+000 0. 0. 0. 0.
      0. 1.30479133e+000 0. 0. -2.11936794e-002 -1.71157017e+001
      1.00874448e+000 0. 0. 0. 0. 1.60184777e+000 0. 0. 0.
      3.07127237e+000 -1.71695900e+000 1.13776660e+000 -5.71711731e+000
      0. 0. -8.60185027e-001 0. 0. 0. 0. -4.31731987e+000
      -6.86194003e-001 -1.59078407e+000 -5.13010406e+000
      -5.18586338e-001 0. -2.59136820e+000 -2.33843207e-001
      8.84621680e-001 0. 0. -9.79185867e+000 -2.78245521e+000
      6.26847696e+000 2.41453528e-001 0. 0. 0. 0. 1.40935719e+000
      -5.61533272e-001 0. 2.34851408e+000 -7.50199032e+000
      7.46739984e-001 3.82750809e-001 1.59196496e+000 0. 0.
      -4.77374613e-001 6.93726921e+000 0. 0. -1.19117107e+001
      -5.49465990e+000 -4.77953434e-001 -8.77021194e-001 0.
      -1.08669519e+000 0. 2.36359191e+000 0. 0. 0. -9.33812809e+000
      3.93288922e+000 5.53676784e-001 0. 9.18678582e-001 0. 0.
      -6.77793920e-001 2.32454324e+000 -3.34014744e-002 0.
      3.91061574e-001 -7.21056128e+000 -5.75251579e+000 5.71868241e-001
      0. 0. 3.51534581e+000 0. 0. 0. 0. 6.60941362e+000 1.16453052e+000
      -9.04692590e-001 7.25331604e-001 0. -3.86980009e+000 0. 0.
      -2.35377383e+000 0. 0. -3.11558414e+000 3.19490027e+000
      3.39364481e+000 7.78865516e-001 1.05310738e-001 0. 3.17936182e-001
      0. 0. 0. 0. 2.46257186e+000 -1.46755052e+000 -7.15624285e+000
      1.03131449e+000 0. 2.98633528e+000 0. -4.45082992e-001
      -2.15362191e+000 0. 0. -1.79486418e+000 5.88223171e+000
      7.62091994e-001 3.33347178e+000 0. 0. 0. 0. 0. 0. 0.
      -7.89604709e-002 7.21466208e+000 7.74035120e+000 0. 0.
      2.18082237e+000 2.68223834e+000 -1.97672772e+000 -2.70793581e+000
      -6.35649264e-001 0. -2.40287066e+000 -8.44333768e-001
      2.52497339e+000 0. 0. -3.55221868e+000 0. 5.28171420e-001 0.
      -7.55707324e-001 0. 8.18535423e+000 9.60665607e+000
      1.43972874e+000 -3.42491388e+000 2.76828539e-002 4.71293783e+000
      0. -2.84999585e+000 1.84291625e+000 -9.60533693e-002 0.
      -1.07776127e+001 9.36048090e-001 3.49306560e+000 1.50166905e+000
      4.46225834e+000 -5.93353748e-001 7.29227841e-001 1.09786885e-002
      -2.06185174e+000 3.14051843e+000 0. -1.20210094e+001
      3.95449257e+000 -2.00894997e-001 1.71494216e-001 -7.86721110e-001
      1.07510962e-001 6.99835718e-001 3.98659885e-001 2.37141585e+000
      1.22138739e+000 0. -1.42080336e+001 6.56203222e+000
      2.83247614e+000 -1.31187046e+000 1.34318173e+000 1.56024992e+000
      7.02053368e-001 -4.35903907e-001 -7.59289801e-001 -1.01056945e+000
      1.81446667e-003 -2.60233555e+001 -6.70804167e+000 4.86406356e-001
      8.33707929e-001 3.30191636e+000 2.11003733e+000 1.59102416e+000
      1.16316473e+000 6.25642896e-001 1.13009369e+000 -4.24650729e-001</_></support_vectors>
  <decision_functions>
    <_>
      <sv_count>1</sv_count>
      <rho>-1.2520051096223805e+000</rho>
      <alpha>
        1.</alpha>
      <index>
        0</index></_></decision_functions></my_svm>
</opencv_storage>
