<?xml version="1.0"?>
<opencv_storage>
<my_svm type_id="opencv-ml-svm">
  <svm_type>C_SVC</svm_type>
  <kernel><type>LINEAR</type></kernel>
  <C>6.2500000000000000e+001</C>
  <term_criteria><epsilon>9.9999997473787516e-006</epsilon>
    <iterations>1000000</iterations></term_criteria>
  <var_all>96</var_all>
  <var_count>96</var_count>
  <class_count>2</class_count>
  <class_labels type_id="opencv-matrix">
    <rows>1</rows>
    <cols>2</cols>
    <dt>i</dt>
    <data>
      -1 1</data></class_labels>
  <sv_total>1</sv_total>
  <support_vectors>
    <_>
      2.09010148e+000 -6.43888950e+000 1.59491313e+000 3.52636075e+000
      2.92431974e+000 -6.60646486e+000 2.34422445e+000 2.64272046e+000
      -1.65753150e+000 -6.13447666e+000 8.07816982e-001 5.86940861e+000
      -1.17042208e+000 -3.54485774e+000 8.51734877e-001 -7.79965782e+000
      1.24130821e+000 -1.34449291e+001 2.94735169e+000 -3.11029315e+000
      3.24229431e+000 -4.99174356e+000 4.92062950e+000 -1.09375343e+001
      2.15595961e+000 1.06459224e+000 2.64218783e+000 5.24519396e+000
      1.96287000e+000 4.11903524e+000 2.68938160e+000 1.09543915e+001
      6.63032234e-001 2.40774632e+000 2.17613792e+000 -4.40811276e-001
      -1.80316377e+000 -3.40218806e+000 3.72629881e+000 6.72637892e+000
      2.10425213e-001 -2.95593619e+000 5.52286744e-001 -6.78683138e+000
      5.65495312e-001 9.15443993e+000 3.16209614e-001 -4.65016460e+000
      -3.34174812e-001 -2.70859933e+000 -2.95451999e+000
      -1.51439180e+001 -1.05508316e+000 9.33776283e+000 -2.72277385e-001
      9.42894161e-001 2.13717532e+000 -1.15368757e+001 2.05576062e+000
      -3.65851378e+000 1.31994259e+000 5.15763330e+000 1.46780479e+000
      8.78566265e+000 -1.33133936e+000 9.73637295e+000 -6.21834159e-001
      2.89296436e+000 1.51473790e-001 3.76030850e+000 -8.35119903e-001
      4.11937714e+000 1.13665724e+000 -6.13363981e+000 1.36835122e+000
      6.82708931e+000 1.48757029e+000 -2.74470067e+000 -4.80109358e+000
      2.35597897e+000 3.77596188e+000 -9.02386904e-001 6.66292667e-001
      -6.18440771e+000 -3.09682345e+000 6.07997799e+000 -1.98835135e+000
      2.78659129e+000 -1.27149320e+000 1.83938777e+000 -4.87349480e-001
      -2.90154243e+000 7.28235304e-001 -4.51039743e+000 -1.94103336e+000
      -9.96107388e+000</_></support_vectors>
  <decision_functions>
    <_>
      <sv_count>1</sv_count>
      <rho>5.3132772656939449e-002</rho>
      <alpha>
        1.</alpha>
      <index>
        0</index></_></decision_functions></my_svm>
</opencv_storage>
